{"learner":{"attributes":{"best_iteration":"363","best_ntree_limit":"364","best_score":"0.7906584203858645"},"feature_names":["urine_output_mean","weight","has_diuretics","creatinine_last_mean_diff","bun_last_mean_diff","has_ventilation","potassium_last_mean_diff","age","sofa_score","bun_mean"],"feature_types":["float","float","int","float","float","int","float","float","int","float"],"gradient_booster":{"model":{"gbtree_model_param":{"num_parallel_tree":"1","num_trees":"394","size_leaf_vector":"0"},"tree_info":[0,0,0,0,0,0,0,0,0,0,0,0,0,0,0,0,0,0,0,0,0,0,0,0,0,0,0,0,0,0,0,0,0,0,0,0,0,0,0,0,0,0,0,0,0,0,0,0,0,0,0,0,0,0,0,0,0,0,0,0,0,0,0,0,0,0,0,0,0,0,0,0,0,0,0,0,0,0,0,0,0,0,0,0,0,0,0,0,0,0,0,0,0,0,0,0,0,0,0,0,0,0,0,0,0,0,0,0,0,0,0,0,0,0,0,0,0,0,0,0,0,0,0,0,0,0,0,0,0,0,0,0,0,0,0,0,0,0,0,0,0,0,0,0,0,0,0,0,0,0,0,0,0,0,0,0,0,0,0,0,0,0,0,0,0,0,0,0,0,0,0,0,0,0,0,0,0,0,0,0,0,0,0,0,0,0,0,0,0,0,0,0,0,0,0,0,0,0,0,0,0,0,0,0,0,0,0,0,0,0,0,0,0,0,0,0,0,0,0,0,0,0,0,0,0,0,0,0,0,0,0,0,0,0,0,0,0,0,0,0,0,0,0,0,0,0,0,0,0,0,0,0,0,0,0,0,0,0,0,0,0,0,0,0,0,0,0,0,0,0,0,0,0,0,0,0,0,0,0,0,0,0,0,0,0,0,0,0,0,0,0,0,0,0,0,0,0,0,0,0,0,0,0,0,0,0,0,0,0,0,0,0,0,0,0,0,0,0,0,0,0,0,0,0,0,0,0,0,0,0,0,0,0,0,0,0,0,0,0,0,0,0,0,0,0,0,0,0,0,0,0,0,0,0,0,0,0,0,0,0,0,0,0,0,0,0,0,0,0,0,0,0,0,0,0,0,0,0,0,0,0,0,0,0,0,0,0,0,0,0,0,0,0,0],"trees":[{"base_weights":[4.9262275E-3,2.315828E-1,-4.4061887E-1,6.4337686E-2,7.614524E-1,-6.7095315E-1,-3.7915647E-2,-2.4200171E-1,2.39199E-1,3.2295036E-1,9.1842663E-1,-7.5643045E-1,-2.69903E-1,-1.0068201E-1,6.1499727E-1,-4.5435888E-1,-8.68352E-2,-1.8837434E-1,3.248265E-1,-1.6624373E-1,5.888535E-1,9.767304E-1,1.8760829E-1,-9.5774156E-1,-6.872295E-1,-9.6620065E-1,-8.86704E-2,-1.894112E-1,1.7061561E-1,1.1134804E-1,9.093146E-1,-6.416938E-1,-2.917907E-1,-6.116216E-2,-8.303574E-1,-4.1696247E-1,2.947553E-1,-5.675392E-3,4.022882E-1,-3.6672E-1,6.3659006E-1,3.4740984E-1,9.322999E-1,5.26903E-1,1.0651442E0,-2.3067817E-1,9.9619085E-1,-1.7342069E0,-9.0518576E-1,-6.2509847E-1,-9.228639E-1,-1.0883596E0,2.8072038E-1,-1.6399018E-1,9.742952E-1,-4.4979107E-1,-7.9936415E-2,-1.2357703E0,2.1436721E-1,6.1164397E-1,-8.729181E-1,5.472862E-1,1.092651E0,-1.3528583E0,-5.9832716E-1,-3.3633956E-1,6.071637E-1,-5.6514007E-1,-2.4423307E-2,-1.8323182E0,-3.596328E-1,-6.4802843E-1,8.316993E-2,2.5194857E-1,1.3533862E0,-8.654448E-1,6.0273275E-2,2.4719067E-1,5.4169464E-1,-1.01649E0,-1.2972303E-1,3.6342388E-1,1.6917708E0,-1.319313E-1,5.969696E-1,1.0179161E0,1.8808085E-1,5.7493305E-1,-5.7054484E-1,1.0203267E0,1.4477078E0,-8.637635E-1,2.6283985E-1,1.2524896E0,-4.647005E-2,-9.5073414E-1,-1.9653062E0,-1.0064615E0,-4.1836914E-1,-6.665043E-1,-2.9980847E-1,-9.828455E-1,-3.1026235E-1,-1.788416E0,-9.080188E-1,-3.370367E-1,1.650265E-1,1.7818058E0,5.702465E-1,-6.681568E-1,-2.1610445E-1,-2.4895138E-1,2.2501796E-1,4.2272225E-1,-1.3443726E-1,1.7490694E-1,1.0010129E0,-3.3435574E-1,-1.2152255E0,8.889768E-1,-0E0,1.5303781E0,8.0025023E-1],"categories":[],"categories_nodes":[],"categories_segments":[],"categories_sizes":[],"default_left":[1,1,1,1,1,1,1,1,1,1,1,1,1,1,1,1,1,1,1,1,1,1,1,1,1,1,1,1,1,1,1,1,1,1,1,1,1,1,1,1,1,1,1,1,1,1,1,1,1,1,1,1,0,1,1,1,1,0,1,1,1,1,1,0,0,0,0,0,0,0,0,0,0,0,0,0,0,0,0,0,0,0,0,0,0,0,0,0,0,0,0,0,0,0,0,0,0,0,0,0,0,0,0,0,0,0,0,0,0,0,0,0,0,0,0,0,0,0,0,0,0,0,0],"id":0,"left_children":[1,3,5,7,9,11,13,15,17,19,21,23,25,27,29,31,33,35,37,39,41,43,45,47,49,51,53,55,57,59,61,63,65,67,69,71,73,75,77,79,81,83,85,87,89,91,93,95,97,99,101,103,-1,105,107,109,111,-1,113,115,117,119,121,-1,-1,-1,-1,-1,-1,-1,-1,-1,-1,-1,-1,-1,-1,-1,-1,-1,-1,-1,-1,-1,-1,-1,-1,-1,-1,-1,-1,-1,-1,-1,-1,-1,-1,-1,-1,-1,-1,-1,-1,-1,-1,-1,-1,-1,-1,-1,-1,-1,-1,-1,-1,-1,-1,-1,-1,-1,-1,-1,-1],"loss_changes":[4.6393394E3,2.6981226E3,1.4364905E3,1.240044E3,5.0187695E2,3.3705908E2,2.3095459E2,2.768893E2,5.3972876E2,2.5118808E2,2.2840137E2,1.1148096E2,2.1829886E2,1.2392474E2,7.268916E1,1.0745538E2,9.2397385E1,2.7181912E2,3.145492E2,1.09654526E2,1.0268338E2,1.9656201E2,1.3583469E2,8.114551E1,8.7088135E1,5.5246063E1,1.1025725E2,1.1031656E2,7.800219E1,9.153398E1,1.9100983E1,4.8796936E1,7.646625E1,8.682178E1,7.438872E1,1.9335883E2,3.465325E1,1.3263654E2,2.146073E2,8.331818E1,3.7451256E1,8.849915E1,3.2017E1,4.380443E1,6.811133E1,8.3163E1,3.7148148E1,1.9430603E1,9.465857E1,6.387793E1,4.5245728E1,3.767511E1,0E0,7.352108E1,2.724533E1,5.795366E1,1.4101038E2,0E0,8.967531E1,2.0260818E1,1.0295544E1,2.046841E1,2.3383484E1,0E0,0E0,0E0,0E0,0E0,0E0,0E0,0E0,0E0,0E0,0E0,0E0,0E0,0E0,0E0,0E0,0E0,0E0,0E0,0E0,0E0,0E0,0E0,0E0,0E0,0E0,0E0,0E0,0E0,0E0,0E0,0E0,0E0,0E0,0E0,0E0,0E0,0E0,0E0,0E0,0E0,0E0,0E0,0E0,0E0,0E0,0E0,0E0,0E0,0E0,0E0,0E0,0E0,0E0,0E0,0E0,0E0,0E0,0E0,0E0],"parents":[2147483647,0,0,1,1,2,2,3,3,4,4,5,5,6,6,7,7,8,8,9,9,10,10,11,11,12,12,13,13,14,14,15,15,16,16,17,17,18,18,19,19,20,20,21,21,22,22,23,23,24,24,25,25,26,26,27,27,28,28,29,29,30,30,31,31,32,32,33,33,34,34,35,35,36,36,37,37,38,38,39,39,40,40,41,41,42,42,43,43,44,44,45,45,46,46,47,47,48,48,49,49,50,50,51,51,53,53,54,54,55,55,56,56,58,58,59,59,60,60,61,61,62,62],"right_children":[2,4,6,8,10,12,14,16,18,20,22,24,26,28,30,32,34,36,38,40,42,44,46,48,50,52,54,56,58,60,62,64,66,68,70,72,74,76,78,80,82,84,86,88,90,92,94,96,98,100,102,104,-1,106,108,110,112,-1,114,116,118,120,122,-1,-1,-1,-1,-1,-1,-1,-1,-1,-1,-1,-1,-1,-1,-1,-1,-1,-1,-1,-1,-1,-1,-1,-1,-1,-1,-1,-1,-1,-1,-1,-1,-1,-1,-1,-1,-1,-1,-1,-1,-1,-1,-1,-1,-1,-1,-1,-1,-1,-1,-1,-1,-1,-1,-1,-1,-1,-1,-1,-1],"split_conditions":[5E-1,4.3453738E-1,7.386364E-1,4.5E0,5E-1,8.5E0,1.25E1,5E-1,1.3309524E1,3.5E0,5.3888893E0,6.54795E1,5E-1,4.8166666E0,2.22E-16,7.07215E1,4.5875E1,7.57025E1,5E-1,3.125E0,7.692317E1,1.3291666E1,1.1763889E1,9.9E0,4.4833336E1,1.35E1,7.85E1,5E-1,1.455E1,4.5277777E0,2.1071428E1,5E-1,9.29236E1,9.416666E0,7.3667496E1,1.8660715E-1,9.7386366E-1,5.542154E1,7.5E0,1.2708334E1,8.401335E1,1.6416668E1,9.140083E1,3.2575758E0,1.35E1,7.5E0,1.45E1,5.5233906E1,8.251539E-2,3.5634923E-1,1.0283333E2,6.0749023E1,2.8072037E-3,1.0955093E-2,7.292784E1,2.1547618E0,6.961539E-2,-1.2357703E-2,3.1657143E1,1.45E1,7.442248E1,7.185165E1,1.35E1,-1.3528583E-2,-5.9832716E-3,-3.3633956E-3,6.071637E-3,-5.6514004E-3,-2.4423306E-4,-1.8323181E-2,-3.5963277E-3,-6.480284E-3,8.316993E-4,2.5194855E-3,1.3533861E-2,-8.654447E-3,6.0273276E-4,2.4719066E-3,5.4169465E-3,-1.01649E-2,-1.2972303E-3,3.6342388E-3,1.6917707E-2,-1.3193131E-3,5.9696957E-3,1.017916E-2,1.8808084E-3,5.7493304E-3,-5.7054483E-3,1.0203267E-2,1.4477077E-2,-8.637635E-3,2.6283986E-3,1.2524895E-2,-4.6470048E-4,-9.507341E-3,-1.9653061E-2,-1.0064615E-2,-4.1836915E-3,-6.665043E-3,-2.9980848E-3,-9.828455E-3,-3.1026234E-3,-1.788416E-2,-9.080188E-3,-3.370367E-3,1.650265E-3,1.7818058E-2,5.702465E-3,-6.681568E-3,-2.1610444E-3,-2.4895137E-3,2.2501796E-3,4.2272224E-3,-1.3443726E-3,1.7490693E-3,1.0010129E-2,-3.3435572E-3,-1.2152255E-2,8.889768E-3,-0E0,1.530378E-2,8.002502E-3],"split_indices":[2,4,4,8,5,8,8,5,9,8,4,7,5,4,6,7,9,7,5,4,7,9,4,9,9,8,9,5,9,4,9,8,7,9,7,6,6,7,8,9,7,9,7,4,8,8,8,7,4,6,9,7,0,6,7,4,6,0,9,8,7,7,8,0,0,0,0,0,0,0,0,0,0,0,0,0,0,0,0,0,0,0,0,0,0,0,0,0,0,0,0,0,0,0,0,0,0,0,0,0,0,0,0,0,0,0,0,0,0,0,0,0,0,0,0,0,0,0,0,0,0,0,0],"split_type":[0,0,0,0,0,0,0,0,0,0,0,0,0,0,0,0,0,0,0,0,0,0,0,0,0,0,0,0,0,0,0,0,0,0,0,0,0,0,0,0,0,0,0,0,0,0,0,0,0,0,0,0,0,0,0,0,0,0,0,0,0,0,0,0,0,0,0,0,0,0,0,0,0,0,0,0,0,0,0,0,0,0,0,0,0,0,0,0,0,0,0,0,0,0,0,0,0,0,0,0,0,0,0,0,0,0,0,0,0,0,0,0,0,0,0,0,0,0,0,0,0,0,0],"sum_hessian":[4.5938355E4,3.0449686E4,1.548867E4,2.314634E4,7.303346E3,9.851762E3,5.636908E3,8.410001E3,1.4736338E4,1.9271251E3,5.376221E3,8.1190024E3,1.7327592E3,5.1442573E3,4.9265067E2,3.5483477E3,4.8616533E3,2.457677E3,1.2278661E4,6.7829425E2,1.2488308E3,4.9780283E3,3.9819284E2,2.070554E3,6.048448E3,3.560618E2,1.3766974E3,3.8778992E3,1.2663582E3,1.829702E2,3.0968045E2,1.645398E3,1.9029497E3,4.701478E3,1.6017569E2,1.6690266E3,7.886505E2,2.330682E3,9.9479795E3,5.4381165E2,1.3448257E2,7.357669E2,5.1306396E2,8.201703E2,4.157858E3,2.6281424E2,1.353786E2,1.2773762E2,1.9428163E3,4.7920728E3,1.2563759E3,3.2475735E2,3.1304438E1,1.2871381E3,8.955933E1,1.1453733E3,2.732526E3,3.6698013E1,1.2296602E3,1.2195536E2,6.1014835E1,1.0684894E2,2.0283153E2,9.143563E1,1.5539623E3,1.8144176E3,8.853212E1,3.1723505E2,4.3842427E3,4.9539604E1,1.1063609E2,1.1418412E3,5.2718536E2,7.601481E2,2.850245E1,1.6517569E2,2.1655063E3,4.712304E3,5.235675E3,1.4356927E2,4.0024237E2,1.0873013E2,2.575245E1,2.5160384E2,4.8416306E2,4.591531E2,5.3910862E1,7.8681384E2,3.3356422E1,3.7277026E3,4.3015555E2,1.1499007E2,1.4782417E2,1.0873258E2,2.6646027E1,3.1237616E1,9.65E1,1.6062372E3,3.3657907E2,4.248484E3,5.4358887E2,1.1429106E3,1.13465294E2,6.3329205E1,2.6142813E2,8.442719E2,4.428661E2,2.7831656E1,6.172768E1,5.897696E2,5.556037E2,1.7591428E3,9.733831E2,7.703362E2,4.5932404E2,5.8990067E1,6.2965298E1,2.5316822E1,3.5698013E1,6.5465294E1,4.1383644E1,7.813854E1,1.2469298E2],"tree_param":{"num_deleted":"0","num_feature":"10","num_nodes":"123","size_leaf_vector":"0"}},{"base_weights":[7.130889E-3,3.8091463E-1,-6.843352E-1,8.697798E-1,1.974249E-1,-8.3893746E-1,2.3367292E-1,1.0231426E0,7.0225185E-1,4.5847747E-1,-2.1666013E-1,-5.7200825E-1,-1.2836827E0,6.607901E-1,-2.9515097E-1,5.876991E-1,1.1021615E0,5.899905E-1,1.0060167E0,-1.3799702E-1,7.112811E-1,-4.0638807E-1,3.2314616E-1,-1.6814311E-1,-1.2763793E0,-1.3605975E0,-6.106756E-1,-2.2251152E-1,8.247476E-1,-7.85554E-1,1.6159014E-1,-1.5397271E0,6.8819696E-1,8.407262E-1,1.2188951E0,6.635307E-1,2.3758195E-1,4.7667027E-1,1.0817103E0,-2.3516588E-1,6.490858E-1,8.2614E-1,2.2541465E-1,-8.4567666E-2,-6.0677433E-1,6.4702934E-1,-9.2764914E-2,-8.546366E-1,1.319937E-2,-1.2025421E0,-1.7182102E0,-1.2165191E0,-1.5803951E0,-1.5187477E0,-4.144436E-1,-1.4016447E0,6.925977E-2,8.9850914E-1,-2.3043834E-1,-1.1979474E0,-2.7672037E-1,-8.092314E-1,3.0152205E-1,1.0234587E0,4.775036E-1,6.4054537E-1,1.2515049E0,1.1490335E0,1.6182132E0,4.852748E-1,7.72312E-1,-6.3585263E-1,3.64503E-1,-3.0994278E-1,9.909761E-1,1.5144281E0,1.0169541E0,-3.2390546E-2,-4.7459036E-1,9.791062E-1,1.1011476E-1,7.6189584E-1,1.2108567E0,3.7309742E-1,-2.151174E-1,2.8578568E-1,-2.4025257E-1,-4.199245E-1,-1.1550435E0,7.104059E-1,-2.498273E-1,8.102086E-1,-3.7120962E-1,-1.3823696E0,-7.3015976E-1,2.8900197E-1,-2.3492648E-1,-1.2722465E0,-5.837813E-1,-1.8156773E0,-8.343332E-1,-1.0974865E0,-1.5093062E0,-1.6269002E0,-7.972305E-1,-1.8425212E0,-9.9400634E-1,-5.497168E-1,6.700066E-1,-3.3013576E-1,7.046499E-1,2.1041979E-1,1.0138348E0,6.3921586E-2,-6.6766346E-1,-1.4529078E0,-5.7260104E-2,9.3004924E-1,-8.6630803E-1,-2.1250275E-1,-1.170998E0,1.744221E-1,9.324006E-1],"categories":[],"categories_nodes":[],"categories_segments":[],"categories_sizes":[],"default_left":[1,1,1,1,1,1,1,1,1,1,1,1,1,1,1,1,1,1,1,1,1,1,1,1,1,1,1,1,1,1,1,0,1,1,1,1,1,1,1,1,1,1,1,1,1,1,1,1,1,1,1,1,1,1,1,0,1,1,1,1,1,1,1,0,0,0,0,0,0,0,0,0,0,0,0,0,0,0,0,0,0,0,0,0,0,0,0,0,0,0,0,0,0,0,0,0,0,0,0,0,0,0,0,0,0,0,0,0,0,0,0,0,0,0,0,0,0,0,0,0,0,0,0],"id":1,"left_children":[1,3,5,7,9,11,13,15,17,19,21,23,25,27,29,31,33,35,37,39,41,43,45,47,49,51,53,55,57,59,61,-1,63,65,67,69,71,73,75,77,79,81,83,85,87,89,91,93,95,97,99,101,103,105,107,-1,109,111,113,115,117,119,121,-1,-1,-1,-1,-1,-1,-1,-1,-1,-1,-1,-1,-1,-1,-1,-1,-1,-1,-1,-1,-1,-1,-1,-1,-1,-1,-1,-1,-1,-1,-1,-1,-1,-1,-1,-1,-1,-1,-1,-1,-1,-1,-1,-1,-1,-1,-1,-1,-1,-1,-1,-1,-1,-1,-1,-1,-1,-1,-1,-1],"loss_changes":[1.1858698E4,2.6709414E3,2.2854604E3,2.0703662E2,2.3414197E3,1.6340049E3,5.247522E2,1.441875E2,1.3113025E2,2.0035735E3,8.579457E2,2.4496772E3,2.6540723E2,1.8661829E2,2.3289072E2,1.4128563E2,1.0704346E2,7.3135315E1,4.0540283E1,3.0255664E2,5.20021E2,3.9934503E2,2.9374255E2,6.8222284E2,9.812891E1,1.4277637E2,9.3287384E1,7.016751E1,8.498999E1,1.0406967E2,7.327086E1,0E0,4.2931854E1,8.951984E1,6.51189E1,4.454358E1,5.505484E1,5.5058727E1,2.228479E1,1.7077094E2,7.670128E1,1.8432324E2,1.1643103E2,1.373616E2,3.8983813E2,7.009973E1,2.4024684E2,7.2857544E1,2.9669962E2,1.1438257E2,3.501709E1,9.4311035E1,6.3702637E1,1.205719E1,6.517458E1,0E0,4.1882114E1,7.968286E1,9.5333805E0,7.951434E1,1.6249261E2,1.3719173E1,3.7145443E1,0E0,0E0,0E0,0E0,0E0,0E0,0E0,0E0,0E0,0E0,0E0,0E0,0E0,0E0,0E0,0E0,0E0,0E0,0E0,0E0,0E0,0E0,0E0,0E0,0E0,0E0,0E0,0E0,0E0,0E0,0E0,0E0,0E0,0E0,0E0,0E0,0E0,0E0,0E0,0E0,0E0,0E0,0E0,0E0,0E0,0E0,0E0,0E0,0E0,0E0,0E0,0E0,0E0,0E0,0E0,0E0,0E0,0E0,0E0,0E0],"parents":[2147483647,0,0,1,1,2,2,3,3,4,4,5,5,6,6,7,7,8,8,9,9,10,10,11,11,12,12,13,13,14,14,15,15,16,16,17,17,18,18,19,19,20,20,21,21,22,22,23,23,24,24,25,25,26,26,27,27,28,28,29,29,30,30,32,32,33,33,34,34,35,35,36,36,37,37,38,38,39,39,40,40,41,41,42,42,43,43,44,44,45,45,46,46,47,47,48,48,49,49,50,50,51,51,52,52,53,53,54,54,56,56,57,57,58,58,59,59,60,60,61,61,62,62],"right_children":[2,4,6,8,10,12,14,16,18,20,22,24,26,28,30,32,34,36,38,40,42,44,46,48,50,52,54,56,58,60,62,-1,64,66,68,70,72,74,76,78,80,82,84,86,88,90,92,94,96,98,100,102,104,106,108,-1,110,112,114,116,118,120,122,-1,-1,-1,-1,-1,-1,-1,-1,-1,-1,-1,-1,-1,-1,-1,-1,-1,-1,-1,-1,-1,-1,-1,-1,-1,-1,-1,-1,-1,-1,-1,-1,-1,-1,-1,-1,-1,-1,-1,-1,-1,-1,-1,-1,-1,-1,-1,-1,-1,-1,-1,-1,-1,-1,-1,-1,-1,-1,-1,-1],"split_conditions":[1.4745886E2,6.54793E1,9.86229E-2,4.517125E1,5E-1,2.1748193E2,5E-1,1.6416668E1,4.327084E-2,5E-1,8.166666E-2,5E-1,4.986181E-2,5E-1,1.486842E-1,8.946994E0,5E-1,8.6319336E1,1.665E1,9.375E-2,3.1583332E1,1.0383353E2,1.1501375E2,5E-1,4.4875E1,3.123479E2,5E-1,1.275E1,3.765E1,8.090909E-2,1.5545593E2,-1.539727E-2,1.2375E1,1.5681677E-2,6.641667E1,5E-1,8.706464E1,4.44E-16,6.1453865E1,1.0401131E2,1.1008233E2,7.993293E-2,5.8208336E1,1.8928303E1,3.4145836E1,6.625E1,1.5875E1,5.8420654E1,1.7094708E2,3.6458334E-1,1.127451E-2,5E-1,4.4375E1,5.9587713E-2,8.642502E1,-1.4016447E-2,1.657143E-1,1.275E1,4.577778E1,8.407269E1,1.6753247E-1,1.7416668E1,3.8541666E-1,1.0234587E-2,4.7750357E-3,6.4054537E-3,1.25150485E-2,1.1490335E-2,1.6182132E-2,4.852748E-3,7.7231196E-3,-6.358526E-3,3.6450299E-3,-3.0994278E-3,9.909761E-3,1.5144281E-2,1.01695405E-2,-3.2390546E-4,-4.7459034E-3,9.791061E-3,1.1011476E-3,7.618958E-3,1.2108566E-2,3.7309742E-3,-2.151174E-3,2.8578567E-3,-2.4025256E-3,-4.199245E-3,-1.1550435E-2,7.1040587E-3,-2.4982728E-3,8.102086E-3,-3.712096E-3,-1.3823696E-2,-7.3015974E-3,2.8900197E-3,-2.3492647E-3,-1.2722464E-2,-5.837813E-3,-1.8156772E-2,-8.3433315E-3,-1.09748645E-2,-1.5093061E-2,-1.6269002E-2,-7.972305E-3,-1.8425211E-2,-9.940064E-3,-5.4971674E-3,6.7000655E-3,-3.3013576E-3,7.0464993E-3,2.1041979E-3,1.0138348E-2,6.3921587E-4,-6.6766343E-3,-1.4529077E-2,-5.7260104E-4,9.300492E-3,-8.66308E-3,-2.1250274E-3,-1.170998E-2,1.744221E-3,9.324006E-3],"split_indices":[0,0,3,0,2,0,2,9,3,5,3,2,3,5,3,0,5,7,9,3,9,0,0,5,9,0,5,9,9,6,0,0,9,6,9,5,7,6,7,0,0,3,9,9,9,9,9,7,0,6,3,2,9,3,7,0,6,9,9,7,6,9,3,0,0,0,0,0,0,0,0,0,0,0,0,0,0,0,0,0,0,0,0,0,0,0,0,0,0,0,0,0,0,0,0,0,0,0,0,0,0,0,0,0,0,0,0,0,0,0,0,0,0,0,0,0,0,0,0,0,0,0,0],"split_type":[0,0,0,0,0,0,0,0,0,0,0,0,0,0,0,0,0,0,0,0,0,0,0,0,0,0,0,0,0,0,0,0,0,0,0,0,0,0,0,0,0,0,0,0,0,0,0,0,0,0,0,0,0,0,0,0,0,0,0,0,0,0,0,0,0,0,0,0,0,0,0,0,0,0,0,0,0,0,0,0,0,0,0,0,0,0,0,0,0,0,0,0,0,0,0,0,0,0,0,0,0,0,0,0,0,0,0,0,0,0,0,0,0,0,0,0,0,0,0,0,0,0,0],"sum_hessian":[4.5879816E4,2.9781936E4,1.609788E4,8.125545E3,2.165639E4,1.3778071E4,2.3198086E3,4.2368696E3,3.888675E3,1.3283101E4,8.37329E3,8.613007E3,5.1650645E3,1.283523E3,1.0362856E3,6.534841E2,3.5833855E3,2.8435312E3,1.0451439E3,3.953697E3,9.329403E3,6.196494E3,2.1767957E3,5.475783E3,3.1372234E3,4.633407E3,5.316576E2,2.004809E2,1.0830421E3,4.996294E2,5.366563E2,2.8329021E1,6.25155E2,1.1109786E3,2.4724067E3,2.35056E3,4.9297128E2,1.3278328E2,9.1236066E2,3.5206208E3,4.3307623E2,7.5441025E3,1.7853009E3,2.3793635E3,3.8171306E3,1.2238629E3,9.5293274E2,1.1435135E3,4.33227E3,2.6935706E3,4.436528E2,2.8058079E3,1.8275992E3,9.231554E1,4.3934204E2,3.890787E1,1.6157303E2,1.01284235E3,7.019973E1,2.7441074E2,2.2521867E2,6.63436E1,4.7031268E2,2.3829228E2,3.8686276E2,7.502024E2,3.6077628E2,2.110064E3,3.6234283E2,8.953125E2,1.4552474E3,6.1383205E1,4.3158807E2,5.242276E1,8.036052E1,1.1358681E2,7.987738E2,1.90803E3,1.6125907E3,2.673851E2,1.6569115E2,6.4692993E3,1.0748032E3,1.3379183E3,4.4738248E2,7.0305884E2,1.6763048E3,2.849426E3,9.677044E2,1.1437943E3,8.0068596E1,2.2357996E2,7.293528E2,2.1473776E2,9.2877576E2,2.0523542E3,2.2799155E3,2.4188523E3,2.7471826E2,3.9775732E2,4.5895454E1,2.0008506E3,8.0495715E2,1.7231503E3,1.04449E2,5.428911E1,3.8026432E1,3.9160245E2,4.773959E1,9.926673E1,6.2306297E1,1.4649393E2,8.6634845E2,4.217287E1,2.8026861E1,2.2365851E2,5.0752213E1,7.341271E1,1.5180597E2,2.6356209E1,3.9987392E1,3.935707E2,7.6741974E1],"tree_param":{"num_deleted":"0","num_feature":"10","num_nodes":"123","size_leaf_vector":"0"}},{"base_weights":[9.393207E-4,2.2261229E-1,-4.3115613E-1,5.0856654E-2,7.432486E-1,-6.3398105E-1,2.4115248E-1,-2.5506708E-1,2.260265E-1,1.939556E-1,8.5899407E-1,-7.1316373E-1,-2.748305E-1,-1.0968808E-1,4.4291002E-1,-4.984001E-1,-8.266855E-2,-2.680827E-1,2.949481E-1,-1.4817974E-1,5.9498197E-1,3.3588994E-1,9.2394143E-1,-6.324998E-1,-9.3371296E-1,-7.910995E-1,-1.3007358E-1,-2.2867383E-1,9.674317E-1,3.680823E-1,7.965474E-1,-6.4087343E-1,-3.2662708E-1,-5.768079E-2,-7.903274E-1,-4.4006097E-1,2.7748623E-1,-9.595875E-3,3.66244E-1,-8.6910516E-1,8.355096E-2,6.760782E-1,-3.4764546E-1,3.9421913E-1,-9.01037E-1,9.981628E-1,3.910513E-1,-7.1155655E-1,-3.942244E-1,-1.1441108E0,-7.215901E-1,-1.0697696E0,-2.0738599E-1,-1.9237652E-1,8.989716E-1,-8.30365E-1,-3.287425E-2,6.7774534E-1,1.659419E0,4.43363E-1,-1.3488647E-1,1.0116216E0,-1.0367367E-1,-1.267512E0,-6.0291195E-1,-2.7685392E-1,-1.5233898E0,-2.698601E-2,-5.652072E-1,-1.8106036E0,-3.4031767E-1,-1.1118159E0,-3.7346354E-1,1.3912098E0,1.6460563E-1,3.272109E-2,-1.0170758E0,2.0510621E-1,5.1616687E-1,-1.0893905E0,1.03724055E-1,-6.822245E-2,8.011481E-1,-2.4075879E-1,7.288881E-1,4.9899292E-1,-6.284923E-2,8.544127E-1,1.1792401E0,-1.0524763E-1,7.622829E-1,-7.642252E-1,-3.2947737E-1,-2.4653788E-1,-7.706668E-1,-1.0924861E0,-1.9382015E0,-6.284965E-1,-1.4663445E0,-1.3280243E0,-4.324082E-1,6.279734E-1,-9.159551E-1,-1.4010979E-1,-1.1777226E0,4.3195748E-1,1.5988876E0,-9.730953E-1,3.7935355E-1,-1.669707E-1,5.231707E-1,1.0927588E0,1.8741082E-1,4.8440403E-1,-4.573111E-1,-1.3348422E0,1.7687717E-1,3.3978346E-1,1.158988E0,5.2505934E-1,-1.3069532E0],"categories":[],"categories_nodes":[],"categories_segments":[],"categories_sizes":[],"default_left":[1,1,1,1,1,1,1,1,1,1,1,1,1,1,1,1,1,1,1,1,1,1,1,1,1,1,1,1,1,1,1,1,1,1,1,1,1,1,1,1,1,1,0,1,0,1,1,1,1,1,1,1,1,1,1,1,1,1,0,1,1,1,1,0,0,0,0,0,0,0,0,0,0,0,0,0,0,0,0,0,0,0,0,0,0,0,0,0,0,0,0,0,0,0,0,0,0,0,0,0,0,0,0,0,0,0,0,0,0,0,0,0,0,0,0,0,0,0,0,0,0],"id":2,"left_children":[1,3,5,7,9,11,13,15,17,19,21,23,25,27,29,31,33,35,37,39,41,43,45,47,49,51,53,55,57,59,61,63,65,67,69,71,73,75,77,79,81,83,-1,85,-1,87,89,91,93,95,97,99,101,103,105,107,109,111,-1,113,115,117,119,-1,-1,-1,-1,-1,-1,-1,-1,-1,-1,-1,-1,-1,-1,-1,-1,-1,-1,-1,-1,-1,-1,-1,-1,-1,-1,-1,-1,-1,-1,-1,-1,-1,-1,-1,-1,-1,-1,-1,-1,-1,-1,-1,-1,-1,-1,-1,-1,-1,-1,-1,-1,-1,-1,-1,-1,-1,-1],"loss_changes":[4.402898E3,2.7164668E3,2.125666E3,1.2244526E3,4.7845117E2,3.3984375E2,2.5594008E2,3.4868585E2,4.949563E2,1.8061537E2,2.1046338E2,1.7300049E2,1.613843E2,1.6915273E2,5.9818756E1,8.369397E1,8.574165E1,1.6714186E2,2.7705188E2,1.1900129E2,4.67957E1,5.01398E1,2.1775732E2,1.345476E2,1.1505542E2,7.618228E1,1.08611046E2,1.3978918E2,2.368206E1,7.2069E1,7.768402E1,4.2878906E1,9.203633E1,7.30822E1,7.420136E1,5.933795E1,5.2676247E1,1.03600555E2,2.4922644E2,3.7681793E1,5.89792E1,2.751152E1,0E0,3.1858543E1,0E0,1.2408203E2,1.2561805E2,1.0774097E2,9.912848E1,4.9440186E1,8.8665344E1,5.1055664E1,9.292554E1,8.159065E1,2.9737091E1,5.1133713E1,6.707869E1,1.860226E1,0E0,6.13985E1,9.341542E1,3.070816E1,6.0244205E1,0E0,0E0,0E0,0E0,0E0,0E0,0E0,0E0,0E0,0E0,0E0,0E0,0E0,0E0,0E0,0E0,0E0,0E0,0E0,0E0,0E0,0E0,0E0,0E0,0E0,0E0,0E0,0E0,0E0,0E0,0E0,0E0,0E0,0E0,0E0,0E0,0E0,0E0,0E0,0E0,0E0,0E0,0E0,0E0,0E0,0E0,0E0,0E0,0E0,0E0,0E0,0E0,0E0,0E0,0E0,0E0,0E0,0E0],"parents":[2147483647,0,0,1,1,2,2,3,3,4,4,5,5,6,6,7,7,8,8,9,9,10,10,11,11,12,12,13,13,14,14,15,15,16,16,17,17,18,18,19,19,20,20,21,21,22,22,23,23,24,24,25,25,26,26,27,27,28,28,29,29,30,30,31,31,32,32,33,33,34,34,35,35,36,36,37,37,38,38,39,39,40,40,41,41,43,43,45,45,46,46,47,47,48,48,49,49,50,50,51,51,52,52,53,53,54,54,55,55,56,56,57,57,59,59,60,60,61,61,62,62],"right_children":[2,4,6,8,10,12,14,16,18,20,22,24,26,28,30,32,34,36,38,40,42,44,46,48,50,52,54,56,58,60,62,64,66,68,70,72,74,76,78,80,82,84,-1,86,-1,88,90,92,94,96,98,100,102,104,106,108,110,112,-1,114,116,118,120,-1,-1,-1,-1,-1,-1,-1,-1,-1,-1,-1,-1,-1,-1,-1,-1,-1,-1,-1,-1,-1,-1,-1,-1,-1,-1,-1,-1,-1,-1,-1,-1,-1,-1,-1,-1,-1,-1,-1,-1,-1,-1,-1,-1,-1,-1,-1,-1,-1,-1,-1,-1,-1,-1,-1,-1,-1,-1],"split_conditions":[5E-1,2.5494936E-1,9.86229E-2,4.5E0,3.5E0,8.5E0,1.4642857E0,5E-1,1.2225E1,5E-1,1.2422222E1,3.4145836E1,5E-1,2.4722221E-1,4.7833336E1,7.360768E1,4.5875E1,7.7358086E1,5E-1,1.2708334E1,3.1964285E0,3.2575758E0,4.8285713E0,7.083334E-1,7.671103E1,5.55E-17,7.85E1,5E-1,1.35E1,3.61E1,8.640017E1,5E-1,5.65E1,8.674754E-2,7.3667496E1,5.036753E1,7.7541245E1,9.358333E1,7.5E0,3.2083335E0,3.225E0,4.5E-1,-3.4764546E-3,1.1522728E1,-9.01037E-3,9.728492E-2,2.2083333E-1,8.5057205E1,7.700954E1,1.0783333E2,2.1E0,7.487631E1,4.193725E-2,6.725E1,1.15E1,5.382051E1,9.5E0,2.7571428E-1,1.6594188E-2,9.157416E1,3.9833336E1,5.5E0,2.125E-1,-1.267512E-2,-6.0291192E-3,-2.7685391E-3,-1.5233898E-2,-2.698601E-4,-5.652072E-3,-1.8106036E-2,-3.4031766E-3,-1.1118159E-2,-3.7346354E-3,1.39120985E-2,1.6460563E-3,3.272109E-4,-1.0170758E-2,2.0510622E-3,5.1616686E-3,-1.0893905E-2,1.0372405E-3,-6.8222446E-4,8.011481E-3,-2.4075878E-3,7.2888806E-3,4.989929E-3,-6.284923E-4,8.5441265E-3,1.1792401E-2,-1.0524763E-3,7.6228287E-3,-7.642252E-3,-3.2947736E-3,-2.4653787E-3,-7.7066678E-3,-1.0924861E-2,-1.9382015E-2,-6.284965E-3,-1.4663445E-2,-1.3280243E-2,-4.324082E-3,6.2797335E-3,-9.159551E-3,-1.4010979E-3,-1.1777226E-2,4.3195747E-3,1.5988875E-2,-9.730953E-3,3.7935355E-3,-1.669707E-3,5.231707E-3,1.0927588E-2,1.8741081E-3,4.84404E-3,-4.573111E-3,-1.3348422E-2,1.7687717E-3,3.3978345E-3,1.158988E-2,5.250593E-3,-1.3069532E-2],"split_indices":[2,4,3,8,8,8,4,5,9,5,9,9,5,3,9,7,9,7,5,9,4,4,4,4,7,3,9,5,8,9,7,8,9,4,7,7,7,9,8,4,4,4,0,9,0,3,3,7,7,9,4,7,3,9,8,9,8,3,0,7,9,8,3,0,0,0,0,0,0,0,0,0,0,0,0,0,0,0,0,0,0,0,0,0,0,0,0,0,0,0,0,0,0,0,0,0,0,0,0,0,0,0,0,0,0,0,0,0,0,0,0,0,0,0,0,0,0,0,0,0,0],"split_type":[0,0,0,0,0,0,0,0,0,0,0,0,0,0,0,0,0,0,0,0,0,0,0,0,0,0,0,0,0,0,0,0,0,0,0,0,0,0,0,0,0,0,0,0,0,0,0,0,0,0,0,0,0,0,0,0,0,0,0,0,0,0,0,0,0,0,0,0,0,0,0,0,0,0,0,0,0,0,0,0,0,0,0,0,0,0,0,0,0,0,0,0,0,0,0,0,0,0,0,0,0,0,0,0,0,0,0,0,0,0,0,0,0,0,0,0,0,0,0,0,0],"sum_hessian":[4.5964867E4,3.0380674E4,1.5584195E4,2.284622E4,7.5344536E3,1.19728545E4,3.6113408E3,8.317402E3,1.4528817E4,1.3126213E3,6.2218325E3,9.807895E3,2.1649597E3,1.3180525E3,2.2932883E3,3.4469817E3,4.870421E3,1.7772574E3,1.2751561E4,7.082914E2,6.0432996E2,6.888733E2,5.532959E3,7.1869478E3,2.6209468E3,4.7202902E2,1.6929308E3,1.1883341E3,1.2971832E2,1.8962457E3,3.970425E2,1.8806735E3,1.5663083E3,4.7064224E3,1.639984E2,1.3520709E3,4.251865E2,2.418121E3,1.0333438E4,1.7170602E2,5.365854E2,5.572381E2,4.7091858E1,6.5913605E2,2.9737267E1,4.854728E3,6.7823096E2,5.3929707E3,1.793977E3,1.3115686E3,1.3093783E3,3.1818857E2,1.5384045E2,1.597801E3,9.512966E1,2.9006418E2,8.9826996E2,9.393959E1,3.5778732E1,1.6502252E3,2.4602055E2,3.2068542E2,7.635707E1,1.04045815E2,1.7766277E3,1.5058611E3,6.0447247E1,4.440248E3,2.6617465E2,4.853477E1,1.1546363E2,1.1928804E2,1.232783E3,3.723924E1,3.8794724E2,2.3216592E3,9.6461914E1,4.983438E3,5.350001E3,1.4019258E2,3.151345E1,4.435694E2,9.301595E1,2.964559E1,5.2759247E2,5.3681866E2,1.2231737E2,2.712315E3,2.142413E3,2.902258E2,3.8800516E2,4.7373867E3,6.5558386E2,1.2910249E3,5.0295215E2,1.2353263E3,7.624233E1,1.1668287E3,1.425495E2,2.248342E2,9.335436E1,7.042262E1,8.341783E1,1.519329E3,7.84721E1,5.8855774E1,3.6273884E1,2.6001053E2,3.005364E1,7.2515875E2,1.731112E2,4.9437557E1,4.4502033E1,1.5793943E3,7.083092E1,4.9986557E1,1.96034E2,5.906829E1,2.6161716E2,5.048886E1,2.5868206E1],"tree_param":{"num_deleted":"0","num_feature":"10","num_nodes":"121","size_leaf_vector":"0"}},{"base_weights":[-1.0555167E-3,3.729456E-1,-6.931978E-1,1.2391724E-1,8.960266E-1,-9.6805304E-1,-1.5645793E-1,7.183133E-1,-1.3907853E-1,1.2085276E0,7.0059437E-1,-1.0988455E0,-1.4862964E-1,1.4704587E-1,-7.2427166E-1,3.7836578E-1,9.2002225E-1,-5.309508E-1,1.0739991E-1,8.296832E-1,1.2866158E0,8.764532E-2,8.3958316E-1,-8.4743905E-1,-1.4099128E0,-4.7368893E-1,1.1916477E-1,3.1229393E-3,8.453508E-1,-8.82096E-1,1.2451366E0,6.96823E-1,1.9294877E-2,8.26595E-1,1.1836536E0,-7.58771E-1,-1.3716447E-1,-3.0808242E-2,6.602586E-1,8.9122635E-1,-3.9626586E-1,9.8255277E-1,1.3502082E0,-1.11305475E-1,1.0214473E0,7.4664485E-1,1.3299814E0,-1.0391749E0,-5.0358135E-1,-1.4915516E0,-7.3317415E-1,-1.6615165E0,-3.9160612E-1,7.040808E-3,6.8455076E-1,2.7593926E-1,-2.986878E-1,9.7946006E-1,3.3370584E-1,-1.1130252E0,-4.933154E-1,1.2784055E-1,1.5540782E0,2.8273836E-1,9.806754E-1,-3.5895493E-2,1.0273439E0,9.715629E-1,5.790461E-1,1.2669218E0,5.5318916E-1,-9.7164613E-1,-2.3620303E-1,2.1130328E-1,-4.4557452E-1,-4.251015E-1,1.1539768E-1,1.0748887E0,3.3468527E-1,1.0259944E0,5.756739E-1,4.677243E-2,1.0890574E0,1.2751795E0,1.5137918E0,-1.0531869E0,1.6912253E-1,1.3901972E0,7.940876E-1,8.83268E-1,4.6116218E-1,1.1835265E0,1.6420877E0,-1.4000287E0,-9.379369E-1,-5.847995E-1,2.5291696E-1,-1.6438779E0,-1.2777116E0,-1.0202804E0,3.7217006E-1,1.2645522E0,-4.8168206E-1,-2.0597957E-1,1.9337927E-1,1.0469139E0,-1.5816745E-1,-7.827694E-2,5.1872724E-1,-5.0911087E-1,1.861093E-1,6.141067E-1,1.1710225E0,-5.9541756E-1,6.786628E-1,-8.650366E-1,-1.5785531E0,-6.4784217E-1,2.6235282E-1,1.1325439E0,1.6666896E0],"categories":[],"categories_nodes":[],"categories_segments":[],"categories_sizes":[],"default_left":[1,1,1,1,1,1,1,1,1,1,1,1,1,1,1,1,1,1,1,1,1,1,1,1,1,1,1,1,1,1,1,1,1,1,1,1,1,1,1,1,0,1,1,1,1,1,1,1,1,1,1,0,1,1,1,1,1,1,1,1,1,0,1,0,0,0,0,0,0,0,0,0,0,0,0,0,0,0,0,0,0,0,0,0,0,0,0,0,0,0,0,0,0,0,0,0,0,0,0,0,0,0,0,0,0,0,0,0,0,0,0,0,0,0,0,0,0,0,0,0,0],"id":3,"left_children":[1,3,5,7,9,11,13,15,17,19,21,23,25,27,29,31,33,35,37,39,41,43,45,47,49,51,53,55,57,59,61,63,65,67,69,71,73,75,77,79,-1,81,83,85,87,89,91,93,95,97,99,-1,101,103,105,107,109,111,113,115,117,-1,119,-1,-1,-1,-1,-1,-1,-1,-1,-1,-1,-1,-1,-1,-1,-1,-1,-1,-1,-1,-1,-1,-1,-1,-1,-1,-1,-1,-1,-1,-1,-1,-1,-1,-1,-1,-1,-1,-1,-1,-1,-1,-1,-1,-1,-1,-1,-1,-1,-1,-1,-1,-1,-1,-1,-1,-1,-1,-1],"loss_changes":[1.1863152E4,3.8748506E3,2.371039E3,3.1515012E3,5.839487E2,1.1386611E3,9.39057E2,4.2298877E2,1.3501029E3,1.06680664E2,5.0279468E2,7.142285E2,1.2779715E2,3.564709E2,5.914339E2,2.6339426E2,9.3275635E1,4.8366296E2,6.558624E2,4.867627E1,5.614453E1,2.0380655E2,2.1712476E2,3.3314624E2,2.236836E2,6.2840515E1,5.068773E1,2.4265244E2,4.0580383E1,1.5638928E2,4.7785645E1,1.4265729E2,6.0874954E1,1.0154138E2,5.12666E1,3.7939746E2,2.130795E2,3.959379E2,2.3061725E2,2.4240326E1,0E0,5.278827E1,2.6935059E1,2.3912459E2,1.3623749E1,1.5688647E2,3.0899658E1,1.1602954E2,1.12190094E2,1.1463037E2,1.4181139E2,0E0,9.3446655E1,2.6772387E1,4.105323E1,1.3341525E2,1.4293712E2,3.17258E1,4.1918056E1,1.2410339E2,7.730615E1,0E0,1.2818604E0,0E0,0E0,0E0,0E0,0E0,0E0,0E0,0E0,0E0,0E0,0E0,0E0,0E0,0E0,0E0,0E0,0E0,0E0,0E0,0E0,0E0,0E0,0E0,0E0,0E0,0E0,0E0,0E0,0E0,0E0,0E0,0E0,0E0,0E0,0E0,0E0,0E0,0E0,0E0,0E0,0E0,0E0,0E0,0E0,0E0,0E0,0E0,0E0,0E0,0E0,0E0,0E0,0E0,0E0,0E0,0E0,0E0,0E0],"parents":[2147483647,0,0,1,1,2,2,3,3,4,4,5,5,6,6,7,7,8,8,9,9,10,10,11,11,12,12,13,13,14,14,15,15,16,16,17,17,18,18,19,19,20,20,21,21,22,22,23,23,24,24,25,25,26,26,27,27,28,28,29,29,30,30,31,31,32,32,33,33,34,34,35,35,36,36,37,37,38,38,39,39,41,41,42,42,43,43,44,44,45,45,46,46,47,47,48,48,49,49,50,50,52,52,53,53,54,54,55,55,56,56,57,57,58,58,59,59,60,60,62,62],"right_children":[2,4,6,8,10,12,14,16,18,20,22,24,26,28,30,32,34,36,38,40,42,44,46,48,50,52,54,56,58,60,62,64,66,68,70,72,74,76,78,80,-1,82,84,86,88,90,92,94,96,98,100,-1,102,104,106,108,110,112,114,116,118,-1,120,-1,-1,-1,-1,-1,-1,-1,-1,-1,-1,-1,-1,-1,-1,-1,-1,-1,-1,-1,-1,-1,-1,-1,-1,-1,-1,-1,-1,-1,-1,-1,-1,-1,-1,-1,-1,-1,-1,-1,-1,-1,-1,-1,-1,-1,-1,-1,-1,-1,-1,-1,-1,-1,-1,-1,-1,-1,-1],"split_conditions":[1.4745984E2,9.4151085E1,1.0025E2,6.578168E1,8.999971E1,9.86229E-2,2.2268161E2,6.875E1,7.3649994E1,2.5E0,3.5E0,2.0290527E2,7.5E0,8.660714E-2,1.4166668E-1,4.479483E1,4.8710562E-2,4.6428573E-1,9.7058825E-2,8.3884445E1,9.77E1,1.2435E2,1.2625E2,6.5E0,2.7494416E-1,6.005018E1,1.35E1,1.7584538E2,3.9166665E0,7.5E0,1.05E1,4.5E0,1.55E-1,5.0621803E1,3.25E-1,6.5E0,9.898885E1,3.5E0,1.0913905E2,7.392088E1,-3.9626583E-3,6.1236702E1,4.3027475E-2,6.132144E1,1.3225E2,1.3112668E2,1.4583334E-1,7.195E1,1.25E1,6.5E0,1.05E1,-1.6615165E-2,6.1231674E1,5E-3,2.875E0,6.5345474E1,7.5E0,3.888889E-1,1.6333333E-1,3.187165E2,4.9858898E-2,1.2784054E-3,2.5337575E2,2.8273836E-3,9.806754E-3,-3.5895492E-4,1.0273439E-2,9.715629E-3,5.7904604E-3,1.2669217E-2,5.5318912E-3,-9.716461E-3,-2.3620303E-3,2.1130329E-3,-4.455745E-3,-4.251015E-3,1.1539768E-3,1.07488865E-2,3.3468525E-3,1.0259944E-2,5.7567386E-3,4.677243E-4,1.0890574E-2,1.2751794E-2,1.5137917E-2,-1.0531869E-2,1.6912253E-3,1.3901971E-2,7.940875E-3,8.83268E-3,4.6116216E-3,1.1835265E-2,1.6420877E-2,-1.4000286E-2,-9.379369E-3,-5.847995E-3,2.5291697E-3,-1.6438778E-2,-1.2777116E-2,-1.0202804E-2,3.7217005E-3,1.2645522E-2,-4.8168204E-3,-2.0597957E-3,1.9337926E-3,1.0469139E-2,-1.5816744E-3,-7.827694E-4,5.187272E-3,-5.0911084E-3,1.861093E-3,6.141067E-3,1.1710225E-2,-5.9541753E-3,6.7866277E-3,-8.650366E-3,-1.578553E-2,-6.4784214E-3,2.6235282E-3,1.13254385E-2,1.6666897E-2],"split_indices":[0,1,1,0,0,3,0,1,1,8,8,0,8,3,3,0,3,4,3,7,1,1,1,8,4,7,8,0,4,8,8,8,3,0,3,8,0,8,0,0,0,7,3,7,1,0,6,1,8,8,8,0,7,6,4,7,8,4,3,0,3,0,0,0,0,0,0,0,0,0,0,0,0,0,0,0,0,0,0,0,0,0,0,0,0,0,0,0,0,0,0,0,0,0,0,0,0,0,0,0,0,0,0,0,0,0,0,0,0,0,0,0,0,0,0,0,0,0,0,0,0],"split_type":[0,0,0,0,0,0,0,0,0,0,0,0,0,0,0,0,0,0,0,0,0,0,0,0,0,0,0,0,0,0,0,0,0,0,0,0,0,0,0,0,0,0,0,0,0,0,0,0,0,0,0,0,0,0,0,0,0,0,0,0,0,0,0,0,0,0,0,0,0,0,0,0,0,0,0,0,0,0,0,0,0,0,0,0,0,0,0,0,0,0,0,0,0,0,0,0,0,0,0,0,0,0,0,0,0,0,0,0,0,0,0,0,0,0,0,0,0,0,0,0,0],"sum_hessian":[4.5824605E4,2.9749494E4,1.6075113E4,2.0156168E4,9.593326E3,1.0629815E4,5.445298E3,6.182359E3,1.3973809E4,3.687346E3,5.9059805E3,9.1658125E3,1.4640029E3,3.5488164E3,1.8964813E3,2.3046108E3,3.8777478E3,5.3954917E3,8.578316E3,6.3401086E2,3.053335E3,1.0926503E3,4.8133306E3,5.0728096E3,4.0930032E3,6.6144977E2,8.0255316E2,2.944106E3,6.047104E2,1.7567317E3,1.3974959E2,1.220041E3,1.08457E3,2.868804E3,1.0089438E3,3.4165073E3,1.9789845E3,6.863272E3,1.7150443E3,6.044053E2,2.9605585E1,5.334828E2,2.5198523E3,9.0147894E2,1.9117137E2,4.0503281E3,7.630024E2,3.2541123E3,1.8186974E3,3.6502554E3,4.427478E2,4.0573338E1,6.2087646E2,6.71593E2,1.3096014E2,1.5470933E3,1.3970128E3,4.7741895E2,1.27291435E2,1.0997031E3,6.5702856E2,3.1011412E1,1.0873818E2,4.9798398E2,7.2205707E2,1.0292676E3,5.53023E1,1.8054851E3,1.063319E3,8.893366E2,1.1960721E2,2.4261343E3,9.903731E2,9.2876385E2,1.0502207E3,1.8564926E3,5.0067793E3,7.522914E2,9.627529E2,4.2026938E2,1.8413593E2,5.5117657E1,4.7836514E2,1.7382366E3,7.8161566E2,2.062005E2,6.9527844E2,6.931681E1,1.2185456E2,2.7362852E3,1.3140428E3,5.2507983E2,2.3792252E2,7.078503E2,2.546262E3,1.6431561E3,1.7554121E2,2.1247876E3,1.5254678E3,3.5183752E2,9.0910286E1,3.0788715E1,5.900877E2,3.1228592E2,3.5930707E2,9.165872E1,3.9301426E1,6.289109E2,9.181823E2,9.7470026E2,4.2231256E2,1.6710614E2,3.103128E2,3.38553E1,9.3436134E1,7.2085E2,3.7885318E2,5.4609985E2,1.1092871E2,2.7170282E1,8.15679E1],"tree_param":{"num_deleted":"0","num_feature":"10","num_nodes":"121","size_leaf_vector":"0"}},{"base_weights":[2.2937701E-4,3.8184556E-1,-6.663642E-1,1.3609445E-1,9.023583E-1,-9.330931E-1,-9.218989E-2,7.1194136E-1,-1.2155457E-1,1.081965E0,4.812185E-1,-1.1693667E0,-6.12032E-1,2.4796574E-1,-7.5610036E-1,3.516937E-1,9.2021525E-1,-5.159114E-1,1.27336E-1,5.613869E-1,1.2623308E0,1.171371E0,1.8712662E-1,-9.5212215E-1,-1.5655904E0,-8.6542815E-1,-2.7417466E-1,6.4151525E-1,-4.3753463E-1,-9.741865E-1,2.3634793E-2,6.555403E-1,1.7607635E-2,1.0057894E0,6.398614E-1,-8.4971917E-1,-2.3406585E-1,3.961739E-1,-2.7386862E-1,8.468685E-1,2.0120834E-1,1.1846229E0,1.4275191E0,7.7054715E-1,1.404763E0,9.994926E-2,1.1936903E0,-6.676249E-1,-1.3449169E0,-1.6766016E0,-7.6135844E-1,-5.884684E-1,-1.143456E0,-3.3002865E-2,-8.223048E-1,-2.0820509E-1,7.9463774E-1,-7.2536093E-1,1.2562531E-1,-7.0894766E-1,-1.4371496E0,-3.4268647E-1,7.7706254E-1,4.3636447E-1,1.1305517E0,-1.0024859E-1,4.668474E-1,-4.335778E-1,1.0191486E0,4.8254657E-1,8.708659E-1,-5.558701E-1,-1.2259876E0,1.174716E-1,-4.9287274E-1,-2.050164E-1,6.719731E-1,1.6183461E-1,-6.04636E-1,9.988913E-2,9.5929575E-1,-5.6891674E-1,6.3926685E-1,8.239235E-1,1.2177066E0,1.4627823E0,1.1257557E0,-4.633021E-2,1.0040932E0,4.7915748E-1,1.4678676E0,-2.610823E-2,5.562972E-1,1.3386678E0,7.686131E-1,-1.3018143E0,-4.1557577E-1,-7.694061E-1,-1.3954278E0,-1.501242E0,-1.7855184E0,-3.4782696E-1,-1.4534084E0,-1.828903E-1,-1.111231E0,-1.3236473E0,-4.7002372E-1,4.013882E-1,-4.7091445E-1,-1.0245507E0,1.7716289E-1,-7.8660697E-1,3.1428176E-1,1.0155423E0,5.097132E-1,-8.7218773E-1,2.0970818E-1,-2.014954E-1,1.1155933E0,-9.548482E-1,-2.1178359E-1,-1.5415877E0,-5.837893E-1,-2.3823677E-1,-1.1627059E0,1.187738E0,-2.6824272E-1],"categories":[],"categories_nodes":[],"categories_segments":[],"categories_sizes":[],"default_left":[1,1,1,1,1,1,1,1,1,1,1,1,1,1,1,1,1,1,1,1,1,1,1,1,1,1,1,1,1,1,1,1,1,1,1,1,1,1,1,1,1,1,1,1,1,1,1,1,1,1,1,1,1,1,1,1,1,1,1,1,1,1,1,0,0,0,0,0,0,0,0,0,0,0,0,0,0,0,0,0,0,0,0,0,0,0,0,0,0,0,0,0,0,0,0,0,0,0,0,0,0,0,0,0,0,0,0,0,0,0,0,0,0,0,0,0,0,0,0,0,0,0,0,0,0,0,0],"id":4,"left_children":[1,3,5,7,9,11,13,15,17,19,21,23,25,27,29,31,33,35,37,39,41,43,45,47,49,51,53,55,57,59,61,63,65,67,69,71,73,75,77,79,81,83,85,87,89,91,93,95,97,99,101,103,105,107,109,111,113,115,117,119,121,123,125,-1,-1,-1,-1,-1,-1,-1,-1,-1,-1,-1,-1,-1,-1,-1,-1,-1,-1,-1,-1,-1,-1,-1,-1,-1,-1,-1,-1,-1,-1,-1,-1,-1,-1,-1,-1,-1,-1,-1,-1,-1,-1,-1,-1,-1,-1,-1,-1,-1,-1,-1,-1,-1,-1,-1,-1,-1,-1,-1,-1,-1,-1,-1,-1],"loss_changes":[1.1658979E4,3.7277983E3,2.5548623E3,2.9382468E3,7.0560254E2,8.624287E2,1.1962119E3,4.583191E2,1.3430973E3,6.1328174E2,5.6701013E2,5.6146484E2,4.1299597E2,9.451941E2,3.0557068E2,2.2768445E2,9.1400635E1,4.9739612E2,9.049551E2,1.729837E2,5.884619E1,7.5649414E1,1.7164998E2,4.7185522E2,2.0425879E2,2.1087378E2,2.7384E2,2.900539E2,2.0747661E2,1.6986316E2,1.0911613E2,1.2101041E2,5.6965652E1,5.7947754E1,3.1969849E1,2.6612756E2,2.6166516E2,8.333883E2,4.85398E2,7.846277E1,2.5336935E2,3.7271484E1,1.2955078E1,5.9851807E1,2.885852E1,1.0432881E2,7.2302246E0,3.9229163E2,4.925757E1,3.3572754E1,7.997232E1,2.9320532E2,1.6524353E2,2.7473697E2,1.2861859E2,1.0349388E2,1.17349E2,1.167193E2,1.409089E2,1.0868503E2,4.3156616E1,2.1747396E1,5.6426872E1,0E0,0E0,0E0,0E0,0E0,0E0,0E0,0E0,0E0,0E0,0E0,0E0,0E0,0E0,0E0,0E0,0E0,0E0,0E0,0E0,0E0,0E0,0E0,0E0,0E0,0E0,0E0,0E0,0E0,0E0,0E0,0E0,0E0,0E0,0E0,0E0,0E0,0E0,0E0,0E0,0E0,0E0,0E0,0E0,0E0,0E0,0E0,0E0,0E0,0E0,0E0,0E0,0E0,0E0,0E0,0E0,0E0,0E0,0E0,0E0,0E0,0E0,0E0,0E0],"parents":[2147483647,0,0,1,1,2,2,3,3,4,4,5,5,6,6,7,7,8,8,9,9,10,10,11,11,12,12,13,13,14,14,15,15,16,16,17,17,18,18,19,19,20,20,21,21,22,22,23,23,24,24,25,25,26,26,27,27,28,28,29,29,30,30,31,31,32,32,33,33,34,34,35,35,36,36,37,37,38,38,39,39,40,40,41,41,42,42,43,43,44,44,45,45,46,46,47,47,48,48,49,49,50,50,51,51,52,52,53,53,54,54,55,55,56,56,57,57,58,58,59,59,60,60,61,61,62,62],"right_children":[2,4,6,8,10,12,14,16,18,20,22,24,26,28,30,32,34,36,38,40,42,44,46,48,50,52,54,56,58,60,62,64,66,68,70,72,74,76,78,80,82,84,86,88,90,92,94,96,98,100,102,104,106,108,110,112,114,116,118,120,122,124,126,-1,-1,-1,-1,-1,-1,-1,-1,-1,-1,-1,-1,-1,-1,-1,-1,-1,-1,-1,-1,-1,-1,-1,-1,-1,-1,-1,-1,-1,-1,-1,-1,-1,-1,-1,-1,-1,-1,-1,-1,-1,-1,-1,-1,-1,-1,-1,-1,-1,-1,-1,-1,-1,-1,-1,-1,-1,-1,-1,-1,-1,-1,-1,-1],"split_conditions":[1.4499951E2,9.417112E1,1.0155E2,6.578084E1,5E-1,6.5E0,2.2223175E2,6.875E1,7.3649994E1,5E-1,8.903958E1,2.0932281E2,4.289765E-4,5E-1,1.05E1,4.48248E1,5.6497307E1,4.5E0,5E-1,9.447238E1,1.2111111E-1,4.5E0,1.3455E2,5E-1,4.181313E-1,1.9612662E2,5E-1,5E-1,2.8636362E-2,3.120315E2,5.885494E-1,6.5E0,2.4166667E-1,1.6507553E0,6.5E0,1.0239681E2,9.875915E1,5E-1,1.0654101E2,3.1502266E1,3.5E0,2.5E0,1.3546982E2,9.79E1,9.58E1,1.6568628E-1,1.286445E2,5E-1,1.477079E2,2.502781E2,5E-1,5E-1,1.15E1,1.9833318E2,1.25E1,4.5E0,1.7748645E2,3.225E0,8.5E0,1.2358566E-2,1.4765E2,2.6333332E-1,5E-1,4.3636444E-3,1.1305517E-2,-1.0024859E-3,4.6684737E-3,-4.335778E-3,1.0191485E-2,4.8254654E-3,8.708659E-3,-5.558701E-3,-1.2259875E-2,1.1747159E-3,-4.928727E-3,-2.050164E-3,6.719731E-3,1.6183461E-3,-6.04636E-3,9.988913E-4,9.592957E-3,-5.6891674E-3,6.3926685E-3,8.239235E-3,1.2177065E-2,1.4627823E-2,1.1257556E-2,-4.633021E-4,1.0040931E-2,4.7915746E-3,1.4678676E-2,-2.6108228E-4,5.562972E-3,1.3386677E-2,7.6861307E-3,-1.3018142E-2,-4.155758E-3,-7.6940604E-3,-1.3954278E-2,-1.501242E-2,-1.7855184E-2,-3.4782696E-3,-1.4534083E-2,-1.8289029E-3,-1.1112309E-2,-1.3236472E-2,-4.700237E-3,4.013882E-3,-4.7091446E-3,-1.0245507E-2,1.7716289E-3,-7.86607E-3,3.1428176E-3,1.0155423E-2,5.0971317E-3,-8.721877E-3,2.0970819E-3,-2.0149539E-3,1.1155933E-2,-9.548482E-3,-2.117836E-3,-1.5415877E-2,-5.8378926E-3,-2.3823676E-3,-1.16270585E-2,1.1877379E-2,-2.6824272E-3],"split_indices":[0,1,1,0,2,8,0,1,1,5,0,0,6,2,8,0,0,8,2,0,6,8,1,2,4,0,2,5,6,0,4,8,6,0,8,0,0,5,0,0,8,8,0,1,1,6,0,5,0,0,2,2,8,0,8,8,0,4,8,6,1,6,2,0,0,0,0,0,0,0,0,0,0,0,0,0,0,0,0,0,0,0,0,0,0,0,0,0,0,0,0,0,0,0,0,0,0,0,0,0,0,0,0,0,0,0,0,0,0,0,0,0,0,0,0,0,0,0,0,0,0,0,0,0,0,0,0],"split_type":[0,0,0,0,0,0,0,0,0,0,0,0,0,0,0,0,0,0,0,0,0,0,0,0,0,0,0,0,0,0,0,0,0,0,0,0,0,0,0,0,0,0,0,0,0,0,0,0,0,0,0,0,0,0,0,0,0,0,0,0,0,0,0,0,0,0,0,0,0,0,0,0,0,0,0,0,0,0,0,0,0,0,0,0,0,0,0,0,0,0,0,0,0,0,0,0,0,0,0,0,0,0,0,0,0,0,0,0,0,0,0,0,0,0,0,0,0,0,0,0,0,0,0,0,0,0,0],"sum_hessian":[4.5829844E4,2.9145604E4,1.6684238E4,1.9800023E4,9.345579E3,1.1390994E4,5.2932446E3,6.120216E3,1.3679808E4,6.549192E3,2.7963875E3,6.5589536E3,4.832041E3,3.500232E3,1.7930125E3,2.2442788E3,3.875937E3,5.293103E3,8.386705E3,1.6873855E3,4.861806E3,8.3381616E2,1.9625713E3,4.240212E3,2.3187415E3,2.7591367E3,2.0729043E3,2.2240642E3,1.2761677E3,1.4012361E3,3.9177637E2,1.1739486E3,1.0703303E3,2.965462E3,9.104751E2,2.4211445E3,2.8719583E3,5.0223564E3,3.3643486E3,9.3955E2,7.478355E2,3.3163896E3,1.5454166E3,3.0985025E2,5.2396594E2,1.8080265E3,1.5454482E2,2.4620457E3,1.7781665E3,2.0356309E3,2.8311063E2,1.3852859E3,1.3738507E3,1.441138E3,6.317663E2,3.391076E2,1.8849567E3,8.4471783E2,4.314499E2,8.93816E2,5.0742014E2,2.6380133E2,1.2797502E2,8.058432E2,3.6810535E2,8.481076E2,2.2222272E2,2.6560953E1,2.938901E3,5.4541235E2,3.6506274E2,1.3621469E3,1.0589976E3,1.2175007E3,1.6544576E3,1.5791161E3,3.4432402E3,1.4516802E3,1.9126685E3,1.23747574E2,8.158024E2,2.7065375E2,4.7718176E2,2.829067E2,3.033483E3,1.3773651E3,1.6805154E2,6.8777145E1,2.410731E2,3.466944E1,4.8929648E2,1.4171133E3,3.9091315E2,1.1213503E2,4.2409786E1,6.9798566E2,1.7640599E3,1.460758E2,1.6320907E3,7.8982825E2,1.2458026E3,1.7898863E2,1.04121994E2,7.8164636E2,6.036395E2,1.0822335E3,2.9161713E2,7.2308136E2,7.180566E2,5.2574286E2,1.0602341E2,1.609455E2,1.7816211E2,1.0588053E3,8.261515E2,7.3053595E2,1.1418187E2,3.2488647E2,1.0656343E2,5.965654E2,2.9725052E2,4.5059573E2,5.6824394E1,2.361459E2,2.7655428E1,9.200625E1,3.5968777E1],"tree_param":{"num_deleted":"0","num_feature":"10","num_nodes":"127","size_leaf_vector":"0"}},{"base_weights":[-3.129253E-3,3.643611E-1,-6.848738E-1,1.2823613E-1,8.642856E-1,-9.525892E-1,-1.5097193E-1,7.0058006E-1,-1.342689E-1,1.0552443E0,4.2629328E-1,-1.0854169E0,-1.253232E-1,1.7479195E-1,-7.829729E-1,3.826763E-1,8.911883E-1,-5.302817E-1,1.12706706E-1,5.440026E-1,1.2321948E0,9.5606446E-1,3.523559E-2,-8.649754E-1,-1.3965836E0,3.4603983E-1,-7.3046875E-1,5.544823E-1,-4.666055E-1,-9.207372E-1,1.1367911E0,6.9948614E-1,3.7376598E-2,9.6477854E-1,5.0909454E-1,-6.683206E-1,6.301421E-2,3.9571264E-1,-3.0896991E-1,8.3891606E-1,1.9582127E-1,1.1248329E0,1.3835481E0,1.4597383E0,7.88667E-1,-4.1466046E-2,1.1088943E0,-5.303749E-1,-1.3852885E0,-1.4794743E0,-8.1651056E-1,-7.081542E-1,5.566313E-1,-1.061104E0,-3.8212195E-1,-1.7169416E-1,6.9432175E-1,-7.9408973E-1,9.140973E-1,-7.4507314E-1,-1.3674883E0,5.4659015E-1,1.3651172E0,7.734659E-1,2.8084078E-1,-1.47818625E-2,1.0579804E0,-4.8703712E-1,9.772366E-1,3.1618655E-1,1.0335087E0,-3.6031216E-1,-8.855974E-1,3.0798277E-1,-2.6458994E-1,-2.2590195E-1,6.693618E-1,-5.245369E-1,2.8053728E-1,2.198586E-2,9.5216715E-1,-5.420241E-1,5.423048E-1,1.2729042E0,1.0196228E0,1.4305253E0,1.0497559E0,1.250422E0,1.674957E0,6.083694E-1,1.1679252E0,-1.0856576E-1,6.559573E-1,6.4851457E-1,1.3135676E0,-9.940164E-1,-3.8399583E-1,-1.4622271E0,-1.14992E0,-1.5965443E0,-1.1490328E0,-1.00491E0,6.231466E-1,-1.1404301E0,2.2477643E-1,-4.0272933E-1,6.512498E-1,-1.2571114E0,-2.7261785E-1,7.401985E-1,-6.370266E-1,-7.987709E-1,3.2234952E-1,9.0387666E-1,3.6236036E-1,-1.1386564E0,-4.3042067E-1,5.754672E-1,1.4204175E0,-8.8975364E-1,3.5754538E-1,-1.7338414E0,-9.575799E-1,1.5295771E0,9.3576896E-1],"categories":[],"categories_nodes":[],"categories_segments":[],"categories_sizes":[],"default_left":[1,1,1,1,1,1,1,1,1,1,1,1,1,1,1,1,1,1,1,1,1,1,1,1,1,1,1,1,1,1,1,1,1,1,1,1,1,1,1,1,1,1,1,1,1,1,1,1,1,1,1,1,1,1,1,1,1,1,1,1,1,0,1,0,0,0,0,0,0,0,0,0,0,0,0,0,0,0,0,0,0,0,0,0,0,0,0,0,0,0,0,0,0,0,0,0,0,0,0,0,0,0,0,0,0,0,0,0,0,0,0,0,0,0,0,0,0,0,0,0,0,0,0,0,0],"id":5,"left_children":[1,3,5,7,9,11,13,15,17,19,21,23,25,27,29,31,33,35,37,39,41,43,45,47,49,51,53,55,57,59,61,63,65,67,69,71,73,75,77,79,81,83,85,87,89,91,93,95,97,99,101,103,105,107,109,111,113,115,117,119,121,-1,123,-1,-1,-1,-1,-1,-1,-1,-1,-1,-1,-1,-1,-1,-1,-1,-1,-1,-1,-1,-1,-1,-1,-1,-1,-1,-1,-1,-1,-1,-1,-1,-1,-1,-1,-1,-1,-1,-1,-1,-1,-1,-1,-1,-1,-1,-1,-1,-1,-1,-1,-1,-1,-1,-1,-1,-1,-1,-1,-1,-1,-1,-1],"loss_changes":[1.1481641E4,3.5144048E3,2.2936392E3,3.0392688E3,7.976079E2,1.1739697E3,1.1045948E3,3.8440234E2,1.3565659E3,5.998638E2,6.0099945E2,6.290654E2,4.2299527E2,8.624502E2,4.8409705E2,2.6085684E2,1.1043091E2,4.3661145E2,1.0195318E3,1.752479E2,7.690723E1,1.012832E2,1.3820604E2,9.375322E2,1.8075781E2,1.8550575E2,7.36044E1,2.2628485E2,5.9637476E2,1.3132507E2,1.4645309E1,3.7795654E1,6.137267E1,6.1141357E1,6.4313156E1,2.883026E2,8.090385E1,8.700417E2,4.3627264E2,8.5290344E1,2.0194188E2,4.2291016E1,2.8762695E1,9.431091E0,6.1737793E1,7.297651E1,8.481369E0,2.2194891E2,3.465088E1,1.2522266E2,1.315755E2,5.6837677E1,6.363739E1,5.0140076E1,9.196745E1,1.12089165E2,1.2881482E2,1.3212372E2,4.13338E1,1.9639178E2,6.827179E1,0E0,3.0066528E0,0E0,0E0,0E0,0E0,0E0,0E0,0E0,0E0,0E0,0E0,0E0,0E0,0E0,0E0,0E0,0E0,0E0,0E0,0E0,0E0,0E0,0E0,0E0,0E0,0E0,0E0,0E0,0E0,0E0,0E0,0E0,0E0,0E0,0E0,0E0,0E0,0E0,0E0,0E0,0E0,0E0,0E0,0E0,0E0,0E0,0E0,0E0,0E0,0E0,0E0,0E0,0E0,0E0,0E0,0E0,0E0,0E0,0E0,0E0,0E0,0E0,0E0],"parents":[2147483647,0,0,1,1,2,2,3,3,4,4,5,5,6,6,7,7,8,8,9,9,10,10,11,11,12,12,13,13,14,14,15,15,16,16,17,17,18,18,19,19,20,20,21,21,22,22,23,23,24,24,25,25,26,26,27,27,28,28,29,29,30,30,31,31,32,32,33,33,34,34,35,35,36,36,37,37,38,38,39,39,40,40,41,41,42,42,43,43,44,44,45,45,46,46,47,47,48,48,49,49,50,50,51,51,52,52,53,53,54,54,55,55,56,56,57,57,58,58,59,59,60,60,62,62],"right_children":[2,4,6,8,10,12,14,16,18,20,22,24,26,28,30,32,34,36,38,40,42,44,46,48,50,52,54,56,58,60,62,64,66,68,70,72,74,76,78,80,82,84,86,88,90,92,94,96,98,100,102,104,106,108,110,112,114,116,118,120,122,-1,124,-1,-1,-1,-1,-1,-1,-1,-1,-1,-1,-1,-1,-1,-1,-1,-1,-1,-1,-1,-1,-1,-1,-1,-1,-1,-1,-1,-1,-1,-1,-1,-1,-1,-1,-1,-1,-1,-1,-1,-1,-1,-1,-1,-1,-1,-1,-1,-1,-1,-1,-1,-1,-1,-1,-1,-1,-1,-1,-1,-1,-1,-1],"split_conditions":[1.474527E2,9.4151085E1,1.0025E2,6.7018845E1,5E-1,9.86229E-2,2.2343091E2,6.875E1,7.3649994E1,5E-1,1.0337058E2,2.0869666E2,5E-1,5E-1,1.4166668E-1,4.4929245E1,6.0206192E1,9.5E-2,5E-1,9.300259E1,2.4539065E-2,5.199245E1,1.381E2,5E-1,4.298232E-2,5E-1,1.3923077E-1,5E-1,1.1833333E-1,5E-1,2.5267987E2,5E-1,1.55E-1,1.7945728E0,4.9815826E-2,9.715195E1,1.0691545E2,5E-1,9.7058825E-2,2.9648333E1,6.0939E1,8.997827E1,1.354657E2,3.7770376E-2,8.166666E-2,4.075E-1,5E-1,5E-1,3.3164207E-2,8.660714E-2,8.642502E1,7.799512E1,6.69E1,8.407269E1,7.505E1,1.105E2,1.8339368E2,1.167E2,7.483119E1,4.9858898E-2,6.4888916E1,5.4659015E-3,8.583333E-2,7.7346587E-3,2.8084079E-3,-1.4781862E-4,1.0579804E-2,-4.870371E-3,9.772366E-3,3.1618653E-3,1.0335086E-2,-3.6031215E-3,-8.855974E-3,3.0798276E-3,-2.6458993E-3,-2.2590195E-3,6.6936184E-3,-5.245369E-3,2.8053727E-3,2.198586E-4,9.521672E-3,-5.4202406E-3,5.423048E-3,1.2729041E-2,1.0196228E-2,1.4305253E-2,1.0497559E-2,1.250422E-2,1.674957E-2,6.083694E-3,1.1679252E-2,-1.0856576E-3,6.5595726E-3,6.4851455E-3,1.3135676E-2,-9.940164E-3,-3.8399582E-3,-1.4622271E-2,-1.14992E-2,-1.5965443E-2,-1.1490328E-2,-1.00491E-2,6.231466E-3,-1.1404301E-2,2.2477643E-3,-4.027293E-3,6.512498E-3,-1.2571114E-2,-2.7261784E-3,7.4019847E-3,-6.370266E-3,-7.987709E-3,3.223495E-3,9.038767E-3,3.6236036E-3,-1.1386563E-2,-4.3042065E-3,5.754672E-3,1.4204175E-2,-8.897536E-3,3.5754538E-3,-1.7338414E-2,-9.575799E-3,1.5295771E-2,9.357689E-3],"split_indices":[0,1,1,0,2,3,0,1,1,5,0,0,2,2,3,0,0,3,2,0,6,0,1,2,3,5,3,5,3,2,0,2,3,0,3,0,0,5,3,0,7,0,0,3,6,6,5,5,3,6,7,7,1,7,1,1,0,1,7,3,7,0,6,0,0,0,0,0,0,0,0,0,0,0,0,0,0,0,0,0,0,0,0,0,0,0,0,0,0,0,0,0,0,0,0,0,0,0,0,0,0,0,0,0,0,0,0,0,0,0,0,0,0,0,0,0,0,0,0,0,0,0,0,0,0],"split_type":[0,0,0,0,0,0,0,0,0,0,0,0,0,0,0,0,0,0,0,0,0,0,0,0,0,0,0,0,0,0,0,0,0,0,0,0,0,0,0,0,0,0,0,0,0,0,0,0,0,0,0,0,0,0,0,0,0,0,0,0,0,0,0,0,0,0,0,0,0,0,0,0,0,0,0,0,0,0,0,0,0,0,0,0,0,0,0,0,0,0,0,0,0,0,0,0,0,0,0,0,0,0,0,0,0,0,0,0,0,0,0,0,0,0,0,0,0,0,0,0,0,0,0,0,0],"sum_hessian":[4.5825066E4,2.977509E4,1.6049975E4,2.0225053E4,9.550038E3,1.0688497E4,5.361478E3,6.359139E3,1.3865913E4,6.648399E3,2.9016394E3,9.2089375E3,1.4795598E3,3.5381807E3,1.8232974E3,2.3861077E3,3.9730315E3,5.3259395E3,8.539974E3,1.7116134E3,4.9367856E3,1.2309138E3,1.6707257E3,5.3943447E3,3.8145925E3,8.317051E2,6.478547E2,2.2230315E3,1.315149E3,1.7021389E3,1.21158424E2,1.2429832E3,1.1431244E3,3.3286155E3,6.44416E2,4.3210654E3,1.004874E3,5.1108774E3,3.4290962E3,9.24927E2,7.8668634E2,2.8970579E3,2.0397278E3,3.0356433E2,9.273494E2,1.5603263E3,1.10399414E2,3.2853896E3,2.108955E3,3.335013E3,4.795796E2,1.3757562E2,6.9412946E2,3.302134E2,3.1764127E2,3.5844574E2,1.8645858E3,1.0637653E3,2.5138385E2,1.2252595E3,4.768794E2,3.5705605E1,8.545282E1,1.0544264E3,1.8855678E2,1.0885784E3,5.4545986E1,2.7560682E1,3.3010547E3,4.7342996E2,1.7098607E2,1.789758E3,2.5313071E3,5.757004E2,4.2917365E2,1.5618402E3,3.549037E3,2.5115378E3,9.175584E2,1.13259476E2,8.1166754E2,2.5073628E2,5.359501E2,1.1949089E3,1.702149E3,1.7827069E3,2.570209E2,1.6001317E2,1.4355115E2,6.319054E2,2.9544406E2,1.42506E3,1.3526624E2,3.650175E1,7.389766E1,7.85614E2,2.4997756E3,1.5822286E3,5.267265E2,2.457429E3,8.775838E2,4.2472867E2,5.4850918E1,9.4078995E1,4.3496628E1,6.149584E1,6.326336E2,2.6334937E2,6.686403E1,5.7971863E1,2.596694E2,1.5790521E2,2.0054051E2,1.1407092E3,7.2387665E2,5.440223E2,5.197429E2,1.5303079E2,9.835306E1,1.0837122E3,1.4154733E2,2.4874475E2,2.2813466E2,5.8333103E1,2.7119715E1],"tree_param":{"num_deleted":"0","num_feature":"10","num_nodes":"125","size_leaf_vector":"0"}},{"base_weights":[-4.0969625E-3,3.8260674E-1,-6.2894315E-1,8.1623894E-1,1.9863692E-1,-7.6230997E-1,1.6062672E-1,6.9076705E-1,1.1556381E0,4.4492957E-1,-1.9263229E-1,-5.2105296E-1,-1.2557142E0,5.709954E-1,-3.152522E-1,-4.447379E-1,7.0563644E-1,1.2851388E0,9.630827E-1,-2.2587638E-1,6.663443E-1,-3.9515516E-1,3.515253E-1,-1.5238686E-1,-1.1341293E0,-1.4082819E0,-9.379326E-1,-7.329301E-1,6.932737E-1,-7.4667215E-1,7.051726E-2,-3.778057E-2,-1.1702923E0,8.2114995E-1,5.30967E-1,1.1979558E0,1.411591E0,7.576341E-1,1.2324476E0,1.5628687E-1,-4.900882E-1,7.9876536E-1,1.6391939E-1,-2.1312952E-1,-7.633614E-1,7.1481895E-1,5.672467E-2,-6.0523677E-1,6.849666E-2,-1.0501074E0,-1.6310687E0,-1.2642438E0,-1.6223428E0,-1.1869493E0,-5.022276E-1,-1.0362438E0,2.5177583E-1,2.4589118E-1,8.9451337E-1,-3.1222716E-1,-1.1297016E0,-7.7049084E-2,1.0974884E0,-5.517859E-1,4.414233E-1,6.8162555E-1,9.787522E-1,4.595795E-1,9.4368964E-1,1.5876856E0,1.1542103E0,8.965196E-1,1.5082511E0,1.1457762E0,5.402405E-1,3.603371E-1,1.4189965E0,-4.0169722E-1,4.6360093E-1,-1.22193396E-1,-8.0249727E-1,4.827124E-1,8.699638E-1,3.0351192E-1,-4.213999E-1,8.487597E-2,-3.9151624E-1,-4.1614857E-1,-1.1634111E0,8.016309E-1,-1.5784423E-1,7.4985677E-1,-1.3475066E-1,-1.2132051E0,-5.0459343E-1,3.6477503E-1,-1.498565E-1,-6.044449E-1,-1.1323979E0,-1.7586751E0,-6.961175E-1,-1.3169899E0,-8.529289E-1,-1.6506304E0,-3.0585656E-1,-1.415747E0,-8.562563E-1,-2.4581999E-1,-9.425091E-1,-1.4350333E0,-7.5988317E-1,4.5918807E-1,-4.9235162E-1,9.9081326E-1,-4.9302065E-1,-6.9733906E-1,2.1557249E-1,-9.9312204E-1,-1.7967136E0,-7.703887E-1,2.0790918E-1,1.6289482E0,6.148504E-1],"categories":[],"categories_nodes":[],"categories_segments":[],"categories_sizes":[],"default_left":[1,1,1,1,1,1,1,1,1,1,1,1,1,1,1,1,1,1,1,1,1,1,1,1,1,1,1,1,1,1,1,1,0,1,1,1,1,1,1,1,1,1,1,1,1,1,1,1,1,1,1,1,1,1,1,1,0,1,1,1,1,1,1,0,0,0,0,0,0,0,0,0,0,0,0,0,0,0,0,0,0,0,0,0,0,0,0,0,0,0,0,0,0,0,0,0,0,0,0,0,0,0,0,0,0,0,0,0,0,0,0,0,0,0,0,0,0,0,0,0,0,0,0],"id":6,"left_children":[1,3,5,7,9,11,13,15,17,19,21,23,25,27,29,31,33,35,37,39,41,43,45,47,49,51,53,55,57,59,61,63,-1,65,67,69,71,73,75,77,79,81,83,85,87,89,91,93,95,97,99,101,103,105,107,109,-1,111,113,115,117,119,121,-1,-1,-1,-1,-1,-1,-1,-1,-1,-1,-1,-1,-1,-1,-1,-1,-1,-1,-1,-1,-1,-1,-1,-1,-1,-1,-1,-1,-1,-1,-1,-1,-1,-1,-1,-1,-1,-1,-1,-1,-1,-1,-1,-1,-1,-1,-1,-1,-1,-1,-1,-1,-1,-1,-1,-1,-1,-1,-1,-1],"loss_changes":[1.1069966E4,2.2569082E3,1.8447178E3,3.5699268E2,1.9152267E3,1.7819727E3,4.9477008E2,1.0455127E2,5.3894287E1,1.8118933E3,8.462694E2,2.2744705E3,2.355708E2,2.176485E2,1.9553323E2,2.312253E1,1.2146948E2,1.1331299E1,4.875775E1,3.0592673E2,6.0955273E2,3.744281E2,2.2266568E2,6.292942E2,1.5416992E2,9.812256E1,1.7212866E2,3.5675125E1,1.1128473E2,9.11243E1,9.4497894E1,1.3529525E1,0E0,7.871289E1,7.025714E1,1.0004761E1,2.3979004E1,4.2871735E1,6.281067E1,2.1258813E2,2.0531522E2,1.6212305E2,1.5664377E2,1.9939479E2,2.5560437E2,7.106448E1,1.5327028E2,1.24589966E2,2.7366217E2,1.1702222E2,6.1991333E1,4.0670166E1,4.79458E1,7.422339E1,6.526468E1,7.417984E0,0E0,6.156297E1,1.15497986E2,5.3725166E1,2.2944855E1,1.0778473E2,1.7694E1,0E0,0E0,0E0,0E0,0E0,0E0,0E0,0E0,0E0,0E0,0E0,0E0,0E0,0E0,0E0,0E0,0E0,0E0,0E0,0E0,0E0,0E0,0E0,0E0,0E0,0E0,0E0,0E0,0E0,0E0,0E0,0E0,0E0,0E0,0E0,0E0,0E0,0E0,0E0,0E0,0E0,0E0,0E0,0E0,0E0,0E0,0E0,0E0,0E0,0E0,0E0,0E0,0E0,0E0,0E0,0E0,0E0,0E0,0E0,0E0],"parents":[2147483647,0,0,1,1,2,2,3,3,4,4,5,5,6,6,7,7,8,8,9,9,10,10,11,11,12,12,13,13,14,14,15,15,16,16,17,17,18,18,19,19,20,20,21,21,22,22,23,23,24,24,25,25,26,26,27,27,28,28,29,29,30,30,31,31,33,33,34,34,35,35,36,36,37,37,38,38,39,39,40,40,41,41,42,42,43,43,44,44,45,45,46,46,47,47,48,48,49,49,50,50,51,51,52,52,53,53,54,54,55,55,57,57,58,58,59,59,60,60,61,61,62,62],"right_children":[2,4,6,8,10,12,14,16,18,20,22,24,26,28,30,32,34,36,38,40,42,44,46,48,50,52,54,56,58,60,62,64,-1,66,68,70,72,74,76,78,80,82,84,86,88,90,92,94,96,98,100,102,104,106,108,110,-1,112,114,116,118,120,122,-1,-1,-1,-1,-1,-1,-1,-1,-1,-1,-1,-1,-1,-1,-1,-1,-1,-1,-1,-1,-1,-1,-1,-1,-1,-1,-1,-1,-1,-1,-1,-1,-1,-1,-1,-1,-1,-1,-1,-1,-1,-1,-1,-1,-1,-1,-1,-1,-1,-1,-1,-1,-1,-1,-1,-1,-1,-1,-1,-1],"split_conditions":[1.4186069E2,6.7018845E1,9.86229E-2,8.5E0,5E-1,2.216114E2,5E-1,4.6787057E0,4.517125E1,3.5E0,7.8174606E-2,5E-1,7.5E0,1.1225E1,1.486842E-1,5.897619E1,5.104057E1,4.675E1,3.293134E-2,1.5708334E1,3.405E1,3.172078E1,1.0620224E2,4.5E0,4.4875E1,3.0658234E2,2.1538462E-2,4.348485E-1,6.5E0,1.7024115E2,1.45E1,1.520791E-1,-1.1702922E-2,2.5416668E1,6.333333E-2,8.266645E0,1.1075472E1,2.675E1,9.5E0,1.5E0,9.456466E1,4.5E0,7.075E1,1.0322731E2,1.0817453E2,6.2208336E1,1.6366667E1,1.5E0,1.6408252E2,1.486995E2,2.777778E-3,4.2954326E-2,5.8143944E-2,1.05E1,3.618182E-1,5.5E0,2.5177582E-3,2.4583332E1,3.765E1,8.090909E-2,2.6388888E0,1.6111272E2,1.55E1,-5.5178585E-3,4.414233E-3,6.8162554E-3,9.787521E-3,4.5957947E-3,9.436896E-3,1.5876856E-2,1.1542103E-2,8.965196E-3,1.508251E-2,1.1457761E-2,5.4024053E-3,3.603371E-3,1.4189964E-2,-4.016972E-3,4.636009E-3,-1.221934E-3,-8.024973E-3,4.8271236E-3,8.699638E-3,3.035119E-3,-4.213999E-3,8.4875966E-4,-3.9151623E-3,-4.1614855E-3,-1.1634111E-2,8.016309E-3,-1.5784423E-3,7.4985675E-3,-1.3475067E-3,-1.21320505E-2,-5.045934E-3,3.6477502E-3,-1.4985648E-3,-6.0444493E-3,-1.1323978E-2,-1.758675E-2,-6.9611752E-3,-1.3169899E-2,-8.529289E-3,-1.6506303E-2,-3.0585655E-3,-1.415747E-2,-8.562563E-3,-2.4581999E-3,-9.425091E-3,-1.4350333E-2,-7.5988313E-3,4.591881E-3,-4.923516E-3,9.908132E-3,-4.9302066E-3,-6.9733905E-3,2.155725E-3,-9.93122E-3,-1.7967135E-2,-7.703887E-3,2.0790917E-3,1.6289482E-2,6.148504E-3],"split_indices":[0,0,3,8,2,0,2,0,0,8,3,2,8,9,3,9,0,9,3,9,9,9,0,8,9,0,6,6,8,0,8,4,0,9,3,0,0,9,8,8,0,8,9,0,0,9,9,8,0,0,3,3,3,8,6,8,0,9,9,6,4,0,8,0,0,0,0,0,0,0,0,0,0,0,0,0,0,0,0,0,0,0,0,0,0,0,0,0,0,0,0,0,0,0,0,0,0,0,0,0,0,0,0,0,0,0,0,0,0,0,0,0,0,0,0,0,0,0,0,0,0,0,0],"split_type":[0,0,0,0,0,0,0,0,0,0,0,0,0,0,0,0,0,0,0,0,0,0,0,0,0,0,0,0,0,0,0,0,0,0,0,0,0,0,0,0,0,0,0,0,0,0,0,0,0,0,0,0,0,0,0,0,0,0,0,0,0,0,0,0,0,0,0,0,0,0,0,0,0,0,0,0,0,0,0,0,0,0,0,0,0,0,0,0,0,0,0,0,0,0,0,0,0,0,0,0,0,0,0,0,0,0,0,0,0,0,0,0,0,0,0,0,0,0,0,0,0,0,0],"sum_hessian":[4.5810234E4,2.829748E4,1.7512754E4,8.427004E3,1.9870477E4,1.4982592E4,2.5301624E3,6.1566826E3,2.270321E3,1.2194936E4,7.6755425E3,1.0065041E4,4.917551E3,1.3588846E3,1.1712777E3,7.867106E1,6.0780117E3,1.3510807E3,9.192405E2,3.025856E3,9.169079E3,5.594532E3,2.0810098E3,6.286971E3,3.7780698E3,3.318111E3,1.5994398E3,1.1558384E2,1.2433008E3,5.527505E2,6.185272E2,5.1765587E1,2.6905474E1,3.6538093E3,2.4242021E3,8.108861E2,5.401945E2,5.2557825E2,3.9366223E2,1.2364784E3,1.7893776E3,7.255191E3,1.9138881E3,3.7460818E3,1.8484506E3,9.306463E2,1.1503635E3,2.0609216E3,4.22605E3,3.2363467E3,5.417231E2,1.9907778E3,1.3273331E3,1.01553235E3,5.839074E2,8.861572E1,2.6968119E1,3.8739374E2,8.559071E2,2.607575E2,2.9199298E2,5.416894E2,7.683783E1,2.5268993E1,2.6496592E1,1.9436405E3,1.7101688E3,2.0702554E3,3.5394693E2,7.556781E1,7.353183E2,8.844558E1,4.5174893E2,1.8572774E2,3.3985052E2,7.0520836E1,3.231414E2,4.385143E2,7.9796405E2,8.2326404E2,9.661136E2,1.3370879E3,5.918103E3,1.5464755E3,3.6741263E2,1.4021882E3,2.3438936E3,9.9174854E2,8.567021E2,8.469707E2,8.3675606E1,2.4850423E2,9.018594E2,2.8979083E2,1.7711307E3,1.7934222E3,2.4326272E3,5.071489E2,2.7291978E3,4.7512628E2,6.659678E1,1.7607131E3,2.3006473E2,1.2987424E3,2.8590778E1,5.9661725E2,4.1891513E2,3.7105902E2,2.128484E2,3.310654E1,5.550918E1,3.0141592E2,8.5977806E1,8.010299E2,5.4877216E1,1.509165E2,1.0984101E2,2.4596202E2,4.603094E1,1.5744766E2,3.8424173E2,3.4479313E1,4.2358517E1],"tree_param":{"num_deleted":"0","num_feature":"10","num_nodes":"123","size_leaf_vector":"0"}},{"base_weights":[4.961299E-3,2.1428147E-1,-4.0128833E-1,5.3723235E-2,7.2737867E-1,-5.498808E-1,3.7594652E-1,-2.2825597E-1,2.1747777E-1,2.5939485E-1,8.2873374E-1,-6.756679E-1,-3.0858448E-1,2.5453335E-1,5.9689516E-1,-2.0621519E-1,-9.5421535E-1,-2.2675502E-1,2.8099284E-1,1.0658835E-1,9.097101E-1,2.9833758E-1,8.924903E-1,-7.48945E-1,-2.9453915E-1,-7.0348024E-1,-2.030681E-1,5.013383E-1,4.1270666E-2,9.1904646E-1,3.414568E-1,-4.4805577E-1,-1.368293E-1,-7.431894E-1,-1.6434187E0,-4.6770495E-1,2.4477877E-1,2.4886057E-1,8.1595725E-1,-5.1644E-1,2.4956451E-1,2.839019E-1,1.0365188E0,7.155017E-1,1.4669755E-1,9.655867E-1,3.7371993E-1,-6.929409E-1,-9.454889E-1,-3.346966E-1,1.4109421E0,-7.694892E-1,6.702693E-1,-2.9050177E-1,1.9082138E-1,3.773575E-1,1.1932418E0,2.7327138E-1,-2.36001E-1,7.245333E-1,1.1903772E0,4.2718658E-1,-1.1216652E0,-5.758792E-1,1.497249E-1,-1.5581398E-1,4.7581744E-1,-5.5426836E-1,-1.6927983E0,-7.3053294E-1,1.36073E-1,-1.1562699E0,3.613278E-1,1.5061776E-1,4.1404384E-1,6.6965127E-1,1.1207137E0,-2.8251505E-1,-1.8536689E0,1.4460014E-1,7.160439E-1,1.2351762E0,5.784009E-1,1.1780432E0,4.4866237E-1,-7.844851E-3,8.020918E-1,8.346059E-1,1.1192892E0,-1.6368262E-1,7.8271633E-1,-8.894026E-1,-6.217997E-1,-1.1814257E0,-7.295268E-1,-9.058804E-1,-2.4136174E-1,-5.0680584E-1,-1.0106302E0,-4.7168147E-2,-4.4062325E-1,2.5655538E-1,-1.0789217E0,6.516621E-1,-2.6937857E-2,1.6201748E0,9.445581E-1,-1.5030402E-1,5.308956E-1,-1.0264817E0,-8.7526366E-2,8.649819E-1,-2.012662E-2,1.0179025E0,1.8751645E0,2.4830014E-1,1.3292269E0],"categories":[],"categories_nodes":[],"categories_segments":[],"categories_sizes":[],"default_left":[1,1,1,1,1,1,1,1,1,1,1,1,1,1,1,1,1,1,1,1,1,1,1,1,1,1,1,1,1,1,1,1,1,1,0,1,1,1,1,1,1,0,1,1,1,1,1,1,1,1,0,1,0,1,1,1,1,1,1,1,1,1,0,0,0,0,0,0,0,0,0,0,0,0,0,0,0,0,0,0,0,0,0,0,0,0,0,0,0,0,0,0,0,0,0,0,0,0,0,0,0,0,0,0,0,0,0,0,0,0,0,0,0,0,0,0,0],"id":7,"left_children":[1,3,5,7,9,11,13,15,17,19,21,23,25,27,29,31,33,35,37,39,41,43,45,47,49,51,53,55,57,59,61,63,65,67,-1,69,71,73,75,77,79,-1,81,83,85,87,89,91,93,95,-1,97,-1,99,101,103,105,107,109,111,113,115,-1,-1,-1,-1,-1,-1,-1,-1,-1,-1,-1,-1,-1,-1,-1,-1,-1,-1,-1,-1,-1,-1,-1,-1,-1,-1,-1,-1,-1,-1,-1,-1,-1,-1,-1,-1,-1,-1,-1,-1,-1,-1,-1,-1,-1,-1,-1,-1,-1,-1,-1,-1,-1,-1,-1],"loss_changes":[3.8989739E3,2.492567E3,1.8009893E3,1.0644417E3,3.4130664E2,3.965891E2,6.6570404E1,1.3473831E2,4.1160907E2,1.273115E2,1.9953198E2,2.3948584E2,1.8647989E2,8.496532E1,7.187424E1,1.3762744E2,3.336656E1,2.075384E2,2.1862683E2,9.309228E1,1.8403244E1,3.9911633E1,1.9948389E2,7.775659E1,9.550924E1,8.652249E1,1.222285E2,6.2987442E1,5.614109E1,1.8519989E1,6.276153E1,1.4019992E2,7.432486E1,3.2406303E1,0E0,1.9215948E2,1.0112346E2,1.9508032E2,3.0336578E1,5.9310604E1,4.115595E1,0E0,1.657669E1,1.944339E1,4.804699E1,9.111279E1,1.446969E2,7.7122314E1,7.915283E1,7.17135E1,0E0,5.581317E1,0E0,1.0581575E2,5.3848816E1,7.105935E1,8.64447E0,5.2181587E1,4.59917E1,2.4608017E1,1.4832733E1,7.482529E1,0E0,0E0,0E0,0E0,0E0,0E0,0E0,0E0,0E0,0E0,0E0,0E0,0E0,0E0,0E0,0E0,0E0,0E0,0E0,0E0,0E0,0E0,0E0,0E0,0E0,0E0,0E0,0E0,0E0,0E0,0E0,0E0,0E0,0E0,0E0,0E0,0E0,0E0,0E0,0E0,0E0,0E0,0E0,0E0,0E0,0E0,0E0,0E0,0E0,0E0,0E0,0E0,0E0,0E0,0E0],"parents":[2147483647,0,0,1,1,2,2,3,3,4,4,5,5,6,6,7,7,8,8,9,9,10,10,11,11,12,12,13,13,14,14,15,15,16,16,17,17,18,18,19,19,20,20,21,21,22,22,23,23,24,24,25,25,26,26,27,27,28,28,29,29,30,30,31,31,32,32,33,33,35,35,36,36,37,37,38,38,39,39,40,40,42,42,43,43,44,44,45,45,46,46,47,47,48,48,49,49,51,51,53,53,54,54,55,55,56,56,57,57,58,58,59,59,60,60,61,61],"right_children":[2,4,6,8,10,12,14,16,18,20,22,24,26,28,30,32,34,36,38,40,42,44,46,48,50,52,54,56,58,60,62,64,66,68,-1,70,72,74,76,78,80,-1,82,84,86,88,90,92,94,96,-1,98,-1,100,102,104,106,108,110,112,114,116,-1,-1,-1,-1,-1,-1,-1,-1,-1,-1,-1,-1,-1,-1,-1,-1,-1,-1,-1,-1,-1,-1,-1,-1,-1,-1,-1,-1,-1,-1,-1,-1,-1,-1,-1,-1,-1,-1,-1,-1,-1,-1,-1,-1,-1,-1,-1,-1,-1,-1,-1,-1,-1,-1,-1],"split_conditions":[5E-1,4.3453738E-1,1.2361111E-1,4.5E0,3.5E0,4.9641812E-1,2.4722221E-1,5.65E1,1.2225E1,2.5833333E-1,1.2422222E1,8.5E0,1.4828571E1,7.543259E1,8.5E0,6.1914463E1,7.875E1,1.7071429E-1,9.583333E-2,6.021848E1,1.155E1,9.219697E0,4.8285713E0,4.0464287E1,1.1E2,8.592223E1,9.86229E-2,4.9305557E1,1.7321429E-1,2.0833334E-2,8.5319855E1,1.9967295E1,9.166667E-2,1.6666666E-2,-1.6434187E-2,7.57025E1,5.0494186E1,4.289765E-4,8.0933395E1,9.375E-2,8.7611084E1,2.8390188E-3,1.9583332E1,5.55E-17,8.031474E1,9.728492E-2,2.2261906E-1,6.487843E1,7.446051E1,1.49E1,1.4109421E-2,6.828609E1,6.702693E-3,2.1875E1,1.14989206E-1,2.1125E1,5.9333336E1,1.4330357E-1,2.5E-1,9.9E0,8.477699E1,1.45E1,-1.1216653E-2,-5.758792E-3,1.497249E-3,-1.5581397E-3,4.7581745E-3,-5.5426834E-3,-1.6927982E-2,-7.305329E-3,1.3607299E-3,-1.15626985E-2,3.6132778E-3,1.5061776E-3,4.1404385E-3,6.6965125E-3,1.1207137E-2,-2.8251505E-3,-1.8536689E-2,1.4460013E-3,7.1604387E-3,1.2351762E-2,5.784009E-3,1.1780432E-2,4.4866237E-3,-7.844851E-5,8.020918E-3,8.346058E-3,1.1192892E-2,-1.6368262E-3,7.827163E-3,-8.894026E-3,-6.217997E-3,-1.1814256E-2,-7.295268E-3,-9.058803E-3,-2.4136172E-3,-5.068058E-3,-1.0106302E-2,-4.7168144E-4,-4.4062324E-3,2.5655536E-3,-1.07892165E-2,6.516621E-3,-2.6937856E-4,1.6201748E-2,9.445581E-3,-1.5030402E-3,5.308956E-3,-1.0264818E-2,-8.7526365E-4,8.649819E-3,-2.012662E-4,1.0179025E-2,1.8751645E-2,2.4830012E-3,1.3292268E-2],"split_indices":[2,4,3,8,8,4,3,9,9,6,9,8,9,7,8,7,9,6,3,7,9,9,4,9,9,7,3,9,3,6,7,9,3,6,0,7,7,6,7,6,7,0,9,3,7,3,3,7,7,9,0,7,0,9,3,9,9,3,4,4,7,8,0,0,0,0,0,0,0,0,0,0,0,0,0,0,0,0,0,0,0,0,0,0,0,0,0,0,0,0,0,0,0,0,0,0,0,0,0,0,0,0,0,0,0,0,0,0,0,0,0,0,0,0,0,0,0],"split_type":[0,0,0,0,0,0,0,0,0,0,0,0,0,0,0,0,0,0,0,0,0,0,0,0,0,0,0,0,0,0,0,0,0,0,0,0,0,0,0,0,0,0,0,0,0,0,0,0,0,0,0,0,0,0,0,0,0,0,0,0,0,0,0,0,0,0,0,0,0,0,0,0,0,0,0,0,0,0,0,0,0,0,0,0,0,0,0,0,0,0,0,0,0,0,0,0,0,0,0,0,0,0,0,0,0,0,0,0,0,0,0,0,0,0,0,0,0],"sum_hessian":[4.5848594E4,3.0259219E4,1.5589372E4,2.3049129E4,7.2100903E3,1.3088126E4,2.5012468E3,8.46672E3,1.4582409E4,1.2852101E3,5.92488E3,8.600403E3,4.4877227E3,1.6174708E3,8.837759E2,8.219641E3,2.4707878E2,1.8228687E3,1.2759541E4,1.0425905E3,2.4261963E2,6.3736707E2,5.287513E3,7.211415E3,1.3889882E3,9.4368475E2,3.5440378E3,7.4796405E2,8.695068E2,3.884329E2,4.95343E2,1.8294044E3,6.390237E3,1.9199121E2,5.508757E1,1.2069749E3,6.158938E2,1.2039352E4,7.201895E2,1.9334793E2,8.492425E2,4.2229115E1,2.0039052E2,1.6772832E2,4.6963876E2,4.6326895E3,6.5482367E2,5.619106E3,1.5923088E3,1.3584423E3,3.0545843E1,9.013268E2,4.2357994E1,2.901407E3,6.426309E2,6.3676044E2,1.11203636E2,4.7419733E2,3.9530948E2,2.30308E2,1.581249E2,4.6918698E2,2.6155985E1,1.5077305E3,3.2167395E2,6.199886E3,1.9035045E2,1.6246597E2,2.9525236E1,8.4116046E2,3.6581433E2,4.6008396E1,5.6988544E2,7.552681E3,4.4866704E3,4.9071698E2,2.294725E2,1.6636185E2,2.698608E1,6.955553E2,1.536872E2,1.3739386E2,6.2996655E1,5.8940006E1,1.08788315E2,3.807333E2,8.890544E1,2.5078335E3,2.124856E3,2.829552E2,3.718685E2,1.4877366E3,4.1313696E3,7.5687317E2,8.3543567E2,1.883637E2,1.1700786E3,4.344149E2,4.669119E2,1.1087908E3,1.7926161E3,6.124373E2,3.0193636E1,3.7941092E2,2.573495E2,3.729527E1,7.390837E1,1.7898674E2,2.9521057E2,6.0680645E1,3.3462885E2,1.9401085E2,3.629715E1,1.2975723E2,2.8367655E1,3.9350592E2,7.568106E1],"tree_param":{"num_deleted":"0","num_feature":"10","num_nodes":"117","size_leaf_vector":"0"}},{"base_weights":[9.771106E-4,3.7729698E-1,-6.3174E-1,8.062254E-1,1.9124922E-1,-7.683212E-1,1.722986E-1,6.7911625E-1,1.1449864E0,-2.957282E-1,4.085373E-1,-4.5816424E-1,-1.1310933E0,5.548261E-1,-2.6692015E-1,7.959477E-1,5.182049E-1,7.185913E-1,1.2265896E0,-6.0495746E-1,-9.257095E-2,6.9471145E-1,-6.653375E-2,-5.6993466E-2,-1.1247878E0,-1.2837381E0,-7.850462E-1,-2.8331164E-1,7.1057343E-1,-7.5901634E-1,3.91169E-2,-3.3576062E-1,8.203438E-1,4.4553846E-1,9.459587E-1,8.5875386E-1,-1.901745E-1,1.0968995E0,1.38087E0,-1.8283455E-1,-8.517129E-1,2.066495E-1,-4.479372E-1,8.095222E-1,2.1774518E-1,-2.6894704E-1,4.259991E-1,-7.7797985E-1,1.1212446E-1,-1.1693453E0,-3.0368674E-1,-1.0252341E0,-1.4390546E0,-8.9845914E-1,-3.988184E-2,-1.6765567E0,-3.6263503E-2,7.955629E-1,-6.496436E-1,-2.506682E-1,-1.2635642E0,-6.381888E-2,9.8752916E-1,6.32983E-2,-1.1150434E0,4.7519624E-1,9.018956E-1,5.0225025E-1,5.4353938E-2,3.069522E-1,1.0960269E0,1.142993E0,5.8524877E-1,1.6661906E0,1.0458224E0,3.5868654E-1,1.4094789E0,-2.5504246E-1,1.0158131E0,-9.5647293E-1,-5.3263825E-1,1.6360864E-2,6.5245265E-1,-6.9156265E-1,1.7034544E-1,1.4875354E-1,8.7784284E-1,-4.8278558E-1,3.822065E-1,-8.091795E-2,-6.492899E-1,6.394605E-1,-1.7043489E-1,-1.408007E0,-3.284859E-1,3.1704774E-1,-1.11189686E-1,-1.0980637E0,-1.5981957E0,-1.5319384E0,4.2956746E-1,-8.768156E-1,-1.6145632E0,-1.50088E0,-8.978347E-1,-7.258175E-1,-1.3550793E0,2.1877082E-1,-7.8051305E-1,-4.3138778E-1,6.898369E-1,-2.4643652E-1,8.9157754E-1,-2.0386483E-1,-1.1121266E0,-1.0862066E0,-3.6705926E-2,-9.668155E-1,-1.5482655E0,-1.4205012E-1,1.4301301E0,1.5999305E0,4.5590755E-1],"categories":[],"categories_nodes":[],"categories_segments":[],"categories_sizes":[],"default_left":[1,1,1,1,1,1,1,1,1,1,1,1,1,1,1,1,1,1,1,1,1,1,1,1,1,1,1,1,1,1,1,1,1,1,1,1,0,1,1,1,1,1,1,1,1,1,1,1,1,1,1,1,1,1,1,0,1,1,1,1,1,1,1,0,0,0,0,0,0,0,0,0,0,0,0,0,0,0,0,0,0,0,0,0,0,0,0,0,0,0,0,0,0,0,0,0,0,0,0,0,0,0,0,0,0,0,0,0,0,0,0,0,0,0,0,0,0,0,0,0,0,0,0],"id":8,"left_children":[1,3,5,7,9,11,13,15,17,19,21,23,25,27,29,31,33,35,37,39,41,43,45,47,49,51,53,55,57,59,61,63,65,67,69,71,-1,73,75,77,79,81,83,85,87,89,91,93,95,97,99,101,103,105,107,-1,109,111,113,115,117,119,121,-1,-1,-1,-1,-1,-1,-1,-1,-1,-1,-1,-1,-1,-1,-1,-1,-1,-1,-1,-1,-1,-1,-1,-1,-1,-1,-1,-1,-1,-1,-1,-1,-1,-1,-1,-1,-1,-1,-1,-1,-1,-1,-1,-1,-1,-1,-1,-1,-1,-1,-1,-1,-1,-1,-1,-1,-1,-1,-1,-1],"loss_changes":[1.0946877E4,2.2999917E3,1.8833726E3,3.7360986E2,2.1281875E3,1.6477617E3,4.1877194E2,1.18153564E2,8.0583984E1,3.8944666E2,1.8909995E3,2.1133916E3,3.544209E2,1.7436542E2,1.7500723E2,1.01994385E2,8.196155E1,4.9695892E1,3.6587402E1,2.5550256E2,3.9869632E2,4.7462256E2,5.213985E2,6.0235864E2,1.0751538E2,1.8484375E2,1.7467749E2,7.130623E1,1.3079626E2,1.1313574E2,7.0368614E1,2.484817E1,1.000105E2,5.054538E1,3.5979767E1,2.4363129E1,0E0,2.8018799E1,2.4923828E1,7.882216E1,5.0482666E1,1.7232884E2,2.5856784E2,3.1514893E2,1.9455511E2,2.6476242E2,1.9425018E2,2.644265E2,1.831724E2,8.235742E1,1.4131949E2,1.511726E2,9.47583E1,1.3941248E2,5.3301994E1,0E0,5.1886578E1,1.0654187E2,1.2876688E1,3.9551945E1,1.5565582E1,7.540308E1,2.1061531E1,0E0,0E0,0E0,0E0,0E0,0E0,0E0,0E0,0E0,0E0,0E0,0E0,0E0,0E0,0E0,0E0,0E0,0E0,0E0,0E0,0E0,0E0,0E0,0E0,0E0,0E0,0E0,0E0,0E0,0E0,0E0,0E0,0E0,0E0,0E0,0E0,0E0,0E0,0E0,0E0,0E0,0E0,0E0,0E0,0E0,0E0,0E0,0E0,0E0,0E0,0E0,0E0,0E0,0E0,0E0,0E0,0E0,0E0,0E0,0E0],"parents":[2147483647,0,0,1,1,2,2,3,3,4,4,5,5,6,6,7,7,8,8,9,9,10,10,11,11,12,12,13,13,14,14,15,15,16,16,17,17,18,18,19,19,20,20,21,21,22,22,23,23,24,24,25,25,26,26,27,27,28,28,29,29,30,30,31,31,32,32,33,33,34,34,35,35,37,37,38,38,39,39,40,40,41,41,42,42,43,43,44,44,45,45,46,46,47,47,48,48,49,49,50,50,51,51,52,52,53,53,54,54,56,56,57,57,58,58,59,59,60,60,61,61,62,62],"right_children":[2,4,6,8,10,12,14,16,18,20,22,24,26,28,30,32,34,36,38,40,42,44,46,48,50,52,54,56,58,60,62,64,66,68,70,72,-1,74,76,78,80,82,84,86,88,90,92,94,96,98,100,102,104,106,108,-1,110,112,114,116,118,120,122,-1,-1,-1,-1,-1,-1,-1,-1,-1,-1,-1,-1,-1,-1,-1,-1,-1,-1,-1,-1,-1,-1,-1,-1,-1,-1,-1,-1,-1,-1,-1,-1,-1,-1,-1,-1,-1,-1,-1,-1,-1,-1,-1,-1,-1,-1,-1,-1,-1,-1,-1,-1,-1,-1,-1,-1,-1,-1,-1,-1],"split_conditions":[1.4346144E2,6.825455E1,8.660714E-2,8.5E0,5E-1,1.9614474E2,5E-1,5.058178E1,5E-1,3.5E0,5E-1,5E-1,7.5E0,5E-1,1.3095239E-1,4.6761503E0,6.333333E-2,6.264084E1,1.15E1,9.1649445E1,5E-1,3.1583332E1,7.888889E-2,3.5E0,5.3095236E0,2.3177567E2,4.979105E-2,1.1833334E1,3.6583336E1,1.7303708E2,1.45E1,6.0142857E1,1.6416668E1,4.4833336E1,1.6791668E1,2.8892857E1,-1.901745E-3,1.575E1,1.475E1,1.2083334E-1,4.5E-1,2.4509554E-1,2.5277777E0,2.5E0,4.5E0,3.1732143E1,1.2442363E2,5E-1,1.6525272E2,4.4875E1,5.5E0,2.6732143E1,4.2637844E-2,3.458532E2,5.0111964E-2,-1.6765567E-2,7.5E0,1.1125E1,6.25E-1,5E-1,1.755E1,5.275E-1,1.55E1,6.32983E-4,-1.1150434E-2,4.751962E-3,9.018956E-3,5.0225025E-3,5.4353935E-4,3.069522E-3,1.0960269E-2,1.1429929E-2,5.8524874E-3,1.6661907E-2,1.04582235E-2,3.5868653E-3,1.4094789E-2,-2.5504245E-3,1.0158131E-2,-9.564729E-3,-5.3263824E-3,1.6360864E-4,6.5245265E-3,-6.9156266E-3,1.7034544E-3,1.4875353E-3,8.778429E-3,-4.8278556E-3,3.822065E-3,-8.0917944E-4,-6.492899E-3,6.3946047E-3,-1.7043488E-3,-1.408007E-2,-3.284859E-3,3.1704775E-3,-1.1118968E-3,-1.0980637E-2,-1.5981955E-2,-1.5319384E-2,4.2956746E-3,-8.768156E-3,-1.6145632E-2,-1.50088E-2,-8.978347E-3,-7.258175E-3,-1.3550793E-2,2.1877082E-3,-7.8051304E-3,-4.313878E-3,6.898369E-3,-2.4643652E-3,8.915775E-3,-2.0386481E-3,-1.1121266E-2,-1.08620655E-2,-3.6705926E-4,-9.668155E-3,-1.5482654E-2,-1.4205012E-3,1.4301301E-2,1.5999304E-2,4.5590755E-3],"split_indices":[0,0,3,8,5,0,2,0,5,8,2,2,8,5,3,0,3,0,8,0,2,9,3,8,4,0,3,9,9,0,8,9,9,9,9,9,0,9,9,3,4,4,4,8,8,9,0,5,0,9,8,9,3,0,3,0,8,9,4,5,9,3,8,0,0,0,0,0,0,0,0,0,0,0,0,0,0,0,0,0,0,0,0,0,0,0,0,0,0,0,0,0,0,0,0,0,0,0,0,0,0,0,0,0,0,0,0,0,0,0,0,0,0,0,0,0,0,0,0,0,0,0,0],"split_type":[0,0,0,0,0,0,0,0,0,0,0,0,0,0,0,0,0,0,0,0,0,0,0,0,0,0,0,0,0,0,0,0,0,0,0,0,0,0,0,0,0,0,0,0,0,0,0,0,0,0,0,0,0,0,0,0,0,0,0,0,0,0,0,0,0,0,0,0,0,0,0,0,0,0,0,0,0,0,0,0,0,0,0,0,0,0,0,0,0,0,0,0,0,0,0,0,0,0,0,0,0,0,0,0,0,0,0,0,0,0,0,0,0,0,0,0,0,0,0,0,0,0,0],"sum_hessian":[4.5972613E4,2.8827924E4,1.714469E4,8.719104E3,2.010882E4,1.4655704E4,2.4889863E3,6.3442974E3,2.3748062E3,6.203469E3,1.3905353E4,7.9032275E3,6.752476E3,1.330625E3,1.1583613E3,3.670722E3,2.6735752E3,3.8463162E2,1.9901744E3,2.4576702E3,3.7457988E3,8.67802E3,5.227332E3,4.935373E3,2.9678547E3,4.681986E3,2.0704905E3,2.0792139E2,1.1227036E3,4.4381314E2,7.145482E2,7.67096E1,3.5940125E3,2.2887598E3,3.848154E2,3.3368826E2,5.0943367E1,1.0892737E3,9.009008E2,9.082188E2,1.5494514E3,2.0332731E3,1.7125258E3,6.9928765E3,1.6851433E3,3.705853E3,1.5214792E3,9.3713367E2,3.9982393E3,2.8140269E3,1.5382782E2,1.7625043E3,2.9194812E3,1.7962573E3,2.7423322E2,2.976439E1,1.78157E2,1.0575426E3,6.516098E1,2.2258733E2,2.2122583E2,6.4546954E2,6.9078636E1,5.1302986E1,2.5406618E1,6.897907E2,2.9042217E3,1.9976962E3,2.9106366E2,7.456087E1,3.1025452E2,1.6057758E2,1.7311067E2,8.513378E1,1.00413983E3,2.5461523E1,8.754393E2,8.580438E2,5.0175E1,1.1632709E3,3.861805E2,1.4267324E3,6.0654065E2,1.2288027E3,4.83723E2,6.5627563E2,6.336601E3,3.193826E2,1.3657607E3,2.4818018E3,1.2240511E3,1.1208823E3,4.0059702E2,3.885039E2,5.486298E2,2.0855784E3,1.9126609E3,2.4183352E3,3.956917E2,5.7097393E1,9.673043E1,1.4114507E3,3.5105362E2,2.6171204E3,3.02361E2,1.3068978E3,4.8935947E2,2.036343E2,7.0598915E1,1.16124756E2,6.2032246E1,8.867542E1,9.688671E2,3.4720573E1,3.0440405E1,4.3751213E1,1.788361E2,1.12237595E2,1.0898823E2,6.1489545E2,3.0574125E1,3.0350117E1,3.8728516E1],"tree_param":{"num_deleted":"0","num_feature":"10","num_nodes":"123","size_leaf_vector":"0"}},{"base_weights":[-3.9464193E-3,-1.791906E-1,4.7936428E-1,-2.983208E-1,4.1367385E-1,7.0459926E-1,-1.8680109E-2,-1.0881349E-1,-6.878473E-1,7.129604E-1,7.490276E-2,6.0368764E-1,1.1111253E0,-2.4970649E-1,6.342091E-1,-2.2250424E-1,3.7497023E-1,-7.345908E-1,-2.4268493E-1,-5.294033E-1,7.830256E-1,-2.137431E-1,3.0891788E-1,2.6619115E-1,6.931649E-1,5.1824856E-1,1.2340118E0,-5.0611633E-1,-8.089179E-2,1.2555857E0,4.8231333E-1,-4.9994013E-1,-6.339274E-3,5.4645E-3,5.4744905E-1,-8.5476136E-1,-5.71041E-1,-8.844715E-1,1.7823231E-1,-1.4499058E0,-1.7626177E-1,4.2810154E-1,9.823504E-1,-3.4096995E-1,7.711667E-1,-2.60899E-2,4.5943582E-1,-1.587148E-1,4.923252E-1,6.167613E-1,1.0356256E0,8.913601E-1,1.09369725E-1,1.3218594E0,6.8776447E-1,-5.9779966E-1,1.0807774E0,3.289506E-2,-5.3292394E-1,9.340829E-1,1.4949765E0,-2.9956564E-1,6.1581874E-1,-7.549337E-1,-3.210283E-1,-2.7722836E-1,1.4863534E-1,-3.7729344E-1,4.3314457E-1,5.567248E-2,6.843035E-1,-9.7212046E-1,-4.4455373E-1,1.7106624E0,-5.886909E-1,-5.509413E-1,-1.7533516E0,7.07786E-1,-1.0704406E-1,-1.1350583E0,2.1875602E-1,-1.1424348E0,4.714871E-1,5.7464147E-1,1.0854852E0,-9.9463534E-1,-1.3332076E-1,-5.169773E-1,1.1259377E0,-4.114215E-1,2.2372617E-1,-4.061262E-1,5.594146E-1,-1.0061381E0,2.1874467E-1,6.11302E-1,-6.0144085E-1,4.6037152E-1,7.124963E-1,1.0774608E0,-2.523524E-1,6.337363E-2,1.0714338E0,-1.0089481E0,5.392569E-1,1.2121575E0,1.5897645E0,2.5450307E-1,9.6698457E-1,-8.257736E-1,4.4653896E-2,7.665034E-1,1.2626815E0,-2.2924231E-1,1.378582E-1,-6.8058413E-1,3.4547064E-1,3.3177033E-1,1.3564906E0,1.064783E0,1.6727867E0,-7.4001825E-1,1.0430813E0,8.2828206E-1,1.2137013E-1],"categories":[],"categories_nodes":[],"categories_segments":[],"categories_sizes":[],"default_left":[1,1,1,1,1,1,1,1,1,1,1,1,1,1,1,1,1,1,1,1,1,1,1,1,1,1,1,1,1,1,1,1,1,1,1,1,1,1,1,0,1,1,1,1,1,1,1,1,1,1,1,1,1,1,1,1,1,1,1,1,1,1,1,0,0,0,0,0,0,0,0,0,0,0,0,0,0,0,0,0,0,0,0,0,0,0,0,0,0,0,0,0,0,0,0,0,0,0,0,0,0,0,0,0,0,0,0,0,0,0,0,0,0,0,0,0,0,0,0,0,0,0,0,0,0],"id":9,"left_children":[1,3,5,7,9,11,13,15,17,19,21,23,25,27,29,31,33,35,37,39,41,43,45,47,49,51,53,55,57,59,61,63,65,67,69,71,73,75,77,-1,79,81,83,85,87,89,91,93,95,97,99,101,103,105,107,109,111,113,115,117,119,121,123,-1,-1,-1,-1,-1,-1,-1,-1,-1,-1,-1,-1,-1,-1,-1,-1,-1,-1,-1,-1,-1,-1,-1,-1,-1,-1,-1,-1,-1,-1,-1,-1,-1,-1,-1,-1,-1,-1,-1,-1,-1,-1,-1,-1,-1,-1,-1,-1,-1,-1,-1,-1,-1,-1,-1,-1,-1,-1,-1,-1,-1,-1],"loss_changes":[3.8850723E3,2.3778643E3,1.3695244E3,2.068987E3,5.707261E2,3.4312988E2,5.735492E2,1.0374774E3,1.9023975E2,2.6098816E2,1.7876518E2,2.0281665E2,1.1993652E2,1.21326935E2,9.218396E1,9.158044E2,2.2850519E2,1.6183936E2,2.3684221E2,5.1045757E1,1.9910156E2,1.4860526E2,7.390341E1,1.3625089E2,1.3768823E2,4.3647446E1,6.409277E1,1.6289127E2,8.751283E1,1.1844696E1,8.406134E1,3.0433032E2,3.6061688E2,1.876011E2,1.6427155E2,2.2892651E2,1.428883E2,9.822629E1,8.029863E1,0E0,4.5359093E1,7.014868E1,7.455786E1,1.4188182E2,6.3069786E1,4.3894577E1,8.7766266E1,1.5806834E2,1.2089639E2,6.428125E1,5.289612E1,2.192044E1,6.814486E1,3.0881592E1,2.2739082E1,1.5482751E2,1.2327118E0,3.7333233E1,4.4853996E1,2.0885735E1,4.4821014E0,7.0498535E1,7.148044E1,0E0,0E0,0E0,0E0,0E0,0E0,0E0,0E0,0E0,0E0,0E0,0E0,0E0,0E0,0E0,0E0,0E0,0E0,0E0,0E0,0E0,0E0,0E0,0E0,0E0,0E0,0E0,0E0,0E0,0E0,0E0,0E0,0E0,0E0,0E0,0E0,0E0,0E0,0E0,0E0,0E0,0E0,0E0,0E0,0E0,0E0,0E0,0E0,0E0,0E0,0E0,0E0,0E0,0E0,0E0,0E0,0E0,0E0,0E0,0E0,0E0,0E0],"parents":[2147483647,0,0,1,1,2,2,3,3,4,4,5,5,6,6,7,7,8,8,9,9,10,10,11,11,12,12,13,13,14,14,15,15,16,16,17,17,18,18,19,19,20,20,21,21,22,22,23,23,24,24,25,25,26,26,27,27,28,28,29,29,30,30,31,31,32,32,33,33,34,34,35,35,36,36,37,37,38,38,40,40,41,41,42,42,43,43,44,44,45,45,46,46,47,47,48,48,49,49,50,50,51,51,52,52,53,53,54,54,55,55,56,56,57,57,58,58,59,59,60,60,61,61,62,62],"right_children":[2,4,6,8,10,12,14,16,18,20,22,24,26,28,30,32,34,36,38,40,42,44,46,48,50,52,54,56,58,60,62,64,66,68,70,72,74,76,78,-1,80,82,84,86,88,90,92,94,96,98,100,102,104,106,108,110,112,114,116,118,120,122,124,-1,-1,-1,-1,-1,-1,-1,-1,-1,-1,-1,-1,-1,-1,-1,-1,-1,-1,-1,-1,-1,-1,-1,-1,-1,-1,-1,-1,-1,-1,-1,-1,-1,-1,-1,-1,-1,-1,-1,-1,-1,-1,-1,-1,-1,-1,-1,-1,-1,-1,-1,-1,-1,-1,-1,-1,-1,-1,-1,-1,-1,-1],"split_conditions":[1.0025E2,9.86229E-2,5E-1,5E-1,5E-1,4.360767E-1,9.583333E-2,1.9984293E-1,3.225E0,1.145E1,1.8285713E0,5E-1,5E-1,6.4876205E1,1.06149994E2,7.331378E1,5E-1,7.6950516E1,7.71E1,6.865E1,7.5149994E1,5.4666668E1,2.04375E1,1.0705E2,1.286E2,1.45E0,3.4642859E0,5.5458336E1,5.3125E1,7.2656364E1,2.6666668E-1,1.5125E1,7.3149994E1,7.539349E1,6.775E1,9.2850006E1,7.697189E1,3.1463636E1,1.8778572E1,-1.4499057E-2,5E-1,1.225E1,5E-1,5E-1,7.365E1,7.89E1,6.455867E1,6.1287E1,7.878374E-2,6.6402405E1,4.0565044E-2,1.4416666E1,2.9166665E-2,1.4500001E-1,2.1666667E-1,1.397E2,5.9539505E1,1.6875E1,2.9166665E-2,2.2916665E0,4.166667E-1,2.2916666E-1,5.0454545E0,-7.549337E-3,-3.210283E-3,-2.7722835E-3,1.4863533E-3,-3.7729342E-3,4.331446E-3,5.567248E-4,6.843035E-3,-9.721205E-3,-4.4455375E-3,1.7106622E-2,-5.8869086E-3,-5.509413E-3,-1.7533515E-2,7.07786E-3,-1.0704406E-3,-1.1350582E-2,2.18756E-3,-1.1424348E-2,4.714871E-3,5.7464144E-3,1.0854852E-2,-9.946353E-3,-1.3332076E-3,-5.169773E-3,1.1259377E-2,-4.114215E-3,2.2372617E-3,-4.061262E-3,5.594146E-3,-1.006138E-2,2.1874467E-3,6.1130202E-3,-6.0144085E-3,4.603715E-3,7.1249628E-3,1.0774608E-2,-2.5235238E-3,6.337363E-4,1.0714337E-2,-1.008948E-2,5.3925687E-3,1.2121575E-2,1.5897645E-2,2.5450306E-3,9.669846E-3,-8.2577355E-3,4.4653896E-4,7.665034E-3,1.2626815E-2,-2.292423E-3,1.378582E-3,-6.8058413E-3,3.4547064E-3,3.3177033E-3,1.3564906E-2,1.064783E-2,1.6727867E-2,-7.4001825E-3,1.0430813E-2,8.282821E-3,1.2137012E-3],"split_indices":[1,3,2,2,2,4,3,4,4,9,4,5,5,7,1,7,5,7,1,1,1,9,9,1,1,4,4,9,9,7,4,9,1,7,1,1,7,9,9,0,5,9,5,5,1,1,7,7,4,7,4,9,3,3,3,1,7,9,3,4,4,3,4,0,0,0,0,0,0,0,0,0,0,0,0,0,0,0,0,0,0,0,0,0,0,0,0,0,0,0,0,0,0,0,0,0,0,0,0,0,0,0,0,0,0,0,0,0,0,0,0,0,0,0,0,0,0,0,0,0,0,0,0,0,0],"split_type":[0,0,0,0,0,0,0,0,0,0,0,0,0,0,0,0,0,0,0,0,0,0,0,0,0,0,0,0,0,0,0,0,0,0,0,0,0,0,0,0,0,0,0,0,0,0,0,0,0,0,0,0,0,0,0,0,0,0,0,0,0,0,0,0,0,0,0,0,0,0,0,0,0,0,0,0,0,0,0,0,0,0,0,0,0,0,0,0,0,0,0,0,0,0,0,0,0,0,0,0,0,0,0,0,0,0,0,0,0,0,0,0,0,0,0,0,0,0,0,0,0,0,0,0,0],"sum_hessian":[4.5868434E4,3.3663953E4,1.220448E4,2.8032518E4,5.6314346E3,8.404032E3,3.8004478E3,1.885996E4,9.172556E3,2.9884539E3,2.6429807E3,6.736539E3,1.6674934E3,2.808273E3,9.9217505E2,1.5272509E4,3.5874526E3,8.299234E3,8.733208E2,1.5871147E2,2.8297422E3,1.1826555E3,1.4603253E3,1.4139055E3,5.3226333E3,2.8818744E2,1.379306E3,1.1127576E3,1.6955153E3,1.9223712E2,7.9993787E2,6.68669E3,8.585819E3,1.1428861E3,2.4445667E3,4.7790063E3,3.5202283E3,3.4562823E2,5.2769257E2,4.2399975E1,1.1631149E2,1.0200813E3,1.809661E3,1.0485896E3,1.3406592E2,4.5227637E2,1.00804895E3,4.906508E2,9.2325476E2,4.35614E3,9.66493E2,1.4924739E2,1.3894006E2,1.1857511E3,1.9355493E2,1.0531013E3,5.9656326E1,1.3549493E3,3.4056583E2,8.58987E1,1.06338425E2,1.15958855E2,6.8397906E2,2.7542036E3,3.932486E3,3.1249453E3,5.460874E3,6.027175E2,5.401686E2,5.3328357E2,1.9112831E3,3.7135432E3,1.0654629E3,2.5742958E1,3.4944854E3,2.5186015E2,9.37681E1,1.844611E2,3.4323148E2,3.341304E1,8.289845E1,2.6152569E1,9.939287E2,3.6812772E2,1.4415332E3,2.5096323E2,7.9762634E2,2.8558622E1,1.0550729E2,1.7813731E2,2.7413907E2,1.03490486E2,9.045585E2,1.5075546E2,3.3989532E2,8.336049E2,8.964987E1,1.6589762E3,2.697164E3,9.366259E2,2.9867086E1,2.7419693E1,1.218277E2,3.7759827E1,1.0118024E2,8.48207E2,3.3754407E2,7.753887E1,1.1601606E2,7.774268E2,2.7567444E2,2.554393E1,3.4112396E1,3.858162E2,9.691332E2,2.9223383E2,4.8332012E1,3.690328E1,4.8995422E1,3.4822067E1,7.151636E1,8.804654E1,2.7912315E1,4.77134E2,2.0684503E2],"tree_param":{"num_deleted":"0","num_feature":"10","num_nodes":"125","size_leaf_vector":"0"}},{"base_weights":[2.6480744E-3,3.6096275E-1,-6.619713E-1,8.6121017E-1,1.9832928E-1,-8.050338E-1,1.7748213E-1,7.3401004E-1,1.184532E0,-2.8705123E-1,4.1517588E-1,-5.914772E-1,-1.2614498E0,-1.7984986E-1,5.316255E-1,-2.4250825E-1,7.532645E-1,8.1546897E-1,1.2462915E0,-3.36273E-2,-5.498995E-1,5.735959E-1,-7.685437E-2,-1.0161383E0,-4.363584E-1,-1.337904E0,-6.361482E-1,-8.7850493E-1,-2.0137574E-3,-1.3597947E-1,6.827212E-1,-7.363489E-1,6.53464E-1,6.905191E-1,9.8574084E-1,9.827914E-1,3.613916E-1,1.1195251E0,1.3857708E0,-1.4303622E-1,6.444581E-1,-9.7915334E-1,-3.305622E-1,1.1983384E-1,6.786893E-1,4.059129E-1,-3.3407867E-1,-9.274124E-1,-1.5439516E0,-3.525934E-1,-1.1255844E0,-1.4018022E0,-8.830984E-1,-1.1526893E0,-1.3964635E-1,-5.674609E-1,-1.7388229E0,-3.2698172E-1,3.2499444E-1,1.5220651E-1,-1.4123989E0,8.141351E-1,3.1348807E-1,-5.5081744E-2,-1.1658381E0,7.158587E-1,-1.0549133E-1,3.1005126E-1,1.1270095E0,2.8322402E-1,1.1630989E0,-4.0515974E-1,8.473129E-1,9.78992E-1,1.342809E0,1.4123514E0,7.206627E-1,-8.136456E-2,-1.0270795E0,3.700199E-1,9.195888E-1,-1.0447328E0,-3.0817583E-1,-1.33022E-2,-8.2472414E-1,5.3121793E-1,-1.6844584E-1,8.1464344E-1,5.112619E-1,1.514746E-1,1.0462958E0,-7.936521E-1,-9.163044E-2,-1.0685997E0,-6.459915E-1,-1.6507977E0,-2.3589802E-1,-5.817012E-1,-1.6059783E-1,-1.3327725E0,-1.8228261E-1,-1.4947293E0,-1.1129345E0,-1.0251695E0,1.1520196E0,-1.2883561E0,-2.0479992E-1,-1.5117658E0,6.5668255E-2,-1.0592937E0,1.1149602E-1,-2.2549593E-1,-1.178141E0,7.4005175E-1,8.788775E-2,-4.9272418E-2,7.059986E-1,6.7597127E-1,1.3468938E0,4.593589E-1,-6.879626E-1],"categories":[],"categories_nodes":[],"categories_segments":[],"categories_sizes":[],"default_left":[1,1,1,1,1,1,1,1,1,1,1,1,1,1,1,1,1,1,1,1,1,1,1,1,1,1,1,1,1,1,1,1,0,1,1,1,1,1,1,1,1,1,1,1,1,1,1,1,1,1,1,1,1,1,1,1,0,1,1,1,0,1,1,0,0,0,0,0,0,0,0,0,0,0,0,0,0,0,0,0,0,0,0,0,0,0,0,0,0,0,0,0,0,0,0,0,0,0,0,0,0,0,0,0,0,0,0,0,0,0,0,0,0,0,0,0,0,0,0,0,0],"id":10,"left_children":[1,3,5,7,9,11,13,15,17,19,21,23,25,27,29,31,33,35,37,39,41,43,45,47,49,51,53,55,57,59,61,63,-1,65,67,69,71,73,75,77,79,81,83,85,87,89,91,93,95,97,99,101,103,105,107,109,-1,111,113,115,-1,117,119,-1,-1,-1,-1,-1,-1,-1,-1,-1,-1,-1,-1,-1,-1,-1,-1,-1,-1,-1,-1,-1,-1,-1,-1,-1,-1,-1,-1,-1,-1,-1,-1,-1,-1,-1,-1,-1,-1,-1,-1,-1,-1,-1,-1,-1,-1,-1,-1,-1,-1,-1,-1,-1,-1,-1,-1,-1,-1],"loss_changes":[1.0954953E4,2.430983E3,1.9355806E3,2.994673E2,2.374566E3,1.3400889E3,2.9729584E2,9.9504395E1,4.4759277E1,4.6377808E2,1.2157415E3,6.168157E2,2.0764404E2,1.4486707E2,1.1935962E2,4.613922E1,7.365869E1,2.1840134E1,2.7908936E1,2.6324075E2,3.2086523E2,5.621008E2,4.7188074E2,1.1433765E2,3.957655E2,1.1076367E2,1.22686844E2,6.093474E1,9.9375E1,8.119626E1,4.5880524E1,1.9053696E1,0E0,8.25343E1,1.0323401E2,2.6530289E1,3.2059444E1,2.6433838E1,1.2353027E1,1.661412E2,3.618724E1,4.9786865E1,3.5482178E2,2.6366107E2,2.1684277E2,2.1444934E2,2.7581433E2,8.377991E1,4.8708008E1,2.6935162E2,1.4441357E2,8.832568E1,1.4226541E2,2.9266571E1,7.046068E1,5.946445E1,0E0,3.9607796E1,4.5382023E1,2.0325432E1,0E0,4.996118E1,3.777178E1,0E0,0E0,0E0,0E0,0E0,0E0,0E0,0E0,0E0,0E0,0E0,0E0,0E0,0E0,0E0,0E0,0E0,0E0,0E0,0E0,0E0,0E0,0E0,0E0,0E0,0E0,0E0,0E0,0E0,0E0,0E0,0E0,0E0,0E0,0E0,0E0,0E0,0E0,0E0,0E0,0E0,0E0,0E0,0E0,0E0,0E0,0E0,0E0,0E0,0E0,0E0,0E0,0E0,0E0,0E0,0E0,0E0,0E0],"parents":[2147483647,0,0,1,1,2,2,3,3,4,4,5,5,6,6,7,7,8,8,9,9,10,10,11,11,12,12,13,13,14,14,15,15,16,16,17,17,18,18,19,19,20,20,21,21,22,22,23,23,24,24,25,25,26,26,27,27,28,28,29,29,30,30,31,31,33,33,34,34,35,35,36,36,37,37,38,38,39,39,40,40,41,41,42,42,43,43,44,44,45,45,46,46,47,47,48,48,49,49,50,50,51,51,52,52,53,53,54,54,55,55,57,57,58,58,59,59,61,61,62,62],"right_children":[2,4,6,8,10,12,14,16,18,20,22,24,26,28,30,32,34,36,38,40,42,44,46,48,50,52,54,56,58,60,62,64,-1,66,68,70,72,74,76,78,80,82,84,86,88,90,92,94,96,98,100,102,104,106,108,110,-1,112,114,116,-1,118,120,-1,-1,-1,-1,-1,-1,-1,-1,-1,-1,-1,-1,-1,-1,-1,-1,-1,-1,-1,-1,-1,-1,-1,-1,-1,-1,-1,-1,-1,-1,-1,-1,-1,-1,-1,-1,-1,-1,-1,-1,-1,-1,-1,-1,-1,-1,-1,-1,-1,-1,-1,-1,-1,-1,-1,-1,-1,-1],"split_conditions":[1.4746217E2,6.0898994E1,9.86229E-2,8.5E0,5E-1,2.3096204E2,1.3923077E-1,5.878129E0,5E-1,1.0527255E2,3.1732143E1,5E-1,4.297796E-2,5E-1,1.6044472E2,7.5E-1,4.874929E-2,4.726957E1,1.15E1,9.5E-2,3.5E0,3.5E0,9.020746E1,4.11E1,3.7535713E1,1.05E1,6.5E0,1.125E0,7.5961545E-2,3.7333333E0,2.61E1,4.3333336E1,6.53464E-3,2.5833335E0,1.7833332E1,1.75E1,5.427852E1,4.5833336E1,5.083333E-1,6.2916664E1,2.4E1,4.375E-1,2.4366667E1,1.5708334E1,1.1657556E2,7.083334E-2,5.5E0,5.5E0,1.375E0,5.5E0,1.05E1,6.8333335E-2,5.55E1,1.4807692E0,5E-1,1.3642856E-1,-1.7388228E-2,3.9333336E1,1.7080331E2,2.7083335E0,-1.4123989E-2,1.35E1,1.55E1,-5.508174E-4,-1.1658381E-2,7.1585868E-3,-1.0549133E-3,3.1005125E-3,1.1270095E-2,2.8322402E-3,1.1630989E-2,-4.0515973E-3,8.473129E-3,9.7899195E-3,1.3428089E-2,1.4123513E-2,7.206627E-3,-8.1364554E-4,-1.0270795E-2,3.700199E-3,9.1958875E-3,-1.0447328E-2,-3.0817583E-3,-1.33022E-4,-8.247241E-3,5.312179E-3,-1.6844583E-3,8.146434E-3,5.1126187E-3,1.5147459E-3,1.0462957E-2,-7.936521E-3,-9.1630436E-4,-1.0685997E-2,-6.459915E-3,-1.6507978E-2,-2.35898E-3,-5.817012E-3,-1.6059782E-3,-1.3327724E-2,-1.8228261E-3,-1.4947292E-2,-1.1129345E-2,-1.0251694E-2,1.1520196E-2,-1.2883561E-2,-2.047999E-3,-1.5117658E-2,6.5668253E-4,-1.05929375E-2,1.1149602E-3,-2.2549592E-3,-1.1781409E-2,7.4005174E-3,8.788775E-4,-4.927242E-4,7.059986E-3,6.7597125E-3,1.3468938E-2,4.593589E-3,-6.879626E-3],"split_indices":[0,0,3,8,5,0,3,0,5,0,9,5,3,5,0,4,3,0,8,3,8,8,0,9,9,8,8,4,6,4,9,9,0,4,9,9,0,9,3,9,9,6,9,9,0,3,8,8,4,8,8,6,9,4,5,6,0,9,0,4,0,8,8,0,0,0,0,0,0,0,0,0,0,0,0,0,0,0,0,0,0,0,0,0,0,0,0,0,0,0,0,0,0,0,0,0,0,0,0,0,0,0,0,0,0,0,0,0,0,0,0,0,0,0,0,0,0,0,0,0,0],"split_type":[0,0,0,0,0,0,0,0,0,0,0,0,0,0,0,0,0,0,0,0,0,0,0,0,0,0,0,0,0,0,0,0,0,0,0,0,0,0,0,0,0,0,0,0,0,0,0,0,0,0,0,0,0,0,0,0,0,0,0,0,0,0,0,0,0,0,0,0,0,0,0,0,0,0,0,0,0,0,0,0,0,0,0,0,0,0,0,0,0,0,0,0,0,0,0,0,0,0,0,0,0,0,0,0,0,0,0,0,0,0,0,0,0,0,0,0,0,0,0,0,0],"sum_hessian":[4.59991E4,2.988731E4,1.6111789E4,7.3304707E3,2.255684E4,1.3766237E4,2.3455513E3,5.2651978E3,2.065273E3,6.964797E3,1.5592044E4,9.381135E3,4.3851025E3,1.1673248E3,1.1782264E3,1.0107091E2,5.164127E3,3.0004474E2,1.7652281E3,3.5476045E3,3.4171924E3,1.1794961E4,3.7970833E3,2.5069844E3,6.874151E3,3.905266E3,4.7983618E2,2.3518947E2,9.321354E2,2.1698729E2,9.6123914E2,6.561758E1,3.5453327E1,4.072606E3,1.091521E3,2.1733261E2,8.271212E1,9.3335297E2,8.318752E2,3.0562522E3,4.9135208E2,1.1532351E3,2.2639573E3,2.2193752E3,9.575586E3,1.3190406E3,2.4780425E3,2.1503945E3,3.5658984E2,6.1317744E3,7.423766E2,3.4206736E3,4.8459265E2,2.3380573E2,2.4603044E2,1.7490698E2,6.0282494E1,4.681397E2,4.6399564E2,1.7784236E2,3.9144936E1,7.0679333E2,2.5444577E2,2.6386429E1,3.923115E1,3.947595E3,1.25011185E2,1.900644E2,9.0145654E2,4.5781498E1,1.7155112E2,3.1867144E1,5.084498E1,5.788794E2,3.544736E2,7.977086E2,3.416659E1,2.858903E3,1.9734915E2,2.4847433E2,2.4287775E2,1.0492524E3,1.039826E2,1.3801978E3,8.837595E2,9.1449115E2,1.304884E3,5.2799673E3,4.295618E3,9.4575195E2,3.7328876E2,8.540622E2,1.6239803E3,1.4282383E3,7.221564E2,3.2901593E2,2.7573917E1,2.7933494E3,3.3384248E3,6.0782886E2,1.3454771E2,2.5823113E3,8.3836237E2,4.538504E2,3.0742237E1,2.036916E2,3.011413E1,3.103392E1,2.1499652E2,1.012853E2,7.362167E1,4.203837E2,4.775603E1,1.6692435E2,2.970713E2,1.3087285E2,4.6969505E1,5.645412E2,1.4225214E2,2.2315282E2,3.1292955E1],"tree_param":{"num_deleted":"0","num_feature":"10","num_nodes":"121","size_leaf_vector":"0"}},{"base_weights":[4.9062963E-3,3.5863152E-1,-6.34851E-1,5.584898E-1,-3.3263E-2,-7.748239E-1,1.8487115E-1,8.708679E-2,7.2319144E-1,9.718608E-1,-1.9041187E-1,-5.372542E-1,-1.2237226E0,5.746522E-1,-2.8266522E-1,4.8386294E-1,-3.5308218E-1,1.0145521E0,6.551652E-1,6.852392E-1,1.2401987E0,-3.624634E-1,3.1340858E-1,-1.8248744E-1,-1.149969E0,-1.2984984E0,-5.5415565E-1,-1.6342806E-2,7.387317E-1,-8.5170317E-1,7.675772E-2,-9.1230065E-1,5.096861E-1,-2.1360569E-2,-7.48107E-1,1.0441728E0,2.2264099E-1,7.663746E-1,2.5822675E-1,-2.2931928E-2,7.664863E-1,1.2739172E0,3.1538543E-1,-7.849507E-2,-6.105245E-1,5.9390527E-1,-1.2658055E-1,-6.084939E-1,2.8938018E-2,-1.0976707E0,-1.6919518E0,-1.4198585E0,-1.0324193E0,-1.2078588E0,-1.8179968E-1,2.3557305E-1,-6.97083E-1,8.5573816E-1,-0E0,-4.3640476E-1,-1.3323838E0,-2.1457462E-2,8.9216995E-1,6.4689106E-1,2.58478E-1,-8.02511E-1,3.5326687E-1,-8.007116E-1,1.192934E0,6.5426755E-1,1.1037036E0,-4.4239548E-1,8.324708E-1,6.7044395E-1,9.507486E-1,1.1089803E-1,7.420563E-1,-6.367854E-1,3.8773987E-1,6.0849214E-1,1.1862278E0,1.3260987E0,7.909553E-1,7.458807E-2,-3.3983532E-1,-4.243761E-1,-1.170397E0,3.7275635E-2,6.7459905E-1,6.356493E-1,-3.7471431E-1,-5.2407813E-1,-1.4334805E0,3.651141E-1,-1.4785984E-1,-1.2175398E0,-8.534223E-1,-1.7713104E0,-7.932595E-1,-1.3200458E0,-1.6357448E0,-1.220823E0,-6.485468E-1,-1.5223278E0,-9.853393E-2,-1.0613829E0,3.6069274E-2,-2.5409162E-1,5.421735E-1,-1.266544E0,-2.4496682E-1,4.9387327E-1,1.104926E0,-3.0879486E-1,1.0204858E0,-9.0040207E-1,1.8151936E-1,-1.4958917E0,-4.7835404E-1,-1.5513197E-1,8.4105015E-1,1.4966162E0,4.1274658E-1],"categories":[],"categories_nodes":[],"categories_segments":[],"categories_sizes":[],"default_left":[1,1,1,1,1,1,1,1,1,1,1,1,1,1,1,1,1,1,1,1,1,1,1,1,1,1,1,1,1,1,1,0,1,1,1,1,1,1,1,1,1,1,0,1,1,1,1,1,1,1,1,1,1,1,1,1,1,1,1,1,1,1,1,0,0,0,0,0,0,0,0,0,0,0,0,0,0,0,0,0,0,0,0,0,0,0,0,0,0,0,0,0,0,0,0,0,0,0,0,0,0,0,0,0,0,0,0,0,0,0,0,0,0,0,0,0,0,0,0,0,0,0,0],"id":11,"left_children":[1,3,5,7,9,11,13,15,17,19,21,23,25,27,29,31,33,35,37,39,41,43,45,47,49,51,53,55,57,59,61,-1,63,65,67,69,71,73,75,77,79,81,-1,83,85,87,89,91,93,95,97,99,101,103,105,107,109,111,113,115,117,119,121,-1,-1,-1,-1,-1,-1,-1,-1,-1,-1,-1,-1,-1,-1,-1,-1,-1,-1,-1,-1,-1,-1,-1,-1,-1,-1,-1,-1,-1,-1,-1,-1,-1,-1,-1,-1,-1,-1,-1,-1,-1,-1,-1,-1,-1,-1,-1,-1,-1,-1,-1,-1,-1,-1,-1,-1,-1,-1,-1,-1],"loss_changes":[1.0422271E4,2.323177E3,1.881897E3,1.524625E3,1.5822738E3,1.4920508E3,4.36346E2,8.889482E2,2.8683057E2,1.0212024E2,7.512704E2,1.9908333E3,2.4078711E2,1.2691696E2,2.2298344E2,9.705475E1,3.1580685E2,6.3681885E1,5.204409E2,3.823706E1,2.0493774E1,4.5472272E2,2.7254327E2,5.23102E2,9.13125E1,1.3752002E2,1.1837111E2,4.924713E1,8.8532715E1,8.262973E1,5.386774E1,0E0,9.002557E1,3.849738E2,1.13657166E2,5.9751953E1,4.1910305E1,1.6148047E2,1.8392648E2,1.7805836E1,3.7437134E1,1.4502563E1,0E0,1.2074846E2,3.5787817E2,6.0222168E1,1.6281026E2,1.322273E2,2.3079727E2,8.745117E1,1.7703796E1,5.994922E1,9.724536E1,6.09227E1,6.069742E1,3.1618908E1,1.893386E1,7.815485E1,4.4810257E1,6.618661E1,2.5276093E1,6.876912E1,1.9253735E1,0E0,0E0,0E0,0E0,0E0,0E0,0E0,0E0,0E0,0E0,0E0,0E0,0E0,0E0,0E0,0E0,0E0,0E0,0E0,0E0,0E0,0E0,0E0,0E0,0E0,0E0,0E0,0E0,0E0,0E0,0E0,0E0,0E0,0E0,0E0,0E0,0E0,0E0,0E0,0E0,0E0,0E0,0E0,0E0,0E0,0E0,0E0,0E0,0E0,0E0,0E0,0E0,0E0,0E0,0E0,0E0,0E0,0E0,0E0,0E0],"parents":[2147483647,0,0,1,1,2,2,3,3,4,4,5,5,6,6,7,7,8,8,9,9,10,10,11,11,12,12,13,13,14,14,15,15,16,16,17,17,18,18,19,19,20,20,21,21,22,22,23,23,24,24,25,25,26,26,27,27,28,28,29,29,30,30,32,32,33,33,34,34,35,35,36,36,37,37,38,38,39,39,40,40,41,41,43,43,44,44,45,45,46,46,47,47,48,48,49,49,50,50,51,51,52,52,53,53,54,54,55,55,56,56,57,57,58,58,59,59,60,60,61,61,62,62],"right_children":[2,4,6,8,10,12,14,16,18,20,22,24,26,28,30,32,34,36,38,40,42,44,46,48,50,52,54,56,58,60,62,-1,64,66,68,70,72,74,76,78,80,82,-1,84,86,88,90,92,94,96,98,100,102,104,106,108,110,112,114,116,118,120,122,-1,-1,-1,-1,-1,-1,-1,-1,-1,-1,-1,-1,-1,-1,-1,-1,-1,-1,-1,-1,-1,-1,-1,-1,-1,-1,-1,-1,-1,-1,-1,-1,-1,-1,-1,-1,-1,-1,-1,-1,-1,-1,-1,-1,-1,-1,-1,-1,-1,-1,-1,-1,-1,-1,-1,-1,-1,-1,-1,-1],"split_conditions":[1.465199E2,5E-1,9.86229E-2,3.5E0,5.5778572E1,2.2291287E2,5E-1,8.1551605E1,4.667236E1,5.5E0,9.86229E-2,5E-1,4.986181E-2,5.5E0,1.3095239E-1,1.2174602E1,1.7583332E1,5.625E0,3.405E1,1.64E1,5.366667E-1,1.07148056E2,1.1670355E2,4.5E0,5.852778E1,7.5E0,5.5E0,2.0375046E2,3.155E1,1.792333E2,1.45E1,-9.123006E-3,6.3483E1,1.5E0,1.4166668E-1,1.6833332E1,7.5E-2,1.2111111E-1,7.9166666E-2,4.2471245E1,4.9965773E-2,5.1621048E1,3.1538543E-3,3.1696968E1,3.4145836E1,3.5E0,1.6366667E1,2.6166668E1,1.6356158E2,6.5E0,1.2675E2,3.405075E2,2.3076031E-2,1.0833333E0,1.2166666E1,4.166667E-1,5E-3,1.6366667E1,1.6030304E1,8.090909E-2,4.725E-1,3.8541666E-1,1.55E1,6.4689103E-3,2.5847799E-3,-8.02511E-3,3.5326686E-3,-8.007116E-3,1.192934E-2,6.542675E-3,1.1037036E-2,-4.4239545E-3,8.324708E-3,6.7044394E-3,9.507486E-3,1.1089803E-3,7.420563E-3,-6.367854E-3,3.8773986E-3,6.0849213E-3,1.1862278E-2,1.3260987E-2,7.909553E-3,7.4588065E-4,-3.398353E-3,-4.243761E-3,-1.170397E-2,3.7275633E-4,6.7459904E-3,6.356493E-3,-3.747143E-3,-5.240781E-3,-1.4334804E-2,3.651141E-3,-1.4785983E-3,-1.2175398E-2,-8.534223E-3,-1.7713103E-2,-7.932595E-3,-1.3200458E-2,-1.6357448E-2,-1.220823E-2,-6.485468E-3,-1.5223278E-2,-9.853393E-4,-1.0613829E-2,3.6069273E-4,-2.5409162E-3,5.421735E-3,-1.2665439E-2,-2.4496682E-3,4.9387324E-3,1.1049259E-2,-3.0879485E-3,1.0204857E-2,-9.00402E-3,1.8151936E-3,-1.4958916E-2,-4.78354E-3,-1.5513196E-3,8.410501E-3,1.4966162E-2,4.1274657E-3],"split_indices":[0,2,3,8,0,0,2,0,0,8,3,2,3,8,3,0,9,4,9,9,6,0,0,8,9,8,8,0,9,0,8,0,0,8,3,9,6,6,3,0,3,0,0,9,9,8,9,9,0,8,9,0,6,4,9,4,6,9,4,6,6,3,8,0,0,0,0,0,0,0,0,0,0,0,0,0,0,0,0,0,0,0,0,0,0,0,0,0,0,0,0,0,0,0,0,0,0,0,0,0,0,0,0,0,0,0,0,0,0,0,0,0,0,0,0,0,0,0,0,0,0,0,0],"split_type":[0,0,0,0,0,0,0,0,0,0,0,0,0,0,0,0,0,0,0,0,0,0,0,0,0,0,0,0,0,0,0,0,0,0,0,0,0,0,0,0,0,0,0,0,0,0,0,0,0,0,0,0,0,0,0,0,0,0,0,0,0,0,0,0,0,0,0,0,0,0,0,0,0,0,0,0,0,0,0,0,0,0,0,0,0,0,0,0,0,0,0,0,0,0,0,0,0,0,0,0,0,0,0,0,0,0,0,0,0,0,0,0,0,0,0,0,0,0,0,0,0,0,0],"sum_hessian":[4.6052938E4,2.9656812E4,1.6396125E4,1.964079E4,1.0016023E4,1.4005214E4,2.3909119E3,5.086659E3,1.455413E4,1.3528535E3,8.66317E3,9.161094E3,4.84412E3,1.3041583E3,1.0867537E3,2.6755925E3,2.411067E3,2.7498035E3,1.1804326E4,6.5743933E2,6.954142E2,6.458759E3,2.2044114E3,5.803449E3,3.3576445E3,4.35568E3,4.8843964E2,2.8316046E2,1.02099786E3,4.2033627E2,6.6641736E2,4.737217E1,2.6282202E3,1.3119513E3,1.0991156E3,2.6497107E3,1.00092735E2,9.219043E3,2.5852834E3,6.72679E1,5.9017145E2,6.6998785E2,2.5426334E1,3.0130974E3,3.4456616E3,1.3464335E3,8.5797797E2,1.9245996E3,3.8788494E3,3.0669749E3,2.9066962E2,2.9858228E3,1.3698575E3,1.7564307E2,3.1279657E2,2.0696423E2,7.619621E1,8.813972E2,1.3960065E2,2.2748648E2,1.9284978E2,5.95643E2,7.077433E1,1.6972571E3,9.3096326E2,4.2503937E2,8.8691187E2,1.0711729E3,2.7942766E1,3.542443E2,2.2954663E3,4.776241E1,5.2330326E1,6.069946E3,3.1490967E3,1.9838584E3,6.014251E2,2.702311E1,4.024479E1,4.3213846E2,1.5803296E2,6.01547E2,6.84408E1,1.8998053E3,1.1132921E3,2.5884094E3,8.572521E2,1.7138208E2,1.1750514E3,2.0973837E2,6.4823956E2,1.7486127E3,1.7598694E2,1.3370851E3,2.5417644E3,2.0522053E3,1.01476953E3,2.6533752E2,2.5332088E1,2.0503782E3,9.3544464E2,9.1598285E2,4.538747E2,1.3613327E2,3.9509792E1,6.130872E1,2.5148784E2,7.928778E1,1.2767646E2,3.213453E1,4.4061687E1,3.6191315E2,5.194841E2,1.0810756E2,3.1493086E1,1.2990376E2,9.758272E1,1.6052148E2,3.2328293E1,5.1718225E2,7.846077E1,2.952853E1,4.1245804E1],"tree_param":{"num_deleted":"0","num_feature":"10","num_nodes":"123","size_leaf_vector":"0"}},{"base_weights":[-4.151252E-3,3.367715E-1,-6.638154E-1,9.871242E-2,8.3358324E-1,-9.109264E-1,-1.3439831E-1,6.478046E-1,-1.4520828E-1,1.0065676E0,4.447155E-1,-1.056047E0,-4.4439596E-1,2.508455E-1,-5.8748794E-1,3.0381063E-1,8.4840715E-1,-5.057891E-1,7.9633236E-2,5.9889823E-1,1.1177883E0,9.856301E-1,3.9098177E-2,-8.420963E-1,-1.3390735E0,6.800851E-2,-9.791005E-1,6.187403E-1,-3.7344223E-1,-9.160476E-1,-9.07878E-2,6.427965E-1,-6.0800143E-2,9.1481185E-1,5.090733E-1,-8.401284E-1,-2.291964E-1,3.4046724E-1,-2.999622E-1,1.0908934E0,2.8459242E-1,8.749704E-1,1.1921571E0,5.6855154E-1,1.2439423E0,-7.683099E-2,7.787906E-1,-5.705628E-1,-1.3491908E0,-1.5574892E0,-1.0643669E0,-1.0056275E0,1.6119882E-1,-1.085034E0,6.4527863E-1,-7.3450136E-1,6.642686E-1,-6.376977E-1,1.0402303E-1,-5.9013337E-1,-1.1868314E0,-3.2867998E-1,5.2405435E-1,7.057193E-2,8.5998213E-1,-1.2348274E-1,6.9597805E-1,-4.7238332E-1,9.26667E-1,1.2930743E-1,6.6379416E-1,-1.0355808E0,-3.7010896E-1,-4.0265182E-1,2.7835175E-1,-2.3365904E-1,5.185753E-1,1.2962002E-2,-6.956703E-1,3.3362842E-1,1.1252588E0,-3.6581418E-1,6.078951E-1,9.993344E-1,3.0782983E-1,1.0595967E0,1.2654716E0,4.5258235E-2,7.202822E-1,1.400962E0,8.4409547E-1,-3.4816185E-1,1.7085043E-1,4.6820918E-1,1.3998271E0,-8.993108E-1,-2.5256577E-1,-1.4541858E0,-7.287433E-1,-1.441095E0,-1.71718E0,-1.2436606E0,-6.238161E-1,-1.8379388E0,-2.960802E-1,-2.0173456E-1,2.9892084E-1,-1.170226E0,3.3297446E-1,1.1784896E0,1.0775898E-1,-1.1548876E0,-2.7990913E-1,5.420978E-1,1.1319886E0,-1.0148537E0,-2.6438612E-1,-1.6090812E-1,9.8174304E-1,-2.3061922E-1,-1.0966706E0,-1.560326E0,-1.0498224E0,1.034817E-2,-7.519292E-1,1.0121645E0,-3.420861E-1],"categories":[],"categories_nodes":[],"categories_segments":[],"categories_sizes":[],"default_left":[1,1,1,1,1,1,1,1,1,1,1,1,1,1,1,1,1,1,1,1,1,1,1,1,1,1,1,1,1,1,1,1,1,1,1,1,1,1,1,1,1,1,1,1,1,1,1,1,1,1,1,1,1,1,1,1,1,1,1,1,1,1,1,0,0,0,0,0,0,0,0,0,0,0,0,0,0,0,0,0,0,0,0,0,0,0,0,0,0,0,0,0,0,0,0,0,0,0,0,0,0,0,0,0,0,0,0,0,0,0,0,0,0,0,0,0,0,0,0,0,0,0,0,0,0,0,0],"id":12,"left_children":[1,3,5,7,9,11,13,15,17,19,21,23,25,27,29,31,33,35,37,39,41,43,45,47,49,51,53,55,57,59,61,63,65,67,69,71,73,75,77,79,81,83,85,87,89,91,93,95,97,99,101,103,105,107,109,111,113,115,117,119,121,123,125,-1,-1,-1,-1,-1,-1,-1,-1,-1,-1,-1,-1,-1,-1,-1,-1,-1,-1,-1,-1,-1,-1,-1,-1,-1,-1,-1,-1,-1,-1,-1,-1,-1,-1,-1,-1,-1,-1,-1,-1,-1,-1,-1,-1,-1,-1,-1,-1,-1,-1,-1,-1,-1,-1,-1,-1,-1,-1,-1,-1,-1,-1,-1,-1],"loss_changes":[1.0303277E4,3.5716567E3,2.0415752E3,2.73546E3,6.5686523E2,7.191738E2,8.678304E2,4.3265527E2,1.1466632E3,3.0524316E2,6.6116077E2,4.888369E2,6.931273E2,6.1747375E2,3.7232794E2,2.8667834E2,8.8110596E1,5.0159753E2,8.625885E2,2.2397864E2,9.3604004E1,1.373855E2,1.4831749E2,6.3509863E2,2.0588037E2,1.2917253E2,2.1418982E2,1.0491034E2,1.2606847E2,1.1953723E2,1.3353987E2,1.4884982E2,5.2893993E1,5.5345947E1,3.7954636E1,2.2466968E2,2.6215918E2,5.2835834E2,4.395867E2,1.3586609E1,1.8764961E2,8.7413025E1,3.655664E1,3.9139206E1,4.729541E1,1.0045659E2,4.3474304E1,3.145064E2,1.0253345E2,3.1088867E1,1.2063611E2,5.918859E1,5.9632286E1,1.4136853E2,2.121468E1,9.54336E0,9.197339E1,8.952615E1,8.331196E1,1.13341324E2,3.4804688E1,9.4840645E1,1.08369354E2,0E0,0E0,0E0,0E0,0E0,0E0,0E0,0E0,0E0,0E0,0E0,0E0,0E0,0E0,0E0,0E0,0E0,0E0,0E0,0E0,0E0,0E0,0E0,0E0,0E0,0E0,0E0,0E0,0E0,0E0,0E0,0E0,0E0,0E0,0E0,0E0,0E0,0E0,0E0,0E0,0E0,0E0,0E0,0E0,0E0,0E0,0E0,0E0,0E0,0E0,0E0,0E0,0E0,0E0,0E0,0E0,0E0,0E0,0E0,0E0,0E0,0E0,0E0,0E0],"parents":[2147483647,0,0,1,1,2,2,3,3,4,4,5,5,6,6,7,7,8,8,9,9,10,10,11,11,12,12,13,13,14,14,15,15,16,16,17,17,18,18,19,19,20,20,21,21,22,22,23,23,24,24,25,25,26,26,27,27,28,28,29,29,30,30,31,31,32,32,33,33,34,34,35,35,36,36,37,37,38,38,39,39,40,40,41,41,42,42,43,43,44,44,45,45,46,46,47,47,48,48,49,49,50,50,51,51,52,52,53,53,54,54,55,55,56,56,57,57,58,58,59,59,60,60,61,61,62,62],"right_children":[2,4,6,8,10,12,14,16,18,20,22,24,26,28,30,32,34,36,38,40,42,44,46,48,50,52,54,56,58,60,62,64,66,68,70,72,74,76,78,80,82,84,86,88,90,92,94,96,98,100,102,104,106,108,110,112,114,116,118,120,122,124,126,-1,-1,-1,-1,-1,-1,-1,-1,-1,-1,-1,-1,-1,-1,-1,-1,-1,-1,-1,-1,-1,-1,-1,-1,-1,-1,-1,-1,-1,-1,-1,-1,-1,-1,-1,-1,-1,-1,-1,-1,-1,-1,-1,-1,-1,-1,-1,-1,-1,-1,-1,-1,-1,-1,-1,-1,-1,-1,-1,-1,-1,-1,-1,-1],"split_conditions":[1.4938512E2,9.417112E1,1.0155E2,6.7018845E1,5E-1,2.5926274E-1,2.0469348E2,6.875E1,7.3668945E1,3.5E0,1.0342998E2,2.1306544E2,5E-1,5E-1,7.5E0,4.4620407E1,6.0352825E1,4.5E0,5E-1,7.69039E1,9.975E1,4.5E0,1.2725E2,5E-1,6.5E0,2.5E0,1.35E1,4.8389374E1,1.3931645E-2,2.4919226E2,4.8076922E-1,3.5E0,1.05E1,1.7642441E0,7.09197E1,4.5E-1,1.8660715E-1,3.5E0,1.1851747E2,1.9174562E1,6.2045074E1,1.3174364E2,6.533713E1,9.729769E1,8.973099E1,4.4196004E-1,3.637916E-2,5.5E0,2.9500002E-1,2.9388913E2,1.2111111E-1,6.3102142E1,7.605E1,9.995E1,1.75E0,1.179E2,2.633833E-1,6.70364E1,8.5E0,5E-1,5.902823E1,2.795666E2,5E-1,7.057193E-4,8.5998215E-3,-1.2348273E-3,6.95978E-3,-4.723833E-3,9.26667E-3,1.2930743E-3,6.6379416E-3,-1.0355807E-2,-3.7010896E-3,-4.026518E-3,2.7835176E-3,-2.3365903E-3,5.185753E-3,1.2962002E-4,-6.956703E-3,3.336284E-3,1.1252588E-2,-3.6581417E-3,6.0789506E-3,9.993344E-3,3.0782982E-3,1.0595966E-2,1.2654715E-2,4.5258235E-4,7.202822E-3,1.400962E-2,8.440955E-3,-3.4816184E-3,1.7085043E-3,4.6820915E-3,1.3998271E-2,-8.993108E-3,-2.5256576E-3,-1.4541858E-2,-7.287433E-3,-1.4410949E-2,-1.71718E-2,-1.2436605E-2,-6.2381607E-3,-1.8379387E-2,-2.960802E-3,-2.0173455E-3,2.9892083E-3,-1.1702259E-2,3.3297446E-3,1.1784895E-2,1.0775897E-3,-1.1548875E-2,-2.7990912E-3,5.4209777E-3,1.1319886E-2,-1.0148537E-2,-2.643861E-3,-1.6090812E-3,9.81743E-3,-2.3061922E-3,-1.0966706E-2,-1.5603259E-2,-1.0498224E-2,1.03481696E-4,-7.519292E-3,1.01216445E-2,-3.420861E-3],"split_indices":[0,1,1,0,2,4,0,1,1,8,0,0,2,2,8,0,0,8,2,0,1,8,1,2,8,8,8,7,6,0,4,8,8,0,7,4,6,8,0,0,7,0,7,1,0,4,6,8,6,0,6,7,1,1,4,1,4,7,8,2,7,0,2,0,0,0,0,0,0,0,0,0,0,0,0,0,0,0,0,0,0,0,0,0,0,0,0,0,0,0,0,0,0,0,0,0,0,0,0,0,0,0,0,0,0,0,0,0,0,0,0,0,0,0,0,0,0,0,0,0,0,0,0,0,0,0,0],"split_type":[0,0,0,0,0,0,0,0,0,0,0,0,0,0,0,0,0,0,0,0,0,0,0,0,0,0,0,0,0,0,0,0,0,0,0,0,0,0,0,0,0,0,0,0,0,0,0,0,0,0,0,0,0,0,0,0,0,0,0,0,0,0,0,0,0,0,0,0,0,0,0,0,0,0,0,0,0,0,0,0,0,0,0,0,0,0,0,0,0,0,0,0,0,0,0,0,0,0,0,0,0,0,0,0,0,0,0,0,0,0,0,0,0,0,0,0,0,0,0,0,0,0,0,0,0,0,0],"sum_hessian":[4.581025E4,3.0201738E4,1.5608512E4,2.041974E4,9.781998E3,1.0640233E4,4.968278E3,6.2805938E3,1.4139147E4,6.7679316E3,3.0140662E3,8.1136284E3,2.5266052E3,2.6850635E3,2.2832144E3,2.3155854E3,3.9650083E3,5.430346E3,8.708801E3,1.4534862E3,5.314446E3,1.290276E3,1.7237902E3,4.624881E3,3.4887476E3,1.2904935E3,1.2361118E3,1.6898711E3,9.951925E2,1.3729542E3,9.1026025E2,1.1999348E3,1.1156506E3,3.3129668E3,6.5204175E2,2.4564907E3,2.9738557E3,5.1625977E3,3.546203E3,5.646456E2,8.8884064E2,1.2517965E3,4.0626492E3,4.9591183E2,7.943642E2,1.4909264E3,2.3286375E2,3.0146206E3,1.6102601E3,1.938785E3,1.5499625E3,1.0155139E2,1.1889421E3,1.161133E3,7.497872E1,5.3978466E1,1.6358926E3,6.40847E2,3.5434552E2,6.2588635E2,7.470679E2,6.572922E2,2.5296806E2,3.3118417E2,8.687506E2,1.0319591E3,8.369155E1,2.7293343E1,3.2856733E3,1.9029562E2,4.617461E2,1.7331315E3,7.233592E2,2.2172163E3,7.566392E2,1.2217162E3,3.9408816E3,1.9804846E3,1.5657184E3,2.5714384E1,5.389312E2,2.9464728E2,5.9419336E2,1.0251506E3,2.2664597E2,1.4569518E3,2.6056973E3,1.12500496E2,3.8341135E2,5.6696216E2,2.2740207E2,7.119755E2,7.7895087E2,1.5741515E2,7.544862E1,1.4802872E3,1.5343335E3,1.374928E3,2.3533223E2,1.1315625E3,8.0722253E2,1.0990381E3,4.5092444E2,4.537571E1,5.6175682E1,3.2606757E2,8.628746E2,1.0958408E3,6.5292336E1,3.6368706E1,3.861002E1,2.6386648E1,2.7591816E1,1.300333E3,3.3555957E2,3.1696677E2,3.2388022E2,2.727791E2,8.156641E1,3.6780783E2,2.5807855E2,1.9553232E2,5.515355E2,3.6524466E2,2.920475E2,1.6192487E2,9.10432E1],"tree_param":{"num_deleted":"0","num_feature":"10","num_nodes":"127","size_leaf_vector":"0"}},{"base_weights":[8.642222E-3,3.4641418E-1,-6.523969E-1,5.4954374E-1,