{"learner":{"attributes":{"best_iteration":"315","best_ntree_limit":"316","best_score":"0.7920370884165846"},"feature_names":["urine_output_mean","weight","has_diuretics","creatinine_last_mean_diff","bun_last_mean_diff","bun_mean","sofa_score","potassium_last_mean_diff","age","pao2_max"],"feature_types":["float","float","int","float","float","float","int","float","float","float"],"gradient_booster":{"model":{"gbtree_model_param":{"num_parallel_tree":"1","num_trees":"346","size_leaf_vector":"0"},"tree_info":[0,0,0,0,0,0,0,0,0,0,0,0,0,0,0,0,0,0,0,0,0,0,0,0,0,0,0,0,0,0,0,0,0,0,0,0,0,0,0,0,0,0,0,0,0,0,0,0,0,0,0,0,0,0,0,0,0,0,0,0,0,0,0,0,0,0,0,0,0,0,0,0,0,0,0,0,0,0,0,0,0,0,0,0,0,0,0,0,0,0,0,0,0,0,0,0,0,0,0,0,0,0,0,0,0,0,0,0,0,0,0,0,0,0,0,0,0,0,0,0,0,0,0,0,0,0,0,0,0,0,0,0,0,0,0,0,0,0,0,0,0,0,0,0,0,0,0,0,0,0,0,0,0,0,0,0,0,0,0,0,0,0,0,0,0,0,0,0,0,0,0,0,0,0,0,0,0,0,0,0,0,0,0,0,0,0,0,0,0,0,0,0,0,0,0,0,0,0,0,0,0,0,0,0,0,0,0,0,0,0,0,0,0,0,0,0,0,0,0,0,0,0,0,0,0,0,0,0,0,0,0,0,0,0,0,0,0,0,0,0,0,0,0,0,0,0,0,0,0,0,0,0,0,0,0,0,0,0,0,0,0,0,0,0,0,0,0,0,0,0,0,0,0,0,0,0,0,0,0,0,0,0,0,0,0,0,0,0,0,0,0,0,0,0,0,0,0,0,0,0,0,0,0,0,0,0,0,0,0,0,0,0,0,0,0,0,0,0,0,0,0,0,0,0,0,0,0,0,0,0,0,0,0,0,0,0,0,0,0,0,0,0,0,0,0,0],"trees":[{"base_weights":[-6.3729156E-3,3.1088075E-1,-4.5854762E-1,-3.481074E-2,4.837977E-1,-6.77626E-1,-1.760199E-1,-1.6890687E-1,3.786255E-1,3.3880907E-1,8.535823E-1,-9.713404E-1,-6.03988E-1,-2.3099533E-1,4.94015E-1,-1.5185805E-1,-1.2466065E0,2.1389459E-1,6.672414E-1,1.4262883E-1,5.0575143E-1,6.0978955E-1,1.0345334E0,-1.0298138E0,-1.9558422E-1,-6.49076E-1,-6.252047E-2,-3.3367953E-1,4.1691147E-2,6.203976E-1,-9.4184077E-1,-2.4317835E-1,4.5181863E-2,-7.86645E-1,-1.9105263E0,5.2285083E-2,5.711301E-1,5.589867E-1,1.4478184E0,-3.3738372E-1,2.2027764E-1,4.525251E-1,8.306141E-1,6.4919215E-1,-7.28142E-1,1.1521466E0,7.051066E-1,-1.0516229E0,4.809017E-1,-7.7134997E-1,7.4043965E-1,-8.9465463E-1,-5.265285E-1,9.963235E-2,-1.1503386E0,-3.5192928E-1,8.946406E-1,-6.2837434E-1,1.2733825E-1,1.1280154E0,4.3009755E-1,1.1632158E-1,-3.1309745E-1,-8.6395264E-1,9.971676E-2,-1.5690712E0,2.5919235E-1,1.3700594E-1,-1.358422E0,7.692124E-1,-1.8049237E-1,1.7532129E0,4.7365943E-1,1.0302052E0,1.7761654E0,-6.411096E-1,3.965412E-1,-1.4106539E-1,2.8498122E-1,4.08171E-1,8.4658587E-1,8.819036E-1,-8.26737E-1,6.8893415E-1,-1.2922047E-1,1.2000259E-1,-1.5047126E0,7.592314E-1,1.2855899E0,8.230007E-1,-7.4816304E-1,-1.1068828E0,-5.4929984E-1,-1.15629E0,-1.875588E-1,1.0096152E0,4.1285652E-1,-1.1422944E0,-5.236255E-1,-5.77244E-1,-8.482689E-2,5.022254E-1,-1.676108E-1,-6.2587214E-1,-1.7433004E0,-1.0189954E0,-3.2441127E-1,3.6599097E-1,1.7070898E0,-8.6719155E-1,7.728319E-1,9.688182E-2,1.2221615E0,5.49836E-1,1.4876076E0,-1.3441248E0,7.395342E-1],"categories":[],"categories_nodes":[],"categories_segments":[],"categories_sizes":[],"default_left":[1,1,1,1,1,1,1,1,1,1,1,1,1,1,1,1,1,1,1,1,1,1,1,1,1,1,1,1,1,1,0,1,1,1,0,1,1,1,1,1,1,1,1,1,1,1,1,1,0,1,1,1,1,1,1,1,1,1,1,1,1,0,0,0,0,0,0,0,0,0,0,0,0,0,0,0,0,0,0,0,0,0,0,0,0,0,0,0,0,0,0,0,0,0,0,0,0,0,0,0,0,0,0,0,0,0,0,0,0,0,0,0,0,0,0,0,0],"id":0,"left_children":[1,3,5,7,9,11,13,15,17,19,21,23,25,27,29,31,33,35,37,39,41,43,45,47,49,51,53,55,57,59,-1,61,63,65,-1,67,69,71,73,75,77,79,81,83,85,87,89,91,-1,93,95,97,99,101,103,105,107,109,111,113,115,-1,-1,-1,-1,-1,-1,-1,-1,-1,-1,-1,-1,-1,-1,-1,-1,-1,-1,-1,-1,-1,-1,-1,-1,-1,-1,-1,-1,-1,-1,-1,-1,-1,-1,-1,-1,-1,-1,-1,-1,-1,-1,-1,-1,-1,-1,-1,-1,-1,-1,-1,-1,-1,-1,-1,-1],"loss_changes":[6.0282715E3,1.4763572E3,1.0719556E3,4.565331E2,8.816804E2,2.0954395E2,2.7892935E2,1.1343138E2,9.530286E1,3.8702515E2,2.0285767E2,8.7776245E1,1.9025464E2,1.9608698E2,1.0490582E2,1.1030293E2,2.6070114E1,7.399748E1,5.9763367E1,2.0287268E2,1.0939258E2,1.0501294E2,1.0098999E2,6.0780396E1,7.588199E1,2.15594E2,1.0686299E2,1.1424182E2,1.0979756E2,4.9721573E1,0E0,1.0537077E2,9.598385E1,5.005561E1,0E0,1.0597197E2,5.9981598E1,6.3585342E1,8.15181E0,1.69338E2,1.096593E2,9.500037E1,7.732568E1,5.986499E1,3.839061E1,1.0021289E2,1.2154407E2,4.810559E1,0E0,1.8728123E1,3.524208E0,2.1855322E2,1.07455444E2,5.6785007E1,2.1857765E1,9.096655E1,3.0251118E1,7.3561806E1,5.5960243E1,2.7619034E1,2.1401233E2,0E0,0E0,0E0,0E0,0E0,0E0,0E0,0E0,0E0,0E0,0E0,0E0,0E0,0E0,0E0,0E0,0E0,0E0,0E0,0E0,0E0,0E0,0E0,0E0,0E0,0E0,0E0,0E0,0E0,0E0,0E0,0E0,0E0,0E0,0E0,0E0,0E0,0E0,0E0,0E0,0E0,0E0,0E0,0E0,0E0,0E0,0E0,0E0,0E0,0E0,0E0,0E0,0E0,0E0,0E0,0E0],"parents":[2147483647,0,0,1,1,2,2,3,3,4,4,5,5,6,6,7,7,8,8,9,9,10,10,11,11,12,12,13,13,14,14,15,15,16,16,17,17,18,18,19,19,20,20,21,21,22,22,23,23,24,24,25,25,26,26,27,27,28,28,29,29,31,31,32,32,33,33,35,35,36,36,37,37,38,38,39,39,40,40,41,41,42,42,43,43,44,44,45,45,46,46,47,47,49,49,50,50,51,51,52,52,53,53,54,54,55,55,56,56,57,57,58,58,59,59,60,60],"right_children":[2,4,6,8,10,12,14,16,18,20,22,24,26,28,30,32,34,36,38,40,42,44,46,48,50,52,54,56,58,60,-1,62,64,66,-1,68,70,72,74,76,78,80,82,84,86,88,90,92,-1,94,96,98,100,102,104,106,108,110,112,114,116,-1,-1,-1,-1,-1,-1,-1,-1,-1,-1,-1,-1,-1,-1,-1,-1,-1,-1,-1,-1,-1,-1,-1,-1,-1,-1,-1,-1,-1,-1,-1,-1,-1,-1,-1,-1,-1,-1,-1,-1,-1,-1,-1,-1,-1,-1,-1,-1,-1,-1,-1,-1,-1,-1,-1,-1],"split_conditions":[5E-1,4.5E0,9.223706E-2,3.2820803E-1,2.606654E-1,6.133099E1,1.25E1,1.9541618E-1,8.05052E1,7.187271E1,1.8588821E2,4.035E2,1.05E1,3.5857143E0,8.075E1,8.043366E1,7.6065254E1,3.5E0,4.669643E-1,1.3225E1,3.4083334E-1,9.176294E1,2.6904762E0,1.0133333E2,9.5E0,1.1788852E2,3.64E2,4.98E2,5.5E1,1.465E2,-9.418407E-3,5.3625168E1,1.2166666E1,7.144118E1,-1.9105263E-2,7.81418E1,3.1111112E0,1.325E1,2.2162003E2,2.1714285E-1,5.1792664E1,1.25E1,6.4125E1,1.7511526E2,9.95E1,1.4583334E1,6.513637E1,1.15E1,4.809017E-3,1.975E1,2.2554347E-1,7.700952E1,3.0954546E-1,1.21135605E2,7.233838E1,4.3684444E1,6.904762E-2,1.4894231E1,9.116667E-1,5.1190477E-2,1.665E2,1.1632157E-3,-3.1309745E-3,-8.639527E-3,9.971675E-4,-1.5690712E-2,2.5919233E-3,1.3700593E-3,-1.358422E-2,7.692124E-3,-1.8049236E-3,1.7532129E-2,4.736594E-3,1.0302052E-2,1.7761653E-2,-6.4110956E-3,3.965412E-3,-1.4106538E-3,2.8498122E-3,4.08171E-3,8.465858E-3,8.819035E-3,-8.26737E-3,6.8893414E-3,-1.2922047E-3,1.2000259E-3,-1.50471255E-2,7.592314E-3,1.2855899E-2,8.230007E-3,-7.4816304E-3,-1.10688275E-2,-5.4929983E-3,-1.1562901E-2,-1.875588E-3,1.0096151E-2,4.128565E-3,-1.1422944E-2,-5.236255E-3,-5.7724398E-3,-8.4826886E-4,5.022254E-3,-1.6761079E-3,-6.258721E-3,-1.7433004E-2,-1.0189954E-2,-3.2441127E-3,3.6599096E-3,1.7070897E-2,-8.671915E-3,7.728319E-3,9.688182E-4,1.2221615E-2,5.4983594E-3,1.4876076E-2,-1.3441248E-2,7.395342E-3],"split_indices":[2,6,4,4,4,8,6,4,8,8,9,9,6,4,5,8,8,6,7,5,7,8,4,5,6,9,9,9,9,9,0,8,5,8,0,8,4,5,9,7,8,6,5,9,9,5,5,6,0,5,7,8,7,9,8,8,7,4,7,7,9,0,0,0,0,0,0,0,0,0,0,0,0,0,0,0,0,0,0,0,0,0,0,0,0,0,0,0,0,0,0,0,0,0,0,0,0,0,0,0,0,0,0,0,0,0,0,0,0,0,0,0,0,0,0,0,0],"split_type":[0,0,0,0,0,0,0,0,0,0,0,0,0,0,0,0,0,0,0,0,0,0,0,0,0,0,0,0,0,0,0,0,0,0,0,0,0,0,0,0,0,0,0,0,0,0,0,0,0,0,0,0,0,0,0,0,0,0,0,0,0,0,0,0,0,0,0,0,0,0,0,0,0,0,0,0,0,0,0,0,0,0,0,0,0,0,0,0,0,0,0,0,0,0,0,0,0,0,0,0,0,0,0,0,0,0,0,0,0,0,0,0,0,0,0,0,0],"sum_hessian":[4.2018902E4,2.4693264E4,1.732564E4,8.232976E3,1.6460287E4,9.756621E3,7.569019E3,6.2180386E3,2.0149373E3,1.1827002E4,4.6332856E3,1.9510194E3,7.805602E3,6.9965425E3,5.724765E2,6.1232534E3,9.478516E1,1.2853221E3,7.296152E2,5.439739E3,6.387263E3,1.9776248E3,2.655661E3,1.8133309E3,1.3768846E2,7.2046353E3,6.0096674E2,5.083431E3,1.9131112E3,5.2720306E2,4.5273438E1,4.185238E3,1.9380155E3,5.8285152E1,3.65E1,8.869257E2,3.9839645E2,6.434628E2,8.615233E1,7.560136E2,4.683725E3,5.492224E3,8.9503894E2,1.9220896E3,5.5535152E1,1.9533191E3,7.0234174E2,1.7882362E3,2.5094725E1,8.567773E1,5.2010735E1,2.3941572E3,4.810478E3,5.23872E2,7.709473E1,5.0103853E3,7.304589E1,2.152119E2,1.6978993E3,1.4116307E2,3.8604E2,6.8035736E2,3.5048806E3,1.07999016E2,1.8300165E3,3.313086E1,2.5154295E1,8.382236E2,4.870215E1,3.1569528E2,8.2701164E1,4.0641594E1,6.028212E2,4.118945E1,4.4962883E1,5.3524414E2,2.2076952E2,7.1010834E2,3.9736167E3,4.940237E3,5.5198724E2,8.690868E2,2.5952147E1,1.8293767E3,9.271288E1,2.6904295E1,2.863086E1,4.9851263E2,1.4548064E3,6.50497E2,5.1844723E1,1.608667E3,1.7956932E2,5.0333008E1,3.5344723E1,2.6166012E1,2.5844725E1,1.4333115E3,9.6084564E2,4.313807E3,4.9667087E2,2.0907909E2,3.1479294E2,4.2904293E1,3.419043E1,1.9578416E2,4.814601E3,4.586816E1,2.717773E1,1.8460545E2,3.0606441E1,1.6538885E3,4.4010735E1,5.6010735E1,8.515233E1,5.639258E1,3.2964743E2],"tree_param":{"num_deleted":"0","num_feature":"10","num_nodes":"117","size_leaf_vector":"0"}},{"base_weights":[6.1106323E-3,6.0635185E-1,-4.8360515E-1,9.376902E-1,3.1622067E-1,-8.1397516E-1,-8.550044E-2,4.393933E-1,1.0789485E0,3.166437E-2,9.320051E-1,-8.9626884E-1,1.755315E-1,3.0519986E-1,-5.519716E-1,9.9892545E-1,2.1391162E-1,9.4758135E-1,1.2953987E0,-1.5165783E-1,7.649022E-1,7.398631E-1,1.5033095E0,-6.952839E-1,-1.2800297E0,-1.1764383E-1,4.9729738E-1,-1.3011043E-1,8.9278656E-1,-6.9908607E-1,7.526496E-1,-4.888127E-1,1.2120414E0,-1.2178955E0,2.9046237E-1,1.0553565E0,6.091435E-1,6.866467E-1,1.3477608E0,-3.1388512E-1,5.593377E-1,3.6527133E-1,9.156191E-1,6.281219E-1,1.4015687E0,8.511011E-1,1.6121845E0,-8.3600515E-1,3.0984277E-1,-1.3183857E0,6.166922E-1,-8.4777737E-1,1.5169455E-1,9.684341E-1,1.4885257E-1,-5.34321E-1,1.111111E-1,9.523552E-1,-9.210829E-1,-9.454224E-1,-4.5108993E-2,-1.1465292E-2,1.2885569E0,3.5326174E-1,-1.8726574E0,2.7854294E-1,1.4005026E0,-1.7848656E0,-2.9744592E-1,-8.351548E-1,3.4134692E-1,-6.6725075E-1,1.0772784E0,2.5357708E-1,9.840253E-1,3.815877E-1,1.6443512E0,1.2183084E0,1.4715722E0,-8.9570487E-1,-1.7808129E-1,-1.4851703E-1,9.3545836E-1,-3.3723715E-1,5.6573224E-1,1.0678705E0,2.9397696E-1,3.6451867E-1,9.3835425E-1,9.8721594E-1,1.563541E0,1.5152267E-1,1.1648201E0,1.6560053E0,1.0268891E0,-6.477193E-1,-1.0809742E0,1.1685194E-1,8.029038E-1,-1.1452737E0,-1.6166842E0,1.2377911E0,-6.204202E-1,-1.6913922E0,5.3832656E-1,6.854803E-1,-1.6766565E-1,7.948543E-1,1.6836512E0,-5.5885515E-3,1.1903234E0,-8.771334E-1,-5.361242E-2,-1.06835E0,2.3941931E-1,6.8493444E-1,1.2158703E0,-3.1624782E-1,-1.8841069E0,-1.2115761E0,-6.207306E-1,2.6706147E-1,-1.1352628E0,9.4483614E-1,-2.782321E-1,1.4081982E0,7.2546405E-1],"categories":[],"categories_nodes":[],"categories_segments":[],"categories_sizes":[],"default_left":[1,1,1,1,1,1,1,1,1,1,1,1,1,1,1,1,1,1,1,1,1,1,1,1,1,1,1,1,1,1,1,1,1,1,1,1,1,1,1,1,1,1,1,1,1,1,1,1,1,1,1,1,1,1,1,1,1,1,1,1,1,1,1,0,0,0,0,0,0,0,0,0,0,0,0,0,0,0,0,0,0,0,0,0,0,0,0,0,0,0,0,0,0,0,0,0,0,0,0,0,0,0,0,0,0,0,0,0,0,0,0,0,0,0,0,0,0,0,0,0,0,0,0,0,0,0,0],"id":1,"left_children":[1,3,5,7,9,11,13,15,17,19,21,23,25,27,29,31,33,35,37,39,41,43,45,47,49,51,53,55,57,59,61,63,65,67,69,71,73,75,77,79,81,83,85,87,89,91,93,95,97,99,101,103,105,107,109,111,113,115,117,119,121,123,125,-1,-1,-1,-1,-1,-1,-1,-1,-1,-1,-1,-1,-1,-1,-1,-1,-1,-1,-1,-1,-1,-1,-1,-1,-1,-1,-1,-1,-1,-1,-1,-1,-1,-1,-1,-1,-1,-1,-1,-1,-1,-1,-1,-1,-1,-1,-1,-1,-1,-1,-1,-1,-1,-1,-1,-1,-1,-1,-1,-1,-1,-1,-1,-1],"loss_changes":[1.2359256E4,1.8151123E3,3.0448232E3,6.193667E2,1.7649487E3,1.0308477E3,1.9145067E3,2.4531311E2,1.9256836E2,9.269258E2,3.4691602E2,8.989072E2,9.196763E1,1.462571E3,9.197671E2,1.7854474E2,1.5282645E2,1.5452734E2,8.032373E1,6.362684E2,8.2062744E1,1.7428235E2,5.37135E1,1.0855623E3,2.934331E2,1.00637596E2,7.55951E1,3.2050815E2,2.642329E2,6.92917E2,1.9941309E2,8.425177E1,8.4944885E1,3.527368E1,7.604455E1,1.2375195E2,1.375571E2,5.9227127E1,3.4409668E1,3.5423956E2,2.733213E2,5.4025574E1,9.361554E1,1.6615833E2,1.9681885E1,2.5115913E1,1.3887329E1,3.0864648E2,8.920284E1,1.992627E2,6.3140724E1,1.630662E2,6.395902E1,2.1424774E1,4.37982E1,2.0198941E2,3.1143277E2,1.6407031E2,4.360961E1,2.6827295E2,4.0225726E2,5.1503487E1,1.6867126E1,0E0,0E0,0E0,0E0,0E0,0E0,0E0,0E0,0E0,0E0,0E0,0E0,0E0,0E0,0E0,0E0,0E0,0E0,0E0,0E0,0E0,0E0,0E0,0E0,0E0,0E0,0E0,0E0,0E0,0E0,0E0,0E0,0E0,0E0,0E0,0E0,0E0,0E0,0E0,0E0,0E0,0E0,0E0,0E0,0E0,0E0,0E0,0E0,0E0,0E0,0E0,0E0,0E0,0E0,0E0,0E0,0E0,0E0,0E0,0E0,0E0,0E0,0E0,0E0],"parents":[2147483647,0,0,1,1,2,2,3,3,4,4,5,5,6,6,7,7,8,8,9,9,10,10,11,11,12,12,13,13,14,14,15,15,16,16,17,17,18,18,19,19,20,20,21,21,22,22,23,23,24,24,25,25,26,26,27,27,28,28,29,29,30,30,31,31,32,32,33,33,34,34,35,35,36,36,37,37,38,38,39,39,40,40,41,41,42,42,43,43,44,44,45,45,46,46,47,47,48,48,49,49,50,50,51,51,52,52,53,53,54,54,55,55,56,56,57,57,58,58,59,59,60,60,61,61,62,62],"right_children":[2,4,6,8,10,12,14,16,18,20,22,24,26,28,30,32,34,36,38,40,42,44,46,48,50,52,54,56,58,60,62,64,66,68,70,72,74,76,78,80,82,84,86,88,90,92,94,96,98,100,102,104,106,108,110,112,114,116,118,120,122,124,126,-1,-1,-1,-1,-1,-1,-1,-1,-1,-1,-1,-1,-1,-1,-1,-1,-1,-1,-1,-1,-1,-1,-1,-1,-1,-1,-1,-1,-1,-1,-1,-1,-1,-1,-1,-1,-1,-1,-1,-1,-1,-1,-1,-1,-1,-1,-1,-1,-1,-1,-1,-1,-1,-1,-1,-1,-1,-1,-1,-1,-1,-1,-1,-1],"split_conditions":[1.0660448E2,6.622531E1,2.429989E2,6.305E1,9.1350006E1,1.4330357E-1,1.6267148E2,3.4127274E1,8.926924E1,9.646617E-2,3.2493646E2,1.7690094E2,9.005E1,9.09978E1,1.12222224E-1,3.5E0,4.43E1,5.575748E1,1.2027276E1,3.295476E2,4.5E0,1.2715E2,9.535E1,1.175E2,1.9004999E2,2.1458334E-1,1.0803568E2,7.3149994E1,8.894934E1,1.02649994E2,8.875E1,5.82E1,6.448957E1,6.5E0,1.1166666E1,3.993969E1,8.0491776E1,1.25E1,1.0055E2,6.105E1,6.9649994E1,6.22E1,1.05E1,5.5E0,9.849423E1,7.492801E1,2.1666667E-1,3.1291668E1,1.404E2,3.263333E1,3.3085178E2,1.74E2,3.1071428E1,4.4166666E-1,5.2666664E-1,3.3286385E-2,5.5645355E1,1.0355E2,1.125E-1,7.296901E1,2.9000256E2,4.5E0,1.203E2,3.5326174E-3,-1.8726574E-2,2.7854294E-3,1.4005025E-2,-1.7848656E-2,-2.9744592E-3,-8.351548E-3,3.413469E-3,-6.672507E-3,1.0772783E-2,2.5357709E-3,9.840253E-3,3.815877E-3,1.6443511E-2,1.2183084E-2,1.4715721E-2,-8.957049E-3,-1.7808129E-3,-1.4851702E-3,9.354583E-3,-3.3723714E-3,5.6573222E-3,1.0678705E-2,2.9397695E-3,3.6451865E-3,9.383542E-3,9.872159E-3,1.563541E-2,1.5152267E-3,1.16482E-2,1.6560052E-2,1.026889E-2,-6.477193E-3,-1.0809742E-2,1.1685194E-3,8.029037E-3,-1.1452736E-2,-1.6166842E-2,1.237791E-2,-6.204202E-3,-1.691392E-2,5.3832657E-3,6.854803E-3,-1.6766564E-3,7.948543E-3,1.6836511E-2,-5.5885514E-5,1.1903233E-2,-8.771334E-3,-5.3612416E-4,-1.0683499E-2,2.394193E-3,6.8493444E-3,1.2158702E-2,-3.162478E-3,-1.884107E-2,-1.2115761E-2,-6.2073055E-3,2.6706147E-3,-1.13526285E-2,9.448362E-3,-2.7823208E-3,1.4081982E-2,7.25464E-3],"split_indices":[0,0,9,1,1,3,0,0,1,3,9,0,1,1,3,6,1,0,0,9,6,1,1,1,1,3,9,1,8,1,1,1,8,6,5,8,8,6,1,1,1,1,6,6,9,8,3,5,1,5,0,9,5,3,3,3,8,1,3,8,0,6,1,0,0,0,0,0,0,0,0,0,0,0,0,0,0,0,0,0,0,0,0,0,0,0,0,0,0,0,0,0,0,0,0,0,0,0,0,0,0,0,0,0,0,0,0,0,0,0,0,0,0,0,0,0,0,0,0,0,0,0,0,0,0,0,0],"split_type":[0,0,0,0,0,0,0,0,0,0,0,0,0,0,0,0,0,0,0,0,0,0,0,0,0,0,0,0,0,0,0,0,0,0,0,0,0,0,0,0,0,0,0,0,0,0,0,0,0,0,0,0,0,0,0,0,0,0,0,0,0,0,0,0,0,0,0,0,0,0,0,0,0,0,0,0,0,0,0,0,0,0,0,0,0,0,0,0,0,0,0,0,0,0,0,0,0,0,0,0,0,0,0,0,0,0,0,0,0,0,0,0,0,0,0,0,0,0,0,0,0,0,0,0,0,0,0],"sum_hessian":[4.2042617E4,1.8889883E4,2.3152736E4,8.816479E3,1.0073404E4,1.2651352E4,1.0501386E4,1.9492798E3,6.867198E3,6.8911875E3,3.1822166E3,1.1680475E4,9.7087683E2,5.714651E3,4.786735E3,5.5790955E2,1.3913701E3,4.279696E3,2.5875027E3,5.5133887E3,1.3777988E3,2.3844253E3,7.9779114E2,7.669191E3,4.0112834E3,5.0785538E2,4.6302145E2,3.282969E3,2.431682E3,4.302563E3,4.8417184E2,6.942738E1,4.8848218E2,6.921328E1,1.3221569E3,3.242702E3,1.0369939E3,2.072194E2,2.3802832E3,4.4902515E3,1.0231369E3,3.794538E2,9.98345E2,2.0429619E3,3.414635E2,1.16543755E2,6.8124744E2,6.72791E3,9.4128076E2,3.932429E3,7.885442E1,1.3638931E2,3.7146606E2,1.9523065E2,2.677908E2,1.2269039E3,2.056065E3,2.3552664E3,7.6415535E1,3.1244014E3,1.1781616E3,1.9988727E2,2.8428455E2,4.3677505E1,2.574988E1,8.303368E1,4.054485E2,4.1690125E1,2.7523157E1,5.5844326E1,1.2663125E3,3.996384E1,3.2027383E3,5.3404584E2,5.0294803E2,1.5906693E2,4.8152493E1,1.1731611E3,1.2071221E3,8.475942E2,3.6426575E3,3.549567E2,6.681802E2,8.356925E1,2.9588455E2,8.005545E2,1.9779048E2,1.106946E3,9.3601587E2,9.965118E1,2.4181233E2,3.716564E1,7.9378105E1,6.306069E2,5.0640537E1,3.808079E3,2.919831E3,6.78409E2,2.628718E2,2.493799E3,1.4386299E3,5.27124E1,2.6142029E1,8.476039E1,5.162892E1,1.3887694E2,2.3258913E2,1.6010117E2,3.5129494E1,2.3417287E2,3.361793E1,7.1496484E2,5.1193906E2,2.0034114E2,1.8557239E3,1.1724032E3,1.1828633E3,4.8415638E1,2.7999891E1,1.7140475E3,1.4103539E3,9.164871E2,2.616746E2,4.2439323E1,1.5744795E2,2.3202435E2,5.2260212E1],"tree_param":{"num_deleted":"0","num_feature":"10","num_nodes":"127","size_leaf_vector":"0"}},{"base_weights":[-3.3691744E-3,5.9869146E-1,-4.7284767E-1,9.340604E-1,3.2832775E-1,-7.943988E-1,-7.8493334E-2,5.046861E-1,1.106844E0,5.3576455E-2,9.5300657E-1,-8.882442E-1,1.5720432E-1,3.1295976E-1,-5.646887E-1,9.9110126E-1,2.8448328E-1,5.266871E-1,1.1507981E0,-1.1449509E-1,7.642162E-1,7.256252E-1,1.4145825E0,-6.7856735E-1,-1.2605423E0,-1.6254748E-1,4.7332874E-1,-1.2206633E-1,9.214924E-1,-7.4139035E-1,4.7619492E-1,-5.92156E-2,1.1483177E0,-8.720405E-1,3.4438813E-1,1.21124595E-1,1.1222867E0,1.0714384E0,1.4515038E0,-2.8042078E-1,6.860169E-1,3.217716E-1,9.2832553E-1,4.9531192E-1,9.982008E-1,8.146574E-1,1.5045547E0,-8.1100696E-1,2.874099E-1,-1.2995119E0,6.8871725E-1,-3.00751E-1,8.6185443E-1,1.5147233E-1,9.4235027E-1,-5.6798875E-1,1.203648E-1,9.815568E-1,-7.856059E-1,-5.344833E-1,-1.4243572E0,-2.5667232E-1,1.006695E0,-1.4037296E0,6.810824E-1,3.5796094E-1,1.2879658E0,-1.4752238E0,1.817935E-1,1.4046084E0,3.0742404E-1,5.8234113E-1,-1.0123508E0,8.2288474E-1,1.7816314E0,1.1632931E0,7.141618E-1,1.3223474E0,1.6186887E0,-4.9911192E-1,-4.260649E-3,4.019676E-2,1.0281914E0,-5.540762E-1,5.5460346E-1,1.0613655E0,4.7190425E-1,3.415814E-1,1.2617072E0,1.136915E0,6.2156147E-1,6.132469E-1,1.2875841E0,1.0055968E0,1.5752904E0,-1.0357294E0,-6.581207E-1,1.645863E-1,1.1403778E0,-1.4077715E0,-1.0072002E0,-3.4177843E-1,1.5869228E0,-4.8020738E-1,5.641062E-1,4.782039E-1,1.3195739E0,3.6522186E-1,-1.0620677E0,5.4278487E-1,1.5123463E0,-9.028643E-1,-8.676361E-2,-2.3440006E-1,5.156106E-1,7.2437525E-1,1.2280507E0,-1.6362418E-1,-1.869272E0,-8.199104E-1,1.9395459E-1,-1.4980464E0,5.002399E-1,-7.079252E-1,1.9717558E-1,6.3510984E-1,1.281468E0],"categories":[],"categories_nodes":[],"categories_segments":[],"categories_sizes":[],"default_left":[1,1,1,1,1,1,1,1,1,1,1,1,1,1,1,1,1,1,1,1,1,1,1,1,1,1,1,1,1,1,1,1,1,1,1,1,1,1,1,1,1,1,1,1,1,1,1,1,1,1,1,1,1,1,1,1,1,1,1,1,1,1,1,0,0,0,0,0,0,0,0,0,0,0,0,0,0,0,0,0,0,0,0,0,0,0,0,0,0,0,0,0,0,0,0,0,0,0,0,0,0,0,0,0,0,0,0,0,0,0,0,0,0,0,0,0,0,0,0,0,0,0,0,0,0,0,0],"id":2,"left_children":[1,3,5,7,9,11,13,15,17,19,21,23,25,27,29,31,33,35,37,39,41,43,45,47,49,51,53,55,57,59,61,63,65,67,69,71,73,75,77,79,81,83,85,87,89,91,93,95,97,99,101,103,105,107,109,111,113,115,117,119,121,123,125,-1,-1,-1,-1,-1,-1,-1,-1,-1,-1,-1,-1,-1,-1,-1,-1,-1,-1,-1,-1,-1,-1,-1,-1,-1,-1,-1,-1,-1,-1,-1,-1,-1,-1,-1,-1,-1,-1,-1,-1,-1,-1,-1,-1,-1,-1,-1,-1,-1,-1,-1,-1,-1,-1,-1,-1,-1,-1,-1,-1,-1,-1,-1,-1],"loss_changes":[1.1890806E4,1.6702314E3,2.9968745E3,6.0873486E2,1.7514679E3,1.1632139E3,2.0213918E3,2.5222797E2,1.4793066E2,8.4738855E2,3.2480957E2,9.231074E2,1.184665E2,1.5579177E3,8.719485E2,1.21969666E2,1.1314569E2,9.986392E1,1.2667578E2,7.6200793E2,9.758606E1,1.3001392E2,5.265503E1,9.710137E2,3.2575684E2,8.255611E1,8.82863E1,3.712552E2,2.5276074E2,5.704844E2,2.6820532E2,9.811161E1,6.929309E1,5.1995625E1,5.944438E1,1.3128014E2,2.9937622E1,1.3969092E2,2.006372E1,2.8682544E2,2.1713855E2,7.593756E1,5.8654907E1,1.3277365E2,4.8182068E1,1.1176834E1,2.802124E1,2.27521E2,9.509422E1,1.2933105E2,7.9453835E1,8.018454E1,1.0490391E1,9.15285E1,5.2372574E1,1.9438434E2,3.1209595E2,1.4816357E2,5.5334965E1,6.474664E2,1.34906E2,5.9767235E1,3.8830017E1,0E0,0E0,0E0,0E0,0E0,0E0,0E0,0E0,0E0,0E0,0E0,0E0,0E0,0E0,0E0,0E0,0E0,0E0,0E0,0E0,0E0,0E0,0E0,0E0,0E0,0E0,0E0,0E0,0E0,0E0,0E0,0E0,0E0,0E0,0E0,0E0,0E0,0E0,0E0,0E0,0E0,0E0,0E0,0E0,0E0,0E0,0E0,0E0,0E0,0E0,0E0,0E0,0E0,0E0,0E0,0E0,0E0,0E0,0E0,0E0,0E0,0E0,0E0,0E0],"parents":[2147483647,0,0,1,1,2,2,3,3,4,4,5,5,6,6,7,7,8,8,9,9,10,10,11,11,12,12,13,13,14,14,15,15,16,16,17,17,18,18,19,19,20,20,21,21,22,22,23,23,24,24,25,25,26,26,27,27,28,28,29,29,30,30,31,31,32,32,33,33,34,34,35,35,36,36,37,37,38,38,39,39,40,40,41,41,42,42,43,43,44,44,45,45,46,46,47,47,48,48,49,49,50,50,51,51,52,52,53,53,54,54,55,55,56,56,57,57,58,58,59,59,60,60,61,61,62,62],"right_children":[2,4,6,8,10,12,14,16,18,20,22,24,26,28,30,32,34,36,38,40,42,44,46,48,50,52,54,56,58,60,62,64,66,68,70,72,74,76,78,80,82,84,86,88,90,92,94,96,98,100,102,104,106,108,110,112,114,116,118,120,122,124,126,-1,-1,-1,-1,-1,-1,-1,-1,-1,-1,-1,-1,-1,-1,-1,-1,-1,-1,-1,-1,-1,-1,-1,-1,-1,-1,-1,-1,-1,-1,-1,-1,-1,-1,-1,-1,-1,-1,-1,-1,-1,-1,-1,-1,-1,-1,-1,-1,-1,-1,-1,-1,-1,-1,-1,-1,-1,-1,-1,-1,-1,-1,-1,-1],"split_conditions":[1.0520297E2,6.3807327E1,2.4561336E2,6.645E1,9.2149994E1,1.300905E-1,1.6290475E2,3.4196716E1,1.0496912E1,9.646617E-2,2.8831488E2,1.7357257E2,8.825E1,9.1350006E1,9.728492E-2,3.5E0,4.48E1,1.4497421E2,1.0055E2,3.379961E2,4.5E0,5.5E0,3.5E0,1.175E2,1.9004999E2,7.083333E-1,2.6410258E-1,7.295E1,8.894934E1,2.89975E2,8.8350006E1,2.5620745E1,6.448957E1,1.5416667E-1,4.535E1,1.20132324E2,2.35E-1,5.6249763E1,7.5E0,7.505E1,6.9649994E1,6.22E1,1.05E1,1.2715E2,9.487506E1,3.3821246E2,9.535E1,7.799501E1,3.6458334E-1,1.0725E2,3.6666665E-2,4.225E-1,1.3128333E2,2.0550839E2,3.6666665E-2,3.3286385E-2,2.4319276E-2,1.0355E2,1.125E-1,1.02649994E2,1.75E1,1.4500001E-1,1.289916E-1,-1.4037295E-2,6.810824E-3,3.5796093E-3,1.2879658E-2,-1.4752237E-2,1.8179349E-3,1.4046083E-2,3.0742404E-3,5.823411E-3,-1.0123508E-2,8.228847E-3,1.7816313E-2,1.1632931E-2,7.141618E-3,1.3223474E-2,1.6186887E-2,-4.9911193E-3,-4.2606487E-5,4.019676E-4,1.0281914E-2,-5.5407616E-3,5.5460343E-3,1.0613655E-2,4.719042E-3,3.415814E-3,1.2617071E-2,1.1369149E-2,6.2156147E-3,6.132469E-3,1.287584E-2,1.0055968E-2,1.5752904E-2,-1.0357294E-2,-6.581207E-3,1.645863E-3,1.1403778E-2,-1.4077715E-2,-1.0072002E-2,-3.417784E-3,1.5869228E-2,-4.802074E-3,5.6410623E-3,4.7820387E-3,1.3195738E-2,3.6522185E-3,-1.0620677E-2,5.4278485E-3,1.5123462E-2,-9.028642E-3,-8.676361E-4,-2.3440006E-3,5.156106E-3,7.2437525E-3,1.2280507E-2,-1.6362418E-3,-1.8692719E-2,-8.199104E-3,1.9395459E-3,-1.4980463E-2,5.002399E-3,-7.079252E-3,1.9717556E-3,6.3510984E-3,1.281468E-2],"split_indices":[0,0,9,1,1,3,0,0,0,3,9,0,1,1,3,6,1,9,1,9,6,6,6,1,1,3,3,1,8,0,1,0,8,7,1,9,7,0,6,1,1,1,6,1,0,9,1,1,7,1,7,7,0,0,7,3,7,1,3,1,6,3,3,0,0,0,0,0,0,0,0,0,0,0,0,0,0,0,0,0,0,0,0,0,0,0,0,0,0,0,0,0,0,0,0,0,0,0,0,0,0,0,0,0,0,0,0,0,0,0,0,0,0,0,0,0,0,0,0,0,0,0,0,0,0,0,0],"split_type":[0,0,0,0,0,0,0,0,0,0,0,0,0,0,0,0,0,0,0,0,0,0,0,0,0,0,0,0,0,0,0,0,0,0,0,0,0,0,0,0,0,0,0,0,0,0,0,0,0,0,0,0,0,0,0,0,0,0,0,0,0,0,0,0,0,0,0,0,0,0,0,0,0,0,0,0,0,0,0,0,0,0,0,0,0,0,0,0,0,0,0,0,0,0,0,0,0,0,0,0,0,0,0,0,0,0,0,0,0,0,0,0,0,0,0,0,0,0,0,0,0,0,0,0,0,0,0],"sum_hessian":[4.206551E4,1.8429807E4,2.3635705E4,8.2236875E3,1.0206119E4,1.301826E4,1.0617445E4,2.3620623E3,5.861625E3,7.0900044E3,3.1161143E3,1.185014E4,1.16812E3,5.8816396E3,4.735805E3,7.338852E2,1.6281771E3,4.1482794E2,5.4467974E3,5.734458E3,1.3555463E3,2.0908467E3,1.0252675E3,7.5841074E3,4.266032E3,5.804614E2,5.8765857E2,3.430089E3,2.4515508E3,4.0492205E3,6.8658466E2,9.5339645E1,6.3854553E2,7.8851715E1,1.5493253E3,2.4825792E2,1.6657E2,4.3159453E3,1.1308518E3,4.751142E3,9.8331616E2,3.6861792E2,9.8692834E2,1.1363655E3,9.544812E2,1.3625589E2,8.890116E2,6.670243E3,9.138642E2,4.1831084E3,8.2923584E1,5.1273737E2,6.772404E1,3.5018713E2,2.3747145E2,1.2079142E3,2.222175E3,2.3690667E3,8.248396E1,3.1102268E3,9.3899365E2,2.88312E2,3.9827267E2,3.3568787E1,6.177086E1,9.711571E1,5.414298E2,5.000825E1,2.8843466E1,4.996235E1,1.499363E3,1.7722604E2,7.1031876E1,1.1728896E2,4.9281044E1,3.4296814E3,8.8626385E2,6.4687494E2,4.839769E2,2.6499712E3,2.101171E3,3.415396E2,6.4177655E2,7.661739E1,2.9200052E2,7.619632E2,2.249652E2,9.4874756E2,1.876179E2,6.94581E2,2.599002E2,9.856836E1,3.7687534E1,1.1391977E2,7.7509186E2,2.6960835E3,3.9741597E3,8.008096E2,1.13054634E2,3.0473936E3,1.1357152E3,3.884327E1,4.4080315E1,4.2556335E2,8.717401E1,3.8987007E1,2.8737032E1,2.9891522E2,5.1271904E1,1.4174135E2,9.57301E1,7.1099835E2,4.9691577E2,1.1708455E3,1.0513295E3,1.1630842E3,1.2059825E3,5.373677E1,2.8747187E1,2.2348833E3,8.753435E2,9.0488745E2,3.4106163E1,1.4459016E2,1.4372183E2,1.7203993E2,2.2623274E2],"tree_param":{"num_deleted":"0","num_feature":"10","num_nodes":"127","size_leaf_vector":"0"}},{"base_weights":[-3.5770892E-3,3.032066E-1,-4.3849206E-1,1.976554E-1,9.026309E-1,-5.6975895E-1,5.1451397E-1,-9.813378E-2,3.6302033E-1,7.8973037E-1,1.092313E0,-6.839783E-1,-3.659791E-1,3.1953686E-1,7.6233095E-1,-1.8812063E-1,2.948124E-1,2.863177E-1,7.080448E-1,8.175669E-1,-6.4636415E-1,1.1539818E0,2.2806776E-1,-7.187443E-1,-9.678996E-2,-4.6315497E-1,3.750017E-2,2.77937E-1,1.4015307E0,6.5596476E-2,8.872664E-1,-2.863573E-1,2.6927274E-2,3.5799703E-1,-6.207756E-1,-8.701678E-2,3.520504E-1,7.3853785E-1,-1.2929044E0,5.597465E-1,8.9805424E-1,4.9951723E-1,1.214376E0,7.630212E-1,-9.3361527E-1,-1.2584168E0,-6.896079E-1,-7.950628E-1,1.565903E-1,-2.6214194E-1,-7.4039143E-1,-9.937442E-2,5.654486E-1,3.342339E-1,-6.0680044E-1,-2.0874798E-1,1.2620695E0,9.708634E-1,-4.517313E-1,-1.2450949E0,-2.653204E-1,4.7680417E-1,-5.5838343E-2,2.6813054E-1,9.9906945E-1,-1.2400036E0,4.5534676E-1,-1.7359903E-1,4.8529685E-1,2.5718817E-1,5.277053E-1,5.742251E-1,9.9591655E-1,3.7062472E-1,1.0057126E0,1.1708287E0,7.885662E-1,-6.070165E-1,9.9947715E-1,1.2839029E0,7.6267534E-1,2.4032807E-1,1.0726835E0,-1.0154344E0,-1.8997374E0,-7.2427183E-1,-2.4805261E-1,-5.0011605E-1,-1.872364E0,-9.908394E-2,5.57826E-1,-5.1476485E-1,-1.2825516E-1,-1.0463852E0,-5.496667E-1,-2.407664E-1,2.4374303E-1,3.4038654E-1,1.3376356E0,2.2584398E-1,8.843537E-1,-1.3270926E0,3.3607525E-1,6.346557E-1,-5.4321206E-1,6.093765E-1,1.155957E0],"categories":[],"categories_nodes":[],"categories_segments":[],"categories_sizes":[],"default_left":[1,1,1,1,1,1,1,1,1,1,1,1,1,1,1,1,1,1,1,1,0,1,1,1,1,1,1,1,0,1,1,1,1,1,1,1,1,1,0,1,1,1,1,1,0,1,1,1,1,1,1,1,1,1,1,1,0,1,0,0,0,0,0,0,0,0,0,0,0,0,0,0,0,0,0,0,0,0,0,0,0,0,0,0,0,0,0,0,0,0,0,0,0,0,0,0,0,0,0,0,0,0,0,0,0,0,0],"id":3,"left_children":[1,3,5,7,9,11,13,15,17,19,21,23,25,27,29,31,33,35,37,39,-1,41,43,45,47,49,51,53,-1,55,57,59,61,63,65,67,69,71,-1,73,75,77,79,81,-1,83,85,87,89,91,93,95,97,99,101,103,-1,105,-1,-1,-1,-1,-1,-1,-1,-1,-1,-1,-1,-1,-1,-1,-1,-1,-1,-1,-1,-1,-1,-1,-1,-1,-1,-1,-1,-1,-1,-1,-1,-1,-1,-1,-1,-1,-1,-1,-1,-1,-1,-1,-1,-1,-1,-1,-1,-1,-1],"loss_changes":[5.605934E3,1.5580273E3,2.174545E3,1.0248962E3,7.692456E1,3.5476562E2,1.00883606E2,2.6569324E2,3.5494727E2,9.354236E1,7.210657E1,1.9934766E2,2.1550482E2,5.1912827E1,8.001959E1,1.2929109E2,8.119935E1,2.700476E2,1.5022424E2,4.5877808E1,0E0,4.8942993E1,5.9164337E1,1.431836E2,9.7647934E1,2.4598462E2,7.7335434E1,5.696338E1,0E0,4.7657364E1,8.8562195E1,8.358319E1,7.160398E1,7.459921E1,6.1462936E1,8.1604836E1,1.5532764E2,1.0029675E2,0E0,4.498146E1,4.950769E1,6.2546616E1,3.442444E1,9.632397E0,0E0,6.928906E1,1.335625E2,4.4338715E1,4.1706768E1,8.653865E1,1.06980286E2,4.1205578E1,3.6947105E1,6.323353E1,4.744573E1,3.3512653E1,0E0,4.762744E1,0E0,0E0,0E0,0E0,0E0,0E0,0E0,0E0,0E0,0E0,0E0,0E0,0E0,0E0,0E0,0E0,0E0,0E0,0E0,0E0,0E0,0E0,0E0,0E0,0E0,0E0,0E0,0E0,0E0,0E0,0E0,0E0,0E0,0E0,0E0,0E0,0E0,0E0,0E0,0E0,0E0,0E0,0E0,0E0,0E0,0E0,0E0,0E0,0E0],"parents":[2147483647,0,0,1,1,2,2,3,3,4,4,5,5,6,6,7,7,8,8,9,9,10,10,11,11,12,12,13,13,14,14,15,15,16,16,17,17,18,18,19,19,21,21,22,22,23,23,24,24,25,25,26,26,27,27,29,29,30,30,31,31,32,32,33,33,34,34,35,35,36,36,37,37,39,39,40,40,41,41,42,42,43,43,45,45,46,46,47,47,48,48,49,49,50,50,51,51,52,52,53,53,54,54,55,55,57,57],"right_children":[2,4,6,8,10,12,14,16,18,20,22,24,26,28,30,32,34,36,38,40,-1,42,44,46,48,50,52,54,-1,56,58,60,62,64,66,68,70,72,-1,74,76,78,80,82,-1,84,86,88,90,92,94,96,98,100,102,104,-1,106,-1,-1,-1,-1,-1,-1,-1,-1,-1,-1,-1,-1,-1,-1,-1,-1,-1,-1,-1,-1,-1,-1,-1,-1,-1,-1,-1,-1,-1,-1,-1,-1,-1,-1,-1,-1,-1,-1,-1,-1,-1,-1,-1,-1,-1,-1,-1,-1,-1],"split_conditions":[5E-1,9.86229E-2,1.4330357E-1,4.5E0,1.5470086E-1,1.9380467E-1,9.522727E-2,4.5E-1,2.5601315E-1,9.641667E1,9.109859E1,1.15E1,9.86229E-2,1.9214287E1,9.444444E-1,8.0511734E1,4.325E0,5.8930676E1,7.321429E-2,2.916667E-1,-6.4636413E-3,3.5E0,7.5E0,4.7404907E1,5.7880333E1,2.7366667E1,9.5E0,8.479167E1,1.4015307E-2,8.833333E-1,8.969539E1,7.416667E0,8.207887E1,8.885167E1,1.5238096E-1,3.9615387E-1,2.4339061E-2,2.4938352E-2,-1.2929044E-2,8.5E0,1.225E0,1.4855769E1,6.833333E0,9.1683914E1,-9.336152E-3,4.455105E1,4.154762E-1,5.458991E1,4.65E1,1.6354168E1,7.236247E1,3.9166665E0,6.275E1,1.25E1,9.585715E1,6.699359E1,1.2620694E-2,2.1483517E-1,-4.5173126E-3,-1.2450948E-2,-2.653204E-3,4.7680414E-3,-5.583834E-4,2.6813054E-3,9.990694E-3,-1.2400036E-2,4.5534675E-3,-1.7359903E-3,4.8529683E-3,2.5718817E-3,5.277053E-3,5.742251E-3,9.959165E-3,3.706247E-3,1.0057126E-2,1.1708287E-2,7.885662E-3,-6.070165E-3,9.994771E-3,1.2839029E-2,7.6267533E-3,2.4032807E-3,1.0726835E-2,-1.0154343E-2,-1.8997373E-2,-7.2427182E-3,-2.480526E-3,-5.0011603E-3,-1.872364E-2,-9.908393E-4,5.5782595E-3,-5.1476485E-3,-1.2825516E-3,-1.04638515E-2,-5.4966668E-3,-2.407664E-3,2.4374302E-3,3.4038653E-3,1.3376356E-2,2.2584398E-3,8.8435365E-3,-1.3270926E-2,3.3607525E-3,6.346557E-3,-5.4321205E-3,6.0937647E-3,1.1559569E-2],"split_indices":[2,3,3,6,7,4,7,4,4,5,8,6,3,4,4,8,4,8,3,4,0,6,6,8,8,5,6,5,0,7,8,5,8,8,7,7,7,3,0,6,4,5,4,8,0,8,7,8,5,5,8,4,5,6,5,8,0,3,0,0,0,0,0,0,0,0,0,0,0,0,0,0,0,0,0,0,0,0,0,0,0,0,0,0,0,0,0,0,0,0,0,0,0,0,0,0,0,0,0,0,0,0,0,0,0,0,0],"split_type":[0,0,0,0,0,0,0,0,0,0,0,0,0,0,0,0,0,0,0,0,0,0,0,0,0,0,0,0,0,0,0,0,0,0,0,0,0,0,0,0,0,0,0,0,0,0,0,0,0,0,0,0,0,0,0,0,0,0,0,0,0,0,0,0,0,0,0,0,0,0,0,0,0,0,0,0,0,0,0,0,0,0,0,0,0,0,0,0,0,0,0,0,0,0,0,0,0,0,0,0,0,0,0,0,0,0,0],"sum_hessian":[4.201228E4,2.4634758E4,1.7377521E4,2.0948627E4,3.6861313E3,1.5274621E4,2.102901E3,7.511305E3,1.3437321E4,2.3169275E3,1.3692037E3,9.784739E3,5.489882E3,1.1797483E3,9.231526E2,6.113158E3,1.3981472E3,1.099657E4,2.4407515E3,2.2737783E3,4.3149216E1,1.2771091E3,9.209461E1,9.236832E3,5.479071E2,4.42493E3,1.0649518E3,1.1382408E3,4.1507412E1,1.4120058E2,7.81952E2,4.19719E3,1.9159681E3,1.3091531E3,8.899412E1,1.6453116E3,9.351259E3,2.4052437E3,3.5507893E1,5.4497925E2,1.7287991E3,1.0962993E2,1.1674791E3,6.3645187E1,2.8449425E1,4.691982E2,8.767634E3,1.4544829E2,4.0245877E2,2.5676162E3,1.857314E3,8.460635E2,2.188883E2,1.0714487E3,6.679212E1,1.1559847E2,2.5602095E1,7.366709E2,4.528112E1,8.783638E1,4.1093535E3,2.9735748E2,1.6186107E3,1.1506102E3,1.585429E2,5.657989E1,3.241423E1,1.4306241E3,2.1468752E2,6.0759316E3,3.275327E3,1.4719436E3,9.3330005E2,3.852493E2,1.5972993E2,4.8995328E2,1.2388458E3,3.3769188E1,7.586075E1,1.0085861E3,1.5889307E2,2.5149714E1,3.8495472E1,3.435379E2,1.256603E2,8.1277085E3,6.399252E2,1.1620185E2,2.9246443E1,2.4589986E2,1.5655893E2,8.86908E2,1.6807081E3,7.0976263E2,1.1475513E3,6.0030347E2,2.4576006E2,1.7156354E2,4.7324776E1,8.974645E2,1.739842E2,3.775947E1,2.903265E1,3.2103138E1,8.349534E1,2.5237776E2,4.8429312E2],"tree_param":{"num_deleted":"0","num_feature":"10","num_nodes":"107","size_leaf_vector":"0"}},{"base_weights":[5.6591973E-4,3.0509752E-1,-4.2818135E-1,1.540665E-1,7.3519754E-1,-5.556657E-1,5.16626E-1,4.582241E-2,7.743693E-1,6.1831266E-1,1.1329825E0,-7.585884E-1,-3.7245587E-1,4.0351278E-1,9.484496E-1,-2.5464284E-1,2.2739695E-1,5.712069E-1,1.0183691E0,-7.456549E-1,6.5676093E-1,8.2326126E-1,1.352817E0,-9.010536E-1,-5.380919E-1,-6.5336025E-1,-2.0458354E-1,2.598428E-1,7.240498E-1,1.1477649E0,1.3745418E-1,-4.6121624E-1,7.932638E-2,-4.375784E-2,4.0362E-1,6.0094494E-1,-1.0479604E0,7.8534406E-1,1.2676322E0,-1.7341765E0,-3.875726E-1,5.212808E-1,9.0497434E-1,9.1110903E-1,-6.1568975E-1,2.4164332E-1,1.3897587E0,-8.487089E-1,-1.4639994E0,-5.650705E-1,1.2340256E0,-8.477142E-1,-1.23522095E-1,-4.8592153E-1,-4.5373444E-2,3.3644763E-1,-4.1041186E-1,4.091555E-1,1.2525713E0,8.8171196E-1,1.3811582E0,6.75765E-1,-1.0456649E0,-8.7191266E-1,-2.2871943E-1,-3.0212024E-1,3.3805013E-1,-4.7805312E-1,6.586852E-3,3.457604E-1,9.743629E-1,2.684935E-1,7.435932E-1,3.0098438E-1,1.001408E0,1.4231969E0,7.801015E-1,4.6038315E-1,-1.1830719E0,5.4161716E-1,-1.150805E0,1.5846224E-1,1.0211594E0,6.917078E-1,1.39022E0,1.1773447E0,1.5182732E0,-1.2152249E0,-7.8035975E-1,-1.5408424E0,-3.673212E-1,-1.8127751E0,-5.392488E-1,-8.932906E-1,6.627227E-1,-8.445984E-1,3.1998295E-2,-7.2787094E-1,-2.3047574E-2,-2.1082835E-1,2.3370047E-1,2.2004806E-1,8.5292035E-1,4.7827092E-1,-9.055223E-1,1.4378275E0,1.2565961E-1,4.4442794E-1,1.413223E0,6.517897E-1,1.542288E0,1.6635395E0,1.1639107E0,3.2294196E-1,1.0300161E0],"categories":[],"categories_nodes":[],"categories_segments":[],"categories_sizes":[],"default_left":[1,1,1,1,1,1,1,1,1,1,1,1,1,1,1,1,1,1,1,1,1,1,1,1,1,1,1,1,1,1,1,1,1,1,1,1,0,1,1,0,1,1,1,1,0,0,1,1,1,1,0,1,1,1,1,1,1,1,1,1,1,1,0,0,0,0,0,0,0,0,0,0,0,0,0,0,0,0,0,0,0,0,0,0,0,0,0,0,0,0,0,0,0,0,0,0,0,0,0,0,0,0,0,0,0,0,0,0,0,0,0,0,0,0,0],"id":4,"left_children":[1,3,5,7,9,11,13,15,17,19,21,23,25,27,29,31,33,35,37,39,41,43,45,47,49,51,53,55,57,59,61,63,65,67,69,71,-1,73,75,-1,77,79,81,83,-1,-1,85,87,89,91,-1,93,95,97,99,101,103,105,107,109,111,113,-1,-1,-1,-1,-1,-1,-1,-1,-1,-1,-1,-1,-1,-1,-1,-1,-1,-1,-1,-1,-1,-1,-1,-1,-1,-1,-1,-1,-1,-1,-1,-1,-1,-1,-1,-1,-1,-1,-1,-1,-1,-1,-1,-1,-1,-1,-1,-1,-1,-1,-1,-1,-1],"loss_changes":[5.494339E3,1.5977915E3,2.1053652E3,1.222523E3,2.9551978E2,5.71624E2,1.0038922E2,8.4621155E2,1.3260144E2,2.6005994E2,9.614844E1,2.2813867E2,3.8126172E2,7.531296E1,6.86763E1,4.03235E2,4.6218433E2,7.205478E1,6.8917114E1,4.628543E1,1.6051099E2,7.76008E1,3.351538E1,1.2786279E2,1.3807251E2,3.1117395E2,2.2689514E2,5.8843475E1,8.32771E1,1.8639587E1,5.6214996E1,3.4399432E2,2.2054813E2,8.347594E1,1.9252441E2,6.829846E1,0E0,6.585684E1,4.214392E1,0E0,6.995632E1,1.0667987E2,1.4636047E2,5.788141E1,0E0,0E0,1.8537964E1,9.9507324E1,2.99458E1,8.876581E1,0E0,1.5338574E2,9.1728004E1,2.0479483E2,1.4971368E2,6.10149E1,5.2447327E1,9.290692E1,2.2830963E1,2.2793701E1,7.000366E0,6.562029E0,0E0,0E0,0E0,0E0,0E0,0E0,0E0,0E0,0E0,0E0,0E0,0E0,0E0,0E0,0E0,0E0,0E0,0E0,0E0,0E0,0E0,0E0,0E0,0E0,0E0,0E0,0E0,0E0,0E0,0E0,0E0,0E0,0E0,0E0,0E0,0E0,0E0,0E0,0E0,0E0,0E0,0E0,0E0,0E0,0E0,0E0,0E0,0E0,0E0,0E0,0E0,0E0,0E0],"parents":[2147483647,0,0,1,1,2,2,3,3,4,4,5,5,6,6,7,7,8,8,9,9,10,10,11,11,12,12,13,13,14,14,15,15,16,16,17,17,18,18,19,19,20,20,21,21,22,22,23,23,24,24,25,25,26,26,27,27,28,28,29,29,30,30,31,31,32,32,33,33,34,34,35,35,37,37,38,38,40,40,41,41,42,42,43,43,46,46,47,47,48,48,49,49,51,51,52,52,53,53,54,54,55,55,56,56,57,57,58,58,59,59,60,60,61,61],"right_children":[2,4,6,8,10,12,14,16,18,20,22,24,26,28,30,32,34,36,38,40,42,44,46,48,50,52,54,56,58,60,62,64,66,68,70,72,-1,74,76,-1,78,80,82,84,-1,-1,86,88,90,92,-1,94,96,98,100,102,104,106,108,110,112,114,-1,-1,-1,-1,-1,-1,-1,-1,-1,-1,-1,-1,-1,-1,-1,-1,-1,-1,-1,-1,-1,-1,-1,-1,-1,-1,-1,-1,-1,-1,-1,-1,-1,-1,-1,-1,-1,-1,-1,-1,-1,-1,-1,-1,-1,-1,-1,-1,-1,-1,-1,-1,-1],"split_conditions":[5E-1,9.8649994E1,1.4330357E-1,9.86229E-2,4.5678712E-2,8.325227E1,3.845238E-1,4.5E0,2.701579E2,4.25E1,2.1627762E2,8.062186E1,1.25760735E2,9.975E1,8.132202E1,8.0511734E1,7.1444565E1,2.6331366E2,1.1909091E-1,3.5E0,2.7682226E-2,1.9783565E2,1.5E0,7.8741356E1,1.25E1,2.857477E-2,6.5578575E1,3.0714285E-1,1.3095239E-1,2.25E-2,9.5E0,7.21E1,6.645E1,6.195E1,1.25E1,1.24875635E-1,-1.0479604E-2,7.1899994E1,4.285E2,-1.7341765E-2,1.1175E2,1.5026307E-2,3.5E0,2.7083334E-1,-6.1568976E-3,2.4164333E-3,8.7500006E-2,6.55E1,4.5125002E-1,4.4949997E1,1.2340256E-2,1.35E1,5.3538498E1,1.11350006E2,1.0025E2,2.6410258E-1,7.185E1,8.7E1,3.5E0,7.709909E1,6.107023E1,6.363636E-2,-1.0456649E-2,-8.719127E-3,-2.2871941E-3,-3.0212023E-3,3.3805012E-3,-4.780531E-3,6.586852E-5,3.457604E-3,9.743629E-3,2.684935E-3,7.435932E-3,3.0098439E-3,1.00140795E-2,1.4231969E-2,7.8010145E-3,4.6038316E-3,-1.1830718E-2,5.4161716E-3,-1.1508049E-2,1.5846224E-3,1.02115935E-2,6.9170776E-3,1.39022E-2,1.1773447E-2,1.5182732E-2,-1.2152248E-2,-7.8035975E-3,-1.5408424E-2,-3.673212E-3,-1.812775E-2,-5.392488E-3,-8.932905E-3,6.6272267E-3,-8.445984E-3,3.1998294E-4,-7.278709E-3,-2.3047574E-4,-2.1082833E-3,2.3370045E-3,2.2004806E-3,8.529203E-3,4.7827093E-3,-9.055222E-3,1.4378275E-2,1.2565961E-3,4.4442792E-3,1.413223E-2,6.517897E-3,1.5422879E-2,1.6635396E-2,1.1639107E-2,3.2294195E-3,1.030016E-2],"split_indices":[2,1,3,3,3,1,3,6,9,9,9,8,9,1,8,8,8,9,7,6,7,9,6,8,6,3,8,3,7,7,6,1,1,1,6,3,0,1,9,0,1,7,6,7,0,0,3,9,7,1,0,6,8,1,1,3,1,9,6,8,8,7,0,0,0,0,0,0,0,0,0,0,0,0,0,0,0,0,0,0,0,0,0,0,0,0,0,0,0,0,0,0,0,0,0,0,0,0,0,0,0,0,0,0,0,0,0,0,0,0,0,0,0,0,0],"split_type":[0,0,0,0,0,0,0,0,0,0,0,0,0,0,0,0,0,0,0,0,0,0,0,0,0,0,0,0,0,0,0,0,0,0,0,0,0,0,0,0,0,0,0,0,0,0,0,0,0,0,0,0,0,0,0,0,0,0,0,0,0,0,0,0,0,0,0,0,0,0,0,0,0,0,0,0,0,0,0,0,0,0,0,0,0,0,0,0,0,0,0,0,0,0,0,0,0,0,0,0,0,0,0,0,0,0,0,0,0,0,0,0,0,0,0],"sum_hessian":[4.2077957E4,2.4603729E4,1.7474227E4,1.8211625E4,6.3921035E3,1.5397641E4,2.0765864E3,1.5507748E4,2.7038774E3,4.944154E3,1.4479497E3,7.302508E3,8.0951323E3,1.6485803E3,4.2800623E2,5.8403945E3,9.667354E3,1.4790347E3,1.2248428E3,1.3450595E2,4.809648E3,6.047975E2,8.431522E2,4.432304E3,2.8702039E3,3.0256038E3,5.0695283E3,1.1410892E3,5.0749106E2,3.4267273E2,8.533351E1,3.6088203E3,2.2315745E3,3.8075403E3,5.859813E3,1.4535292E3,2.5505531E1,6.37088E2,5.8775476E2,3.393727E1,1.0056868E2,3.1154385E3,1.6942095E3,5.7077966E2,3.4017803E1,2.784155E1,8.1531067E2,4.0593257E3,3.729785E2,2.828392E3,4.181187E1,2.2124011E3,8.132025E2,1.8300614E3,3.2394673E3,1.0252546E3,1.1583466E2,3.2015817E2,1.873329E2,1.6428227E2,1.7839044E2,5.9323204E1,2.6010307E1,1.3023771E3,2.306443E3,9.011604E2,1.330414E3,3.9503113E2,3.4125093E3,5.323271E3,5.365422E2,4.3856088E2,1.01496826E3,1.9820477E2,4.3888327E2,4.4277258E2,1.4498218E2,4.874182E1,5.1826862E1,3.0792412E3,3.6197124E1,2.2911148E2,1.465098E3,3.9458588E2,1.7619382E2,3.142535E2,5.0105716E2,6.3314166E2,3.426184E3,3.47647E2,2.533149E1,5.492887E1,2.7734631E3,2.148451E3,6.3950344E1,1.4355057E2,6.69652E2,1.2007125E3,6.293488E2,2.0348583E3,1.2046089E3,8.390647E2,1.8618988E2,4.1173935E1,7.466073E1,6.754625E1,2.5261191E2,3.2414448E1,1.5491844E2,1.245252E2,3.9757076E1,7.242466E1,1.0596578E2,3.1723831E1,2.7599371E1],"tree_param":{"num_deleted":"0","num_feature":"10","num_nodes":"115","size_leaf_vector":"0"}},{"base_weights":[5.8548837E-3,5.9430206E-1,-4.7801396E-1,9.371873E-1,3.2528865E-1,-7.987813E-1,-7.293078E-2,7.190847E-1,1.0589174E0,1.6419274E-1,9.304192E-1,-6.125338E-1,-1.2109553E0,3.413635E-1,-5.1374286E-1,-1.4372033E-1,7.583785E-1,4.0324333E-1,1.0839659E0,-8.4933154E-2,3.8770086E-1,9.594691E-1,-1.7713559E-1,-4.29928E-1,-8.524087E-1,-1.280248E0,-4.7664323E-1,1.3370451E-1,6.17706E-1,-7.1138304E-1,2.3713888E-1,-8.284442E-1,4.4778043E-1,9.020274E-1,5.2243435E-1,6.1765406E-3,1.2996873E0,1.100193E0,2.576661E-1,-1.4844263E-1,3.6145392E-1,4.8350692E-1,-2.6096308E-1,7.911703E-1,1.1866003E0,4.8832616E-1,-1.0146807E0,-5.037801E-1,1.6087107E-1,-9.349175E-1,-3.8391184E-2,-1.1419266E0,-1.5170069E0,4.88919E-1,-8.540572E-1,2.4038517E-1,-4.6662512E-1,1.145355E-1,7.5072604E-1,-5.029513E-1,-1.3435851E0,9.902458E-2,1.3296713E0,-1.2708883E0,-1.6369364E-1,-3.3219865E-1,9.747211E-1,3.3072644E-1,9.653717E-1,1.1518152E0,4.5320186E-1,1.1275886E0,-7.126426E-1,1.7369148E0,7.424212E-1,1.1794964E-1,1.1138431E0,1.3259634E0,-1.7875801E-1,-4.6682905E-2,-5.283741E-1,2.6425287E-1,1.5826848E0,3.3783054E-1,7.929764E-1,-7.217639E-1,3.9439934E-1,5.4560405E-1,1.0770168E0,1.2291988E0,-0E0,-7.606562E-1,-3.1321418E-1,6.406605E-2,1.2001697E0,-1.0641274E0,-5.861398E-1,1.1335783E0,-2.718864E-1,-1.2542267E0,-7.2402054E-1,-1.5913365E0,1.9211605E-1,9.469621E-1,-9.434532E-2,-1.1681485E0,6.236743E-2,3.3261448E-1,-2.9957548E-1,-1.9078437E0,-3.3009186E-1,2.1505155E-1,-1.0182136E0,9.3521076E-1,5.5645096E-1,-1.0627118E0,-3.5590583E-1,-1.3958234E0,2.797495E-1,-2.2325674E-1,3.8071486E-1,7.542965E-1,1.5190929E0],"categories":[],"categories_nodes":[],"categories_segments":[],"categories_sizes":[],"default_left":[1,1,1,1,1,1,1,1,1,1,1,1,1,1,1,1,1,1,1,1,1,1,1,1,1,1,1,1,1,1,1,1,1,1,1,1,1,1,1,1,1,1,1,1,1,0,0,1,1,1,1,1,1,1,1,1,1,1,1,1,1,1,1,0,0,0,0,0,0,0,0,0,0,0,0,0,0,0,0,0,0,0,0,0,0,0,0,0,0,0,0,0,0,0,0,0,0,0,0,0,0,0,0,0,0,0,0,0,0,0,0,0,0,0,0,0,0,0,0,0,0,0,0],"id":5,"left_children":[1,3,5,7,9,11,13,15,17,19,21,23,25,27,29,31,33,35,37,39,41,43,45,47,49,51,53,55,57,59,61,63,65,67,69,71,73,75,77,79,81,83,85,87,89,-1,-1,91,93,95,97,99,101,103,105,107,109,111,113,115,117,119,121,-1,-1,-1,-1,-1,-1,-1,-1,-1,-1,-1,-1,-1,-1,-1,-1,-1,-1,-1,-1,-1,-1,-1,-1,-1,-1,-1,-1,-1,-1,-1,-1,-1,-1,-1,-1,-1,-1,-1,-1,-1,-1,-1,-1,-1,-1,-1,-1,-1,-1,-1,-1,-1,-1,-1,-1,-1,-1,-1,-1],"loss_changes":[1.1997725E4,1.7529106E3,3.0040776E3,2.2004443E2,1.038292E3,9.8872656E2,1.8668787E3,1.021073E2,8.6774414E1,4.6897287E2,7.2635376E1,3.8840088E2,2.0261426E2,3.0194922E2,7.354735E2,5.3959366E1,9.598633E1,7.072455E1,6.823242E1,1.1288074E2,2.761413E2,8.1256714E1,3.337101E1,2.2069879E2,2.5750366E2,1.1640674E2,1.27949646E2,1.929268E2,1.5075671E2,5.150104E2,1.5506256E2,1.728363E1,3.0006691E1,6.3440674E1,4.609619E1,1.1467383E2,1.1970154E1,6.716162E1,4.8292778E1,1.3457608E2,5.746517E1,1.7355908E2,1.732027E2,8.68822E1,4.7099365E1,0E0,0E0,2.1909778E2,5.5912823E1,1.5553003E2,9.739028E1,1.0679199E2,1.7206665E2,2.6852232E1,7.301759E1,1.2757202E2,8.755594E1,5.407135E1,6.2640137E1,2.4185999E2,8.3372314E1,8.359913E1,9.955185E0,0E0,0E0,0E0,0E0,0E0,0E0,0E0,0E0,0E0,0E0,0E0,0E0,0E0,0E0,0E0,0E0,0E0,0E0,0E0,0E0,0E0,0E0,0E0,0E0,0E0,0E0,0E0,0E0,0E0,0E0,0E0,0E0,0E0,0E0,0E0,0E0,0E0,0E0,0E0,0E0,0E0,0E0,0E0,0E0,0E0,0E0,0E0,0E0,0E0,0E0,0E0,0E0,0E0,0E0,0E0,0E0,0E0,0E0,0E0,0E0],"parents":[2147483647,0,0,1,1,2,2,3,3,4,4,5,5,6,6,7,7,8,8,9,9,10,10,11,11,12,12,13,13,14,14,15,15,16,16,17,17,18,18,19,19,20,20,21,21,22,22,23,23,24,24,25,25,26,26,27,27,28,28,29,29,30,30,31,31,32,32,33,33,34,34,35,35,36,36,37,37,38,38,39,39,40,40,41,41,42,42,43,43,44,44,47,47,48,48,49,49,50,50,51,51,52,52,53,53,54,54,55,55,56,56,57,57,58,58,59,59,60,60,61,61,62,62],"right_children":[2,4,6,8,10,12,14,16,18,20,22,24,26,28,30,32,34,36,38,40,42,44,46,48,50,52,54,56,58,60,62,64,66,68,70,72,74,76,78,80,82,84,86,88,90,-1,-1,92,94,96,98,100,102,104,106,108,110,112,114,116,118,120,122,-1,-1,-1,-1,-1,-1,-1,-1,-1,-1,-1,-1,-1,-1,-1,-1,-1,-1,-1,-1,-1,-1,-1,-1,-1,-1,-1,-1,-1,-1,-1,-1,-1,-1,-1,-1,-1,-1,-1,-1,-1,-1,-1,-1,-1,-1,-1,-1,-1,-1,-1,-1,-1,-1,-1,-1,-1,-1,-1,-1],"split_conditions":[1.0691846E2,6.3807327E1,2.5492299E2,4.5E0,3.3275977E2,1.8119652E2,1.5860901E2,1.6056519E1,4.7005453E0,4.5E0,6.978571E1,3.1291668E1,2.1E0,3.603896E-2,3.2853004E-1,1.4693509E2,5.1455452E1,1.15E1,7.366667E0,2.55E0,6.563333E1,7.032967E-2,6.875E-1,3.1833334E0,7.823077E0,3.263333E1,1.8875E1,8.4354004E1,4.5E0,2.831947E2,1.35E1,2.7060047E-1,1.0919285E-1,6.3E1,5.599185E1,3.8725E1,2.6406403E0,3.993969E1,1.16864136E2,3.39E1,1.11875E1,8.166666E-2,1.6666666E-2,7.5E0,9.1550735E1,4.8832614E-3,-1.0146807E-2,3.5E0,9.85E0,7.5E0,6.0848064E1,1.4642859E-1,6.769678E2,3.5E0,6.9E0,1.4952151E2,8.481018E1,3.35E1,1.306096E2,4.5E0,1.75E1,1.6025642E-2,1.45E1,-1.2708883E-2,-1.6369363E-3,-3.3219864E-3,9.747211E-3,3.3072643E-3,9.653717E-3,1.15181515E-2,4.5320187E-3,1.1275886E-2,-7.126426E-3,1.7369147E-2,7.424212E-3,1.1794964E-3,1.1138431E-2,1.3259633E-2,-1.7875801E-3,-4.6682905E-4,-5.283741E-3,2.6425286E-3,1.5826847E-2,3.3783054E-3,7.929764E-3,-7.217639E-3,3.9439932E-3,5.45604E-3,1.0770168E-2,1.2291987E-2,-0E0,-7.6065618E-3,-3.1321417E-3,6.406605E-4,1.2001697E-2,-1.0641274E-2,-5.861398E-3,1.1335783E-2,-2.718864E-3,-1.2542266E-2,-7.240205E-3,-1.5913365E-2,1.9211605E-3,9.469621E-3,-9.4345317E-4,-1.1681485E-2,6.236743E-4,3.3261448E-3,-2.9957548E-3,-1.9078437E-2,-3.3009185E-3,2.1505153E-3,-1.0182136E-2,9.3521075E-3,5.5645094E-3,-1.0627118E-2,-3.5590583E-3,-1.3958233E-2,2.797495E-3,-2.2325674E-3,3.8071487E-3,7.5429645E-3,1.5190929E-2],"split_indices":[0,0,9,6,9,0,0,0,0,6,5,5,4,7,4,9,0,6,4,4,5,7,4,4,4,5,5,8,6,0,6,4,4,9,8,5,0,8,9,5,4,7,7,6,8,0,0,6,4,6,8,7,0,6,4,0,8,5,0,6,6,7,6,0,0,0,0,0,0,0,0,0,0,0,0,0,0,0,0,0,0,0,0,0,0,0,0,0,0,0,0,0,0,0,0,0,0,0,0,0,0,0,0,0,0,0,0,0,0,0,0,0,0,0,0,0,0,0,0,0,0,0,0],"split_type":[0,0,0,0,0,0,0,0,0,0,0,0,0,0,0,0,0,0,0,0,0,0,0,0,0,0,0,0,0,0,0,0,0,0,0,0,0,0,0,0,0,0,0,0,0,0,0,0,0,0,0,0,0,0,0,0,0,0,0,0,0,0,0,0,0,0,0,0,0,0,0,0,0,0,0,0,0,0,0,0,0,0,0,0,0,0,0,0,0,0,0,0,0,0,0,0,0,0,0,0,0,0,0,0,0,0,0,0,0,0,0,0,0,0,0,0,0,0,0,0,0,0,0],"sum_hessian":[4.213385E4,1.9012578E4,2.3121271E4,8.356345E3,1.0656232E4,1.2902172E4,1.0219101E4,2.9981812E3,5.358164E3,8.417832E3,2.2384001E3,8.88985E3,4.012322E3,5.26771E3,4.9513906E3,1.2997835E2,2.868203E3,1.9869473E2,5.159469E3,3.9803772E3,4.4374546E3,2.1817373E3,5.6662693E1,5.0507783E3,3.8390718E3,3.6648335E3,3.4748862E2,3.0097166E3,2.2579934E3,3.920171E3,1.0312196E3,6.027691E1,6.970144E1,1.7791067E3,1.0890962E3,1.390577E2,5.9637035E1,5.059135E3,1.00334465E2,3.4862678E3,4.9410956E2,3.8672673E3,5.701874E2,1.2580435E3,9.236939E2,3.1657467E1,2.5005226E1,4.4903633E3,5.604147E2,3.4851072E3,3.5396466E2,2.3199033E3,1.34493E3,9.723166E1,2.5025697E2,2.5569104E3,4.5280612E2,4.7333243E2,1.7846609E3,2.9506816E3,9.694892E2,9.1726416E2,1.139554E2,3.50073E1,2.5269606E1,2.8020567E1,4.168087E1,1.7913533E2,1.5999713E3,1.0503227E2,9.840639E2,5.420198E1,8.485571E1,3.1236223E1,2.8400812E1,6.9941895E1,4.989193E3,2.8479736E1,7.185473E1,2.7519348E3,7.34333E2,4.596749E2,3.4434658E1,2.6325015E3,1.2347659E3,3.350583E2,2.3512906E2,6.798003E2,5.7824316E2,8.918514E2,3.1842548E1,1.909645E3,2.5807185E3,5.1447174E2,4.5942913E1,2.5399287E3,9.4517847E2,5.7560272E1,2.964044E2,1.825417E3,4.944863E2,1.2892003E3,5.5729786E1,5.4322292E1,4.2909367E1,1.8639665E2,6.3860317E1,2.185011E3,3.7189938E2,3.724676E1,4.155594E2,4.361945E2,3.7137962E1,9.1140533E2,8.7325555E2,6.113572E2,2.3393245E3,9.397064E2,2.9782766E1,4.2729172E2,4.8997247E2,3.0597937E1,8.335746E1],"tree_param":{"num_deleted":"0","num_feature":"10","num_nodes":"123","size_leaf_vector":"0"}},{"base_weights":[-4.4127798E-4,5.9596455E-1,-4.6145338E-1,3.9823315E-1,1.0573598E0,-8.028206E-2,-8.817062E-1,7.7519023E-1,2.2366999E-2,8.530579E-1,1.2268682E0,1.6479355E-1,-7.6597184E-1,-9.910259E-1,6.5257154E-2,3.915995E-1,9.389266E-1,-1.3967484E-1,6.949525E-1,6.686652E-1,1.1657248E0,9.92498E-1,1.385882E0,-4.6088555E-1,4.3406186E-1,-9.294205E-1,6.831734E-1,-7.6357245E-1,-1.361802E0,1.3743813E-1,-1.5671126E0,9.641791E-1,1.6297808E-1,-9.727198E-1,9.5433223E-1,-2.8590572E-1,6.975704E-1,9.828326E-1,3.856825E-1,1.0475373E0,3.9998987E-1,7.1140265E-1,1.3402662E0,-6.7985743E-1,1.0439357E0,1.4593054E0,1.1063187E0,-7.360839E-1,1.8045504E-1,4.1570306E-2,7.239013E-1,-1.3369944E0,-7.1455634E-1,-1.1738694E0,8.7976223E-1,-9.224735E-1,1.4106639E-1,-1.4674621E0,-9.1466606E-1,-1.444173E-1,4.369364E-1,-5.356792E-1,1.1665825E0,-1.5843738E-2,5.288823E-1,-8.0174947E-1,9.7043306E-1,-8.611268E-1,-1.459241E-1,-7.9095535E-2,1.1467967E0,2.1114472E-1,1.0702627E0,-9.512801E-2,7.1056646E-1,-1.0459484E0,1.1350477E0,2.3676147E-1,1.0643673E0,9.7539103E-1,-9.341798E-3,1.4673063E0,9.211731E-1,8.870157E-1,1.3028241E0,9.4299513E-1,1.5056813E0,2.6584125E-1,1.2180637E0,-9.0091574E-1,-2.3404053E-1,-3.9087185E-1,4.2629167E-1,-1.4873835E-1,4.9667615E-1,4.132678E-1,1.0998755E0,-1.7152307E0,-1.1578227E0,-4.322148E-1,-1.0906651E0,2.0545852E-1,1.2563152E0,-1.0907022E0,-4.7892293E-1,-6.951837E-2,7.337944E-1,-1.5868549E0,-1.1540045E0,2.4054883E-2,-1.089561E0,-6.866173E-1,8.064706E-2,2.118038E-1,1.1776317E0],"categories":[],"categories_nodes":[],"categories_segments":[],"categories_sizes":[],"default_left":[1,1,1,1,1,1,1,1,1,1,1,1,1,1,1,1,1,1,1,1,1,1,1,1,1,1,1,1,1,1,0,1,1,0,1,1,1,1,1,1,1,1,1,0,1,1,1,1,1,1,1,1,1,0,1,1,1,1,1,1,1,0,0,0,0,0,0,0,0,0,0,0,0,0,0,0,0,0,0,0,0,0,0,0,0,0,0,0,0,0,0,0,0,0,0,0,0,0,0,0,0,0,0,0,0,0,0,0,0,0,0,0,0,0,0],"id":6,"left_children":[1,3,5,7,9,11,13,15,17,19,21,23,25,27,29,31,33,35,37,39,41,43,45,47,49,51,53,55,57,59,-1,61,63,-1,65,67,69,71,73,75,77,79,81,-1,83,85,87,89,91,93,95,97,99,-1,101,103,105,107,109,111,113,-1,-1,-1,-1,-1,-1,-1,-1,-1,-1,-1,-1,-1,-1,-1,-1,-1,-1,-1,-1,-1,-1,-1,-1,-1,-1,-1,-1,-1,-1,-1,-1,-1,-1,-1,-1,-1,-1,-1,-1,-1,-1,-1,-1,-1,-1,-1,-1,-1,-1,-1,-1,-1,-1],"loss_changes":[1.1549391E4,1.6695386E3,3.794754E3,1.8164042E3,1.877998E2,2.088572E3,1.1669375E3,4.0096997E2,7.003447E2,1.4203027E2,1.0868701E2,1.5426816E3,7.761865E2,8.495498E2,1.3727707E2,2.5042715E2,1.3345508E2,6.338879E2,1.0996692E2,1.5908826E2,7.096533E1,1.05972046E2,3.310742E1,4.8663208E2,7.279021E2,2.5536206E2,1.2275018E2,9.011321E2,1.7837598E2,9.470451E1,0E0,1.6711877E2,9.0070145E1,0E0,1.270459E2,3.5435944E2,2.6910983E2,4.2634705E1,9.479468E1,1.2123169E2,9.9347305E1,4.9888153E1,3.2407104E1,0E0,4.5422363E1,3.0523438E1,3.4400604E1,1.5880847E2,1.1654791E2,2.3595877E2,4.2870093E2,6.452966E1,2.0364459E2,0E0,7.559587E1,3.9628662E2,1.172992E2,1.1222998E2,1.2168811E2,7.0750824E1,8.974562E1,0E0,0E0,0E0,0E0,0E0,0E0,0E0,0E0,0E0,0E0,0E0,0E0,0E0,0E0,0E0,0E0,0E0,0E0,0E0,0E0,0E0,0E0,0E0,0E0,0E0,0E0,0E0,0E0,0E0,0E0,0E0,0E0,0E0,0E0,0E0,0E0,0E0,0E0,0E0,0E0,0E0,0E0,0E0,0E0,0E0,0E0,0E0,0E0,0E0,0E0,0E0,0E0,0E0,0E0],"parents":[2147483647,0,0,1,1,2,2,3,3,4,4,5,5,6,6,7,7,8,8,9,9,10,10,11,11,12,12,13,13,14,14,15,15,16,16,17,17,18,18,19,19,20,20,21,21,22,22,23,23,24,24,25,25,26,26,27,27,28,28,29,29,31,31,32,32,34,34,35,35,36,36,37,37,38,38,39,39,40,40,41,41,42,42,44,44,45,45,46,46,47,47,48,48,49,49,50,50,51,51,52,52,54,54,55,55,56,56,57,57,58,58,59,59,60,60],"right_children":[2,4,6,8,10,12,14,16,18,20,22,24,26,28,30,32,34,36,38,40,42,44,46,48,50,52,54,56,58,60,-1,62,64,-1,66,68,70,72,74,76,78,80,82,-1,84,86,88,90,92,94,96,98,100,-1,102,104,106,108,110,112,114,-1,-1,-1,-1,-1,-1,-1,-1,-1,-1,-1,-1,-1,-1,-1,-1,-1,-1,-1,-1,-1,-1,-1,-1,-1,-1,-1,-1,-1,-1,-1,-1,-1,-1,-1,-1,-1,-1,-1,-1,-1,-1,-1,-1,-1,-1,-1,-1,-1,-1,-1,-1,-1,-1],"split_conditions":[1.0461529E2,9.025E1,5E-1,6.596708E1,5.5E0,2.0047656E2,1.4083333E-1,6.305E1,8.452381E-2,1.08350006E2,1.0055E2,7.7765976E1,9.2857145E-2,1.695437E2,8.7912895E1,3.4127274E1,2.3172574E0,3.445905E2,5E-1,6.3775368E1,1.12062454E2,9.807371E0,9.0874725E1,4.3235864E-2,2.5452078E2,8.105E1,1.7147867E2,1.089E2,1.175E2,9.005E1,-1.5671125E-2,3.5E0,1E-2,-9.727198E-3,3.993969E1,6.105E1,6.9649994E1,5.675E1,7.09E1,2.1022842E1,3.0052536E2,8.943385E1,9.238391E1,-6.7985742E-3,7.569933E1,1.321312E1,9.45E1,3.545E2,1.8475885E2,1.077E2,9.8149994E1,4.5E0,2.8641507E2,-1.1738693E-2,8.97E1,2.7491507E2,2.5606842E2,2.3611112E-2,1.2245E2,1.7449498E2,3.8541666E-1,-5.356792E-3,1.1665825E-2,-1.5843738E-4,5.288823E-3,-8.017494E-3,9.70433E-3,-8.611267E-3,-1.459241E-3,-7.909553E-4,1.1467967E-2,2.111447E-3,1.0702627E-2,-9.5128006E-4,7.1056644E-3,-1.0459484E-2,1.1350476E-2,2.3676145E-3,1.0643673E-2,9.75391E-3,-9.341798E-5,1.4673063E-2,9.211731E-3,8.8701565E-3,1.3028241E-2,9.429951E-3,1.5056812E-2,2.6584123E-3,1.2180637E-2,-9.009157E-3,-2.3404052E-3,-3.9087185E-3,4.2629167E-3,-1.4873835E-3,4.9667615E-3,4.132678E-3,1.0998754E-2,-1.7152308E-2,-1.1578227E-2,-4.322148E-3,-1.0906651E-2,2.0545851E-3,1.2563152E-2,-1.0907021E-2,-4.789229E-3,-6.951837E-4,7.3379437E-3,-1.5868548E-2,-1.1540044E-2,2.4054882E-4,-1.089561E-2,-6.866173E-3,8.064706E-4,2.1180378E-3,1.1776317E-2],"split_indices":[0,1,2,0,6,0,3,1,3,1,1,1,3,0,8,0,0,9,2,0,9,0,0,3,9,1,9,1,1,1,0,6,3,0,8,1,1,1,1,0,9,0,0,0,8,0,9,9,9,1,1,6,0,0,1,9,9,3,1,9,3,0,0,0,0,0,0,0,0,0,0,0,0,0,0,0,0,0,0,0,0,0,0,0,0,0,0,0,0,0,0,0,0,0,0,0,0,0,0,0,0,0,0,0,0,0,0,0,0,0,0,0,0,0,0],"split_type":[0,0,0,0,0,0,0,0,0,0,0,0,0,0,0,0,0,0,0,0,0,0,0,0,0,0,0,0,0,0,0,0,0,0,0,0,0,0,0,0,0,0,0,0,0,0,0,0,0,0,0,0,0,0,0,0,0,0,0,0,0,0,0,0,0,0,0,0,0,0,0,0,0,0,0,0,0,0,0,0,0,0,0,0,0,0,0,0,0,0,0,0,0,0,0,0,0,0,0,0,0,0,0,0,0,0,0,0,0,0,0,0,0,0,0],"sum_hessian":[4.2002566E4,1.831167E4,2.3690896E4,1.2820914E4,5.4907554E3,1.2424527E4,1.1266368E4,6.3998403E3,6.4210737E3,2.4950176E3,2.995738E3,9.153491E3,3.2710364E3,1.0100674E4,1.1656941E3,1.9168053E3,4.483035E3,5.1749087E3,1.2461649E3,1.573214E3,9.2180347E2,1.2163458E3,1.7793922E3,2.7532988E3,6.4001924E3,2.9402234E3,3.3081284E2,6.263799E3,3.8368752E3,1.1178818E3,4.7812332E1,5.45081E2,1.3717244E3,3.4886524E1,4.448149E3,4.406711E3,7.68198E2,6.430394E2,6.031255E2,6.5032367E2,9.228903E2,2.5859644E2,6.63207E2,3.5516712E1,1.1808291E3,1.4031213E3,3.762709E2,1.9268796E3,8.2641925E2,2.7199778E3,3.6802146E3,1.011611E3,1.9286124E3,3.0759262E1,3.0005356E2,5.32829E3,9.355089E2,3.100012E3,7.368633E2,5.7561566E2,5.422662E2,6.42829E1,4.8079807E2,9.216464E2,4.5007788E2,3.9522133E1,4.4086265E3,8.6042285E2,3.5462878E3,2.8163156E2,4.8656644E2,6.642724E1,5.766122E2,2.4313242E2,3.5999304E2,2.5251034E1,6.2507263E2,7.429856E2,1.7990475E2,1.892899E2,6.930654E1,5.0532217E2,1.5788483E2,7.4029736E2,4.405318E2,1.1899181E2,1.2841295E3,4.5170902E1,3.311E2,1.4491151E3,4.7776453E2,2.478654E2,5.7855383E2,1.9180499E3,8.019277E2,2.0175272E3,1.6626875E3,3.2031845E2,6.9129254E2,1.104078E3,8.245344E2,1.0872946E2,1.9132411E2,3.8608618E3,1.4674281E3,6.907486E2,2.4476033E2,2.2396006E3,8.604112E2,1.1556935E2,6.2129395E2,1.6846635E2,4.071493E2,4.1775842E2,1.2450774E2],"tree_param":{"num_deleted":"0","num_feature":"10","num_nodes":"115","size_leaf_vector":"0"}},{"base_weights":[-2.9732382E-3,3.008003E-1,-4.3384498E-1,1.4921005E-1,7.279372E-1,-5.5501515E-1,4.79053E-1,3.4012564E-2,7.915332E-1,5.975628E-1,1.1165395E0,-7.1902955E-1,-3.407868E-1,3.7697357E-1,8.7072974E-1,-2.4946794E-1,2.0737365E-1,4.0413827E-1,8.742662E-1,2.5250798E-1,6.76451E-1,1.1624041E0,-1.0705662E0,-8.784286E-1,-4.714059E-1,-6.1100906E-1,-1.8458061E-1,4.1508174E-1,-7.4876016E-1,1.1246399E0,-1.22669525E-1,-4.5571235E-1,7.862528E-2,2.8278124E-2,4.5598558E-1,6.793767E-1,-1.6054423E-1,8.9705765E-1,-3.923016E-1,3.130294E-1,-1.2437569E0,7.0565206E-1,-1.17819525E-1,5.5876976E-1,1.2736505E0,-1.0148897E0,-6.504753E-1,-2.9586095E-1,-7.2221684E-1,-3.8583693E-1,-9.7215426E-1,-2.5188628E-1,3.9862415E-1,-4.2925883E-2,5.267636E-1,-2.2416185E-1,-1.2307916E0,6.571076E-1,1.267514E0,-7.136343E-1,1.1478564E0,-8.961818E-1,-2.115238E-1,-2.5378343E-1,3.0160663E-1,-3.0632783E-2,6.2484795E-1,3.795671E-1,7.5028616E-1,7.930093E-1,-6.232068E-1,-1.4129822E0,2.9274988E-1,1.4971338E-1,9.316163E-1,8.475445E-2,6.68131E-1,5.066058E-1,8.112777E-1,2.0207176E-1,-1.0968304E0,9.074697E-2,1.0397753E0,7.308251E-1,1.3256171E0,-1.7237029E0,-9.561089E-1,-6.002585E-1,-1.7229321E0,-4.2225817E-1,8.294014E-2,-8.1512773E-1,2.9360536E-1,-5.62585E-1,4.2078915E-1,-1.2207196E0,8.869277E-2,-2.9871996E-2,-4.5144087E-1,2.2183135E-1,1.4580945E0,-5.3839254E-1,2.687804E-1,3.8468423E-1,8.8769543E-1,-1.8196039E-2,1.0867952E0,1.4897212E0,1.0174396E0,-1.3363607E0,-5.5322476E-2],"categories":[],"categories_nodes":[],"categories_segments":[],"categories_sizes":[],"default_left":[1,1,1,1,1,1,1,1,1,1,1,1,1,1,1,1,1,1,1,1,1,1,0,1,1,1,1,1,1,1,1,1,1,1,1,1,1,1,0,1,0,1,1,1,1,1,1,1,1,1,1,1,1,1,1,0,0,1,1,1,0,0,0,0,0,0,0,0,0,0,0,0,0,0,0,0,0,0,0,0,0,0,0,0,0,0,0,0,0,0,0,0,0,0,0,0,0,0,0,0,0,0,0,0,0,0,0,0,0,0,0],"id":7,"left_children":[1,3,5,7,9,11,13,15,17,19,21,23,25,27,29,31,33,35,37,39,41,43,-1,45,47,49,51,53,55,57,59,61,63,65,67,69,71,73,-1,75,-1,77,79,81,83,85,87,89,91,93,95,97,99,101,103,-1,-1,105,107,109,-1,-1,-1,-1,-1,-1,-1,-1,-1,-1,-1,-1,-1,-1,-1,-1,-1,-1,-1,-1,-1,-1,-1,-1,-1,-1,-1,-1,-1,-1,-1,-1,-1,-1,-1,-1,-1,-1,-1,-1,-1,-1,-1,-1,-1,-1,-1,-1,-1,-1,-1],"loss_changes":[5.513694E3,1.5991912E3,1.927263E3,1.3490665E3,3.2612476E2,5.395757E2,8.063443E1,7.6012244E2,8.7826416E1,1.3136243E2,1.647019E2,3.425503E2,2.8116608E2,6.995633E1,1.06575714E2,3.973276E2,4.2716772E2,7.677509E1,6.662329E1,8.222182E1,9.185266E1,1.05005615E2,0E0,1.6305444E2,1.4960541E2,1.9753217E2,1.6618843E2,8.059146E1,1.2490377E1,2.0362488E1,6.604256E1,3.86963E2,1.6807417E2,1.964387E2,8.9490906E1,4.984108E1,9.294241E1,5.7290894E1,0E0,7.028888E1,0E0,7.886633E1,4.4749527E1,5.5853058E1,3.555957E1,1.3430005E2,1.04588196E2,9.652559E1,1.3306549E2,2.1537082E2,2.4754138E2,1.6792783E2,8.084111E1,4.7998222E1,6.3794067E1,0E0,0E0,2.4308025E1,1.0858368E1,2.4017603E1,0E0,0E0,0E0,0E0,0E0,0E0,0E0,0E0,0E0,0E0,0E0,0E0,0E0,0E0,0E0,0E0,0E0,0E0,0E0,0E0,0E0,0E0,0E0,0E0,0E0,0E0,0E0,0E0,0E0,0E0,0E0,0E0,0E0,0E0,0E0,0E0,0E0,0E0,0E0,0E0,0E0,0E0,0E0,0E0,0E0,0E0,0E0,0E0,0E0,0E0,0E0],"parents":[2147483647,0,0,1,1,2,2,3,3,4,4,5,5,6,6,7,7,8,8,9,9,10,10,11,11,12,12,13,13,14,14,15,15,16,16,17,17,18,18,19,19,20,20,21,21,23,23,24,24,25,25,26,26,27,27,28,28,29,29,30,30,31,31,32,32,33,33,34,34,35,35,36,36,37,37,39,39,41,41,42,42,43,43,44,44,45,45,46,46,47,47,48,48,49,49,50,50,51,51,52,52,53,53,54,54,57,57,58,58,59,59],"right_children":[2,4,6,8,10,12,14,16,18,20,22,24,26,28,30,32,34,36,38,40,42,44,-1,46,48,50,52,54,56,58,60,62,64,66,68,70,72,74,-1,76,-1,78,80,82,84,86,88,90,92,94,96,98,100,102,104,-1,-1,106,108,110,-1,-1,-1,-1,-1,-1,-1,-1,-1,-1,-1,-1,-1,-1,-1,-1,-1,-1,-1,-1,-1,-1,-1,-1,-1,-1,-1,-1,-1,-1,-1,-1,-1,-1,-1,-1,-1,-1,-1,-1,-1,-1,-1,-1,-1,-1,-1,-1,-1,-1,-1],"split_conditions":[5E-1,9.8649994E1,1.4330357E-1,9.859618E-2,2.7177727E-1,8.795E1,3.845238E-1,4.5E0,6.305E1,3.5E0,1.0375E2,8.0478195E1,6.425859E1,1.1930555E1,8.132202E1,8.0511734E1,7.720853E1,5.995E1,9.641667E1,4.025E1,7.0226565E-2,3.5E0,-1.0705662E-2,7.6566786E-2,3.5354164E1,2.60625E1,9.2857145E-2,9.444444E-1,8.3600006E1,4.45E0,9.02E1,7.21E1,6.63E1,1.25E1,1.8539304E-1,6.075E1,1.2916666E-1,1.1266666E1,-3.9230157E-3,1.1615E2,-1.2437569E-2,1.072E2,8.5E0,1.131E2,1.00649994E2,5.1844967E1,7.633333E1,7.805E1,1.05E1,1.7083333E0,9.5E0,2.7083332E1,6.1083336E1,6.5E0,1.00149994E2,-2.2416185E-3,-1.2307916E-2,4.0466667E1,6.8497635E1,1.2361111E1,1.1478563E-2,-8.961818E-3,-2.115238E-3,-2.5378342E-3,3.0160663E-3,-3.0632783E-4,6.2484792E-3,3.7956708E-3,7.5028613E-3,7.9300925E-3,-6.232068E-3,-1.4129822E-2,2.9274987E-3,1.4971338E-3,9.316163E-3,8.475445E-4,6.68131E-3,5.066058E-3,8.112777E-3,2.0207176E-3,-1.0968303E-2,9.0746966E-4,1.0397753E-2,7.308251E-3,1.3256171E-2,-1.7237028E-2,-9.561089E-3,-6.002585E-3,-1.722932E-2,-4.2225816E-3,8.2940137E-4,-8.151277E-3,2.9360536E-3,-5.62585E-3,4.2078914E-3,-1.2207195E-2,8.8692765E-4,-2.9871997E-4,-4.5144088E-3,2.2183135E-3,1.4580945E-2,-5.3839255E-3,2.687804E-3,3.8468423E-3,8.876954E-3,-1.8196038E-4,1.0867951E-2,1.4897211E-2,1.01743955E-2,-1.3363606E-2,-5.5322476E-4],"split_indices":[2,1,3,3,4,1,3,6,1,6,5,8,8,4,8,8,8,1,5,5,4,6,0,4,5,5,3,4,1,4,1,1,1,6,4,5,3,5,0,1,0,1,6,1,1,8,5,1,6,4,6,5,5,6,1,0,0,5,8,4,0,0,0,0,0,0,0,0,0,0,0,0,0,0,0,0,0,0,0,0,0,0,0,0,0,0,0,0,0,0,0,0,0,0,0,0,0,0,0,0,0,0,0,0,0,0,0,0,0,0,0],"split_type":[0,0,0,0,0,0,0,0,0,0,0,0,0,0,0,0,0,0,0,0,0,0,0,0,0,0,0,0,0,0,0,0,0,0,0,0,0,0,0,0,0,0,0,0,0,0,0,0,0,0,0,0,0,0,0,0,0,0,0,0,0,0,0,0,0,0,0,0,0,0,0,0,0,0,0,0,0,0,0,0,0,0,0,0,0,0,0,0,0,0,0,0,0,0,0,0,0,0,0,0,0,0,0,0,0,0,0,0,0,0,0],"sum_hessian":[4.2122066E4,2.4704445E4,1.7417621E4,1.8235613E4,6.4688306E3,1.53775625E4,2.0400583E3,1.5464359E4,2.7712546E3,4.847388E3,1.6214423E3,8.706453E3,6.6711094E3,1.6214408E3,4.1861755E2,5.8672505E3,9.597109E3,4.900893E2,2.2811653E3,9.04128E2,3.9432603E3,1.5890057E3,3.2436535E1,5.293508E3,3.4129456E3,2.441175E3,4.2299346E3,1.5696089E3,5.1831947E1,3.33564E2,8.505354E1,3.602991E3,2.2642593E3,5.5803823E3,4.0167268E3,3.2976056E2,1.6032872E2,2.2415823E3,3.958306E1,8.703763E2,3.3751743E1,3.804076E3,1.3918454E2,2.4923918E2,1.3397665E3,3.306927E3,1.9865808E3,2.0105835E3,1.402362E3,1.5062477E3,9.3492725E2,3.7936592E3,4.3627536E2,3.0718484E2,1.2624241E3,2.6269756E1,2.556219E1,8.069648E1,2.5286752E2,5.8715347E1,2.63382E1,1.2830217E3,2.3199692E3,9.082651E2,1.3559943E3,5.079534E3,5.0084836E2,3.1925408E3,8.241859E2,3.041238E2,2.5636757E1,4.1997528E1,1.1833119E2,9.9938774E1,2.1416433E3,5.316151E2,3.3876117E2,1.3231487E3,2.4809272E3,1.054957E2,3.3688847E1,1.27649574E2,1.21589615E2,1.19701E2,1.2200656E3,2.4946326E2,3.0574639E3,1.900313E3,8.626783E1,1.5082118E3,5.0237173E2,1.2854775E3,1.16884476E2,1.2362992E3,2.6994846E2,7.575727E2,1.7735458E2,1.7975382E3,1.996121E3,3.7576367E2,6.0511703E1,1.1869998E2,1.8848485E2,9.088613E2,3.5356268E2,3.1576279E1,4.91202E1,1.2910988E2,1.2375764E2,2.9066996E1,2.964835E1],"tree_param":{"num_deleted":"0","num_feature":"10","num_nodes":"111","size_leaf_vector":"0"}},{"base_weights":[-6.3338224E-4,2.9973242E-1,-4.2665413E-1,1.4616202E-1,7.3173445E-1,-5.435697E-1,4.5504242E-1,3.2496143E-2,7.797293E-1,6.163011E-1,1.1229078E0,-7.493334E-1,-3.574597E-1,2.4095462E-1,6.710425E-1,-2.5656986E-1,2.0825115E-1,4.17958E-1,8.579895E-1,5.005098E-1,8.3021724E-1,-0E0,1.1613442E0,-7.107305E-1,-1.5112514E0,-4.9197963E-1,-6.25394E-2,1.1598027E0,1.8084994E-1,4.1211855E-1,1.0175902E0,-5.142629E-1,-4.9256615E-2,1.2974657E-1,5.1221985E-1,9.583683E-2,8.140619E-1,8.829302E-1,-3.4689718E-1,3.5581043E-1,7.096751E-1,8.775711E-1,-1.7147162E0,1.0150878E0,1.3247085E0,-1.0946158E0,-6.6544914E-1,-9.500987E-1,-1.6453176E0,-2.8804862E-1,-6.8400645E-1,-4.1164818E-1,1.2926117E-1,7.1579486E-1,1.5531228E0,-1.0303739E0,2.400753E-1,5.444909E-1,-4.1270635E-1,7.2709304E-1,1.382484E0,-6.5632886E-1,4.06048E-2,-9.126697E-2,7.60573E-1,-2.6997015E-1,2.0698924E-1,5.7509565E-1,-4.2180791E-1,3.3219358E-1,-1.0103238E0,4.0171438E-1,1.3527294E0,1.803702E-1,9.150102E-1,1.6384435E-1,5.255769E-1,7.7573293E-1,1.7150708E-1,2.188753E-1,9.9445575E-1,1.0749086E0,4.8386148E-1,1.2358136E0,1.5910715E0,-1.1881362E0,6.2451875E-1,-7.679025E-1,-5.030527E-1,-1.8226676E0,-4.0939775E-1,-1.8792063E0,-1.3554348E0,-4.331005E-1,1.5689752E-1,-8.505589E-1,-2.510974E-1,-4.833813E-1,1.1921102E0,-1.7001072E-2,3.8114324E-1,2.9888764E-1,-5.0730085E-1,1.1164616E0,4.346582E-1,-1.1222887E0,1.0458348E0,1.233356E-1,9.900374E-1,8.6796093E-1,1.4956503E0],"categories":[],"categories_nodes":[],"categories_segments":[],"categories_sizes":[],"default_left":[1,1,1,1,1,1,1,1,1,1,1,1,1,1,1,1,1,1,1,1,1,0,1,1,1,1,1,1,1,1,1,1,1,1,1,1,1,1,0,1,1,1,0,1,1,1,1,1,1,1,1,1,1,0,0,0,1,1,1,1,1,0,0,0,0,0,0,0,0,0,0,0,0,0,0,0,0,0,0,0,0,0,0,0,0,0,0,0,0,0,0,0,0,0,0,0,0,0,0,0,0,0,0,0,0,0,0,0,0,0,0],"id":8,"left_children":[1,3,5,7,9,11,13,15,17,19,21,23,25,27,29,31,33,35,37,39,41,-1,43,45,47,49,51,53,55,57,59,61,63,65,67,69,71,73,-1,75,77,79,-1,81,83,85,87,89,91,93,95,97,99,-1,-1,-1,101,103,105,107,109,-1,-1,-1,-1,-1,-1,-1,-1,-1,-1,-1,-1,-1,-1,-1,-1,-1,-1,-1,-1,-1,-1,-1,-1,-1,-1,-1,-1,-1,-1,-1,-1,-1,-1,-1,-1,-1,-1,-1,-1,-1,-1,-1,-1,-1,-1,-1,-1,-1,-1],"loss_changes":[5.394847E3,1.6398533E3,1.7975452E3,1.3134576E3,2.9102124E2,5.8865283E2,9.3798706E1,7.8604443E2,7.750574E1,1.2294617E2,6.375769E1,2.1245752E2,3.2055554E2,5.5954025E1,8.982535E1,3.1223407E2,2.2926901E2,6.2970222E1,6.915222E1,9.773126E1,2.1355115E2,0E0,3.1117065E1,1.1917651E2,2.2992981E1,2.1675183E2,1.6998718E2,8.333626E0,6.946623E1,6.413285E1,4.3455353E1,2.0577814E2,1.1020563E2,2.3627342E2,1.1632727E2,7.2526764E1,4.785475E1,4.964868E1,0E0,6.2444458E1,4.6654907E1,1.3200952E2,0E0,2.2750244E1,1.1722168E1,1.18867676E2,1.0256421E2,3.1832222E1,1.3894226E1,1.7423715E2,2.052782E2,1.0414911E2,6.0464798E1,0E0,0E0,0E0,4.0759693E1,3.0322327E1,8.580036E1,3.816649E1,8.127747E0,0E0,0E0,0E0,0E0,0E0,0E0,0E0,0E0,0E0,0E0,0E0,0E0,0E0,0E0,0E0,0E0,0E0,0E0,0E0,0E0,0E0,0E0,0E0,0E0,0E0,0E0,0E0,0E0,0E0,0E0,0E0,0E0,0E0,0E0,0E0,0E0,0E0,0E0,0E0,0E0,0E0,0E0,0E0,0E0,0E0,0E0,0E0,0E0,0E0,0E0],"parents":[2147483647,0,0,1,1,2,2,3,3,4,4,5,5,6,6,7,7,8,8,9,9,10,10,11,11,12,12,13,13,14,14,15,15,16,16,17,17,18,18,19,19,20,20,22,22,23,23,24,24,25,25,26,26,27,27,28,28,29,29,30,30,31,31,32,32,33,33,34,34,35,35,36,36,37,37,39,39,40,40,41,41,43,43,44,44,45,45,46,46,47,47,48,48,49,49,50,50,51,51,52,52,56,56,57,57,58,58,59,59,60,60],"right_children":[2,4,6,8,10,12,14,16,18,20,22,24,26,28,30,32,34,36,38,40,42,-1,44,46,48,50,52,54,56,58,60,62,64,66,68,70,72,74,-1,76,78,80,-1,82,84,86,88,90,92,94,96,98,100,-1,-1,-1,102,104,106,108,110,-1,-1,-1,-1,-1,-1,-1,-1,-1,-1,-1,-1,-1,-1,-1,-1,-1,-1,-1,-1,-1,-1,-1,-1,-1,-1,-1,-1,-1,-1,-1,-1,-1,-1,-1,-1,-1,-1,-1,-1,-1,-1,-1,-1,-1,-1,-1,-1,-1,-1],"split_conditions":[5E-1,9.8649994E1,1.4330357E-1,9.86229E-2,4.5678712E-2,8.325697E1,2.9285714E-2,4.5E0,6.305E1,2.7682226E-2,1.5E0,8.805556E1,3.33E-16,5.545E1,9.005E1,7.2149994E1,1.8139267E-1,1.6904762E-1,9.641667E1,1.1605E2,6.533333E1,-0E0,7.846154E-2,5.575E1,6.95E1,2.60625E1,1.2522474E-1,4.5E0,6.14E1,8.625E1,2.6076925E-1,4.4240123E-1,4.95E-1,1.49E1,5.0555553E0,4.325E1,1.6025642E-1,1.1266666E1,-3.4689717E-3,2.0157133E1,5.4333336E1,3.5E0,-1.7147161E-2,4.225E0,2.2916666E-1,1.15E1,9.198283E-2,6.33E1,7.79E1,1.176E2,7.5E0,9.733333E1,6.5E0,7.1579483E-3,1.5531227E-2,-1.0303739E-2,8.4833336E1,1.7083332E1,6.275E1,6.5E0,2.3533333E1,-6.5632886E-3,4.06048E-4,-9.1266964E-4,7.60573E-3,-2.6997013E-3,2.0698924E-3,5.7509565E-3,-4.218079E-3,3.3219357E-3,-1.0103238E-2,4.017144E-3,1.3527294E-2,1.803702E-3,9.150102E-3,1.6384434E-3,5.255769E-3,7.7573294E-3,1.7150707E-3,2.188753E-3,9.944557E-3,1.0749086E-2,4.8386147E-3,1.2358136E-2,1.5910715E-2,-1.1881362E-2,6.2451875E-3,-7.6790247E-3,-5.030527E-3,-1.8226676E-2,-4.0939776E-3,-1.8792063E-2,-1.3554348E-2,-4.331005E-3,1.5689752E-3,-8.505588E-3,-2.510974E-3,-4.833813E-3,1.1921101E-2,-1.7001071E-4,3.8114323E-3,2.9888763E-3,-5.0730086E-3,1.1164616E-2,4.346582E-3,-1.1222887E-2,1.0458347E-2,1.233356E-3,9.900373E-3,8.679609E-3,1.4956502E-2],"split_indices":[2,1,3,3,3,1,7,6,1,7,6,5,3,1,1,1,4,3,5,1,5,0,7,1,1,5,4,4,1,1,3,4,7,5,4,5,7,5,0,5,5,6,0,4,3,6,4,1,1,1,6,5,6,0,0,0,5,5,5,6,5,0,0,0,0,0,0,0,0,0,0,0,0,0,0,0,0,0,0,0,0,0,0,0,0,0,0,0,0,0,0,0,0,0,0,0,0,0,0,0,0,0,0,0,0,0,0,0,0,0,0],"split_type":[0,0,0,0,0,0,0,0,0,0,0,0,0,0,0,0,0,0,0,0,0,0,0,0,0,0,0,0,0,0,0,0,0,0,0,0,0,0,0,0,0,0,0,0,0,0,0,0,0,0,0,0,0,0,0,0,0,0,0,0,0,0,0,0,0,0,0,0,0,0,0,0,0,0,0,0,0,0,0,0,0,0,0,0,0,0,0,0,0,0,0,0,0,0,0,0,0,0,0,0,0,0,0,0,0,0,0,0,0,0,0],"sum_hessian":[4.2156348E4,2.472412E4,1.7432227E4,1.8242213E4,6.4819062E3,1.5392205E4,2.0400221E3,1.5469158E4,2.773054E3,5.008738E3,1.4731685E3,7.30694E3,8.0852646E3,1.0270701E3,1.0129521E3,5.847973E3,9.621186E3,4.95792E2,2.277262E3,3.2541624E3,1.7545756E3,4.8724365E1,1.4244441E3,6.9578423E3,3.49098E2,5.5509775E3,2.5342869E3,6.0965324E1,9.6610474E2,5.8231335E2,4.3063873E2,2.605345E3,3.2426282E3,7.6491353E3,1.9720499E3,2.7501553E2,2.2077644E2,2.2317974E3,4.5464592E1,1.927023E3,1.3271394E3,1.7236434E3,3.0932093E1,7.585768E2,6.658673E2,7.295215E2,6.228321E3,7.02347E1,2.788633E2,2.6948748E3,2.856103E3,8.987603E2,1.6355265E3,3.1101984E1,2.9863338E1,4.357607E1,9.225287E2,5.026415E2,7.967182E1,2.4287085E2,1.8776787E2,2.074616E3,5.307291E2,3.0844458E3,1.581824E2,1.2373181E3,6.411817E3,1.8486119E3,1.2343796E2,2.277604E2,4.725513E1,1.26954544E2,9.382191E1,9.84356E1,2.1333618E3,9.068696E2,1.0201534E3,1.1807963E3,1.4634317E2,2.6092853E2,1.462715E3,6.797435E2,7.88333E1,5.067184E2,1.5914886E2,6.925434E2,3.697813E1,3.8140447E3,2.414276E3,2.5227324E1,4.5007378E1,1.4902238E2,1.2984091E2,2.033044E3,6.618308E2,2.06086E3,7.952429E2,8.615233E2,3.7237015E1,1.03458E3,6.0094653E2,8.565598E2,6.596886E1,7.816988E1,4.2447162E2,5.4013996E1,2.565783E1,7.481343E1,1.6805742E2,3.683463E1,1.5093324E2],"tree_param":{"num_deleted":"0","num_feature":"10","num_nodes":"111","size_leaf_vector":"0"}},{"base_weights":[-2.6745878E-3,5.8686125E-1,-4.6193346E-1,3.8905403E-1,1.0188581E0,-8.853864E-2,-8.719626E-1,8.3739275E-1,1.140845E-1,1.2420303E0,8.4189206E-1,1.502341E-1,-8.098897E-1,-6.035718E-1,-1.1872555E0,5.391855E-1,1.0388964E0,-3.3506963E-1,3.086038E-1,7.005049E-1,1.291239E0,5.5870503E-1,1.0867342E0,-4.2961073E-1,3.981399E-1,-9.936155E-1,2.5719252E-1,-3.2728586E-1,-9.707829E-1,-1.3985721E0,-6.986287E-1,4.2707425E-2,6.8129504E-1,-7.3966587E-1,1.062938E0,-5.0379443E-1,1.2829794E-1,-2.106073E-1,4.3950668E-1,-2.2957778E-1,9.521657E-1,1.1519912E0,1.4184698E0,2.9490295E-1,9.806437E-1,1.2523584E0,7.288337E-1,-1.0123738E0,-2.371375E-1,-2.9845345E-1,5.4153216E-1,-7.3394036E-1,-1.3408588E0,-2.2791594E-1,7.0795465E-1,-4.4385454E-1,6.018673E-1,-1.0861924E0,3.6144275E-2,-1.5064054E0,-8.698598E-1,-1.9448777E-1,-9.401625E-1,-1.8524109E0,1.9281612E-1,1.0313387E0,4.1087332E-1,5.882504E-1,1.0966347E0,-4.358163E-2,-7.732643E-1,2.8911638E-1,-6.4019996E-1,-1.7838497E0,-1.3984096E-1,6.899345E-1,7.690639E-2,6.287366E-2,1.1368845E0,1.0852358E0,1.6501828E0,1.2802846E0,1.5267051E0,-1.3802183E0,3.568707E-1,1.2970134E0,5.5452156E-1,9.481638E-1,1.4619855E0,-4.6944198E-1,8.7560517E-1,-1.5325743E0,-6.2100214E-1,-4.7087288E-1,1.0654012E-1,-4.7503182E-1,4.6057004E-1,3.1445283E-1,9.5348835E-1,-1.3143996E0,-4.1641706E-1,-1.4531155E0,-3.3669746E-1,-1.0593864E0,3.7448827E-2,2.3166715E-1,1.3461921E0,-5.625366E-1,6.012214E-1,9.266968E-1,-2.2774912E-1,-1.1788541E0,-3.675968E-1,-4.6013737E-1,4.983027E-1,-1.5245161E0,-6.1621565E-1,-9.818264E-1,3.264834E-1,-3.388214E-1,6.32935E-1,-1.0170467E0,6.6568154E-1],"categories":[],"categories_nodes":[],"categories_segments":[],"categories_sizes":[],"default_left":[1,1,1,1,1,1,1,1,1,1,1,1,1,1,1,1,1,1,1,1,1,1,1,1,1,1,1,1,1,1,1,1,1,0,1,1,1,1,1,0,1,1,1,1,1,1,1,1,1,1,1,1,1,1,1,1,1,1,1,1,1,1,1,0,0,0,0,0,0,0,0,0,0,0,0,0,0,0,0,0,0,0,0,0,0,0,0,0,0,0,0,0,0,0,0,0,0,0,0,0,0,0,0,0,0,0,0,0,0,0,0,0,0,0,0,0,0,0,0,0,0,0,0],"id":9,"left_children":[1,3,5,7,9,11,13,15,17,19,21,23,25,27,29,31,33,35,37,39,41,43,45,47,49,51,53,55,57,59,61,63,65,-1,67,69,71,73,75,-1,77,79,81,83,85,87,89,91,93,95,97,99,101,103,105,107,109,111,113,115,117,119,121,-1,-1,-1,-1,-1,-1,-1,-1,-1,-1,-1,-1,-1,-1,-1,-1,-1,-1,-1,-1,-1,-1,-1,-1,-1,-1,-1,-1,-1,-1,-1,-1,-1,-1,-1,-1,-1,-1,-1,-1,-1,-1,-1,-1,-1,-1,-1,-1,-1,-1,-1,-1,-1,-1,-1,-1,-1,-1,-1,-1],"loss_changes":[1.136044E4,1.5688799E3,3.6105957E3,1.5535039E3,2.254419E2,2.1270273E3,9.494336E2,2.8643994E2,6.830115E2,6.572632E1,2.2192163E2,1.3337903E3,6.02777E2,6.154282E2,5.311699E2,1.3625873E2,1.23466064E2,1.8491772E2,3.710074E2,5.120965E1,3.7846924E1,1.6584637E2,1.0017029E2,3.1081122E2,6.4958887E2,2.3400049E2,9.926759E1,3.761789E2,3.0346753E2,2.0259766E2,1.8964087E2,1.2306478E2,1.411958E2,0E0,4.345923E1,2.1447601E2,7.813055E1,1.2119378E2,3.9533954E2,0E0,2.7461365E1,3.3574097E1,1.40563965E1,9.631996E1,7.5727356E1,7.203223E1,9.759738E1,1.3796533E2,1.6821042E2,1.491141E2,5.0338342E2,2.755708E2,1.2466577E2,4.8657352E1,7.036048E1,3.8306525E2,1.04904526E2,1.545149E2,6.2103172E1,4.5961426E1,8.3099365E1,6.0970886E1,1.3154126E2,0E0,0E0,0E0,0E0,0E0,0E0,0E0,0E0,0E0,0E0,0E0,0E0,0E0,0E0,0E0,0E0,0E0,0E0,0E0,0E0,0E0,0E0,0E0,0E0,0E0,0E0,0E0,0E0,0E0,0E0,0E0,0E0,0E0,0E0,0E0,0E0,0E0,0E0,0E0,0E0,0E0,0E0,0E0,0E0,0E0,0E0,0E0,0E0,0E0,0E0,0E0,0E0,0E0,0E0,0E0,0E0,0E0,0E0,0E0,0E0],"parents":[2147483647,0,0,1,1,2,2,3,3,4,4,5,5,6,6,7,7,8,8,9,9,10,10,11,11,12,12,13,13,14,14,15,15,16,16,17,17,18,18,19,19,20,20,21,21,22,22,23,23,24,24,25,25,26,26,27,27,28,28,29,29,30,30,31,31,32,32,34,34,35,35,36,36,37,37,38,38,40,40,41,41,42,42,43,43,44,44,45,45,46,46,47,47,48,48,49,49,50,50,51,51,52,52,53,53,54,54,55,55,56,56,57,57,58,58,59,59,60,60,61,61,62,62],"right_children":[2,4,6,8,10,12,14,16,18,20,22,24,26,28,30,32,34,36,38,40,42,44,46,48,50,52,54,56,58,60,62,64,66,-1,68,70,72,74,76,-1,78,80,82,84,86,88,90,92,94,96,98,100,102,104,106,108,110,112,114,116,118,120,122,-1,-1,-1,-1,-1,-1,-1,-1,-1,-1,-1,-1,-1,-1,-1,-1,-1,-1,-1,-1,-1,-1,-1,-1,-1,-1,-1,-1,-1,-1,-1,-1,-1,-1,-1,-1,-1,-1,-1,-1,-1,-1,-1,-1,-1,-1,-1,-1,-1,-1,-1,-1,-1,-1,-1,-1,-1,-1,-1,-1],"split_conditions":[1.04911194E2,8.979736E1,5E-1,5.6249763E1,6.701624E1,2.0463846E2,1.5671788E2,6.6850006E1,3.5E0,1.3108665E1,5.5E0,7.7765976E1,2.721307E-1,2.8291668E1,1.066E2,3.5E0,2.3781843E0,7.794882E1,6.035E1,9.755E1,1.0075E2,1.08350006E2,3.6416664E1,3.5E0,3.5E0,2.887919E2,8.5E0,1.1455E2,1.15E1,1.3666667E0,1.8542697E2,2.5932583E1,3.493651E1,-7.3966584E-3,1.0711935E1,7.4186844E1,8.655E1,1.175E1,5E-1,-2.2957777E-3,5.5E0,1.25E1,5.5E0,9.03E1,8.943385E1,1.006E2,3.9791664E1,6.645E1,3.2091014E-2,1.187E2,1.02649994E2,8.105E1,4.375E1,7.865E1,1.0415E2,4.291667E0,2.1215908E1,1.0825E2,9.165E1,9.125E-1,9.985E1,1.4465E2,2.055E2,-1.8524108E-2,1.9281612E-3,1.0313387E-2,4.108733E-3,5.882504E-3,1.09663475E-2,-4.358163E-4,-7.732643E-3,2.8911638E-3,-6.4019994E-3,-1.7838497E-2,-1.3984096E-3,6.8993447E-3,7.690639E-4,6.287366E-4,1.1368845E-2,1.0852358E-2,1.6501827E-2,1.2802846E-2,1.5267051E-2,-1.3802182E-2,3.568707E-3,1.2970134E-2,5.5452157E-3,9.481638E-3,1.4619854E-2,-4.69442E-3,8.756052E-3,-1.5325743E-2,-6.210021E-3,-4.7087288E-3,1.0654012E-3,-4.750318E-3,4.6057003E-3,3.1445283E-3,9.534883E-3,-1.3143996E-2,-4.1641705E-3,-1.4531154E-2,-3.3669744E-3,-1.0593863E-2,3.7448827E-4,2.3166714E-3,1.3461921E-2,-5.625366E-3,6.012214E-3,9.266968E-3,-2.2774911E-3,-1.17885405E-2,-3.675968E-3,-4.6013733E-3,4.983027E-3,-1.5245161E-2,-6.1621564E-3,-9.818264E-3,3.264834E-3,-3.388214E-3,6.3293497E-3,-1.0170466E-2,6.6568153E-3],"split_indices":[0,1,2,0,0,0,0,1,6,0,6,1,4,5,1,6,0,1,1,1,1,1,5,6,6,0,6,1,6,4,0,0,0,0,0,0,1,5,2,0,6,6,6,1,0,1,5,1,7,1,1,1,5,1,1,4,5,1,1,7,1,1,1,0,0,0,0,0,0,0,0,0,0,0,0,0,0,0,0,0,0,0,0,0,0,0,0,0,0,0,0,0,0,0,0,0,0,0,0,0,0,0,0,0,0,0,0,0,0,0,0,0,0,0,0,0,0,0,0,0,0,0,0],"split_type":[0,0,0,0,0,0,0,0,0,0,0,0,0,0,0,0,0,0,0,0,0,0,0,0,0,0,0,0,0,0,0,0,0,0,0,0,0,0,0,0,0,0,0,0,0,0,0,0,0,0,0,0,0,0,0,0,0,0,0,0,0,0,0,0,0,0,0,0,0,0,0,0,0,0,0,0,0,0,0,0,0,0,0,0,0,0,0,0,0,0,0,0,0,0,0,0,0,0,0,0,0,0,0,0,0,0,0,0,0,0,0,0,0,0,0,0,0,0,0,0,0,0,0],"sum_hessian":[4.19564E4,1.837181E4,2.358459E4,1.26042295E4,5.7675806E3,1.2345188E4,1.1239401E4,4.7898467E3,7.8143833E3,2.5457905E3,3.2217898E3,9.275545E3,3.0696436E3,6.0743203E3,5.1650806E3,1.9344843E3,2.8553625E3,2.360572E3,5.453811E3,2.146478E2,2.3311426E3,1.4969539E3,1.7248359E3,2.7771514E3,6.498394E3,2.6191648E3,4.5047885E2,3.4685469E3,2.6057732E3,3.6031943E3,1.5618865E3,4.3155533E2,1.5029288E3,3.7264805E1,2.8180977E3,1.7309999E3,6.295721E2,1.0973463E3,4.356465E3,4.540035E1,1.6924745E2,1.1217107E3,1.209432E3,9.232322E2,5.737217E2,1.1758336E3,5.490024E2,6.874E2,2.0897515E3,1.108575E3,5.389819E3,1.5018644E3,1.1173003E3,2.1690292E2,2.3357591E2,3.0829797E3,3.855672E2,2.338073E3,2.677003E2,2.9898672E3,6.133273E2,5.0732883E2,1.0545576E3,3.0229776E1,4.0132556E2,6.5254767E2,8.5038116E2,1.894112E2,2.6286865E3,6.404453E2,1.0905546E3,5.218287E2,1.0774343E2,4.5428932E1,1.0519174E3,2.5753542E3,1.7811107E3,2.9827038E1,1.3942041E2,9.9407904E2,1.2763164E2,5.4129474E2,6.681373E2,3.156618E1,8.91666E2,3.2696542E2,2.4675627E2,4.8387054E2,6.91963E2,5.9249893E1,4.897525E2,2.9280963E2,3.9459036E2,1.2441874E3,8.45564E2,9.0023376E2,2.0834114E2,3.4768938E3,1.912925E3,5.2894305E2,9.729213E2,1.0039934E3,1.13306915E2,5.17556E1,1.6514732E2,1.352879E2,9.828801E1,2.7695378E3,3.1344186E2,2.772995E2,1.082677E2,2.0696746E3,2.683984E2,1.286705E2,1.3902977E2,2.9287637E3,6.1103313E1,5.613897E2,5.1937557E1,4.331418E2,7.418703E1,1.0071372E3,4.74204E1],"tree_param":{"num_deleted":"0","num_feature":"10","num_nodes":"123","size_leaf_vector":"0"}},{"base_weights":[-3.3132694E-4,2.8613257E-1,-4.0578926E-1,1.4857234E-1,6.8080556E-1,-5.598883E-1,-1.7328547E-1,-1.7663568E-1,3.264686E-1,-4.186084E-1,7.123398E-1,-5.191468E-1,-1.158356E0,-3.2083687E-1,1.3664001E-1,-3.856936E-1,1.474401E-1,1.4430995E-1,5.125418E-1,-1.4047016E0,-7.414124E-2,6.151162E-1,1.0334724E0,-7.790818E-1,-4.117087E-1,-1.6181343E0,-7.380059E-1,-9.917954E-2,-5.793575E-1,-1.0255357E-1,5.286663E-1,-7.615292E-1,-1.6932443E-1,-2.7636492E-1,3.5017458E-1,7.5539984E-2,7.695248E-1,3.9222783E-1,7.013469E-1,5.7799387E-1,-6.371247E-1,5.217447E-1,9.283511E-1,1.0697042E0,-8.711691E-1,-1.7955717E0,-7.3366416E-1,-5.985208E-1,-2.0247842E-1,-9.542907E-1,-1.807031E0,-1.0470341E0,6.66521E-1,-1.7814699E-1,5.322366E-1,-1.3098104E0,-4.5511857E-1,-1.0755622E0,4.128991E-2,4.6707094E-1,1.280178E0,-1.0441018E0,-2.3037893E-1,-3.081153E-1,1.4546093E-1,-4.9620175E-1,7.948174E-2,1.1633697E-1,7.6357406E-1,-2.781009E-1,1.9208261E-1,9.517463E-1,-9.7641125E-2,1.9901298E-1,4.5781413E-1,6.2871164E-1,1.2385216E0,-3.0083457E-1,1.4527664E0,1.3182414E-2,-1.2006105E0,2.7719924E-1,7.452855E-1,-1.2303842E-1,9.787112E-1,6.7255926E-1,1.2404891E0,-4.4855753E-1,-8.3425146E-1,-8.946772E-1,-4.5506772E-1,-1.037335E0,-1.4373414E-1,-2.3462886E-1,-1.4570812E0,-1.8951726E0,-1.1614869E0,-8.15212E-1,-1.8653638E0,1.3579444E-2,1.1834445E0,-4.8356274E-1,-5.363757E-2,-5.1709294E-1,6.725729E-1,-1.4562248E0,-0E0,-5.132685E-1,9.2848146E-1,-6.093797E-1,-1.6739322E0,-1.5489705E-1,7.964671E-1,1.261327E0,4.1435987E-1,9.2662716E-1,1.6359434E0],"categories":[],"categories_nodes":[],"categories_segments":[],"categories_sizes":[],"default_left":[1,1,1,1,1,1,1,1,1,1,1,1,1,1,1,1,1,1,1,0,1,1,1,1,1,1,1,1,1,1,1,1,1,1,1,1,1,1,1,1,1,1,1,1,0,0,1,1,1,1,1,1,1,1,1,1,1,1,1,1,1,0,0,0,0,0,0,0,0,0,0,0,0,0,0,0,0,0,0,0,0,0,0,0,0,0,0,0,0,0,0,0,0,0,0,0,0,0,0,0,0,0,0,0,0,0,0,0,0,0,0,0,0,0,0,0,0],"id":10,"left_children":[1,3,5,7,9,11,13,15,17,19,21,23,25,27,29,31,33,35,37,-1,39,41,43,45,47,49,51,53,55,57,59,61,63,65,67,69,71,73,75,77,79,81,83,85,-1,-1,87,89,91,93,95,97,99,101,103,105,107,109,111,113,115,-1,-1,-1,-1,-1,-1,-1,-1,-1,-1,-1,-1,-1,-1,-1,-1,-1,-1,-1,-1,-1,-1,-1,-1,-1,-1,-1,-1,-1,-1,-1,-1,-1,-1,-1,-1,-1,-1,-1,-1,-1,-1,-1,-1,-1,-1,-1,-1,-1,-1,-1,-1,-1,-1,-1,-1],"loss_changes":[4.885486E3,1.3376414E3,6.2350415E2,1.057678E3,2.2137622E2,2.5374829E2,3.1771802E2,4.3810507E2,4.0017053E2,5.977607E1,1.9172461E2,2.7293384E2,1.25901794E2,2.693158E2,2.1030234E2,3.1904297E2,2.1797952E2,2.564596E2,1.319049E2,0E0,4.9749435E1,1.3785144E2,1.0056787E2,1.2929858E2,2.7089734E2,3.595587E1,1.5350813E2,1.2646557E2,1.954433E2,1.9528299E2,3.773752E1,2.1448792E2,1.0922102E2,6.4409164E1,1.6539897E2,2.219765E2,9.391785E1,4.489392E1,8.671155E1,4.9173927E1,2.7220892E1,1.998938E2,5.8220276E1,9.361804E1,0E0,0E0,7.7668945E1,1.5461914E2,1.6009235E2,2.547258E1,9.358154E0,5.1366577E1,2.1087502E1,8.553841E1,4.2075058E1,5.9875916E1,1.5006946E2,4.7676376E1,1.8025299E2,3.154486E1,4.6272507E0,0E0,0E0,0E0,0E0,0E0,0E0,0E0,0E0,0E0,0E0,0E0,0E0,0E0,0E0,0E0,0E0,0E0,0E0,0E0,0E0,0E0,0E0,0E0,0E0,0E0,0E0,0E0,0E0,0E0,0E0,0E0,0E0,0E0,0E0,0E0,0E0,0E0,0E0,0E0,0E0,0E0,0E0,0E0,0E0,0E0,0E0,0E0,0E0,0E0,0E0,0E0,0E0,0E0,0E0,0E0,0E0],"parents":[2147483647,0,0,1,1,2,2,3,3,4,4,5,5,6,6,7,7,8,8,9,9,10,10,11,11,12,12,13,13,14,14,15,15,16,16,17,17,18,18,20,20,21,21,22,22,23,23,24,24,25,25,26,26,27,27,28,28,29,29,30,30,31,31,32,32,33,33,34,34,35,35,36,36,37,37,38,38,39,39,40,40,41,41,42,42,43,43,46,46,47,47,48,48,49,49,50,50,51,51,52,52,53,53,54,54,55,55,56,56,57,57,58,58,59,59,60,60],"right_children":[2,4,6,8,10,12,14,16,18,20,22,24,26,28,30,32,34,36,38,-1,40,42,44,46,48,50,52,54,56,58,60,62,64,66,68,70,72,74,76,78,80,82,84,86,-1,-1,88,90,92,94,96,98,100,102,104,106,108,110,112,114,116,-1,-1,-1,-1,-1,-1,-1,-1,-1,-1,-1,-1,-1,-1,-1,-1,-1,-1,-1,-1,-1,-1,-1,-1,-1,-1,-1,-1,-1,-1,-1,-1,-1,-1,-1,-1,-1,-1,-1,-1,-1,-1,-1,-1,-1,-1,-1,-1,-1,-1,-1,-1,-1,-1,-1,-1],"split_conditions":[5E-1,9.8649994E1,9.005E1,4.5E0,4.25E1,8.036667E1,7.5E0,8.042836E1,7.496222E1,3.5E0,2.1125E-1,3.5E0,6.5E0,2.6045456E1,1.0894483E-2,7.21E1,6.325E1,1.25E1,2.4476442E-2,-1.4047015E-2,1.1365E2,7.588139E1,5.6875E1,4.885499E1,7.733313E1,7.02E1,8.26E1,3.128788E-1,5.7104927E1,5.249299E1,1.416E2,3.5E0,2.39E1,3.5E0,1.8394364E-2,1.5928572E1,4.25E2,1.9795822E1,9.225E1,1.07E2,6.767777E1,1.1325E2,2.5E0,6.1225056E1,-8.711691E-3,-1.7955717E-2,1.7291668E1,1.1980055E2,1.4416666E1,8.725E1,2.4294748E2,1.0741667E2,7.9E1,1.6083332E1,8.85E1,4.166667E-1,3.417818E2,3.8E1,1.25E1,9.145E1,1.7619048E-1,-1.0441018E-2,-2.3037891E-3,-3.081153E-3,1.4546093E-3,-4.9620173E-3,7.948174E-4,1.1633697E-3,7.6357406E-3,-2.781009E-3,1.9208262E-3,9.517463E-3,-9.764112E-4,1.9901297E-3,4.578141E-3,6.287116E-3,1.2385216E-2,-3.0083456E-3,1.4527664E-2,1.3182414E-4,-1.2006105E-2,2.7719922E-3,7.452855E-3,-1.2303841E-3,9.787112E-3,6.7255925E-3,1.2404891E-2,-4.485575E-3,-8.342515E-3,-8.946772E-3,-4.5506773E-3,-1.037335E-2,-1.4373414E-3,-2.3462884E-3,-1.4570812E-2,-1.8951725E-2,-1.1614868E-2,-8.15212E-3,-1.8653639E-2,1.3579444E-4,1.18344445E-2,-4.835627E-3,-5.363757E-4,-5.1709292E-3,6.725729E-3,-1.4562247E-2,-0E0,-5.1326845E-3,9.284815E-3,-6.093797E-3,-1.6739322E-2,-1.5489705E-3,7.964671E-3,1.261327E-2,4.1435985E-3,9.266271E-3,1.6359434E-2],"split_indices":[2,1,1,6,9,5,6,8,8,6,7,6,6,5,7,1,1,6,7,0,1,8,5,8,8,1,1,7,8,8,1,6,5,6,7,5,9,5,1,1,8,1,6,8,0,0,5,9,5,5,9,5,9,5,9,7,9,5,6,1,7,0,0,0,0,0,0,0,0,0,0,0,0,0,0,0,0,0,0,0,0,0,0,0,0,0,0,0,0,0,0,0,0,0,0,0,0,0,0,0,0,0,0,0,0,0,0,0,0,0,0,0,0,0,0,0,0],"split_type":[0,0,0,0,0,0,0,0,0,0,0,0,0,0,0,0,0,0,0,0,0,0,0,0,0,0,0,0,0,0,0,0,0,0,0,0,0,0,0,0,0,0,0,0,0,0,0,0,0,0,0,0,0,0,0,0,0,0,0,0,0,0,0,0,0,0,0,0,0,0,0,0,0,0,0,0,0,0,0,0,0,0,0,0,0,0,0,0,0,0,0,0,0,0,0,0,0,0,0,0,0,0,0,0,0,0,0,0,0,0,0,0,0,0,0,0,0],"sum_hessian":[4.2058793E4,2.464563E4,1.7413162E4,1.827804E4,6.3675923E3,1.0470009E4,6.9431533E3,6.4622715E3,1.1815767E4,1.7668068E2,6.1909116E3,9.805928E3,6.6408154E2,4.7045957E3,2.2385576E3,3.9287957E3,2.533476E3,5.97312E3,5.842647E3,4.424477E1,1.324359E2,4.756492E3,1.4344194E3,2.8639082E3,6.942019E3,3.146701E2,3.4941144E2,2.5348345E3,2.1697612E3,1.3903358E3,8.482217E2,1.4333767E3,2.4954187E3,8.1896265E2,1.7145134E3,5.3833086E3,5.898114E2,3.5727117E3,2.2699353E3,6.1011913E1,7.142399E1,3.668294E3,1.0881981E3,1.4084934E3,2.5926003E1,1.1964021E2,2.7442678E3,3.665004E3,3.2770154E3,7.218488E1,2.4248523E2,2.869438E2,6.2467667E1,2.2545781E3,2.8025638E2,3.1285025E2,1.856911E3,1.7817323E2,1.2121626E3,7.8670624E2,6.151546E1,9.341865E2,4.9919022E2,1.7327435E3,7.6267523E2,5.0655368E2,3.12409E2,1.0969297E3,6.175837E2,1.3329745E3,4.0503342E3,4.8765356E2,1.0215787E2,9.0848834E2,2.6642231E3,2.0030844E3,2.66851E2,3.0698233E1,3.031368E1,3.3508068E1,3.791592E1,1.7543016E3,1.9139922E3,4.927862E1,1.0389196E3,4.264866E2,9.8200684E2,7.188663E2,2.0254016E3,1.1924885E3,2.4725154E3,2.1333691E2,3.0636785E3,3.0921455E1,4.1263428E1,2.1025417E2,3.2231056E1,2.263148E2,6.062897E1,2.8624464E1,3.3843204E1,6.507589E2,1.6038192E3,3.2248577E1,2.480078E2,2.8105154E2,3.1798697E1,1.7831993E3,7.371159E1,1.0222619E2,7.594705E1,9.627207E2,2.4944186E2,4.634795E1,7.403583E2,3.4129578E1,2.7385885E1],"tree_param":{"num_deleted":"0","num_feature":"10","num_nodes":"117","size_leaf_vector":"0"}},{"base_weights":[4.05355E-3,5.8859813E-1,-4.47433E-1,4.0058964E-1,1.0246794E0,-7.254887E-2,-8.6441135E-1,8.477295E-1,1.23958126E-1,1.135972E0,7.1514404E-1,1.6294394E-1,-8.0638707E-1,-9.708178E-1,5.291761E-2,5.019507E-1,1.000707E0,-2.3977518E-2,7.5201267E-1,8.9879405E-1,1.2990806E0,4.819283E-1,1.1271371E0,-1.7662011E-1,5.7953185E-1,-1.0352323E0,2.163028E-1,-6.7240924E-1,-1.2423271E0,-1.4979717E-1,7.8432107E-1,9.468709E-1,2.2409844E-1,2.198432E-1,1.0421611E0,-1.6166991E-1,7.732409E-1,4.7581849E-1,9.0541285E-1,-5.7052577E-1,9.326704E-1,7.9991E-1,1.3332951E0,3.604065E-1,1.2150762E0,6.102842E-1,1.3049613E0,-3.8951075E-1,2.7797797E-1,1.0927843E-1,8.897163E-1,-1.185417E0,-5.5737954E-1,-6.6287917E-1,5.962089E-1,-8.0559677E-1,1.9219896E-1,-1.3581953E0,-7.070115E-1,-4.2816952E-2,-1.0055474E0,3.4421167E-1,1.2102445E0,-3.4894323E-1,1.1216866E0,2.870317E-1,-1.3113815E0,-6.21726E-1,1.0704327E0,6.2115794E-1,1.1096478E0,-5.950272E-1,-2.731085E-2,1.3373458E-1,1.130446E0,6.27345E-1,-2.5116944E-1,-3.2362148E-1,9.704274E-1,1.2032809E0,7.09648E-1,5.017049E-1,1.6980824E0,1.0065223E0,1.3906082E0,2.8039825E-1,1.4459594E0,8.4823805E-1,1.3728175E0,1.0334888E0,-5.804323E-1,9.9798787E-1,1.5082961E0,-7.51697E-1,-1.5440765E-1,4.1070542E-1,-4.8614153E-1,-1.2818381E-1,6.039966E-1,1.1017733E0,3.29921E-1,-1.2338386E0,-3.730528E-1,-1.09953366E-1,-1.1904958E0,-9.048575E-1,3.9356637E-1,2.2266264E-1,1.3658081E0,-9.443927E-1,-4.2732352E-1,-1.4985108E-1,9.665843E-1,-1.4078854E0,-7.454901E-1,-8.878586E-3,-8.998088E-1,1.8052014E-2,-1.66287E0,-2.0776741E-1,-1.4857057E0,1.3215734E0,-1.8460122E-1,1.8293935E0,9.3647444E-1],"categories":[],"categories_nodes":[],"categories_segments":[],"categories_sizes":[],"default_left":[1,1,1,1,1,1,1,1,1,1,1,1,1,1,1,1,1,1,1,1,1,1,1,1,1,1,1,1,1,1,1,1,1,1,1,1,1,1,1,0,1,1,1,1,1,1,1,1,1,1,1,1,1,1,1,1,1,1,1,1,1,1,1,0,0,0,0,0,0,0,0,0,0,0,0,0,0,0,0,0,0,0,0,0,0,0,0,0,0,0,0,0,0,0,0,0,0,0,0,0,0,0,0,0,0,0,0,0,0,0,0,0,0,0,0,0,0,0,0,0,0,0,0,0,0],"id":11,"left_children":[1,3,5,7,9,11,13,15,17,19,21,23,25,27,29,31,33,35,37,39,41,43,45,47,49,51,53,55,57,59,61,63,65,67,69,71,73,75,77,-1,79,81,83,85,87,89,91,93,95,97,99,101,103,105,107,109,111,113,115,117,119,121,123,-1,-1,-1,-1,-1,-1,-1,-1,-1,-1,-1,-1,-1,-1,-1,-1,-1,-1,-1,-1,-1,-1,-1,-1,-1,-1,-1,-1,-1,-1,-1,-1,-1,-1,-1,-1,-1,-1,-1,-1,-1,-1,-1,-1,-1,-1,-1,-1,-1,-1,-1,-1,-1,-1,-1,-1,-1,-1,-1,-1,-1,-1],"loss_changes":[1.1145181E4,1.5076724E3,3.7240566E3,1.5904666E3,1.8897607E2,2.1690383E3,1.101415E3,2.586516E2,7.388463E2,1.5494629E2,1.3985901E2,1.3442954E3,7.1431213E2,8.168916E2,1.7440535E2,1.8606174E2,1.0938574E2,7.062419E2,6.3027893E1,8.385022E1,3.8691895E1,8.267435E1,4.67406E1,5.0684518E2,6.219252E2,1.7717456E2,1.8710498E2,5.554275E2,3.258374E2,8.370279E1,4.661197E1,1.3228748E2,9.030621E1,1.2577495E2,9.012622E1,3.1928757E2,2.157019E2,6.046663E1,7.839905E1,0E0,9.626355E1,4.043792E1,3.9110107E1,6.9139366E1,5.054886E0,7.1142746E1,2.1229492E1,3.031579E2,1.6963293E2,1.9981879E2,3.040365E2,7.318213E1,1.6909424E2,4.3917313E1,1.11337204E2,2.1812793E2,1.7114684E2,1.2988916E2,1.2681659E2,8.150316E1,3.781836E1,6.7039505E1,1.813707E1,0E0,0E0,0E0,0E0,0E0,0E0,0E0,0E0,0E0,0E0,0E0,0E0,0E0,0E0,0E0,0E0,0E0,0E0,0E0,0E0,0E0,0E0,0E0,0E0,0E0,0E0,0E0,0E0,0E0,0E0,0E0,0E0,0E0,0E0,0E0,0E0,0E0,0E0,0E0,0E0,0E0,0E0,0E0,0E0,0E0,0E0,0E0,0E0,0E0,0E0,0E0,0E0,0E0,0E0,0E0,0E0,0E0,0E0,0E0,0E0,0E0,0E0],"parents":[2147483647,0,0,1,1,2,2,3,3,4,4,5,5,6,6,7,7,8,8,9,9,10,10,11,11,12,12,13,13,14,14,15,15,16,16,17,17,18,18,19,19,20,20,21,21,22,22,23,23,24,24,25,25,26,26,27,27,28,28,29,29,30,30,31,31,32,32,33,33,34,34,35,35,36,36,37,37,38,38,40,40,41,41,42,42,43,43,44,44,45,45,46,46,47,47,48,48,49,49,50,50,51,51,52,52,53,53,54,54,55,55,56,56,57,57,58,58,59,59,60,60,61,61,62,62],"right_children":[2,4,6,8,10,12,14,16,18,20,22,24,26,28,30,32,34,36,38,40,42,44,46,48,50,52,54,56,58,60,62,64,66,68,70,72,74,76,78,-1,80,82,84,86,88,90,92,94,96,98,100,102,104,106,108,110,112,114,116,118,120,122,124,-1,-1,-1,-1,-1,-1,-1,-1,-1,-1,-1,-1,-1,-1,-1,-1,-1,-1,-1,-1,-1,-1,-1,-1,-1,-1,-1,-1,-1,-1,-1,-1,-1,-1,-1,-1,-1,-1,-1,-1,-1,-1,-1,-1,-1,-1,-1,-1,-1,-1,-1,-1,-1,-1,-1,-1,-1,-1,-1,-1,-1,-1],"split_conditions":[1.0461582E2,9.025E1,5E-1,5.6249763E1,8.891794E1,2.06585E2,1.4083333E-1,6.305E1,8.920455E-2,1.0055E2,2.8293304E2,9.04811E1,4.943929E-2,1.5118472E2,3.8660714E-1,3.442412E1,8.67548E0,3.40997E2,6.875E1,1.1445457E1,1.3359589E1,1.2715E2,9.6600006E1,3.506399E2,2.4595781E2,1.06350006E2,8.06E1,1.084E2,1.175E2,3.0833334E-1,9.01E1,3.5E0,6.29E1,1.4133646E2,5.55E1,6.235E1,6.9649994E1,6.6850006E1,2.5E0,-5.7052574E-3,5.5971413E1,1.25E1,8.35E1,4.4857144E0,1.0412657E2,3.975E2,3.3953125E2,7.275E1,1.8045953E2,1.1645E2,1.6427383E2,2.721307E-1,2.8763654E2,1.05E1,1.4166668E-1,2.7399023E2,2.2587689E2,4.02E2,1.2355E2,1.0975E1,1.1818378E2,1.1971231E2,1.0787071E2,-3.4894322E-3,1.1216866E-2,2.870317E-3,-1.3113814E-2,-6.2172594E-3,1.0704326E-2,6.2115793E-3,1.10964775E-2,-5.950272E-3,-2.7310848E-4,1.3373458E-3,1.130446E-2,6.2734503E-3,-2.5116943E-3,-3.2362146E-3,9.704274E-3,1.2032809E-2,7.09648E-3,5.0170487E-3,1.6980825E-2,1.0065223E-2,1.3906081E-2,2.8039825E-3,1.4459594E-2,8.482381E-3,1.3728175E-2,1.0334888E-2,-5.8043227E-3,9.979879E-3,1.5082961E-2,-7.51697E-3,-1.5440765E-3,4.107054E-3,-4.8614154E-3,-1.281838E-3,6.0399654E-3,1.1017732E-2,3.29921E-3,-1.2338385E-2,-3.730528E-3,-1.0995336E-3,-1.1904959E-2,-9.048575E-3,3.9356635E-3,2.2266263E-3,1.3658081E-2,-9.443927E-3,-4.2732353E-3,-1.4985108E-3,9.665843E-3,-1.4078854E-2,-7.4549005E-3,-8.8785855E-5,-8.998088E-3,1.8052013E-4,-1.66287E-2,-2.077674E-3,-1.4857057E-2,1.3215734E-2,-1.8460121E-3,1.8293934E-2,9.364745E-3],"split_indices":[0,1,2,0,0,0,3,1,3,1,9,1,3,0,3,0,0,9,1,0,0,1,1,9,9,1,1,1,1,3,1,6,1,9,9,1,1,1,6,0,0,6,9,4,9,9,9,1,0,1,0,4,0,6,3,9,9,9,1,4,0,0,9,0,0,0,0,0,0,0,0,0,0,0,0,0,0,0,0,0,0,0,0,0,0,0,0,0,0,0,0,0,0,0,0,0,0,0,0,0,0,0,0,0,0,0,0,0,0,0,0,0,0,0,0,0,0,0,0,0,0,0,0,0,0],"split_type":[0,0,0,0,0,0,0,0,0,0,0,0,0,0,0,0,0,0,0,0,0,0,0,0,0,0,0,0,0,0,0,0,0,0,0,0,0,0,0,0,0,0,0,0,0,0,0,0,0,0,0,0,0,0,0,0,0,0,0,0,0,0,0,0,0,0,0,0,0,0,0,0,0,0,0,0,0,0,0,0,0,0,0,0,0,0,0,0,0,0,0,0,0,0,0,0,0,0,0,0,0,0,0,0,0,0,0,0,0,0,0,0,0,0,0,0,0,0,0,0,0,0,0,0,0],"sum_hessian":[4.2227137E4,1.8402129E4,2.3825008E4,1.2861097E4,5.5410317E3,1.2547187E4,1.127782E4,4.913884E3,7.9472134E3,4.0717493E3,1.4692822E3,9.499398E3,3.0477886E3,1.0105923E4,1.1718976E3,1.5099482E3,3.4039353E3,6.4328003E3,1.5144135E3,1.6641337E3,2.4076155E3,9.408968E2,5.283855E2,5.2334644E3,4.265934E3,2.4908E3,5.569885E2,4.817655E3,5.288268E3,9.180876E2,2.5380998E2,5.785209E2,9.3142737E2,1.725598E2,3.2313755E3,5.4868335E3,9.4596655E2,5.43897E2,9.705165E2,3.6701653E1,1.627432E3,1.5753448E2,2.250081E3,8.09502E2,1.3139479E2,1.3753433E2,3.9085114E2,3.5650347E3,1.6684296E3,1.6968113E3,2.5691228E3,1.8928398E3,5.979601E2,1.6740598E2,3.8958258E2,4.175075E3,6.4257965E2,4.344792E3,9.434762E2,8.1788367E2,1.002039E2,1.2662202E2,1.27187965E2,6.831992E1,5.1020093E2,8.9617676E2,3.5250637E1,8.6706314E1,8.585348E1,4.4935913E2,2.7820164E3,1.2966243E3,4.1902095E3,3.4015906E2,6.058075E2,4.5071082E2,9.318612E1,4.815105E1,9.223654E2,7.314815E2,8.9595056E2,1.20357445E2,3.7177036E1,3.4095175E2,1.9091293E3,7.56036E2,5.3465992E1,4.3149525E1,8.824527E1,1.0186387E2,3.5670464E1,1.6005153E2,2.3079962E2,1.4012903E3,2.1637444E3,1.42255E3,2.4587949E2,1.1467026E3,5.501087E2,1.8617164E3,7.074063E2,1.7851635E3,1.0767647E2,3.517612E2,2.4619891E2,1.3669086E2,3.0715117E1,2.639304E2,1.2565217E2,3.051952E3,1.123123E3,4.4618887E2,1.9639076E2,4.0164587E3,3.2833304E2,2.0495677E2,7.385194E2,7.894584E2,2.842531E1,3.8769966E1,6.1433937E1,4.3932632E1,8.2689384E1,3.5934757E1,9.1253204E1],"tree_param":{"num_deleted":"0","num_feature":"10","num_nodes":"125","size_leaf_vector":"0"}},{"base_weights":[8.365546E-3,5.325155E-1,-4.8702526E-1,8.729955E-1,2.6402053E-1,-1.2251331E-1,-8.9172715E-1,6.6595805E-1,9.963898E-1,-8.2692586E-2,5.010607E-1,2.198456E-1,-6.009981E-1,-1.0033187E0,1.0761937E-1,-1.282672E-1,7.0058763E-1,9.39113E-1,1.3583708E0,-1.6255486E-1,4.3242812E-1,5.9962875E-1,-1.5083885E-1,-4.724967E-1,3.8402176E-1,-7.6044303E-1,7.3124564E-1,-6.9443E-1,-1.2304645E0,-1.0010243E-1,8.09448E-1,-7.503599E-1,3.5062855E-1,8.5687226E-1,5.0905454E-1,-4.6344125E-1,9.5883924E-1,1.257923E0,1.5072602E0,2.2241052E-2,-3.579184E-1,5.3460324E-1,-1.3741155E0,7.630273E-1,3.3563074E-1,-3.7105995E-1,6.162152E-1,-5.229899E-1,1.555733E0,5.289048E-1,-2.1660645E-2,-5.751073E-1,-1.2163702E0,3.4644076E-1,1.103736E0,-3.6833325E-1,-1.141431E0,-1.0807688E0,-1.4344596E0,6.4847773E-1,-2.6782817E-1,1.0433117E0,-3.5375172E-1,-3.1309497E-1,-1.1657944E0,8.415896E-1,-3.8825145E-1,1.774968E-1,8.865238E-1,3.9670482E-1,8.8425046E-1,9.638577E-3,-1.2235132E0,1.0865804E0,8.169214E-1,1.4668193E0,1.0570183E0,1.5626746E0,8.743154E-1,4.5686644E-2,-1.5013629E0,-5.56324E-1,1.9816756E-2,8.5855764E-1,1.9443393E-1,6.708433E-1,1.1468037E0,1.5509167E-1,9.7556394E-1,2.4945183E-1,-6.587285E-1,1.16946E0,-4.689574E-1,-2.6539233E-1,-8.347022E-1,4.1822532E-1,8.2311803E-1,-1.7703883E-1,4.6000418E-1,-1.1434782E0,-3.71095E-1,-1.3169014E0,-9.005498E-2,4.3331346E-1,-3.9435592E-1,5.488803E-1,1.2477295E0,-4.866326E-1,6.140907E-1,-1.2689447E0,-7.757901E-1,-1.1760212E0,-4.9144235E-1,-1.4523152E0,4.684847E-2,7.817636E-3,9.6118575E-1,3.699692E-2,-6.72769E-1,8.511027E-1,1.7225908E0],"categories":[],"categories_nodes":[],"categories_segments":[],"categories_sizes":[],"default_left":[1,1,1,1,1,1,1,1,1,1,1,1,1,1,1,1,1,1,1,1,1,1,1,1,1,1,1,1,1,1,1,1,1,1,1,1,1,1,1,1,1,1,0,1,1,1,1,1,0,1,1,1,1,1,1,1,1,1,1,1,1,1,0,0,0,0,0,0,0,0,0,0,0,0,0,0,0,0,0,0,0,0,0,0,0,0,0,0,0,0,0,0,0,0,0,0,0,0,0,0,0,0,0,0,0,0,0,0,0,0,0,0,0,0,0,0,0,0,0,0,0],"id":12,"left_children":[1,3,5,7,9,11,13,15,17,19,21,23,25,27,29,31,33,35,37,39,41,43,45,47,49,51,53,55,57,59,61,63,65,67,69,71,73,75,77,79,81,83,-1,85,87,89,91,93,-1,95,97,99,101,103,105,107,109,111,113,115,117,119,-1,-1,-1,-1,-1,-1,-1,-1,-1,-1,-1,-1,-1,-1,-1,-1,-1,-1,-1,-1,-1,-1,-1,-1,-1,-1,-1,-1,-1,-1,-1,-1,-1,-1,-1,-1,-1,-1,-1,-1,-1,-1,-1,-1,-1,-1,-1,-1,-1,-1,-1,-1,-1,-1,-1,-1,-1,-1,-1],"loss_changes":[1.0925458E4,1.8682227E3,3.1904229E3,2.285918E2,9.3990497E2,1.8650244E3,1.1435532E3,9.309021E1,1.1416211E2,1.9102036E2,4.3673096E2,7.545154E2,1.00951733E3,6.4489453E2,1.5064514E2,4.275261E1,9.552344E1,1.3581934E2,7.5146484E0,1.4534576E2,1.1576201E2,2.5370898E2,1.5104335E2,1.3109247E2,3.1557043E2,3.5667603E2,7.166928E1,5.689215E2,1.5884131E2,1.000629E2,6.5018234E1,1.0205563E1,2.9943375E1,3.51156E1,6.0368195E1,2.5091835E1,8.512305E1,1.6324097E1,7.486023E0,7.336476E1,1.4683673E2,6.444971E1,0E0,1.2698682E2,2.6036395E2,1.2445574E2,1.2074783E2,9.900235E1,0E0,1.2774744E2,1.0572796E2,3.488725E2,1.3785498E2,1.6528772E1,1.8782898E1,2.6355634E2,7.4572266E1,1.7081177E2,5.996338E1,2.8795319E1,8.0756134E1,2.2509216E1,0E0,0E0,0E0,0E0,0E0,0E0,0E0,0E0,0E0,0E0,0E0,0E0,0E0,0E0,0E0,0E0,0E0,0E0,0E0,0E0,0E0,0E0,0E0,0E0,0E0,0E0,0E0,0E0,0E0,0E0,0E0,0E0,0E0,0E0,0E0,0E0,0E0,0E0,0E0,0E0,0E0,0E0,0E0,0E0,0E0,0E0,0E0,0E0,0E0,0E0,0E0,0E0,0E0,0E0,0E0,0E0,0E0,0E0,0E0],"parents":[2147483647,0,0,1,1,2,2,3,3,4,4,5,5,6,6,7,7,8,8,9,9,10,10,11,11,12,12,13,13,14,14,15,15,16,16,17,17,18,18,19,19,20,20,21,21,22,22,23,23,24,24,25,25,26,26,27,27,28,28,29,29,30,30,31,31,32,32,33,33,34,34,35,35,36,36,37,37,38,38,39,39,40,40,41,41,43,43,44,44,45,45,46,46,47,47,49,49,50,50,51,51,52,52,53,53,54,54,55,55,56,56,57,57,58,58,59,59,60,60,61,61],"right_children":[2,4,6,8,10,12,14,16,18,20,22,24,26,28,30,32,34,36,38,40,42,44,46,48,50,52,54,56,58,60,62,64,66,68,70,72,74,76,78,80,82,84,-1,86,88,90,92,94,-1,96,98,100,102,104,106,108,110,112,114,116,118,120,-1,-1,-1,-1,-1,-1,-1,-1,-1,-1,-1,-1,-1,-1,-1,-1,-1,-1,-1,-1,-1,-1,-1,-1,-1,-1,-1,-1,-1,-1,-1,-1,-1,-1,-1,-1,-1,-1,-1,-1,-1,-1,-1,-1,-1,-1,-1,-1,-1,-1,-1,-1,-1,-1,-1,-1,-1,-1,-1],"split_conditions":[1.126468E2,6.707145E1,5E-1,4.5E0,4.5E0,1.7210391E2,1.4330357E-1,1.6056519E1,1.25E1,6.904762E-2,5.7583336E1,3.5E0,8.452381E-2,1.5118472E2,3.9444447E-1,1.0919285E-1,5.1466614E1,2.3519297E0,4.6583336E1,2.155E1,6.5525E1,5E-1,1.4500001E-1,1.4166668E-1,3.345E1,2.8904337E2,1.4837861E-1,2.7535713E1,2.8154762E1,1.6125E1,8.132202E1,2.4875E1,1.4166667E0,5.279418E1,4.8710562E-2,7.910005E1,4.5149467E1,2.725E1,9.0134125E1,5.0707866E-2,3.5E0,5E-1,-1.3741154E-2,8.166666E-2,1.4642859E-1,8.138411E1,1.05E1,1.8351387E1,1.5557329E-2,4.9671568E-2,9.5E0,4.5E0,1.35E1,4.05E1,1.6666667E-1,3.225E0,3.33E-16,1.5857143E0,6.7695306E2,1.8333334E-1,7.599397E1,5.846591E-1,-3.537517E-3,-3.1309496E-3,-1.1657943E-2,8.415896E-3,-3.8825145E-3,1.774968E-3,8.865237E-3,3.967048E-3,8.842505E-3,9.638577E-5,-1.2235132E-2,1.0865804E-2,8.169214E-3,1.4668193E-2,1.0570182E-2,1.5626745E-2,8.743154E-3,4.5686643E-4,-1.5013629E-2,-5.56324E-3,1.9816756E-4,8.585576E-3,1.9443393E-3,6.708433E-3,1.1468037E-2,1.5509167E-3,9.755639E-3,2.4945182E-3,-6.5872846E-3,1.16946E-2,-4.689574E-3,-2.6539234E-3,-8.347021E-3,4.182253E-3,8.23118E-3,-1.7703883E-3,4.6000415E-3,-1.1434781E-2,-3.71095E-3,-1.3169014E-2,-9.005498E-4,4.3331343E-3,-3.9435592E-3,5.4888027E-3,1.24772955E-2,-4.8663258E-3,6.140907E-3,-1.2689447E-2,-7.7579007E-3,-1.1760212E-2,-4.9144235E-3,-1.4523151E-2,4.6848468E-4,7.817636E-5,9.611857E-3,3.699692E-4,-6.72769E-3,8.511027E-3,1.7225908E-2],"split_indices":[0,0,2,6,6,0,3,0,6,3,5,6,3,0,3,4,0,0,5,5,5,2,3,3,5,0,3,5,5,5,8,5,4,8,3,8,0,5,8,3,6,2,0,3,3,0,6,5,0,3,6,6,6,5,4,4,3,4,0,3,8,3,0,0,0,0,0,0,0,0,0,0,0,0,0,0,0,0,0,0,0,0,0,0,0,0,0,0,0,0,0,0,0,0,0,0,0,0,0,0,0,0,0,0,0,0,0,0,0,0,0,0,0,0,0,0,0,0,0,0,0],"split_type":[0,0,0,0,0,0,0,0,0,0,0,0,0,0,0,0,0,0,0,0,0,0,0,0,0,0,0,0,0,0,0,0,0,0,0,0,0,0,0,0,0,0,0,0,0,0,0,0,0,0,0,0,0,0,0,0,0,0,0,0,0,0,0,0,0,0,0,0,0,0,0,0,0,0,0,0,0,0,0,0,0,0,0,0,0,0,0,0,0,0,0,0,0,0,0,0,0,0,0,0,0,0,0,0,0,0,0,0,0,0,0,0,0,0,0,0,0,0,0,0,0],"sum_hessian":[4.2073094E4,2.0443488E4,2.1629607E4,9.011318E3,1.1432169E4,1.1381404E4,1.0248203E4,3.3699233E3,5.641395E3,4.6418843E3,6.790285E3,6.634414E3,4.74699E3,9.219146E3,1.029057E3,1.4014346E2,3.2297798E3,4.8763066E3,7.650884E2,4.020383E3,6.2150116E2,5.8990723E3,8.91213E2,1.2706676E3,5.363746E3,4.240433E3,5.065573E2,3.9099587E3,5.3091875E3,7.945951E2,2.3446199E2,6.095151E1,7.919195E1,1.7745266E3,1.4552533E3,6.688244E1,4.8094243E3,4.6693298E2,2.981554E2,2.0657014E3,1.9546816E3,5.8944086E2,3.206027E1,3.6411025E3,2.2579695E3,6.9342633E2,1.9778671E2,1.241081E3,2.9586573E1,3.9526504E3,1.411096E3,3.017912E3,1.2225208E3,2.5111224E2,2.5544505E2,2.2628167E3,1.6471421E3,3.0687122E3,2.2404753E3,1.4422356E2,6.503715E2,1.9562888E2,3.8833115E1,3.1446196E1,2.9505316E1,4.7777946E1,3.1414E1,7.521313E1,1.6993135E3,1.123101E3,3.3215228E2,4.1812466E1,2.5069971E1,2.5243965E3,2.2850278E3,2.2330397E2,2.4362901E2,2.7154617E2,2.6609205E1,2.0360872E3,2.9614252E1,1.2817772E3,6.729044E2,3.0014304E2,2.8929782E2,2.940058E3,7.0104456E2,1.7630604E3,4.9490906E2,2.1926732E2,4.74159E2,1.3116699E2,6.661971E1,6.817479E2,5.593331E2,2.8758003E3,1.07685E3,1.0682673E3,3.4282864E2,7.9478937E2,2.2231228E3,1.1217849E3,1.0073589E2,2.2579588E2,2.5316364E1,5.4692417E1,2.0075264E2,2.0206614E3,2.421553E2,1.2176862E3,4.294559E2,2.6398613E3,4.2885083E2,2.2140862E3,2.6389118E1,4.8229687E1,9.599387E1,3.7126874E2,2.7910275E2,1.5557549E2,4.0053394E1],"tree_param":{"num_deleted":"0","num_feature":"10","num_nodes":"121","size_leaf_vector":"0"}},{"base_weights":[9.922308E-4,5.7065696E-1,-4.4366115E-1,8.799885E-1,3.1875363E-1,-9.749009E-2,-8.251373E-1,8.3741987E-1,1.3326932E0,1.5737525E-1,9.28116E-1,1.3967137E-1,-7.661128E-1,-6.233583E-1,-1.1835178E0,-5.786221E-1,8.4756154E-1,1.4194938E0,1.1008924E0,-8.1173435E-2,3.726123E-1,1.1241153E0,4.414909E-1,-2.60068E-1,4.6249557E-1,-9.3989676E-1,2.1186274E-1,-3.7986615E-1,-9.4583106E-1,-1.2829165E0,-6.04984E-1,-1.2899833E0,2.2219545E-1,9.133951E-1,6.0435647E-1,1.3628502E0,1.7273147E0,1.3912168E0,6.781402E-1,-2.2658327E-1,2.1552418E-1,4.618042E-1,-2.1627642E-1,7.702224E-1,1.2579616E0,6.7043257E-1,-2.2751603E-2,-6.450409E-1,-9.938955E-2,-3.1823415E-1,5.658965E-1,-6.73565E-1,-1.3236858E0,-1.0036885E0,4.9189088E-1,-4.948568E-1,6.5879565E-1,-1.0819975E0,-3.8783908E-1,-1.350868E0,-9.233502E-1,-1.8502305E-1,-1.17125E0,-2.4365918E-1,9.287976E-1,5.2342033E-1,1.2381049E0,1.2236356E0,1.5393459E0,1.0525397E0,1.6503494E0,-1.1686878E-2,1.3335352E0,-1.3710777E-1,-8.188638E-1,1.7273486E-1,1.522777E0,2.593159E-1,7.3774E-1,-3.103526E-1,1.5822583E0,1.0066262E0,1.9244802E-1,1.3613112E0,9.3351966E-1,8.1737715E-1,-5.0304645E-1,-8.9364064E-1,5.31444E-1,-3.6835918E-1,-9.936825E-1,-2.5349003E-1,1.9125822E-1,-2.1685898E-2,-8.877374E-1,7.932041E-1,2.6932803E-1,-9.653783E-1,-4.210565E-1,-1.3693956E0,4.6179375E-1,-1.6441292E0,-3.3448136E-1,-2.570866E-1,6.9923615E-1,-2.1447143E-1,-7.2180486E-1,-4.9887952E-1,7.8604794E-1,-1.1534843E0,-5.4131055E-1,-4.7967863E-1,1.028399E0,-1.365811E0,-4.5303106E-1,-1.8536253E-1,-1.046202E0,1.7542714E-2,-1.4246588E0,-1.370641E0,-3.8564616E-1],"categories":[],"categories_nodes":[],"categories_segments":[],"categories_sizes":[],"default_left":[1,1,1,1,1,1,1,1,1,1,1,1,1,1,1,1,1,1,1,1,1,1,1,1,1,1,1,1,1,1,1,0,0,1,1,1,0,1,1,1,1,1,1,1,1,1,1,1,1,1,1,1,1,1,1,1,1,1,1,1,1,1,1,0,0,0,0,0,0,0,0,0,0,0,0,0,0,0,0,0,0,0,0,0,0,0,0,0,0,0,0,0,0,0,0,0,0,0,0,0,0,0,0,0,0,0,0,0,0,0,0,0,0,0,0,0,0,0,0,0,0],"id":13,"left_children":[1,3,5,7,9,11,13,15,17,19,21,23,25,27,29,31,33,35,37,39,41,43,45,47,49,51,53,55,57,59,61,-1,-1,63,65,67,-1,69,71,73,75,77,79,81,83,85,87,89,91,93,95,97,99,101,103,105,107,109,111,113,115,117,119,-1,-1,-1,-1,-1,-1,-1,-1,-1,-1,-1,-1,-1,-1,-1,-1,-1,-1,-1,-1,-1,-1,-1,-1,-1,-1,-1,-1,-1,-1,-1,-1,-1,-1,-1,-1,-1,-1,-1,-1,-1,-1,-1,-1,-1,-1,-1,-1,-1,-1,-1,-1,-1,-1,-1,-1,-1,-1],"loss_changes":[1.0657018E4,1.4362676E3,3.1197559E3,1.5695752E2,9.993026E2,1.9650432E3,8.1098535E2,1.0955908E2,1.0893677E1,4.130637E2,2.016206E2,1.1805676E3,5.520359E2,5.638894E2,2.3077686E2,3.1871576E1,1.1892334E2,4.102539E0,2.2406937E1,1.6465373E2,2.2235168E2,6.952698E1,6.555555E1,2.5240353E2,4.089441E2,2.795371E2,1.6747772E2,4.904496E2,2.3384961E2,8.154492E1,1.4104015E2,0E0,0E0,1.05967285E2,8.075629E1,6.8276367E0,0E0,6.588516E0,3.9097645E1,1.3520364E2,6.910066E1,2.0456427E2,9.441169E1,5.6680527E1,3.394336E1,7.177443E1,9.917606E1,1.1489697E2,1.2935284E2,9.965765E1,3.0060095E2,1.1897589E2,9.326892E1,3.7837494E1,6.2548157E1,2.3452155E2,6.0991974E1,9.445532E1,7.983476E1,3.7231934E1,4.946518E1,8.718555E1,3.8200226E1,0E0,0E0,0E0,0E0,0E0,0E0,0E0,0E0,0E0,0E0,0E0,0E0,0E0,0E0,0E0,0E0,0E0,0E0,0E0,0E0,0E0,0E0,0E0,0E0,0E0,0E0,0E0,0E0,0E0,0E0,0E0,0E0,0E0,0E0,0E0,0E0,0E0,0E0,0E0,0E0,0E0,0E0,0E0,0E0,0E0,0E0,0E0,0E0,0E0,0E0,0E0,0E0,0E0,0E0,0E0,0E0,0E0,0E0],"parents":[2147483647,0,0,1,1,2,2,3,3,4,4,5,5,6,6,7,7,8,8,9,9,10,10,11,11,12,12,13,13,14,14,15,15,16,16,17,17,18,18,19,19,20,20,21,21,22,22,23,23,24,24,25,25,26,26,27,27,28,28,29,29,30,30,33,33,34,34,35,35,37,37,38,38,39,39,40,40,41,41,42,42,43,43,44,44,45,45,46,46,47,47,48,48,49,49,50,50,51,51,52,52,53,53,54,54,55,55,56,56,57,57,58,58,59,59,60,60,61,61,62,62],"right_children":[2,4,6,8,10,12,14,16,18,20,22,24,26,28,30,32,34,36,38,40,42,44,46,48,50,52,54,56,58,60,62,-1,-1,64,66,68,-1,70,72,74,76,