{"learner":{"attributes":{"best_iteration":"26","best_ntree_limit":"27","best_score":"0.7881229398706618"},"feature_names":["urine_output_mean","weight","has_diuretics","sofa_score","bun_last_mean_diff","creatinine_last_mean_diff","ph_max","has_ventilation","fio2_max","ph_mean"],"feature_types":["float","float","int","int","float","float","float","int","float","float"],"gradient_booster":{"model":{"gbtree_model_param":{"num_parallel_tree":"1","num_trees":"57","size_leaf_vector":"0"},"tree_info":[0,0,0,0,0,0,0,0,0,0,0,0,0,0,0,0,0,0,0,0,0,0,0,0,0,0,0,0,0,0,0,0,0,0,0,0,0,0,0,0,0,0,0,0,0,0,0,0,0,0,0,0,0,0,0,0,0],"trees":[{"base_weights":[-1.7959897E-3,-8.661931E-2,8.801012E-1,8.784494E-2,-5.7224184E-1,1.0716898E0,6.4810395E-1,-2.8371212E-1,2.6927975E-1,-6.762447E-1,-3.1393236E-1,1.1830659E0,6.6036856E-1,3.671994E-1,9.387243E-1,-4.142889E-1,1.15208656E-1,1.3174446E-1,8.1369257E-1,-9.2870796E-1,-5.824741E-1,-9.315506E-3,-5.0844884E-1,7.3248833E-1,1.3544917E0,2.2021104E-2,9.207728E-1,4.719387E-1,-1.1901426E0,3.282153E-1,1.0312047E0,-6.182625E-1,-2.1137096E-1,5.3986795E-2,8.6311513E-1,-4.0258577E-1,2.002627E-1,3.6704847E-1,8.8165945E-1,-1.5908122E0,-7.8664255E-1,-6.8322647E-1,-3.2382098E-1,-3.8151672E-1,3.238427E-1,2.842533E-1,-6.170483E-1,-4.1093877E-1,9.0008396E-1,1.4443543E0,1.4490008E-1,6.327799E-1,-8.403784E-1,1.1775974E0,4.7214913E-1,3.9106438E-1,1.3952415E0,1.129983E0,-7.309695E-1,1.4320867E0,7.240179E-1,-4.398593E-1,-8.564654E-1,-3.2990456E-1,4.6106856E-3,8.4152895E-1,1.9019036E-2,1.1632664E0,3.793763E-2,2.9818546E-2,-6.874581E-1,1.5011121E-1,5.2244776E-1,-2.4854915E-1,6.354525E-1,9.64261E-1,4.7463644E-1,-1.4383434E0,-1.9390135E0,-6.909987E-1,-1.4205209E0,-5.8268E-1,-9.1884923E-1,-1.5583471E0,-2.7412587E-1,3.1197327E-3,-1.0524598E0,7.9475105E-2,9.362699E-1,-5.05959E-1,6.4133805E-1,-1.4344513E0,-4.8690602E-1,1.0948496E0,-1.0056659E-2,1.2603148E0,1.5538512E0,1.5359738E0,5.286951E-1,4.026883E-2,9.147917E-1,8.894456E-1,1.9771098E-1,8.171639E-1,1.5716983E0,-2.2519542E-1,1.0260966E0],"categories":[],"categories_nodes":[],"categories_segments":[],"categories_sizes":[],"default_left":[1,1,1,1,1,1,1,1,1,1,1,1,1,1,1,1,1,1,1,1,1,1,1,1,1,1,1,1,0,1,1,1,1,1,1,1,1,1,1,1,1,1,1,1,1,1,1,0,1,1,0,0,0,1,1,1,0,0,0,1,1,0,0,0,0,0,0,0,0,0,0,0,0,0,0,0,0,0,0,0,0,0,0,0,0,0,0,0,0,0,0,0,0,0,0,0,0,0,0,0,0,0,0,0,0,0,0],"id":0,"left_children":[1,3,5,7,9,11,13,15,17,19,21,23,25,27,29,31,33,35,37,39,41,43,45,47,49,51,53,55,-1,57,59,61,63,65,67,69,71,73,75,77,79,81,83,85,87,89,91,-1,93,95,-1,-1,-1,97,99,101,-1,-1,-1,103,105,-1,-1,-1,-1,-1,-1,-1,-1,-1,-1,-1,-1,-1,-1,-1,-1,-1,-1,-1,-1,-1,-1,-1,-1,-1,-1,-1,-1,-1,-1,-1,-1,-1,-1,-1,-1,-1,-1,-1,-1,-1,-1,-1,-1,-1,-1],"loss_changes":[1.8418577E3,1.9036575E3,9.4294556E1,1.114363E3,1.5882642E2,5.214795E1,7.911798E1,2.826748E2,8.3112103E2,9.875952E1,1.0102583E2,6.919397E1,4.2079216E1,8.2512276E1,2.6101929E1,1.6862244E2,6.0816956E1,3.247627E2,6.699097E1,1.04623474E2,7.980823E1,8.306494E1,9.009192E1,5.0400833E1,7.1693726E1,4.0764797E1,1.9366882E1,3.371955E1,0E0,5.7478714E1,4.8859314E1,8.545178E1,5.266426E1,3.3742027E1,2.4376144E1,1.24448685E2,1.26664764E2,4.9810036E1,6.4016846E1,5.0752563E0,5.4914673E1,5.1233154E1,5.202378E1,8.219565E1,5.2285816E1,3.613017E1,9.576425E1,0E0,4.064409E1,8.463623E0,0E0,0E0,0E0,2.4366821E1,1.2750638E1,4.137008E1,0E0,0E0,0E0,1.2446381E1,6.9296074E1,0E0,0E0,0E0,0E0,0E0,0E0,0E0,0E0,0E0,0E0,0E0,0E0,0E0,0E0,0E0,0E0,0E0,0E0,0E0,0E0,0E0,0E0,0E0,0E0,0E0,0E0,0E0,0E0,0E0,0E0,0E0,0E0,0E0,0E0,0E0,0E0,0E0,0E0,0E0,0E0,0E0,0E0,0E0,0E0,0E0,0E0],"parents":[2147483647,0,0,1,1,2,2,3,3,4,4,5,5,6,6,7,7,8,8,9,9,10,10,11,11,12,12,13,13,14,14,15,15,16,16,17,17,18,18,19,19,20,20,21,21,22,22,23,23,24,24,25,25,26,26,27,27,29,29,30,30,31,31,32,32,33,33,34,34,35,35,36,36,37,37,38,38,39,39,40,40,41,41,42,42,43,43,44,44,45,45,46,46,48,48,49,49,53,53,54,54,55,55,59,59,60,60],"right_children":[2,4,6,8,10,12,14,16,18,20,22,24,26,28,30,32,34,36,38,40,42,44,46,48,50,52,54,56,-1,58,60,62,64,66,68,70,72,74,76,78,80,82,84,86,88,90,92,-1,94,96,-1,-1,-1,98,100,102,-1,-1,-1,104,106,-1,-1,-1,-1,-1,-1,-1,-1,-1,-1,-1,-1,-1,-1,-1,-1,-1,-1,-1,-1,-1,-1,-1,-1,-1,-1,-1,-1,-1,-1,-1,-1,-1,-1,-1,-1,-1,-1,-1,-1,-1,-1,-1,-1,-1,-1],"split_conditions":[1.4642859E-1,5E-1,5E-1,5E-1,3.830996E-2,5.416667E0,2.4722221E-1,1.9380467E-1,3.3169276E-1,8.0003586E1,7.389177E0,7.2398367E0,7.9285717E0,8.625E0,7.315E0,7.26193E0,7.418333E0,7.178898E0,7.2590103E0,7.1305637E0,3.1844217E-1,7.1793985E0,5.5E1,4.166667E-1,7.505E0,8.417657E1,6.888236E-1,7.3809524E0,-1.1901426E-2,7.221814E0,7.425E0,9.209529E1,9.9763306E1,1.9654931E-1,7.505E0,8.675404E1,3.633114E-2,7.083334E-1,2.5227273E0,4.737768E-2,2.9375E0,7.4379196E0,6.93E0,7.1551495E0,1.8285713E0,7.5E-1,7.325694E0,-4.1093878E-3,7.1887016E0,8.840242E1,1.4490008E-3,6.3277986E-3,-8.403784E-3,1.3571428E1,8.12485E1,7.375E0,1.39524145E-2,1.1299829E-2,-7.309695E-3,5E-1,7.3100853E0,-4.3985927E-3,-8.564654E-3,-3.2990454E-3,4.6106856E-5,8.415289E-3,1.9019035E-4,1.1632664E-2,3.793763E-4,2.9818545E-4,-6.874581E-3,1.5011121E-3,5.2244775E-3,-2.4854913E-3,6.3545248E-3,9.642609E-3,4.7463644E-3,-1.4383433E-2,-1.9390134E-2,-6.9099865E-3,-1.4205209E-2,-5.8267997E-3,-9.188492E-3,-1.558347E-2,-2.7412586E-3,3.1197327E-5,-1.0524598E-2,7.9475105E-4,9.3626985E-3,-5.0595896E-3,6.41338E-3,-1.4344513E-2,-4.86906E-3,1.0948496E-2,-1.0056658E-4,1.2603148E-2,1.5538512E-2,1.5359738E-2,5.286951E-3,4.026883E-4,9.147917E-3,8.894456E-3,1.9771098E-3,8.1716385E-3,1.5716983E-2,-2.2519543E-3,1.0260966E-2],"split_indices":[5,2,2,7,5,4,5,4,4,8,6,9,4,4,6,6,9,6,6,9,4,9,8,4,6,8,5,4,0,9,6,8,8,4,6,8,5,4,4,4,4,6,9,6,4,4,9,0,9,8,0,0,0,4,8,6,0,0,0,7,9,0,0,0,0,0,0,0,0,0,0,0,0,0,0,0,0,0,0,0,0,0,0,0,0,0,0,0,0,0,0,0,0,0,0,0,0,0,0,0,0,0,0,0,0,0,0],"split_type":[0,0,0,0,0,0,0,0,0,0,0,0,0,0,0,0,0,0,0,0,0,0,0,0,0,0,0,0,0,0,0,0,0,0,0,0,0,0,0,0,0,0,0,0,0,0,0,0,0,0,0,0,0,0,0,0,0,0,0,0,0,0,0,0,0,0,0,0,0,0,0,0,0,0,0,0,0,0,0,0,0,0,0,0,0,0,0,0,0,0,0,0,0,0,0,0,0,0,0,0,0,0,0,0,0,0,0],"sum_hessian":[2.4623188E4,2.2464312E4,2.1588738E3,1.652718E4,5.937133E3,1.1784935E3,9.8038025E2,5.4215127E3,1.1105668E4,4.2300264E3,1.7071066E3,9.244009E2,2.5409268E2,5.009496E2,4.7943063E2,4.085252E3,1.3362609E3,8.86795E3,2.237717E3,1.1408468E3,3.0891797E3,6.6668774E2,1.0404188E3,2.5759033E2,6.6681055E2,7.453721E1,1.7955548E2,4.7060147E2,3.0348106E1,6.453721E1,4.1489343E2,2.0348123E3,2.0504397E3,1.237135E3,9.912585E1,1.00641406E3,7.8615366E3,2.9759033E2,1.9401268E3,1.9834337E2,9.4250336E2,2.2203027E3,8.6887683E2,3.153569E2,3.5133084E2,1.2462585E2,9.1579297E2,3.2345737E1,2.2524458E2,6.201191E2,4.6691475E1,4.4140053E1,3.0397158E1,1.1206969E2,6.7485794E1,4.350619E2,3.553958E1,3.6890053E1,2.7647158E1,1.7704837E2,2.3784506E2,1.1668461E3,8.679662E2,1.3245629E3,7.2587683E2,5.0637684E1,1.1864973E3,7.188058E1,2.7245264E1,3.9968134E2,6.067327E2,6.805612E3,1.0559246E3,8.993674E1,2.0765358E2,1.610296E3,3.2983084E2,1.4409337E2,5.425E1,8.2220905E2,1.2029432E2,1.5610629E3,6.5923987E2,3.1549053E1,8.373278E2,2.010159E2,1.14341E2,2.5280548E2,9.852537E1,3.8245262E1,8.638058E1,1.2329432E2,7.9249866E2,1.8565121E2,3.959337E1,2.3968369E2,3.8043536E2,7.047868E1,4.1591E1,3.5443844E1,3.2041946E1,1.1952064E2,3.1554126E2,3.5191475E1,1.418569E2,5.7191475E1,1.8065358E2],"tree_param":{"num_deleted":"0","num_feature":"10","num_nodes":"107","size_leaf_vector":"0"}},{"base_weights":[-7.279565E-3,-9.3806714E-2,8.914513E-1,7.192749E-2,-5.4586786E-1,1.1021628E0,6.174635E-1,-3.9404204E-1,2.8726846E-1,-6.0858345E-1,-2.3263557E-2,1.2152923E0,6.6951203E-1,3.8304752E-1,8.717947E-1,-5.568676E-1,9.3030326E-2,1.5035419E-1,8.2150215E-1,-7.599508E-1,-3.677982E-1,-2.7382955E-1,5.2371377E-1,7.556278E-1,1.3733993E0,-2.559876E-2,9.693909E-1,4.999723E-1,-1.3465743E0,5.3302777E-1,1.0803105E0,-7.5737244E-1,-3.1781536E-1,-1.3192469E-1,4.2808974E-1,-4.8739567E-2,3.5222933E-1,4.4821894E-1,9.2907435E-1,-1.5357327E0,-7.3381805E-1,-1.5162914E0,-3.0788913E-1,-6.819518E-1,1.7325905E-1,7.3586917E-1,-4.2439568E-1,9.5041245E-1,-1.6518714E-1,1.4179001E0,4.8914158E-1,8.127552E-1,-5.584865E-1,1.1785371E0,5.254484E-1,3.9883232E-1,1.4817476E0,1.5168949E0,3.0282485E-1,1.573992E0,9.0105385E-1,-3.9559594E-1,-8.841244E-1,-2.4084213E-1,-1.3090397E0,-2.2788383E-1,1.0773152E0,5.378876E-1,-3.6999357E-1,-1.12425044E-1,3.1622946E-1,-2.0600801E-2,4.2864734E-1,8.156915E-1,2.4230482E-1,9.6244586E-1,-2.4819775E-1,-1.016982E0,-1.7812912E0,-7.542823E-1,2.6872696E-2,-1.9256747E0,-9.217004E-1,1.0172017E0,-3.27412E-1,-3.4466136E-1,-1.1478249E0,1.1655402E0,-5.1913574E-2,1.3681506E0,3.6604193E-1,4.9956575E-1,1.4181349E0,1.3008205E0,1.5710502E0,1.5213813E0,6.382957E-1,-0E0,1.0553695E0,-2.4075991E-1,5.2851915E-1,-1.2679765E-1,8.605968E-1,6.38445E-1,1.3970618E0],"categories":[],"categories_nodes":[],"categories_segments":[],"categories_sizes":[],"default_left":[1,1,1,1,1,1,1,1,1,1,1,1,1,1,1,1,1,1,1,1,1,1,1,1,1,1,1,1,0,1,1,1,1,1,1,1,1,1,1,1,1,1,1,1,1,1,0,1,0,1,0,0,0,1,1,1,0,0,1,0,1,0,0,0,0,0,0,0,0,0,0,0,0,0,0,0,0,0,0,0,0,0,0,0,0,0,0,0,0,0,0,0,0,0,0,0,0,0,0,0,0,0,0,0,0],"id":1,"left_children":[1,3,5,7,9,11,13,15,17,19,21,23,25,27,29,31,33,35,37,39,41,43,45,47,49,51,53,55,-1,57,59,61,63,65,67,69,71,73,75,77,79,81,83,85,87,89,-1,91,-1,93,-1,-1,-1,95,97,99,-1,-1,101,-1,103,-1,-1,-1,-1,-1,-1,-1,-1,-1,-1,-1,-1,-1,-1,-1,-1,-1,-1,-1,-1,-1,-1,-1,-1,-1,-1,-1,-1,-1,-1,-1,-1,-1,-1,-1,-1,-1,-1,-1,-1,-1,-1,-1,-1],"loss_changes":[1.9099835E3,1.6791096E3,1.22817505E2,1.645484E3,1.9677808E2,5.756958E1,5.515387E1,4.11297E2,8.198243E2,1.9475E2,8.871147E1,6.7491455E1,5.3826958E1,1.0050388E2,3.026233E1,1.8542615E2,9.8125175E1,3.5908276E2,9.066528E1,6.416394E1,1.4138461E2,8.154722E1,4.144693E1,4.541417E1,2.6259888E1,3.5553406E1,1.5051239E1,4.440497E1,0E0,3.8231663E1,2.1326721E1,9.576111E1,1.3438841E2,9.027402E1,4.618921E1,1.0448605E2,1.26546875E2,3.8278954E1,7.03114E1,9.595261E0,4.9967163E1,2.1073578E1,5.1314667E1,3.5472237E1,4.812976E1,3.7572952E1,0E0,4.1829575E1,0E0,7.9385986E0,0E0,0E0,0E0,1.9936005E1,1.678964E1,3.5376823E1,0E0,0E0,3.4980396E1,0E0,2.4777374E1,0E0,0E0,0E0,0E0,0E0,0E0,0E0,0E0,0E0,0E0,0E0,0E0,0E0,0E0,0E0,0E0,0E0,0E0,0E0,0E0,0E0,0E0,0E0,0E0,0E0,0E0,0E0,0E0,0E0,0E0,0E0,0E0,0E0,0E0,0E0,0E0,0E0,0E0,0E0,0E0,0E0,0E0,0E0,0E0],"parents":[2147483647,0,0,1,1,2,2,3,3,4,4,5,5,6,6,7,7,8,8,9,9,10,10,11,11,12,12,13,13,14,14,15,15,16,16,17,17,18,18,19,19,20,20,21,21,22,22,23,23,24,24,25,25,26,26,27,27,29,29,30,30,31,31,32,32,33,33,34,34,35,35,36,36,37,37,38,38,39,39,40,40,41,41,42,42,43,43,44,44,45,45,47,47,49,49,53,53,54,54,55,55,58,58,60,60],"right_children":[2,4,6,8,10,12,14,16,18,20,22,24,26,28,30,32,34,36,38,40,42,44,46,48,50,52,54,56,-1,58,60,62,64,66,68,70,72,74,76,78,80,82,84,86,88,90,-1,92,-1,94,-1,-1,-1,96,98,100,-1,-1,102,-1,104,-1,-1,-1,-1,-1,-1,-1,-1,-1,-1,-1,-1,-1,-1,-1,-1,-1,-1,-1,-1,-1,-1,-1,-1,-1,-1,-1,-1,-1,-1,-1,-1,-1,-1,-1,-1,-1,-1,-1,-1,-1,-1,-1,-1],"split_conditions":[1.4642859E-1,5E-1,5E-1,3.5E0,1.05E1,5.416667E0,2.4722221E-1,1.979307E-1,2.5987244E-1,2.4955176E-1,3.8272996E-2,7.2294636E0,7.9285717E0,8.625E0,8.3761284E1,5E-1,5E-1,6.5E0,5E-1,6.6675E0,6.9141665E0,9.560091E1,2.4166665E0,7.1887016E0,7.4413633E0,7.3046546E0,7.5625E-1,7.3809524E0,-1.3465743E-2,7.11028E0,6.5E0,8.40536E1,7.9311326E-2,7.4075003E0,2.4166665E0,4.8710562E-2,5E-1,7.083334E-1,7.366667E0,3.5E0,7.47375E0,4.7926866E-2,2.5114506E-1,1.15E1,7.2534785E0,8.1579636E1,-4.243957E-3,7.13113E0,-1.6518714E-3,7.3718333E0,4.8914156E-3,8.127552E-3,-5.584865E-3,1.3571428E1,1.35E1,5E-1,1.4817476E-2,1.5168949E-2,7.333667E0,1.573992E-2,1.25E1,-3.9559593E-3,-8.841244E-3,-2.4084214E-3,-1.3090397E-2,-2.2788383E-3,1.0773152E-2,5.3788754E-3,-3.6999355E-3,-1.1242505E-3,3.1622946E-3,-2.0600802E-4,4.286473E-3,8.156914E-3,2.423048E-3,9.624458E-3,-2.4819775E-3,-1.0169819E-2,-1.7812911E-2,-7.542823E-3,2.6872696E-4,-1.9256746E-2,-9.217004E-3,1.0172016E-2,-3.27412E-3,-3.4466134E-3,-1.1478249E-2,1.1655402E-2,-5.1913573E-4,1.3681506E-2,3.6604193E-3,4.9956576E-3,1.41813485E-2,1.3008204E-2,1.5710501E-2,1.5213813E-2,6.382957E-3,-0E0,1.0553694E-2,-2.407599E-3,5.2851913E-3,-1.2679765E-3,8.605967E-3,6.38445E-3,1.3970618E-2],"split_indices":[5,2,2,3,3,4,5,4,4,4,5,9,4,4,8,7,7,3,7,9,9,8,4,9,9,9,5,4,0,9,3,8,4,9,4,5,7,4,4,3,9,5,4,3,9,8,0,9,0,9,0,0,0,4,4,7,0,0,9,0,3,0,0,0,0,0,0,0,0,0,0,0,0,0,0,0,0,0,0,0,0,0,0,0,0,0,0,0,0,0,0,0,0,0,0,0,0,0,0,0,0,0,0,0,0],"split_type":[0,0,0,0,0,0,0,0,0,0,0,0,0,0,0,0,0,0,0,0,0,0,0,0,0,0,0,0,0,0,0,0,0,0,0,0,0,0,0,0,0,0,0,0,0,0,0,0,0,0,0,0,0,0,0,0,0,0,0,0,0,0,0,0,0,0,0,0,0,0,0,0,0,0,0,0,0,0,0,0,0,0,0,0,0,0,0,0,0,0,0,0,0,0,0,0,0,0,0,0,0,0,0,0,0],"sum_hessian":[2.4562078E4,2.2406623E4,2.1554548E3,1.6395938E4,6.0106855E3,1.2150337E3,9.404211E2,5.181263E3,1.1214674E4,5.3657515E3,6.449341E2,9.6029736E2,2.5473631E2,4.9214502E2,4.482761E2,3.8836028E3,1.2976603E3,8.929005E3,2.2856687E3,3.291614E3,2.0741375E3,4.4332892E2,2.0160512E2,2.486361E2,7.1166125E2,7.678618E1,1.7795012E2,4.6219748E2,2.994752E1,1.7355737E2,2.7471872E2,2.109411E3,1.774192E3,7.7622644E2,5.2143384E2,4.4950464E3,4.4339585E3,5.138926E2,1.7717762E3,1.0394441E2,3.1876697E3,1.0069091E2,1.9734467E3,2.3182004E2,2.115089E2,1.653606E2,3.6244534E1,2.0554277E2,4.3093323E1,6.7626996E2,3.5391304E1,2.9242558E1,4.7543625E1,1.1866342E2,5.9286705E1,4.213118E2,4.0885696E1,3.0989456E1,1.4256792E2,6.947599E1,2.0524274E2,5.497234E2,1.5596875E3,1.6484501E3,1.2574185E2,7.20592E2,5.563441E1,4.592429E2,6.219096E1,3.8290312E3,6.660151E2,7.5352136E2,3.6804373E3,1.8225586E2,3.3163675E2,1.7235336E3,4.824262E1,3.639658E1,6.754784E1,3.1046853E3,8.298428E1,5.724577E1,4.3445137E1,2.7242628E1,1.946204E3,1.3647845E2,9.534158E1,3.828931E1,1.7321959E2,5.913267E1,1.0622792E2,1.066745E2,9.886827E1,3.928203E2,2.8344965E2,7.047469E1,4.818873E1,3.0644434E1,2.8642271E1,7.028918E1,3.510226E2,8.078519E1,6.1782726E1,1.3696469E2,6.827805E1],"tree_param":{"num_deleted":"0","num_feature":"10","num_nodes":"105","size_leaf_vector":"0"}},{"base_weights":[-9.574375E-3,-3.5886535E-1,2.291957E-1,-4.995265E-1,4.980856E-1,9.937349E-2,7.289368E-1,-6.292902E-1,-3.479067E-2,-4.7780126E-1,5.9227794E-1,-1.2928401E-1,3.8790774E-1,2.61252E-1,8.4388244E-1,-6.9190896E-1,-2.8716698E-1,-1.920078E-1,7.482781E-1,-1.0338328E0,3.1904787E-1,2.7965644E-1,7.735079E-1,-2.4036667E-1,1.03533186E-1,-3.611828E-1,4.3166006E-1,-1.8637335E-1,6.8066084E-1,4.55412E-1,9.728406E-1,-7.7059364E-1,-4.6010545E-1,-1.4848377E-1,-1.0033106E0,-5.0151765E-1,4.927041E-2,9.1773844E-1,7.9354584E-2,-4.15226E-1,-1.8783997E0,3.6043897E-1,-2.7535173E-1,6.671504E-1,1.1976268E0,-1.6745694E-2,-3.6918023E-1,-4.117349E-1,2.1329787E-1,-8.2399845E-1,5.63357E-1,4.688639E-1,-2.3538488E-1,-6.8617696E-1,1.5397266E-1,4.2756742E-1,1.1639982E0,1.6450725E-1,1.2474146E0,1.1819136E0,8.0766404E-1,-1.0132864E0,-6.54842E-1,-1.917997E-1,-8.885742E-1,-1.0102029E0,-4.971756E-2,-3.7587318E-1,-1.4806559E0,-1.0449259E0,-2.5022152E-1,-1.4169395E-1,6.758741E-1,4.313136E-1,1.1810966E0,-7.868256E-1,7.9874253E-1,-2.0679647E-2,5.722444E-1,-1.417774E0,1.2042292E0,5.8734816E-1,1.0718067E0,6.79012E-1,1.3786674E0,-5.374916E-1,1.1334276E-1,-4.7415918E-1,1.4449202E-1,-5.4260445E-1,1.060832E0,-2.2338809E-1,2.8005776E-1,-1.0706607E0,2.7528197E-1,-5.7480533E-2,1.4340885E0,4.3321204E-1,1.0015432E0,-5.421102E-1,5.182075E-1,1.3210236E-1,-1.2899754E0,-4.022448E-1,7.9577595E-1,1.3812417E-1,1.0817324E0,1.6877904E0,8.3393645E-1,1.0473974E0,-5.4341123E-2,6.273572E-1,1.3855228E0,1.027898E0,1.6579816E0,1.1059016E-1,9.3839794E-1],"categories":[],"categories_nodes":[],"categories_segments":[],"categories_sizes":[],"default_left":[1,1,1,1,1,1,1,1,1,1,1,1,1,1,1,1,1,1,1,1,0,1,1,1,1,1,1,1,1,1,1,1,1,1,1,1,1,1,1,0,0,1,1,1,1,1,1,1,1,1,1,1,1,1,1,1,1,1,1,1,1,0,0,0,0,0,0,0,0,0,0,0,0,0,0,0,0,0,0,0,0,0,0,0,0,0,0,0,0,0,0,0,0,0,0,0,0,0,0,0,0,0,0,0,0,0,0,0,0,0,0,0,0,0,0,0,0],"id":2,"left_children":[1,3,5,7,9,11,13,15,17,19,21,23,25,27,29,31,33,35,37,39,-1,41,43,45,47,49,51,53,55,57,59,61,63,65,67,69,71,73,75,-1,-1,77,79,81,83,85,87,89,91,93,95,97,99,101,103,105,107,109,111,113,115,-1,-1,-1,-1,-1,-1,-1,-1,-1,-1,-1,-1,-1,-1,-1,-1,-1,-1,-1,-1,-1,-1,-1,-1,-1,-1,-1,-1,-1,-1,-1,-1,-1,-1,-1,-1,-1,-1,-1,-1,-1,-1,-1,-1,-1,-1,-1,-1,-1,-1,-1,-1,-1,-1,-1,-1],"loss_changes":[2.0470286E3,1.2017034E3,9.4533E2,5.1605176E2,1.2967188E2,7.63784E2,1.6078247E2,1.4268628E2,2.3035522E2,5.5801506E1,7.193817E1,1.6709225E2,1.6800824E2,1.1223284E2,1.19544556E2,1.0212085E2,1.0250339E2,1.16709694E2,3.4943085E1,3.646541E1,0E0,2.143222E1,3.4613373E1,1.2580803E2,1.1801428E2,1.2178925E2,1.20295715E2,4.9514515E1,3.6337433E1,1.3839674E2,6.020923E1,1.1684131E2,1.6464035E2,7.37701E1,4.8688217E1,9.2521515E1,1.05324745E2,3.0477158E1,4.165762E1,0E0,0E0,3.3738842E1,1.048084E2,1.944983E1,1.2781036E1,1.0872399E2,1.4980057E2,7.121759E1,5.0289764E1,5.209645E1,5.199105E1,8.580133E1,5.9593983E1,5.891282E1,6.2257442E1,3.8158905E1,1.49566345E1,8.630857E1,1.1745468E1,5.4561646E1,9.19986E1,0E0,0E0,0E0,0E0,0E0,0E0,0E0,0E0,0E0,0E0,0E0,0E0,0E0,0E0,0E0,0E0,0E0,0E0,0E0,0E0,0E0,0E0,0E0,0E0,0E0,0E0,0E0,0E0,0E0,0E0,0E0,0E0,0E0,0E0,0E0,0E0,0E0,0E0,0E0,0E0,0E0,0E0,0E0,0E0,0E0,0E0,0E0,0E0,0E0,0E0,0E0,0E0,0E0,0E0,0E0,0E0],"parents":[2147483647,0,0,1,1,2,2,3,3,4,4,5,5,6,6,7,7,8,8,9,9,10,10,11,11,12,12,13,13,14,14,15,15,16,16,17,17,18,18,19,19,21,21,22,22,23,23,24,24,25,25,26,26,27,27,28,28,29,29,30,30,31,31,32,32,33,33,34,34,35,35,36,36,37,37,38,38,41,41,42,42,43,43,44,44,45,45,46,46,47,47,48,48,49,49,50,50,51,51,52,52,53,53,54,54,55,55,56,56,57,57,58,58,59,59,60,60],"right_children":[2,4,6,8,10,12,14,16,18,20,22,24,26,28,30,32,34,36,38,40,-1,42,44,46,48,50,52,54,56,58,60,62,64,66,68,70,72,74,76,-1,-1,78,80,82,84,86,88,90,92,94,96,98,100,102,104,106,108,110,112,114,116,-1,-1,-1,-1,-1,-1,-1,-1,-1,-1,-1,-1,-1,-1,-1,-1,-1,-1,-1,-1,-1,-1,-1,-1,-1,-1,-1,-1,-1,-1,-1,-1,-1,-1,-1,-1,-1,-1,-1,-1,-1,-1,-1,-1,-1,-1,-1,-1,-1,-1,-1,-1,-1,-1,-1,-1],"split_conditions":[4.5E0,1.06850006E2,8.8194445E-2,4.799135E-2,7.0473824E0,9.005E1,5E-1,9.599983E1,1.4500001E-1,3.282445E-2,2.5E0,8.5E0,7.1361084E0,1.9615385E-1,7.6350006E1,3.5E0,1.0525E2,5E-1,7.465E0,8.422987E1,3.1904785E-3,9.6989365E1,3.910383E-2,7.383513E0,5E-1,7.5E0,7.5150003E0,8.47E1,8.771966E1,2.4166667E-1,7.415E0,7.075E1,9.838484E1,7.0768385E0,2.5E0,7.41E1,9.185E1,7.313389E0,7.78E1,-4.1522603E-3,-1.8783998E-2,8.2828476E1,7.3444996E0,1.376E2,8.468803E1,7.1356206E0,8.5649994E1,7.54E0,6.1449997E1,1.1115E2,4.289148E-2,1.35E1,7.545E0,8.263796E1,7.352738E0,9.42E1,7.5E0,7.3415194E0,7.4143684E1,1.15E1,7.2890806E0,-1.0132863E-2,-6.54842E-3,-1.9179969E-3,-8.885741E-3,-1.0102029E-2,-4.971756E-4,-3.7587318E-3,-1.4806558E-2,-1.0449259E-2,-2.502215E-3,-1.4169394E-3,6.758741E-3,4.313136E-3,1.1810965E-2,-7.8682555E-3,7.987425E-3,-2.0679647E-4,5.722444E-3,-1.417774E-2,1.2042292E-2,5.8734813E-3,1.0718066E-2,6.7901197E-3,1.3786674E-2,-5.374916E-3,1.1334276E-3,-4.741592E-3,1.4449201E-3,-5.426044E-3,1.060832E-2,-2.2338808E-3,2.8005776E-3,-1.0706607E-2,2.7528196E-3,-5.748053E-4,1.4340884E-2,4.3321205E-3,1.0015432E-2,-5.421102E-3,5.182075E-3,1.3210236E-3,-1.2899754E-2,-4.022448E-3,7.957759E-3,1.3812416E-3,1.0817324E-2,1.6877903E-2,8.339364E-3,1.0473973E-2,-5.4341124E-4,6.273572E-3,1.3855228E-2,1.0278979E-2,1.6579816E-2,1.1059016E-3,9.383979E-3],"split_indices":[3,1,5,5,6,1,7,1,5,5,3,3,6,5,1,3,1,7,6,8,0,8,5,6,7,3,6,1,8,5,6,1,8,6,3,1,1,6,1,0,0,8,9,1,8,6,1,6,1,1,5,3,6,8,9,1,3,6,8,3,9,0,0,0,0,0,0,0,0,0,0,0,0,0,0,0,0,0,0,0,0,0,0,0,0,0,0,0,0,0,0,0,0,0,0,0,0,0,0,0,0,0,0,0,0,0,0,0,0,0,0,0,0,0,0,0,0],"split_type":[0,0,0,0,0,0,0,0,0,0,0,0,0,0,0,0,0,0,0,0,0,0,0,0,0,0,0,0,0,0,0,0,0,0,0,0,0,0,0,0,0,0,0,0,0,0,0,0,0,0,0,0,0,0,0,0,0,0,0,0,0,0,0,0,0,0,0,0,0,0,0,0,0,0,0,0,0,0,0,0,0,0,0,0,0,0,0,0,0,0,0,0,0,0,0,0,0,0,0,0,0,0,0,0,0,0,0,0,0,0,0,0,0,0,0,0,0],"sum_hessian":[2.454104E4,9.964757E3,1.4576281E4,8.560686E3,1.4040707E3,1.157257E4,3.0037112E3,6.6910234E3,1.8696625E3,1.2267999E2,1.2813906E3,6.455868E3,5.116702E3,5.942494E2,2.4094617E3,5.6535527E3,1.037471E3,1.5584205E3,3.1124188E2,7.229165E1,5.0388344E1,4.7244513E2,8.0894556E2,4.3716963E3,2.0841719E3,2.8125555E2,4.835447E3,2.8739697E2,3.068524E2,6.029746E2,1.8064872E3,4.216924E3,1.4366287E3,8.711415E2,1.6632945E2,6.826991E2,8.7572144E2,2.4740909E2,6.38328E1,4.329276E1,2.899889E1,4.135052E2,5.8939938E1,6.5059625E2,1.5834927E2,1.5995939E3,2.7721028E3,3.646457E2,1.7195261E3,1.8782697E2,9.342858E1,4.580991E3,2.544554E2,1.16283646E2,1.7111331E2,2.037932E2,1.030592E2,4.4268997E2,1.6028465E2,7.9215643E2,1.01433075E3,1.3568899E3,2.8600342E3,8.853379E2,5.512908E2,8.7739174E1,7.834023E2,7.338674E1,9.29427E1,2.1387729E2,4.688218E2,6.715743E2,2.0414717E2,8.882462E1,1.5858446E2,2.8645502E1,3.51873E1,1.47522E2,2.6598322E2,3.3447372E1,2.5492563E1,5.473243E2,1.0327199E2,4.3389534E1,1.1495975E2,3.1940167E2,1.2801921E3,2.3024468E3,4.6965585E2,3.3600342E2,2.8642277E1,2.2675809E2,1.492768E3,1.537342E2,3.4092747E1,5.509037E1,3.8338215E1,4.296875E3,2.8411612E2,1.8152377E2,7.2931625E1,4.9589012E1,6.669463E1,9.163483E1,7.9478485E1,1.4296484E2,6.082835E1,3.6984436E1,6.607476E1,8.717056E1,3.555194E2,3.1239649E1,1.29045E2,6.0273944E2,1.8941698E2,1.6111154E2,8.532192E2],"tree_param":{"num_deleted":"0","num_feature":"10","num_nodes":"117","size_leaf_vector":"0"}},{"base_weights":[-9.166114E-3,-3.495693E-1,2.2232205E-1,-4.6328506E-1,7.426863E-2,4.102133E-1,-2.2109099E-1,-3.6025444E-1,-7.8611124E-1,-5.458787E-2,7.6680595E-1,2.960673E-1,9.824199E-1,-4.2073208E-1,6.614944E-1,-5.5572903E-1,-1.6743745E-1,-1.2528081E0,-6.6670364E-1,-4.0209323E-1,2.0573677E-1,4.9983147E-1,1.1136532E0,9.971731E-2,4.217471E-1,8.8712674E-1,1.2973677E0,-5.349671E-1,-5.2117094E-2,4.4812265E-1,8.716123E-1,-1.942834E-1,-7.053785E-1,2.2198167E-1,-2.655751E-1,-1.4294536E0,2.554285E-1,-5.4096866E-1,-9.935229E-1,-5.2247393E-1,3.4060445E-1,4.792884E-1,-2.0787406E-1,-5.047019E-1,6.991626E-1,6.7374E-1,1.457364E0,1.4926115E-1,-7.813001E-1,5.2983336E-2,4.9790967E-1,5.550563E-1,9.666829E-1,1.4057196E0,5.601616E-1,-1.1254094E0,-4.8718938E-1,2.0215073E-1,-5.3560454E-1,-3.297205E-1,6.268306E-1,7.170633E-1,1.3537072E0,-2.742482E-1,9.698287E-1,-8.889691E-1,-3.7833518E-1,-1.3071196E-1,4.9586073E-1,-9.766666E-1,-2.0359994E-1,-1.6514865E0,-1.2084092E0,-7.627135E-1,-2.7440298E-1,-1.8021624E0,-8.774884E-1,-3.31105E-1,-1.3887584E0,9.7527784E-1,-1.313567E0,1.4053893E0,3.55281E-1,3.1260604E-1,-5.282696E-1,1.082434E0,1.0612553E-1,1.3051505E0,-1.6730718E-1,1.8209342E0,1.0772845E0,-3.6074156E-1,2.0976324E-1,-1.1341511E0,8.388262E-1,-3.5533956E-1,3.3257303E-1,-1.1518613E-1,5.213099E-1,-3.4251952E-1,7.804329E-1,1.0474392E0,6.676568E-1,1.2594934E0,1.7086302E0,1.2197572E0,-8.9167185E-2,-1.6407464E0,-6.6431284E-1,-1.9157453E-1,-6.163057E-1,-5.3032976E-1,4.6063593E-1,-1.7710298E0,-3.237992E-1,-1.3587787E0,3.9183468E-1,1.314994E0,5.1004934E-1,1.7015427E0,6.148925E-1,1.7699244E0,1.0482384E0],"categories":[],"categories_nodes":[],"categories_segments":[],"categories_sizes":[],"default_left":[1,1,1,1,1,1,1,1,1,1,1,1,1,1,1,1,1,1,1,1,1,1,1,1,1,1,1,1,1,1,1,1,1,1,1,1,0,1,1,1,1,1,1,0,1,1,1,1,1,1,1,1,1,1,1,1,1,1,1,1,1,1,1,0,0,0,0,0,0,0,0,0,0,0,0,0,0,0,0,0,0,0,0,0,0,0,0,0,0,0,0,0,0,0,0,0,0,0,0,0,0,0,0,0,0,0,0,0,0,0,0,0,0,0,0,0,0,0,0,0,0,0,0],"id":3,"left_children":[1,3,5,7,9,11,13,15,17,19,21,23,25,27,29,31,33,35,37,39,41,43,45,47,49,51,53,55,57,59,61,63,65,67,69,71,-1,73,75,77,79,81,83,-1,85,87,89,91,93,95,97,99,101,103,105,107,109,111,113,115,117,119,121,-1,-1,-1,-1,-1,-1,-1,-1,-1,-1,-1,-1,-1,-1,-1,-1,-1,-1,-1,-1,-1,-1,-1,-1,-1,-1,-1,-1,-1,-1,-1,-1,-1,-1,-1,-1,-1,-1,-1,-1,-1,-1,-1,-1,-1,-1,-1,-1,-1,-1,-1,-1,-1,-1,-1,-1,-1,-1,-1,-1],"loss_changes":[1.9300502E3,4.7806702E2,1.2147468E3,2.591599E2,1.8756322E2,6.679004E2,7.648673E2,2.2309467E2,1.0326587E2,1.6030034E2,2.9049759E1,2.1047217E2,4.8475586E1,1.4878485E2,3.4782135E1,1.5863556E2,1.143239E2,1.0293085E2,6.0559937E1,6.8209694E1,1.14773E2,3.8586563E1,1.9073975E1,1.4554161E2,1.459378E2,3.3253174E1,2.927185E1,7.474011E1,1.03559235E2,5.6209877E1,2.7583466E1,8.0608536E1,1.2388269E2,5.835267E1,1.0449617E2,1.2691101E1,0E0,6.390268E1,3.562503E1,1.0709088E2,1.1341253E2,6.862892E1,6.760091E1,0E0,3.554438E1,3.5500393E1,6.6283875E0,9.756556E1,1.0297538E2,1.02187805E2,6.2132446E1,5.2790398E1,2.3756348E1,1.0622742E1,2.335012E1,4.5076447E1,9.501605E1,1.0466774E2,7.430478E1,5.7271492E1,2.4563065E1,2.8421371E1,8.167694E0,0E0,0E0,0E0,0E0,0E0,0E0,0E0,0E0,0E0,0E0,0E0,0E0,0E0,0E0,0E0,0E0,0E0,0E0,0E0,0E0,0E0,0E0,0E0,0E0,0E0,0E0,0E0,0E0,0E0,0E0,0E0,0E0,0E0,0E0,0E0,0E0,0E0,0E0,0E0,0E0,0E0,0E0,0E0,0E0,0E0,0E0,0E0,0E0,0E0,0E0,0E0,0E0,0E0,0E0,0E0,0E0,0E0,0E0,0E0,0E0],"parents":[2147483647,0,0,1,1,2,2,3,3,4,4,5,5,6,6,7,7,8,8,9,9,10,10,11,11,12,12,13,13,14,14,15,15,16,16,17,17,18,18,19,19,20,20,21,21,22,22,23,23,24,24,25,25,26,26,27,27,28,28,29,29,30,30,31,31,32,32,33,33,34,34,35,35,37,37,38,38,39,39,40,40,41,41,42,42,44,44,45,45,46,46,47,47,48,48,49,49,50,50,51,51,52,52,53,53,54,54,55,55,56,56,57,57,58,58,59,59,60,60,61,61,62,62],"right_children":[2,4,6,8,10,12,14,16,18,20,22,24,26,28,30,32,34,36,38,40,42,44,46,48,50,52,54,56,58,60,62,64,66,68,70,72,-1,74,76,78,80,82,84,-1,86,88,90,92,94,96,98,100,102,104,106,108,110,112,114,116,118,120,122,-1,-1,-1,-1,-1,-1,-1,-1,-1,-1,-1,-1,-1,-1,-1,-1,-1,-1,-1,-1,-1,-1,-1,-1,-1,-1,-1,-1,-1,-1,-1,-1,-1,-1,-1,-1,-1,-1,-1,-1,-1,-1,-1,-1,-1,-1,-1,-1,-1,-1,-1,-1,-1,-1,-1,-1,-1,-1,-1,-1],"split_conditions":[4.5E0,4.799135E-2,5E-1,5E-1,1.4500001E-1,8.8194445E-2,1.4642859E-1,2.5E0,7.934332E1,5E-1,2.1000001E-1,6.5E0,1.15E1,9.5E0,2.4722221E-1,8.413138E1,8.1379684E1,7.421875E0,9.4196655E1,7.4085417E0,5E-1,7.1228123E0,8.325538E1,7.5150003E0,5E-1,5E-1,7.505E0,7.0308695E0,7.455E0,5E-1,1.25E1,7.425E0,5E-1,3.5E0,8.373195E1,7.341157E0,2.5542849E-3,7.209467E0,7.176562E0,7.36858E0,5E-1,5.5E1,2.5E0,-5.047019E-3,5E-1,7.1807632E0,9.601899E1,7.1544523E0,3.6666665E-2,8.727574E1,7.1268344E0,7.135484E0,9.5E0,1.45E1,7.30825E0,7.335E0,7.389177E0,8.023575E1,7.2968054E0,1.9615385E-1,7.3526835E0,6.9216666E0,7.4300003E0,-2.7424821E-3,9.698287E-3,-8.889691E-3,-3.7833517E-3,-1.3071195E-3,4.9586073E-3,-9.766666E-3,-2.0359994E-3,-1.6514866E-2,-1.2084092E-2,-7.6271347E-3,-2.7440297E-3,-1.8021625E-2,-8.774883E-3,-3.31105E-3,-1.3887584E-2,9.752778E-3,-1.313567E-2,1.4053892E-2,3.5528098E-3,3.1260604E-3,-5.282696E-3,1.082434E-2,1.0612553E-3,1.3051505E-2,-1.6730718E-3,1.8209342E-2,1.0772845E-2,-3.6074154E-3,2.0976325E-3,-1.134151E-2,8.388261E-3,-3.5533954E-3,3.32573E-3,-1.1518613E-3,5.213099E-3,-3.425195E-3,7.8043286E-3,1.0474392E-2,6.6765677E-3,1.2594934E-2,1.7086301E-2,1.2197572E-2,-8.916718E-4,-1.6407464E-2,-6.643128E-3,-1.9157452E-3,-6.163057E-3,-5.3032977E-3,4.606359E-3,-1.7710298E-2,-3.2379918E-3,-1.3587787E-2,3.9183465E-3,1.31499395E-2,5.1004933E-3,1.7015427E-2,6.1489246E-3,1.7699244E-2,1.0482384E-2],"split_indices":[3,5,2,2,5,5,5,3,8,7,5,3,3,3,5,8,8,9,8,9,2,9,8,6,7,7,6,9,6,7,3,9,7,3,8,6,0,9,6,6,2,8,3,0,2,9,8,6,5,8,6,9,3,3,9,6,6,8,9,5,6,9,6,0,0,0,0,0,0,0,0,0,0,0,0,0,0,0,0,0,0,0,0,0,0,0,0,0,0,0,0,0,0,0,0,0,0,0,0,0,0,0,0,0,0,0,0,0,0,0,0,0,0,0,0,0,0,0,0,0,0,0,0],"split_type":[0,0,0,0,0,0,0,0,0,0,0,0,0,0,0,0,0,0,0,0,0,0,0,0,0,0,0,0,0,0,0,0,0,0,0,0,0,0,0,0,0,0,0,0,0,0,0,0,0,0,0,0,0,0,0,0,0,0,0,0,0,0,0,0,0,0,0,0,0,0,0,0,0,0,0,0,0,0,0,0,0,0,0,0,0,0,0,0,0,0,0,0,0,0,0,0,0,0,0,0,0,0,0,0,0,0,0,0,0,0,0,0,0,0,0,0,0,0,0,0,0,0,0],"sum_hessian":[2.4489611E4,9.913208E3,1.4576403E4,7.816772E3,2.0964365E3,1.023883E4,4.3375737E3,5.9289487E3,1.8878229E3,1.7682352E3,3.2820132E2,8.53851E3,1.70032E3,3.5384202E3,7.991536E2,2.9417527E3,2.9871963E3,3.8102478E2,1.5067981E3,7.576173E2,1.0106179E3,1.8817474E2,1.400266E2,3.3346487E3,5.203861E3,1.31073E3,3.8958997E2,2.6999382E3,8.384821E2,3.997827E2,3.993709E2,8.631419E2,2.0786108E3,6.00075E2,2.3871213E3,3.413851E2,3.9639675E1,1.0919183E3,4.1487973E2,6.5279236E2,1.0482498E2,6.08741E2,4.0187686E2,3.0444479E1,1.5773027E2,6.3876076E1,7.615051E1,3.1587188E3,1.7593002E2,8.9213245E2,4.3117285E3,2.566126E2,1.0541174E3,3.3800793E2,5.1582035E1,1.9896042E2,2.5009778E3,5.4952856E2,2.8895355E2,7.4034546E1,3.2574817E2,3.0587497E2,9.349594E1,8.0905664E2,5.4085236E1,1.328844E3,7.497668E2,2.620011E2,3.3807394E2,1.8907835E2,2.198043E3,1.6456633E2,1.7681877E2,5.9372815E2,4.9819022E2,4.8894188E1,3.6598557E2,5.367542E2,1.1603812E2,7.637776E1,2.8447226E1,6.967503E1,5.39066E2,1.5266377E2,2.492131E2,9.4648155E1,6.308211E1,3.628399E1,2.7592085E1,3.547634E1,4.067417E1,3.3349188E2,2.8252268E3,1.4503857E2,3.0891445E1,3.618445E2,5.302879E2,1.5767207E2,4.1540566E3,5.0989487E1,2.0562314E2,8.2596246E2,2.2815492E2,2.3407068E2,1.0393726E2,2.5240614E1,2.634142E1,9.1732285E1,1.07228134E2,7.6236005E2,1.7386177E3,1.4252484E2,4.070037E2,4.0396515E1,2.4855704E2,3.0197515E1,4.3837032E1,4.4529716E1,2.8121848E2,2.618363E1,2.7969135E2,3.5976048E1,5.751989E1],"tree_param":{"num_deleted":"0","num_feature":"10","num_nodes":"123","size_leaf_vector":"0"}},{"base_weights":[-6.4285384E-3,3.7395394E-1,-7.8343064E-1,8.4029824E-1,1.4797364E-1,-4.4019377E-1,-1.0909594E0,5.837844E-1,1.0009261E0,-5.485601E-1,4.3398076E-1,-9.3177006E-2,-1.07475E0,-1.2650894E0,-4.2624575E-1,8.0565023E-1,2.7578083E-1,2.653468E-1,1.0259564E0,-2.4105644E-1,-8.2678205E-1,6.333317E-1,4.280201E-2,-9.7869366E-1,1.3301784E-1,-1.1939123E0,1.834558E-1,-1.7630968E0,-1.1222409E0,-7.20165E-2,-1.1551986E0,6.843749E-1,1.1664528E0,1.779552E-1,6.916247E-1,8.318117E-1,-9.63157E-1,1.2458434E0,9.131518E-1,-2.9618013E-1,7.88835E-1,-1.0708983E0,-2.8118962E-1,1.0471797E-1,8.092408E-1,4.128671E-1,-3.3240992E-1,-1.1034688E0,9.717773E-1,-1.2287235E-2,1.0008641E0,-1.2838529E0,-5.8947873E-1,6.742586E-1,-3.6713588E-1,-1.8095524E0,-1.1495551E0,-8.3319193E-1,-1.4013773E0,-4.0716568E-1,3.9645654E-1,-1.5792987E0,-2.0377456E-1,7.486926E-1,-3.183426E-1,9.1906804E-1,1.4517212E0,1.2052253E-1,1.2692403E0,-5.504008E-1,9.959905E-1,5.3105343E-2,1.2993655E0,1.2877444E0,8.491887E-1,9.348862E-1,-3.649839E-1,5.9159707E-2,-4.5060056E-1,1.3218156E0,8.552542E-2,-1.2713207E0,-8.330147E-1,-1.1174686E0,-8.260051E-2,-5.42524E-1,3.640681E-1,1.8334594E-1,8.512643E-1,3.0528322E-1,1.0119959E0,-5.9134895E-1,2.884078E-1,-4.3347478E-1,-1.2151158E0,-5.639426E-1,1.1386408E-1,7.483611E-1,1.2768313E0,-1.362936E0,-9.396824E-1,-8.9317214E-1,4.3107623E-1,9.951545E-2,1.2291085E0,-8.228559E-1,1.6499552E-1,-1.9241524E0,-1.7210892E0,-1.8993896E-1,-1.8781188E0,-6.229929E-1,-1.4430717E0,-1.4325662E0,1.8809235E-1,-1.3511978E0,-2.188075E-1,-9.4889425E-2,6.628921E-1,-1.8541858E0,-1.206989E0,7.236704E-1,-6.393208E-1],"categories":[],"categories_nodes":[],"categories_segments":[],"categories_sizes":[],"default_left":[1,1,1,1,1,1,1,1,1,1,1,1,1,1,1,1,1,1,1,1,1,1,1,1,1,1,1,1,1,1,1,1,1,1,1,1,0,1,1,1,1,1,1,1,1,1,1,1,0,1,1,1,1,1,1,1,1,1,1,1,1,1,1,0,0,0,0,0,0,0,0,0,0,0,0,0,0,0,0,0,0,0,0,0,0,0,0,0,0,0,0,0,0,0,0,0,0,0,0,0,0,0,0,0,0,0,0,0,0,0,0,0,0,0,0,0,0,0,0,0,0,0,0],"id":4,"left_children":[1,3,5,7,9,11,13,15,17,19,21,23,25,27,29,31,33,35,37,39,41,43,45,47,49,51,53,55,57,59,61,63,65,67,69,71,-1,73,75,77,79,81,83,85,87,89,91,93,-1,95,97,99,101,103,105,107,109,111,113,115,117,119,121,-1,-1,-1,-1,-1,-1,-1,-1,-1,-1,-1,-1,-1,-1,-1,-1,-1,-1,-1,-1,-1,-1,-1,-1,-1,-1,-1,-1,-1,-1,-1,-1,-1,-1,-1,-1,-1,-1,-1,-1,-1,-1,-1,-1,-1,-1,-1,-1,-1,-1,-1,-1,-1,-1,-1,-1,-1,-1,-1,-1],"loss_changes":[7.266763E3,1.7388269E3,8.516284E2,2.2043457E2,2.2156184E3,8.4094653E2,4.9164502E2,1.4128699E2,6.0004883E1,2.762339E2,6.1453784E2,4.9581683E2,2.0322473E2,2.3595947E2,2.2845647E2,5.086786E1,3.499958E1,7.8709496E1,7.678784E1,8.761001E1,2.2519263E2,4.850979E2,3.7013373E2,1.2423489E2,2.4890692E2,6.521155E1,3.2342026E1,1.7044434E1,2.093352E2,9.429216E1,1.1567627E2,5.9067688E1,1.8266449E1,4.3708096E1,6.3392586E1,2.7502186E1,0E0,1.5446167E1,5.967102E1,8.051221E1,2.8620296E1,5.345874E1,8.698721E1,2.1948114E2,1.0238843E2,8.5534546E1,2.1306502E2,3.4026794E1,0E0,1.1781979E2,1.7478851E1,2.6349365E1,5.1348484E1,1.9446638E1,1.40786915E1,6.0058594E-1,3.8795662E1,1.6385608E2,6.70166E1,6.123842E1,3.3058483E1,1.58697815E1,3.7547146E1,0E0,0E0,0E0,0E0,0E0,0E0,0E0,0E0,0E0,0E0,0E0,0E0,0E0,0E0,0E0,0E0,0E0,0E0,0E0,0E0,0E0,0E0,0E0,0E0,0E0,0E0,0E0,0E0,0E0,0E0,0E0,0E0,0E0,0E0,0E0,0E0,0E0,0E0,0E0,0E0,0E0,0E0,0E0,0E0,0E0,0E0,0E0,0E0,0E0,0E0,0E0,0E0,0E0,0E0,0E0,0E0,0E0,0E0,0E0,0E0],"parents":[2147483647,0,0,1,1,2,2,3,3,4,4,5,5,6,6,7,7,8,8,9,9,10,10,11,11,12,12,13,13,14,14,15,15,16,16,17,17,18,18,19,19,20,20,21,21,22,22,23,23,24,24,25,25,26,26,27,27,28,28,29,29,30,30,31,31,32,32,33,33,34,34,35,35,37,37,38,38,39,39,40,40,41,41,42,42,43,43,44,44,45,45,46,46,47,47,49,49,50,50,51,51,52,52,53,53,54,54,55,55,56,56,57,57,58,58,59,59,60,60,61,61,62,62],"right_children":[2,4,6,8,10,12,14,16,18,20,22,24,26,28,30,32,34,36,38,40,42,44,46,48,50,52,54,56,58,60,62,64,66,68,70,72,-1,74,76,78,80,82,84,86,88,90,92,94,-1,96,98,100,102,104,106,108,110,112,114,116,118,120,122,-1,-1,-1,-1,-1,-1,-1,-1,-1,-1,-1,-1,-1,-1,-1,-1,-1,-1,-1,-1,-1,-1,-1,-1,-1,-1,-1,-1,-1,-1,-1,-1,-1,-1,-1,-1,-1,-1,-1,-1,-1,-1,-1,-1,-1,-1,-1,-1,-1,-1,-1,-1,-1,-1,-1,-1,-1,-1,-1,-1],"split_conditions":[1.465581E2,7.053029E1,1.8609146E2,7.263138E0,7.1875134E0,5E-1,4.9671568E-2,5.3837914E1,6.3046837E0,1.0115403E2,5E-1,7.2883387E0,1.4642859E-1,5E-1,5E-1,4.85663E-2,5.833334E-1,7.385E0,4.1463455E1,1.4166668E-1,2.1654087E-1,5E-1,1.13679E2,2.4166665E0,7.75E-2,7.495E0,2.45E0,3.2576752E-1,2.4376428E2,2.1991856E-1,1.2916666E-1,7.21385E0,5E-1,5.955051E-2,6.9958415E0,7.2505074E0,-9.6315695E-3,7.4293747E0,9.375E0,7.8280876E1,7.355E0,5E-1,6.8104167E0,7.358474E0,7.3192987E0,2.1547619E-1,1.9615384E0,7.0161104E0,9.717773E-3,5E-1,1.4166668E-1,6.333333E-2,7.472083E0,2.3666666E-1,1.6340858E2,7.34824E0,6.25E-1,5E-1,2.959502E3,5E-1,7.4049997E0,4.166667E-1,5.833334E-1,7.4869255E-3,-3.1834259E-3,9.19068E-3,1.4517211E-2,1.2052252E-3,1.2692402E-2,-5.504008E-3,9.9599045E-3,5.310534E-4,1.2993655E-2,1.2877444E-2,8.491887E-3,9.348862E-3,-3.6498387E-3,5.9159705E-4,-4.5060054E-3,1.3218156E-2,8.5525424E-4,-1.2713207E-2,-8.330147E-3,-1.1174685E-2,-8.260051E-4,-5.4252394E-3,3.6406808E-3,1.8334594E-3,8.512643E-3,3.052832E-3,1.0119959E-2,-5.9134895E-3,2.884078E-3,-4.334748E-3,-1.21511575E-2,-5.639426E-3,1.1386408E-3,7.483611E-3,1.2768312E-2,-1.362936E-2,-9.396824E-3,-8.931722E-3,4.310762E-3,9.951545E-4,1.2291084E-2,-8.228559E-3,1.6499552E-3,-1.9241523E-2,-1.7210891E-2,-1.8993896E-3,-1.8781187E-2,-6.2299287E-3,-1.4430717E-2,-1.4325662E-2,1.8809235E-3,-1.3511978E-2,-2.188075E-3,-9.4889425E-4,6.628921E-3,-1.8541858E-2,-1.206989E-2,7.236704E-3,-6.3932077E-3],"split_indices":[0,0,0,6,9,2,5,0,0,0,2,6,5,7,2,5,4,6,0,5,4,7,0,4,5,6,4,4,0,4,5,9,7,5,9,9,0,9,4,0,6,7,9,6,6,5,4,6,0,7,5,5,9,5,0,6,4,2,0,7,6,4,4,0,0,0,0,0,0,0,0,0,0,0,0,0,0,0,0,0,0,0,0,0,0,0,0,0,0,0,0,0,0,0,0,0,0,0,0,0,0,0,0,0,0,0,0,0,0,0,0,0,0,0,0,0,0,0,0,0,0,0,0],"split_type":[0,0,0,0,0,0,0,0,0,0,0,0,0,0,0,0,0,0,0,0,0,0,0,0,0,0,0,0,0,0,0,0,0,0,0,0,0,0,0,0,0,0,0,0,0,0,0,0,0,0,0,0,0,0,0,0,0,0,0,0,0,0,0,0,0,0,0,0,0,0,0,0,0,0,0,0,0,0,0,0,0,0,0,0,0,0,0,0,0,0,0,0,0,0,0,0,0,0,0,0,0,0,0,0,0,0,0,0,0,0,0,0,0,0,0,0,0,0,0,0,0,0,0],"sum_hessian":[2.4583049E4,1.6503836E4,8.079213E3,5.3850757E3,1.1118761E4,3.8202878E3,4.2589253E3,2.077256E3,3.3078196E3,3.2357441E3,7.8830166E3,2.471216E3,1.3490717E3,3.373293E3,8.856324E2,1.205308E3,8.7194806E2,1.0995252E2,3.1978672E3,1.5390038E3,1.6967404E3,5.2205767E3,2.6624402E3,5.021515E2,1.9690646E3,1.2327179E3,1.163538E2,7.4749963E2,2.6257932E3,5.974856E2,2.881468E2,9.06173E2,2.9913498E2,7.084029E2,1.6354518E2,7.5807526E1,3.4145E1,1.077979E3,2.1198882E3,1.4621984E3,7.6805405E1,1.1707365E3,5.260039E2,1.3046675E3,3.915909E3,1.3408743E3,1.3215658E3,4.7276437E2,2.9387115E1,1.6875354E3,2.8152924E2,1.071003E3,1.6171478E2,6.1722946E1,5.4630856E1,6.915606E2,5.5938988E1,1.2936322E3,1.3321611E3,3.489175E2,2.485681E2,1.9833018E2,8.9816605E1,8.522836E2,5.3889366E1,1.6434761E2,1.3478737E2,6.7491534E2,3.348756E1,3.1692179E1,1.31853E2,2.938799E1,4.6419533E1,9.710254E2,1.0695362E2,2.0851465E3,3.4741695E1,4.424358E2,1.0197626E3,4.261962E1,3.4185783E1,6.3094916E2,5.397873E2,9.9220695E1,4.267832E2,3.7231836E2,9.3234906E2,2.4748264E2,3.6684265E3,1.1392367E3,2.0163759E2,9.3309393E2,3.884719E2,6.908596E1,4.036784E2,3.1370023E2,1.3738352E3,1.506789E2,1.3085033E2,8.663351E2,2.0466798E2,1.25074646E2,3.6640133E1,3.1541021E1,3.0181923E1,2.9391777E1,2.5239079E1,2.8574402E2,4.058166E2,2.5194515E1,3.0744473E1,9.647968E2,3.288354E2,1.3069163E3,2.5244837E1,5.6144245E1,2.9277325E2,8.720813E1,1.6135997E2,1.1003986E2,8.829031E1,2.8090494E1,6.172611E1],"tree_param":{"num_deleted":"0","num_feature":"10","num_nodes":"123","size_leaf_vector":"0"}},{"base_weights":[2.2598188E-3,3.8492274E-1,-7.8925467E-1,6.9337375E-2,7.542339E-1,-1.0596182E0,-2.3830453E-1,6.3480055E-1,-2.770554E-1,1.4483316E-1,1.0041877E0,-7.4402624E-1,-1.3313897E0,1.4919175E-1,-7.4491453E-1,9.7570956E-1,3.85609E-1,-7.963329E-1,-3.0286431E-2,8.048703E-1,-4.056535E-1,1.177257E0,5.0121564E-1,-4.2718825E-1,-1.2506217E0,-1.7486497E0,-1.1962196E0,4.7136772E-1,-5.192006E-1,-9.218666E-1,6.9812365E-2,1.0523077E0,5.163937E-1,-1.1847179E-2,6.628634E-1,-1.0301288E0,-5.423696E-1,-4.325841E-1,2.538048E-1,4.878788E-1,1.1154808E0,-7.332774E-1,2.8047407E-1,1.0532182E0,1.4621626E0,9.9671745E-1,-7.230833E-2,-1.0648803E0,-1.8176468E-1,-1.4102712E0,-7.3929334E-1,-1.8209691E0,-9.8492444E-1,-1.2952193E0,-6.2159556E-1,-7.190808E-1,6.0714066E-1,-8.763685E-1,6.0675584E-2,-1.6551136E0,-7.612655E-1,1.2373419E0,-1.8111455E-1,9.249307E-1,1.3373256E0,-1.1393918E0,9.316484E-1,-5.7549167E-1,2.1273167E-1,4.4327173E-1,9.794131E-1,-5.098094E-1,-1.1769239E0,-6.912495E-1,-3.6718965E-2,-1.9523498E-1,-1.1058607E0,4.3615413E-1,-4.4623262E-1,7.0681554E-1,4.2819805E-2,9.071413E-1,1.5287553E0,-8.961649E-1,5.687019E-1,-2.9752997E-1,6.1499035E-1,1.4442492E0,9.203104E-1,1.5619103E0,1.2860256E0,6.3673383E-1,1.4891064E0,-2.3636222E-1,9.287327E-1,-1.3096466E0,4.3992385E-1,-5.2326006E-1,3.3221647E-1,-1.0895655E0,-1.5809855E0,3.1913623E-2,-9.8268723E-1,-1.3767987E0,-1.8715857E0,-1.8488687E0,-3.4106103E-1,-1.5241914E0,-1.1078303E0,3.272246E-2,-1.6436869E0,-2.8992295E-1,-1.55987E0,6.713853E-1,-8.000087E-1,-1.4403422E0,-1.0631907E-1,3.210633E-1,-9.0557885E-1,-1.909884E0,-3.9823624E-1,-4.7597277E-1,-1.2148312E0,4.7029662E-1,-4.7191128E-1],"categories":[],"categories_nodes":[],"categories_segments":[],"categories_sizes":[],"default_left":[1,1,1,1,1,1,1,1,1,1,1,1,1,1,1,1,1,1,1,1,1,1,1,1,1,1,1,1,1,1,1,1,1,1,1,1,1,1,1,1,1,1,1,1,1,1,1,1,1,1,1,1,1,1,1,1,1,1,1,1,1,0,1,0,0,0,0,0,0,0,0,0,0,0,0,0,0,0,0,0,0,0,0,0,0,0,0,0,0,0,0,0,0,0,0,0,0,0,0,0,0,0,0,0,0,0,0,0,0,0,0,0,0,0,0,0,0,0,0,0,0,0,0,0,0],"id":5,"left_children":[1,3,5,7,9,11,13,15,17,19,21,23,25,27,29,31,33,35,37,39,41,43,45,47,49,51,53,55,57,59,61,63,65,67,69,71,73,75,77,79,81,83,85,87,89,91,93,95,97,99,101,103,105,107,109,111,113,115,117,119,121,-1,123,-1,-1,-1,-1,-1,-1,-1,-1,-1,-1,-1,-1,-1,-1,-1,-1,-1,-1,-1,-1,-1,-1,-1,-1,-1,-1,-1,-1,-1,-1,-1,-1,-1,-1,-1,-1,-1,-1,-1,-1,-1,-1,-1,-1,-1,-1,-1,-1,-1,-1,-1,-1,-1,-1,-1,-1,-1,-1,-1,-1,-1,-1],"loss_changes":[7.4666094E3,1.9364636E3,1.1957944E3,1.7560674E3,1.1656069E3,4.5983105E2,5.200418E2,2.8822266E2,7.1196576E2,8.10634E2,4.7102686E2,3.9935413E2,1.5882812E2,3.2349503E2,1.6592621E2,4.910034E1,2.1744263E2,1.0482361E2,4.3114197E2,9.843994E1,2.73875E2,1.3936328E2,3.9635275E2,2.4008969E2,7.59126E1,3.5059082E1,1.22625E2,1.6446387E2,1.0155644E2,1.08259155E2,6.1055824E1,4.186023E1,1.4522714E2,1.0295065E2,7.952066E1,6.9427795E1,6.456691E1,2.4870831E2,2.8241895E2,4.8904877E1,4.0913208E1,1.7563333E2,7.65303E1,1.4357446E2,1.7278076E1,1.3028125E2,1.0625737E2,1.5847552E2,1.9580692E2,3.626184E1,4.398938E1,9.239014E0,3.4126328E1,7.649585E1,2.1832632E2,3.6169136E1,8.311804E1,1.3063324E2,4.7284374E1,5.1671356E1,9.903357E1,0E0,3.261865E1,0E0,0E0,0E0,0E0,0E0,0E0,0E0,0E0,0E0,0E0,0E0,0E0,0E0,0E0,0E0,0E0,0E0,0E0,0E0,0E0,0E0,0E0,0E0,0E0,0E0,0E0,0E0,0E0,0E0,0E0,0E0,0E0,0E0,0E0,0E0,0E0,0E0,0E0,0E0,0E0,0E0,0E0,0E0,0E0,0E0,0E0,0E0,0E0,0E0,0E0,0E0,0E0,0E0,0E0,0E0,0E0,0E0,0E0,0E0,0E0,0E0,0E0],"parents":[2147483647,0,0,1,1,2,2,3,3,4,4,5,5,6,6,7,7,8,8,9,9,10,10,11,11,12,12,13,13,14,14,15,15,16,16,17,17,18,18,19,19,20,20,21,21,22,22,23,23,24,24,25,25,26,26,27,27,28,28,29,29,30,30,31,31,32,32,33,33,34,34,35,35,36,36,37,37,38,38,39,39,40,40,41,41,42,42,43,43,44,44,45,45,46,46,47,47,48,48,49,49,50,50,51,51,52,52,53,53,54,54,55,55,56,56,57,57,58,58,59,59,60,60,62,62],"right_children":[2,4,6,8,10,12,14,16,18,20,22,24,26,28,30,32,34,36,38,40,42,44,46,48,50,52,54,56,58,60,62,64,66,68,70,72,74,76,78,80,82,84,86,88,90,92,94,96,98,100,102,104,106,108,110,112,114,116,118,120,122,-1,124,-1,-1,-1,-1,-1,-1,-1,-1,-1,-1,-1,-1,-1,-1,-1,-1,-1,-1,-1,-1,-1,-1,-1,-1,-1,-1,-1,-1,-1,-1,-1,-1,-1,-1,-1,-1,-1,-1,-1,-1,-1,-1,-1,-1,-1,-1,-1,-1,-1,-1,-1,-1,-1,-1,-1,-1,-1,-1,-1,-1,-1,-1],"split_conditions":[1.465581E2,8.5350006E1,9.975E1,7.113768E1,7.2834463E0,1.8336308E2,1.9991302E2,4.500054E1,7.1875134E0,7.747426E1,5E-1,5E-1,5E-1,5E-1,3.2576752E-1,7.425E0,6.845E1,5E-1,7.205E1,9.78E1,1.065E2,1.08350006E2,1.13437744E2,7.3292007E0,1.6458333E0,5.833334E-1,2.3579675E-1,7.144355E0,1.176E2,5E-1,1.0315E2,7.083334E-1,7.349167E0,7.246952E0,7.336623E0,8.2871796E1,9.166666E-1,1.2243947E2,1.3004529E2,9.15229E1,7.1809244E0,2.55E0,7.124537E0,6.92493E1,1.1764761E2,9.965E1,1.1405E2,9.166666E-1,8.6149994E1,1.5609644E2,1.5085648E2,1.902579E2,2.1016083E2,8.175E1,5E-1,1.127E2,7.4580956E0,7.4449997E0,7.3957777E0,1.344E2,2.7086298E2,1.2373419E-2,5.833334E-1,9.249306E-3,1.3373256E-2,-1.1393918E-2,9.3164835E-3,-5.7549165E-3,2.1273168E-3,4.4327173E-3,9.794131E-3,-5.0980938E-3,-1.1769239E-2,-6.9124945E-3,-3.6718964E-4,-1.9523498E-3,-1.1058607E-2,4.361541E-3,-4.462326E-3,7.0681553E-3,4.2819805E-4,9.071413E-3,1.5287553E-2,-8.961649E-3,5.6870193E-3,-2.9752995E-3,6.1499034E-3,1.4442491E-2,9.203103E-3,1.5619102E-2,1.2860256E-2,6.3673384E-3,1.4891064E-2,-2.3636222E-3,9.287327E-3,-1.3096466E-2,4.3992386E-3,-5.2326005E-3,3.3221645E-3,-1.0895655E-2,-1.5809854E-2,3.1913622E-4,-9.8268725E-3,-1.37679875E-2,-1.8715857E-2,-1.8488687E-2,-3.4106101E-3,-1.52419135E-2,-1.1078303E-2,3.2722458E-4,-1.643687E-2,-2.8992295E-3,-1.5598699E-2,6.7138528E-3,-8.000087E-3,-1.4403421E-2,-1.0631906E-3,3.210633E-3,-9.055789E-3,-1.9098839E-2,-3.9823623E-3,-4.7597275E-3,-1.2148312E-2,4.702966E-3,-4.7191125E-3],"split_indices":[0,1,1,0,6,0,0,0,9,0,2,2,7,2,4,6,1,7,1,1,1,1,0,6,4,4,4,9,1,7,1,4,9,6,6,0,4,0,0,1,6,4,6,0,0,1,1,4,1,0,0,0,0,1,2,1,9,6,9,1,0,0,4,0,0,0,0,0,0,0,0,0,0,0,0,0,0,0,0,0,0,0,0,0,0,0,0,0,0,0,0,0,0,0,0,0,0,0,0,0,0,0,0,0,0,0,0,0,0,0,0,0,0,0,0,0,0,0,0,0,0,0,0,0,0],"split_type":[0,0,0,0,0,0,0,0,0,0,0,0,0,0,0,0,0,0,0,0,0,0,0,0,0,0,0,0,0,0,0,0,0,0,0,0,0,0,0,0,0,0,0,0,0,0,0,0,0,0,0,0,0,0,0,0,0,0,0,0,0,0,0,0,0,0,0,0,0,0,0,0,0,0,0,0,0,0,0,0,0,0,0,0,0,0,0,0,0,0,0,0,0,0,0,0,0,0,0,0,0,0,0,0,0,0,0,0,0,0,0,0,0,0,0,0,0,0,0,0,0,0,0,0,0],"sum_hessian":[2.4649305E4,1.6616988E4,8.032317E3,8.961788E3,7.6552007E3,5.386788E3,2.6455288E3,3.4043381E3,5.5574497E3,2.227764E3,5.4274365E3,2.4957263E3,2.8910618E3,1.4991366E3,1.1463922E3,1.4350817E3,1.9692565E3,1.7886406E3,3.7688088E3,1.01309265E3,1.2146714E3,4.0359043E3,1.3915323E3,1.5376157E3,9.581106E2,7.0228766E2,2.1887742E3,1.0122543E3,4.8688235E2,9.420749E2,2.043173E2,1.2275594E3,2.0752223E2,8.0921075E2,1.1600457E3,9.2809076E2,8.605499E2,1.56014E3,2.2086687E3,5.0394186E2,5.091508E2,8.22439E2,3.922323E2,2.8176436E3,1.2182606E3,7.463266E2,6.4520575E2,4.254686E2,1.1121471E3,7.2753613E2,2.3057445E2,6.3916315E2,6.3124493E1,1.8649001E3,3.2387396E2,1.0266893E2,9.095853E2,3.0125238E2,1.8562999E2,1.6631067E2,7.757642E2,3.5382893E1,1.6893442E2,8.537723E2,3.7378723E2,4.0891705E1,1.6663052E2,2.3039822E2,5.7881256E2,6.877885E2,4.7225714E2,2.0629747E2,7.217933E2,6.637723E2,1.967776E2,1.1553688E3,4.047712E2,1.753139E3,4.5552982E2,3.3658536E2,1.6735652E2,3.4233408E2,1.668167E2,7.316756E2,9.0763405E1,1.4340895E2,2.4882335E2,7.1023596E2,2.1074077E3,7.6880725E2,4.4945343E2,4.3358585E2,3.1274075E2,5.5568384E2,8.952188E1,3.6634113E2,5.9127476E1,6.6864343E2,4.435037E2,2.5739948E2,4.7013666E2,5.523121E1,1.7534323E2,7.0522E1,5.686412E2,2.549134E1,3.7633152E1,8.335475E2,1.0313527E3,1.9810962E2,1.25764336E2,6.962416E1,3.304477E1,8.708925E2,3.869281E1,1.7284093E2,1.2841144E2,1.473401E2,3.8289883E1,1.3736838E2,2.8942291E1,4.786497E2,2.9711453E2,5.1428486E1,1.1750593E2],"tree_param":{"num_deleted":"0","num_feature":"10","num_nodes":"125","size_leaf_vector":"0"}},{"base_weights":[-4.8405947E-3,5.0616974E-1,-5.6517845E-1,1.9918568E-1,8.915488E-1,-2.760054E-1,-1.0893685E0,7.119108E-1,-6.632722E-2,5.6516665E-1,1.2115748E0,-7.2536874E-1,1.6511187E-1,-1.4123183E0,-7.083786E-1,3.632813E-1,8.88943E-1,-6.1653835E-1,2.2241108E-1,9.855016E-1,3.2908052E-2,1.04445E0,1.4939866E0,-5.0295967E-1,-1.0543345E0,-4.6662775E-1,5.7691264E-1,-1.7530438E0,-1.1749954E0,-1.4579643E0,-5.4061425E-1,1.030486E0,5.628776E-2,7.883235E-1,1.2921884E0,-9.71736E-1,-2.7540988E-1,5.6518424E-2,7.432139E-1,7.094018E-1,1.2626326E0,-2.5113472E-1,5.704748E-1,1.5045997E0,8.8940066E-1,1.5364854E0,7.121895E-1,-1.3223512E0,-2.766644E-1,-8.6429083E-1,-1.4586352E0,3.1452137E-1,-8.729893E-1,8.7242234E-1,-2.2207138E-1,-1.8770537E0,-1.5635234E0,-6.89582E-1,-1.2490609E0,-1.6003915E0,-4.7216472E-1,-3.10888E-1,-1.0374395E0,-2.924236E-2,1.3129275E0,-1.2915125E-1,5.512484E-1,1.1738949E0,6.665265E-1,5.801782E-1,1.4021885E0,-6.0151845E-1,-1.356463E0,-5.7136583E-1,3.491489E-1,-1.328803E-1,3.527671E-1,8.1887746E-1,-8.5608214E-2,1.3612632E0,5.823459E-1,1.1549537E0,1.5616113E0,-3.7473512E-1,6.728114E-1,3.9357746E-1,1.2747728E0,5.244989E-1,1.5608487E0,3.8943884E-1,1.0374777E0,1.3289238E0,1.6334125E0,1.5736867E0,-1.06779024E-1,-1.6404909E0,-7.420356E-1,-5.664906E-1,-1.6725788E-2,-9.162996E-1,9.1877675E-1,-1.533517E0,-4.5590732E-1,9.0062934E-1,-7.640352E-1,-1.0625702E0,-3.335266E-2,1.0747099E0,3.7387174E-1,4.9126747E-1,-7.213465E-1,-1.3942716E0,-1.9325219E0,-2.4173827E-1,-1.8007952E0,-1.3246702E0,-7.7939445E-1,-1.8503454E0,-5.784493E-1,-6.910661E-2,-1.0182339E0,-1.1549128E0,1.6480774E-1],"categories":[],"categories_nodes":[],"categories_segments":[],"categories_sizes":[],"default_left":[1,1,1,1,1,1,1,1,1,1,1,1,1,1,1,1,1,1,1,1,1,1,1,1,1,1,1,1,1,1,1,1,1,1,1,1,1,1,1,1,1,1,1,1,1,1,1,1,1,1,1,1,1,1,1,0,1,1,1,1,0,1,1,0,0,0,0,0,0,0,0,0,0,0,0,0,0,0,0,0,0,0,0,0,0,0,0,0,0,0,0,0,0,0,0,0,0,0,0,0,0,0,0,0,0,0,0,0,0,0,0,0,0,0,0,0,0,0,0,0,0,0,0],"id":6,"left_children":[1,3,5,7,9,11,13,15,17,19,21,23,25,27,29,31,33,35,37,39,41,43,45,47,49,51,53,55,57,59,61,63,65,67,69,71,73,75,77,79,81,83,85,87,89,91,93,95,97,99,101,103,105,107,109,-1,111,113,115,117,-1,119,121,-1,-1,-1,-1,-1,-1,-1,-1,-1,-1,-1,-1,-1,-1,-1,-1,-1,-1,-1,-1,-1,-1,-1,-1,-1,-1,-1,-1,-1,-1,-1,-1,-1,-1,-1,-1,-1,-1,-1,-1,-1,-1,-1,-1,-1,-1,-1,-1,-1,-1,-1,-1,-1,-1,-1,-1,-1,-1,-1,-1],"loss_changes":[7.0380044E3,1.5201233E3,1.7761675E3,9.7476227E2,5.9350146E2,1.4986417E3,5.103921E2,1.4977454E2,7.4968243E2,6.3152606E2,1.3236035E2,2.7257886E2,9.9291376E2,1.7794922E2,2.3888818E2,1.6865518E2,6.329895E1,1.9589899E2,2.6692688E2,1.1859973E2,1.9096638E2,1.26337036E2,3.283252E1,4.137768E2,1.1308545E2,4.786523E2,5.460914E2,1.5876465E1,4.587329E1,4.7034363E1,1.7793192E2,7.8325836E1,5.2379128E1,5.9127502E1,2.3050903E1,1.1115802E2,1.5402289E2,1.3194302E2,4.722751E1,6.3840546E1,2.1474121E1,9.3603516E1,5.2469955E1,2.2963623E1,9.949939E1,1.5837891E1,4.1881348E1,8.649017E1,1.3203644E2,9.682617E1,3.4158813E1,3.2732697E2,1.5730621E2,1.689917E2,2.231026E2,0E0,1.8028442E1,8.8400826E1,3.860266E1,7.505902E1,0E0,1.8328711E2,7.053076E1,0E0,0E0,0E0,0E0,0E0,0E0,0E0,0E0,0E0,0E0,0E0,0E0,0E0,0E0,0E0,0E0,0E0,0E0,0E0,0E0,0E0,0E0,0E0,0E0,0E0,0E0,0E0,0E0,0E0,0E0,0E0,0E0,0E0,0E0,0E0,0E0,0E0,0E0,0E0,0E0,0E0,0E0,0E0,0E0,0E0,0E0,0E0,0E0,0E0,0E0,0E0,0E0,0E0,0E0,0E0,0E0,0E0,0E0,0E0,0E0],"parents":[2147483647,0,0,1,1,2,2,3,3,4,4,5,5,6,6,7,7,8,8,9,9,10,10,11,11,12,12,13,13,14,14,15,15,16,16,17,17,18,18,19,19,20,20,21,21,22,22,23,23,24,24,25,25,26,26,27,27,28,28,29,29,30,30,31,31,32,32,33,33,34,34,35,35,36,36,37,37,38,38,39,39,40,40,41,41,42,42,43,43,44,44,45,45,46,46,47,47,48,48,49,49,50,50,51,51,52,52,53,53,54,54,56,56,57,57,58,58,59,59,61,61,62,62],"right_children":[2,4,6,8,10,12,14,16,18,20,22,24,26,28,30,32,34,36,38,40,42,44,46,48,50,52,54,56,58,60,62,64,66,68,70,72,74,76,78,80,82,84,86,88,90,92,94,96,98,100,102,104,106,108,110,-1,112,114,116,118,-1,120,122,-1,-1,-1,-1,-1,-1,-1,-1,-1,-1,-1,-1,-1,-1,-1,-1,-1,-1,-1,-1,-1,-1,-1,-1,-1,-1,-1,-1,-1,-1,-1,-1,-1,-1,-1,-1,-1,-1,-1,-1,-1,-1,-1,-1,-1,-1,-1,-1,-1,-1,-1,-1,-1,-1,-1,-1,-1,-1,-1,-1],"split_conditions":[1.20722626E2,8.497287E1,1.8644937E2,5.9324265E1,7.28011E0,8.925E1,9.305E1,6.385E1,3.5E0,7.689754E1,1.03350006E2,5E-1,9.8975E1,4.5E0,5E-1,3.4436287E1,9.5E0,7.1350006E1,7.39198E0,9.785E1,1.052E2,6.65612E1,7.4392858E0,2.5E0,1.5614316E2,7.81819E1,5E-1,8.195E1,6.6649994E1,1.349E2,2.74483E2,3.5E0,7.349167E0,8.091455E1,4.5E1,8.713387E1,7.2606387E0,9.868484E1,1.1689165E2,7.3513336E1,7.5E0,9.809763E1,9.578714E1,6.888124E0,5E-1,8.563252E1,8.1475876E1,5E-1,5.5E0,8.855E1,1.8344957E2,5E-1,1.176E2,1.6192128E2,1.421439E2,-1.8770536E-2,8.955E1,7.3754997E0,1.05E1,7.3990874E0,-4.721647E-3,5E-1,1.35E1,-2.924236E-4,1.3129274E-2,-1.2915125E-3,5.5124834E-3,1.17389485E-2,6.6652647E-3,5.801782E-3,1.4021885E-2,-6.0151843E-3,-1.35646295E-2,-5.7136584E-3,3.491489E-3,-1.328803E-3,3.527671E-3,8.188775E-3,-8.5608213E-4,1.3612632E-2,5.823459E-3,1.1549537E-2,1.5616112E-2,-3.747351E-3,6.7281136E-3,3.9357743E-3,1.2747727E-2,5.2449885E-3,1.5608487E-2,3.8943882E-3,1.0374777E-2,1.3289238E-2,1.6334124E-2,1.5736867E-2,-1.0677902E-3,-1.6404908E-2,-7.420356E-3,-5.664906E-3,-1.6725788E-4,-9.162996E-3,9.187767E-3,-1.533517E-2,-4.559073E-3,9.0062935E-3,-7.640352E-3,-1.0625702E-2,-3.3352658E-4,1.0747098E-2,3.7387174E-3,4.9126744E-3,-7.213465E-3,-1.3942716E-2,-1.932522E-2,-2.4173828E-3,-1.800795E-2,-1.3246702E-2,-7.7939443E-3,-1.8503454E-2,-5.784493E-3,-6.910661E-4,-1.0182339E-2,-1.1549128E-2,1.6480773E-3],"split_indices":[0,1,0,0,9,1,1,1,3,0,1,2,8,3,7,0,3,1,9,1,1,0,9,3,0,8,2,1,1,1,0,3,9,8,8,0,9,8,0,8,3,8,8,0,7,8,0,7,3,1,0,2,1,0,0,0,1,9,3,9,0,2,3,0,0,0,0,0,0,0,0,0,0,0,0,0,0,0,0,0,0,0,0,0,0,0,0,0,0,0,0,0,0,0,0,0,0,0,0,0,0,0,0,0,0,0,0,0,0,0,0,0,0,0,0,0,0,0,0,0,0,0,0],"split_type":[0,0,0,0,0,0,0,0,0,0,0,0,0,0,0,0,0,0,0,0,0,0,0,0,0,0,0,0,0,0,0,0,0,0,0,0,0,0,0,0,0,0,0,0,0,0,0,0,0,0,0,0,0,0,0,0,0,0,0,0,0,0,0,0,0,0,0,0,0,0,0,0,0,0,0,0,0,0,0,0,0,0,0,0,0,0,0,0,0,0,0,0,0,0,0,0,0,0,0,0,0,0,0,0,0,0,0,0,0,0,0,0,0,0,0,0,0,0,0,0,0,0,0],"sum_hessian":[2.457624E4,1.2853599E4,1.1722642E4,7.1563384E3,5.69726E3,7.5568867E3,4.1657554E3,2.4411948E3,4.7151436E3,2.8232925E3,2.8739675E3,3.7434243E3,3.8134624E3,2.251846E3,1.9139095E3,8.24448E2,1.616747E3,1.6226852E3,3.0924583E3,1.5763721E3,1.2469203E3,1.8108258E3,1.0631416E3,2.236421E3,1.5070034E3,1.5044022E3,2.30906E3,9.198904E2,1.3319554E3,3.4746875E2,1.5664408E3,2.5827902E2,5.6616895E2,1.2982311E3,3.1851584E2,7.930166E2,8.2966864E2,2.3472224E3,7.452359E2,7.9305304E2,7.8331903E2,8.158773E2,4.3104303E2,4.5244382E2,1.358382E3,1.0064698E3,5.667187E1,4.8202515E2,1.7543958E3,1.0290084E3,4.7799493E2,5.1457983E2,9.8982245E2,1.6858864E3,6.2317377E2,5.466987E2,3.7319165E2,1.790905E2,1.152865E3,3.024327E2,4.503603E1,1.0733704E3,4.930704E2,5.4336292E1,2.0394275E2,4.1208142E2,1.5408754E2,3.0774985E2,9.904812E2,4.4369343E1,2.7414648E2,4.066183E2,3.8639835E2,5.6344196E2,2.6622665E2,1.4315048E3,9.157176E2,6.833529E2,6.1882984E1,1.2647137E2,6.665817E2,5.822506E2,2.0106845E2,7.207799E2,9.5097374E1,3.4683517E2,8.4207855E1,2.57834E1,4.2666043E2,3.1225214E2,1.0461298E3,3.2872452E2,6.7774524E2,2.718318E1,2.9488691E1,3.0912662E2,1.7289853E2,8.279456E2,9.264501E2,1.0007713E3,2.8237144E1,4.4366962E2,3.432532E1,3.338032E2,1.8077663E2,8.0678455E2,1.8303793E2,1.1974739E3,4.884124E2,2.5626224E2,3.6691153E2,2.614993E2,1.1169235E2,1.292045E2,4.9886013E1,9.899201E2,1.6294484E2,2.4170697E2,6.0725742E1,8.0158777E2,2.7178262E2,4.4953717E2,4.3533222E1],"tree_param":{"num_deleted":"0","num_feature":"10","num_nodes":"123","size_leaf_vector":"0"}},{"base_weights":[4.7435393E-3,3.7900493E-1,-7.7554274E-1,6.500269E-2,7.375025E-1,-1.040964E0,-2.4186336E-1,6.305063E-1,-2.5058693E-1,3.4121314E-1,1.0039718E0,-1.1727198E0,-1.5893954E-1,2.2225004E-1,-6.232483E-1,9.1813433E-1,3.990702E-1,-7.7832085E-1,3.1230163E-3,9.4104105E-1,-1.7952971E-1,1.2118535E0,6.5112394E-1,-1.3543972E0,-8.026972E-1,-4.5131198E-1,3.4108925E-1,-5.7659566E-1,4.999735E-1,-8.0589706E-1,2.799366E-3,7.967701E-1,1.2728145E0,-1.1838291E-1,6.0309356E-1,-1.1713606E0,-4.1425037E-1,1.8329404E-1,-4.454403E-1,6.689703E-1,1.2268475E0,-3.2520854E-1,9.135754E-1,8.169742E-1,1.3178754E0,-6.0137186E-2,9.004941E-1,-1.4321703E0,-8.086561E-1,-3.0641046E-1,-1.2147684E0,-1.3404883E0,-1.3743603E-1,8.3343226E-1,-2.2386916E-1,-6.8446606E-1,5.969407E-1,3.2795647E-1,1.0497733E0,-5.6947917E-1,-1.3230554E0,2.0683597E-1,-9.590434E-1,-6.115822E-1,8.4912676E-1,2.2116944E-1,1.418626E0,-1.9880308E-1,1.2274462E0,2.4729076E-1,8.5062987E-1,-7.8332746E-1,-1.4628905E0,-8.012939E-1,2.6710713E-1,2.2907406E-2,6.779177E-1,-8.4845084E-1,-1.6785151E-1,1.3443072E0,5.5679035E-1,1.1029539E0,1.5260947E0,-5.473654E-1,2.2787099E-1,-2.999104E-1,1.1086091E0,5.915593E-1,1.273296E0,1.1649206E0,1.5584004E0,4.7704566E-1,-3.7518543E-1,7.1202356E-1,1.6199116E0,-1.4936349E0,-8.451645E-1,-9.246835E-1,7.99145E-1,-6.4584106E-1,1.1914259E-2,-1.3104167E0,-4.7568712E-1,-9.0007436E-1,-1.8866792E0,-6.085386E-1,4.753303E-1,-2.5967288E-1,1.0937036E0,-6.155671E-1,7.2656095E-1,-1.22112E0,-5.2192485E-1,4.308269E-2,8.2767785E-1,1.2567441E0,2.1357296E-1,-6.915457E-1,5.116053E-1,-1.5174164E0,-7.696512E-1,-5.655835E-1,3.9194974E-1,-4.8757702E-1,-1.4433975E0],"categories":[],"categories_nodes":[],"categories_segments":[],"categories_sizes":[],"default_left":[1,1,1,1,1,1,1,1,1,1,1,1,1,1,1,1,1,1,1,1,1,1,1,1,1,1,1,1,1,1,1,1,1,1,1,1,1,1,1,1,1,1,1,1,1,1,1,1,1,1,1,1,1,1,1,1,0,1,1,1,1,1,1,0,0,0,0,0,0,0,0,0,0,0,0,0,0,0,0,0,0,0,0,0,0,0,0,0,0,0,0,0,0,0,0,0,0,0,0,0,0,0,0,0,0,0,0,0,0,0,0,0,0,0,0,0,0,0,0,0,0,0,0,0,0],"id":7,"left_children":[1,3,5,7,9,11,13,15,17,19,21,23,25,27,29,31,33,35,37,39,41,43,45,47,49,51,53,55,57,59,61,63,65,67,69,71,73,75,77,79,81,83,85,87,89,91,93,95,97,99,101,103,105,107,109,111,-1,113,115,117,119,121,123,-1,-1,-1,-1,-1,-1,-1,-1,-1,-1,-1,-1,-1,-1,-1,-1,-1,-1,-1,-1,-1,-1,-1,-1,-1,-1,-1,-1,-1,-1,-1,-1,-1,-1,-1,-1,-1,-1,-1,-1,-1,-1,-1,-1,-1,-1,-1,-1,-1,-1,-1,-1,-1,-1,-1,-1,-1,-1,-1,-1,-1,-1],"loss_changes":[7.193316E3,1.8736501E3,1.1301299E3,1.5846335E3,8.1971387E2,6.187798E2,4.7023837E2,2.106366E2,7.6323083E2,9.7757263E2,3.3886475E2,3.092964E2,1.01887146E2,2.6619626E2,1.6704327E2,5.8609253E1,1.8671964E2,2.63432E2,3.1109015E2,1.11085815E2,2.6697662E2,1.198291E2,3.066281E2,1.2927393E2,3.1208044E2,1.21861626E2,7.19538E1,3.9812744E1,8.311871E1,1.3617615E2,6.481838E1,7.9031494E1,5.3721375E1,5.407473E1,1.10857056E2,9.789172E1,2.5462291E2,2.1767868E2,1.2275021E2,5.4860474E1,2.2623047E1,1.8211993E2,4.7463852E1,6.2212006E1,8.0789795E1,7.624144E1,1.7072449E2,9.5220215E1,7.4236115E1,7.560852E1,5.744348E1,2.3815079E1,9.4889984E1,3.9996994E1,4.5443996E1,2.3150208E1,0E0,9.650891E1,3.5509186E1,1.032852E2,3.5258972E1,3.94514E1,1.13544655E1,0E0,0E0,0E0,0E0,0E0,0E0,0E0,0E0,0E0,0E0,0E0,0E0,0E0,0E0,0E0,0E0,0E0,0E0,0E0,0E0,0E0,0E0,0E0,0E0,0E0,0E0,0E0,0E0,0E0,0E0,0E0,0E0,0E0,0E0,0E0,0E0,0E0,0E0,0E0,0E0,0E0,0E0,0E0,0E0,0E0,0E0,0E0,0E0,0E0,0E0,0E0,0E0,0E0,0E0,0E0,0E0,0E0,0E0,0E0,0E0,0E0,0E0],"parents":[2147483647,0,0,1,1,2,2,3,3,4,4,5,5,6,6,7,7,8,8,9,9,10,10,11,11,12,12,13,13,14,14,15,15,16,16,17,17,18,18,19,19,20,20,21,21,22,22,23,23,24,24,25,25,26,26,27,27,28,28,29,29,30,30,31,31,32,32,33,33,34,34,35,35,36,36,37,37,38,38,39,39,40,40,41,41,42,42,43,43,44,44,45,45,46,46,47,47,48,48,49,49,50,50,51,51,52,52,53,53,54,54,55,55,57,57,58,58,59,59,60,60,61,61,62,62],"right_children":[2,4,6,8,10,12,14,16,18,20,22,24,26,28,30,32,34,36,38,40,42,44,46,48,50,52,54,56,58,60,62,64,66,68,70,72,74,76,78,80,82,84,86,88,90,92,94,96,98,100,102,104,106,108,110,112,-1,114,116,118,120,122,124,-1,-1,-1,-1,-1,-1,-1,-1,-1,-1,-1,-1,-1,-1,-1,-1,-1,-1,-1,-1,-1,-1,-1,-1,-1,-1,-1,-1,-1,-1,-1,-1,-1,-1,-1,-1,-1,-1,-1,-1,-1,-1,-1,-1,-1,-1,-1,-1,-1,-1,-1,-1,-1,-1,-1,-1,-1,-1,-1,-1,-1,-1],"split_conditions":[1.465581E2,8.497287E1,9.975E1,6.836113E1,7.2467175E0,7.75E-2,1.848071E2,4.499881E1,3.5E0,7.747426E1,1.1755682E2,6.5E0,1.4642859E-1,7.3036666E0,4.9815826E-2,8.5E0,6.335E1,7.2149994E1,1.2104176E2,9.7649994E1,9.810762E1,5E-1,9.891765E1,7.421548E0,1.8807516E2,4.5E0,7.5E0,1.625E-1,1.232E2,2.740913E2,7.3994045E0,6.3046837E0,6.105E1,2.7083334E-1,3.5E0,9.3113556E1,7.2613916E0,7.39198E0,9.953712E1,7.348398E1,9.347522E1,1.065E2,7.0710177E0,7.394643E0,1.021E2,5.5E1,1.1555E2,9.635257E1,9.385E1,8.18E1,4.2798527E-2,3.5E0,8.6149994E1,1.6030238E2,1.35E1,1.5323395E2,5.969407E-3,1.6158003E-2,1.7418277E2,1.3995E2,8.5E0,4.5E0,1.1235E2,-6.115822E-3,8.491267E-3,2.2116944E-3,1.4186259E-2,-1.9880307E-3,1.2274462E-2,2.4729075E-3,8.506298E-3,-7.833274E-3,-1.4628905E-2,-8.012939E-3,2.6710713E-3,2.2907405E-4,6.779177E-3,-8.484508E-3,-1.678515E-3,1.3443071E-2,5.567903E-3,1.1029539E-2,1.5260946E-2,-5.4736543E-3,2.2787098E-3,-2.9991039E-3,1.10860905E-2,5.915593E-3,1.2732959E-2,1.1649205E-2,1.5584003E-2,4.7704563E-3,-3.7518542E-3,7.1202354E-3,1.6199116E-2,-1.4936349E-2,-8.451644E-3,-9.246835E-3,7.99145E-3,-6.4584105E-3,1.1914258E-4,-1.3104167E-2,-4.756871E-3,-9.000744E-3,-1.886679E-2,-6.085386E-3,4.753303E-3,-2.5967287E-3,1.0937036E-2,-6.1556706E-3,7.265609E-3,-1.22112E-2,-5.2192486E-3,4.308269E-4,8.276778E-3,1.2567441E-2,2.1357297E-3,-6.915457E-3,5.116053E-3,-1.51741635E-2,-7.6965117E-3,-5.655835E-3,3.919497E-3,-4.8757703E-3,-1.4433975E-2],"split_indices":[0,1,1,0,9,5,0,0,3,0,0,3,5,9,5,3,1,1,0,1,8,7,8,9,0,3,3,5,1,0,9,0,1,5,3,0,9,9,8,8,8,1,9,9,1,8,1,1,1,1,5,3,1,0,3,0,0,5,0,1,3,3,1,0,0,0,0,0,0,0,0,0,0,0,0,0,0,0,0,0,0,0,0,0,0,0,0,0,0,0,0,0,0,0,0,0,0,0,0,0,0,0,0,0,0,0,0,0,0,0,0,0,0,0,0,0,0,0,0,0,0,0,0,0,0],"split_type":[0,0,0,0,0,0,0,0,0,0,0,0,0,0,0,0,0,0,0,0,0,0,0,0,0,0,0,0,0,0,0,0,0,0,0,0,0,0,0,0,0,0,0,0,0,0,0,0,0,0,0,0,0,0,0,0,0,0,0,0,0,0,0,0,0,0,0,0,0,0,0,0,0,0,0,0,0,0,0,0,0,0,0,0,0,0,0,0,0,0,0,0,0,0,0,0,0,0,0,0,0,0,0,0,0,0,0,0,0,0,0,0,0,0,0,0,0,0,0,0,0,0,0,0,0],"sum_hessian":[2.462956E4,1.6646441E4,7.9831196E3,8.875458E3,7.770983E3,5.330073E3,2.6530461E3,3.1789258E3,5.696532E3,3.1263872E3,4.644596E3,4.6365264E3,6.93547E2,1.1965376E3,1.4565085E3,1.4146384E3,1.7642874E3,1.8489875E3,3.847545E3,1.4526644E3,1.6737227E3,2.919674E3,1.724922E3,3.1062957E3,1.5302307E3,4.3824585E2,2.5530116E2,3.0788385E2,8.8865375E2,1.1277087E3,3.287998E2,1.0584547E3,3.561838E2,4.9853925E2,1.2657482E3,8.869921E2,9.6199536E2,2.7462559E3,1.101289E3,7.4749963E2,7.051648E2,1.4781486E3,1.9557417E2,6.215478E2,2.2981262E3,4.4765134E2,1.2772708E3,2.7160623E3,3.902334E2,6.958069E2,8.3442377E2,1.127257E2,3.2552017E2,1.3641505E2,1.1888611E2,2.8285046E2,2.503338E1,6.792558E2,2.0939795E2,7.7660876E2,3.510999E2,2.725721E2,5.6227676E1,3.7090412E1,1.02136426E3,4.416539E1,3.120184E2,4.7191553E2,2.6623728E1,5.212008E2,7.4454736E2,3.834774E2,5.0351477E2,6.1370483E2,3.4829056E2,2.0756E3,6.7065576E2,4.473251E2,6.5396387E2,1.0362476E2,6.438749E2,5.046119E2,2.0055289E2,1.0550875E3,4.2306094E2,2.6684923E1,1.6888925E2,4.1892654E2,2.0262126E2,1.411165E3,8.869611E2,1.6473088E2,2.8292047E2,1.0149248E3,2.6234592E2,2.4559092E3,2.6015314E2,3.6479404E2,2.543936E1,3.3660126E2,3.5920566E2,7.373047E2,9.711908E1,6.500996E1,4.7715736E1,1.8440802E2,1.4111214E2,2.5939442E1,1.1047562E2,8.486167E1,3.4024437E1,6.2910892E1,2.1993958E2,4.341766E2,2.4507921E2,1.6686409E2,4.253385E1,6.986355E2,7.79733E1,2.5737247E2,9.372747E1,5.1680866E1,2.2089125E2,3.043668E1,2.5790995E1],"tree_param":{"num_deleted":"0","num_feature":"10","num_nodes":"125","size_leaf_vector":"0"}},{"base_weights":[9.220569E-3,3.6258084E-1,-7.4259126E-1,4.7389507E-2,7.162271E-1,-9.8803025E-1,-2.4430512E-1,7.1522063E-1,-2.1185626E-1,4.3644968E-1,1.0910833E0,-1.1183485E0,-1.03855714E-1,2.3933814E-1,-6.484549E-1,3.9758778E-1,8.816575E-1,-7.06775E-1,3.4412723E-2,8.1465656E-1,-2.16211E-1,1.2515099E0,5.62244E-1,-8.32548E-1,-1.3359735E0,3.651564E-1,-7.571052E-1,5.6996024E-1,-4.9953285E-1,-8.554422E-1,1.2436852E-2,1.0681852E0,1.2986979E-1,7.703452E-1,1.3941523E0,-1.1317651E0,-4.5614424E-1,2.1290857E-1,-4.3588102E-1,1.2947313E0,6.408215E-1,-4.5128128E-1,3.6993334E-1,1.1547886E0,1.522375E0,1.0280378E0,2.1529458E-1,-5.3689426E-1,-1.3718605E0,-1.5854821E0,-1.1485167E0,-1.4421153E0,5.0409085E-1,-1.0340623E0,2.0939354E-2,1.0720778E-1,7.558396E-1,-7.3577625E-1,1.1312414E0,-5.996394E-1,-1.4148427E0,4.00521E-1,-6.3607067E-1,-1.679972E-1,1.3604382E0,7.172272E-2,1.3964452E0,6.002175E-1,1.1374642E0,2.1838577E-1,1.513698E0,-1.2581843E0,1.6945841E-3,9.304282E-2,-6.7610294E-1,4.20722E-3,4.950098E-1,-5.661682E-1,6.7449605E-1,1.5743167E0,9.741373E-1,3.162876E-1,9.48234E-1,-6.565116E-1,3.8693655E-1,7.3995066E-1,-1.525166E-1,1.639032E0,1.0644724E0,6.399704E-1,1.5795122E0,5.819902E-1,1.598418E0,-5.3985532E-2,8.330494E-1,-8.7305117E-1,1.3014594E-1,-1.0333116E0,-1.5321577E0,-1.6539745E0,-8.729476E-1,-9.913908E-1,-1.47191E0,-1.332553E-1,7.668212E-1,-8.415194E-1,-1.8671124E0,6.690498E-1,-6.904144E-1,9.488836E-1,-5.834824E-1,5.514892E-1,1.2631061E0,-8.952788E-1,-2.1926716E-1,-8.229412E-1,1.3305588E-1,-5.22797E-1,-1.5040109E0,5.9343945E-2,7.434571E-1,-1.0606544E0,1.8108915E-1],"categories":[],"categories_nodes":[],"categories_segments":[],"categories_sizes":[],"default_left":[1,1,1,1,1,1,1,1,1,1,1,1,1,1,1,1,1,1,1,1,1,1,1,1,1,1,1,1,1,1,1,1,1,1,1,1,1,1,1,1,1,1,1,1,1,1,1,1,1,1,1,0,1,1,1,1,1,1,0,1,1,1,1,0,0,0,0,0,0,0,0,0,0,0,0,0,0,0,0,0,0,0,0,0,0,0,0,0,0,0,0,0,0,0,0,0,0,0,0,0,0,0,0,0,0,0,0,0,0,0,0,0,0,0,0,0,0,0,0,0,0,0,0],"id":8,"left_children":[1,3,5,7,9,11,13,15,17,19,21,23,25,27,29,31,33,35,37,39,41,43,45,47,49,51,53,55,57,59,61,63,65,67,69,71,73,75,77,79,81,83,85,87,89,91,93,95,97,99,101,-1,103,105,107,109,111,113,-1,115,117,119,121,-1,-1,-1,-1,-1,-1,-1,-1,-1,-1,-1,-1,-1,-1,-1,-1,-1,-1,-1,-1,-1,-1,-1,-1,-1,-1,-1,-1,-1,-1,-1,-1,-1,-1,-1,-1,-1,-1,-1,-1,-1,-1,-1,-1,-1,-1,-1,-1,-1,-1,-1,-1,-1,-1,-1,-1,-1,-1,-1,-1],"loss_changes":[6.556308E3,1.871075E3,9.641572E2,1.5377515E3,8.283777E2,6.083623E2,5.0988123E2,1.30271E2,7.8001086E2,1.1194949E3,2.8493555E2,2.8394922E2,2.0922208E2,2.9047714E2,1.9471564E2,1.5327159E2,9.0381226E1,2.2505798E2,3.5870792E2,2.375592E2,2.295528E2,6.417529E1,1.268212E2,3.1638135E2,1.1832666E2,1.0041456E2,6.1948364E1,7.017633E1,1.4265042E2,1.5281451E2,8.5827324E1,8.898743E1,4.455714E1,8.205347E1,3.928662E1,1.13292786E2,1.6226126E2,1.8223143E2,1.7056259E2,6.489905E1,2.0966962E2,2.0499953E2,9.254669E1,8.012549E1,3.1677856E1,8.329309E1,7.608154E1,2.9020193E2,3.4874146E1,5.126465E1,7.292468E1,0E0,6.236904E1,3.0391571E1,3.5735714E1,1.3917163E2,5.8876434E1,2.5793274E1,0E0,1.2247424E2,2.4900208E1,2.4644123E1,4.4855427E1,0E0,0E0,0E0,0E0,0E0,0E0,0E0,0E0,0E0,0E0,0E0,0E0,0E0,0E0,0E0,0E0,0E0,0E0,0E0,0E0,0E0,0E0,0E0,0E0,0E0,0E0,0E0,0E0,0E0,0E0,0E0,0E0,0E0,0E0,0E0,0E0,0E0,0E0,0E0,0E0,0E0,0E0,0E0,0E0,0E0,0E0,0E0,0E0,0E0,0E0,0E0,0E0,0E0,0E0,0E0,0E0,0E0,0E0,0E0,0E0],"parents":[2147483647,0,0,1,1,2,2,3,3,4,4,5,5,6,6,7,7,8,8,9,9,10,10,11,11,12,12,13,13,14,14,15,15,16,16,17,17,18,18,19,19,20,20,21,21,22,22,23,23,24,24,25,25,26,26,27,27,28,28,29,29,30,30,31,31,32,32,33,33,34,34,35,35,36,36,37,37,38,38,39,39,40,40,41,41,42,42,43,43,44,44,45,45,46,46,47,47,48,48,49,49,50,50,52,52,53,53,54,54,55,55,56,56,57,57,59,59,60,60,61,61,62,62],"right_children":[2,4,6,8,10,12,14,16,18,20,22,24,26,28,30,32,34,36,38,40,42,44,46,48,50,52,54,56,58,60,62,64,66,68,70,72,74,76,78,80,82,84,86,88,90,92,94,96,98,100,102,-1,104,106,108,110,112,114,-1,116,118,120,122,-1,-1,-1,-1,-1,-1,-1,-1,-1,-1,-1,-1,-1,-1,-1,-1,-1,-1,-1,-1,-1,-1,-1,-1,-1,-1,-1,-1,-1,-1,-1,-1,-1,-1,-1,-1,-1,-1,-1,-1,-1,-1,-1,-1,-1,-1,-1,-1,-1,-1,-1,-1,-1,-1,-1,-1,-1,-1,-1,-1],"split_conditions":[1.4801913E2,8.497287E1,9.975E1,5.9789772E1,9.7627335E1,8.730159E-2,1.8636536E2,6.385E1,3.5E0,1.013159E2,5E-1,1.8335252E2,5E-1,5E-1,4.9815826E-2,3.18905E1,9.972746E1,6.91E1,1.2072274E2,7.672385E1,4.823087E-2,1.1145E2,1.12690674E2,5E-1,4.5E0,2.5E0,1.8285716E-1,9.9731995E1,1.2916666E-1,2.7411847E2,5E-1,3.5E0,2.7083334E-1,7.083334E-1,4.5E0,7.083334E-2,8.053374E1,9.868484E1,1.3095239E-1,7.021396E1,9.7649994E1,1.131E2,5E-1,6.614493E1,4.135767E1,9.68E1,1.0355E2,6.5E0,1.5614502E2,9.635257E1,2.8871124E2,-1.4421153E-2,7.68E1,9.315E1,8.45E1,8.011484E1,3.334499E-2,7.5E0,1.1312414E-2,8.5E0,5.5E1,7.5E0,1.55E-1,-1.6799719E-3,1.3604382E-2,7.1722723E-4,1.3964451E-2,6.002175E-3,1.1374641E-2,2.1838576E-3,1.51369795E-2,-1.2581843E-2,1.6945842E-5,9.304282E-4,-6.7610294E-3,4.20722E-5,4.9500978E-3,-5.6616818E-3,6.7449603E-3,1.5743166E-2,9.741372E-3,3.162876E-3,9.48234E-3,-6.565116E-3,3.8693654E-3,7.3995064E-3,-1.525166E-3,1.639032E-2,1.0644725E-2,6.399704E-3,1.5795123E-2,5.819902E-3,1.598418E-2,-5.3985533E-4,8.330494E-3,-8.730511E-3,1.3014594E-3,-1.0333116E-2,-1.5321576E-2,-1.6539745E-2,-8.729476E-3,-9.913908E-3,-1.47191E-2,-1.332553E-3,7.668212E-3,-8.415194E-3,-1.8671123E-2,6.690498E-3,-6.9041443E-3,9.488836E-3,-5.834824E-3,5.514892E-3,1.2631061E-2,-8.952788E-3,-2.1926716E-3,-8.229411E-3,1.3305588E-3,-5.22797E-3,-1.5040109E-2,5.9343944E-4,7.4345707E-3,-1.0606544E-2,1.8108914E-3],"split_indices":[0,1,1,0,8,5,0,1,3,0,2,0,2,2,5,0,8,1,0,8,5,1,0,2,3,3,5,8,5,0,2,3,5,4,3,5,0,8,5,0,1,1,2,0,0,1,1,3,0,1,0,0,1,1,1,8,5,3,0,3,8,3,5,0,0,0,0,0,0,0,0,0,0,0,0,0,0,0,0,0,0,0,0,0,0,0,0,0,0,0,0,0,0,0,0,0,0,0,0,0,0,0,0,0,0,0,0,0,0,0,0,0,0,0,0,0,0,0,0,0,0,0,0],"split_type":[0,0,0,0,0,0,0,0,0,0,0,0,0,0,0,0,0,0,0,0,0,0,0,0,0,0,0,0,0,0,0,0,0,0,0,0,0,0,0,0,0,0,0,0,0,0,0,0,0,0,0,0,0,0,0,0,0,0,0,0,0,0,0,0,0,0,0,0,0,0,0,0,0,0,0,0,0,0,0,0,0,0,0,0,0,0,0,0,0,0,0,0,0,0,0,0,0,0,0,0,0,0,0,0,0,0,0,0,0,0,0,0,0,0,0,0,0,0,0,0,0,0,0],"sum_hessian":[2.4676832E4,1.6787719E4,7.8891133E3,8.877963E3,7.909755E3,5.2840776E3,2.605036E3,2.482308E3,6.3956553E3,4.5317524E3,3.3780027E3,4.604563E3,6.795148E2,1.1857177E3,1.4193182E3,8.560619E2,1.6262462E3,2.1246448E3,4.2710103E3,2.869286E3,1.6624666E3,2.5896194E3,7.883832E2,1.9944237E3,2.6101392E3,3.9556265E2,2.839521E2,8.197769E2,3.6594073E2,1.0809385E3,3.383798E2,2.4254366E2,6.135182E2,1.3397843E3,2.8646185E2,7.8561755E2,1.3390273E3,3.0971758E3,1.1738344E3,7.5958655E2,2.1096992E3,1.1873237E3,4.7514276E2,1.9151306E3,6.744889E2,3.3480127E2,4.535819E2,1.2906293E3,7.0379443E2,1.1140278E3,1.4961113E3,2.702822E1,3.6853445E2,2.0942465E2,7.452744E1,2.3621913E2,5.8355774E2,3.2056964E2,4.5371063E1,7.443739E2,3.365645E2,2.1244026E2,1.25939514E2,4.6237144E1,1.963065E2,5.884059E2,2.5112309E1,9.189657E2,4.2081866E2,2.7138006E1,2.5932385E2,7.069559E2,7.86617E1,3.8265967E2,9.563677E2,1.7818704E3,1.3153054E3,1.0515457E3,1.2228871E2,4.0194354E2,3.57643E2,1.0283839E3,1.0813154E3,9.544398E2,2.3288391E2,2.78231E2,1.9691177E2,2.9630386E2,1.6188267E3,4.2557053E1,6.319319E2,1.8997176E2,1.4482951E2,3.1638895E2,1.3719295E2,8.5824866E2,4.3238058E2,2.3054541E2,4.7324902E2,1.0140125E3,1.00015274E2,1.01183215E3,4.842792E2,1.0734577E2,2.6118866E2,1.7294687E2,3.6477783E1,3.933817E1,3.518927E1,1.064804E2,1.2973872E2,4.187751E2,1.6478268E2,2.4350021E2,7.706944E1,5.707799E2,1.7359402E2,3.1928593E1,3.0463593E2,1.0795999E2,1.0448027E2,8.290558E1,4.3033936E1],"tree_param":{"num_deleted":"0","num_feature":"10","num_nodes":"123","size_leaf_vector":"0"}},{"base_weights":[8.645994E-3,3.7704036E-1,-7.502444E-1,6.455949E-2,7.3236394E-1,-1.023559E0,-1.9911456E-1,6.1067533E-1,-2.5676298E-1,3.4734973E-1,9.900357E-1,-1.090501E0,3.326087E-1,2.4442852E-1,-6.0896957E-1,9.2592376E-1,3.6515626E-1,-7.5237274E-1,-1.4912938E-2,9.561384E-1,-2.0228286E-1,1.1587319E0,5.0346816E-1,-1.2964325E0,-7.006531E-1,8.4805137E-1,-5.721921E-1,6.0054266E-1,-5.258943E-1,-8.438078E-1,-1.6504042E-1,7.996113E-1,1.3102449E0,-1.7337012E-1,5.7532245E-1,-1.1387024E0,-3.9578322E-1,1.6376169E-1,-5.0235915E-1,6.787474E-1,1.2143693E0,-4.757094E-1,3.405073E-1,1.0287706E0,1.4318112E0,1.0461073E0,-5.6179862E-2,-1.0321388E0,-1.4911298E0,-2.6061675E-1,-1.0377134E0,1.2199966E0,1.0014113E-1,-9.715543E-2,-9.9722064E-1,-4.473112E-1,7.645556E-1,-7.5475514E-1,1.0792285E0,-1.0213313E0,-1.1019774E-3,6.294057E-2,-8.841952E-1,-2.7344546E-1,8.6132944E-1,5.544054E-1,1.4284425E0,-2.8448418E-1,1.3698055E0,4.1350216E-1,9.3702686E-1,-7.793126E-1,-1.4480814E0,-7.1976113E-1,2.1413352E-1,3.184045E-2,7.9034054E-1,-6.380879E-1,4.2812538E-1,-2.4261487E-1,7.644585E-1,1.0834388E0,1.5321522E0,-7.0366204E-1,1.7519072E-1,1.3142511E0,2.0111771E-1,1.466616E0,9.1380936E-1,1.2925723E0,1.5297263E0,6.894595E-1,1.3115995E0,-2.5066766E-1,1.0111403E0,-8.313258E-1,-1.3508577E0,-1.5780658E0,-8.8458097E-1,2.4663122E-1,-1.217296E0,-1.2611455E0,-2.1588442E-1,1.555892E0,7.543434E-1,6.190582E-1,-3.879699E-1,-2.314176E-1,-1.087033E0,5.9399444E-1,1.1463786E0,-1.0938516E0,-2.4619024E-1,-1.7803818E0,-7.4836093E-1,9.962721E-1,-2.7443764E-1,4.3681937E-1,-7.455916E-1,-1.6483928E-1,-1.2158635E0],"categories":[],"categories_nodes":[],"categories_segments":[],"categories_sizes":[],"default_left":[1,1,1,1,1,1,1,1,1,1,1,1,1,1,1,1,1,1,1,1,1,1,1,1,1,1,1,1,1,1,1,1,1,1,1,1,1,1,1,1,1,1,1,1,1,1,1,1,1,1,1,1,1,0,0,1,1,1,0,1,1,1,1,0,0,0,0,0,0,0,0,0,0,0,0,0,0,0,0,0,0,0,0,0,0,0,0,0,0,0,0,0,0,0,0,0,0,0,0,0,0,0,0,0,0,0,0,0,0,0,0,0,0,0,0,0,0,0,0,0,0],"id":9,"left_children":[1,3,5,7,9,11,13,15,17,19,21,23,25,27,29,31,33,35,37,39,41,43,45,47,49,51,53,55,57,59,61,63,65,67,69,71,73,75,77,79,81,83,85,87,89,91,93,95,97,99,101,103,105,-1,-1,107,109,111,-1,113,115,117,119,-1,-1,-1,-1,-1,-1,-1,-1,-1,-1,-1,-1,-1,-1,-1,-1,-1,-1,-1,-1,-1,-1,-1,-1,-1,-1,-1,-1,-1,-1,-1,-1,-1,-1,-1,-1,-1,-1,-1,-1,-1,-1,-1,-1,-1,-1,-1,-1,-1,-1,-1,-1,-1,-1,-1,-1,-1,-1],"loss_changes":[6.89731E3,1.8437708E3,1.2136411E3,1.5515565E3,7.6990186E2,4.9005566E2,4.8667163E2,2.5248755E2,6.66813E2,1.0441084E3,3.8047168E2,4.1015234E2,1.19458885E2,3.5310532E2,1.4442761E2,6.711731E1,2.0907187E2,2.5008789E2,3.26216E2,1.04040405E2,2.4366849E2,1.1939111E2,3.6534262E2,1.6948535E2,2.6295447E2,4.4611176E1,1.8178497E1,1.5188745E2,1.505295E2,1.3556903E2,7.9731964E1,7.229047E1,2.9392761E1,8.903828E1,7.658551E1,9.465076E1,1.884948E2,2.2605573E2,1.27399475E2,5.717325E1,2.825061E1,1.6236334E2,7.360974E1,1.1515552E2,1.102417E1,5.5642334E1,1.2306886E2,8.898218E1,9.86626E1,3.7654044E2,1.8380469E2,1.4257751E1,1.466334E1,0E0,0E0,1.563031E1,4.789612E1,6.0648987E1,0E0,1.524715E2,4.3755253E1,1.1170589E2,2.7055687E1,0E0,0E0,0E0,0E0,0E0,0E0,0E0,0E0,0E0,0E0,0E0,0E0,0E0,0E0,0E0,0E0,0E0,0E0,0E0,0E0,0E0,0E0,0E0,0E0,0E0,0E0,0E0,0E0,0E0,0E0,0E0,0E0,0E0,0E0,0E0,0E0,0E0,0E0,0E0,0E0,0E0,0E0,0E0,0E0,0E0,0E0,0E0,0E0,0E0,0E0,0E0,0E0,0E0,0E0,0E0,0E0,0E0,0E0],"parents":[2147483647,0,0,1,1,2,2,3,3,4,4,5,5,6,6,7,7,8,8,9,9,10,10,11,11,12,12,13,13,14,14,15,15,16,16,17,17,18,18,19,19,20,20,21,21,22,22,23,23,24,24,25,25,26,26,27,27,28,28,29,29,30,30,31,31,32,32,33,33,34,34,35,35,36,36,37,37,38,38,39,39,40,40,41,41,42,42,43,43,44,44,45,45,46,46,47,47,48,48,49,49,50,50,51,51,52,52,55,55,56,56,57,57,59,59,60,60,61,61,62,62],"right_children":[2,4,6,8,10,12,14,16,18,20,22,24,26,28,30,32,34,36,38,40,42,44,46,48,50,52,54,56,58,60,62,64,66,68,70,72,74,76,78,80,82,84,86,88,90,92,94,96,98,100,102,104,106,-1,-1,108,110,112,-1,114,116,118,120,-1,-1,-1,-1,-1,-1,-1,-1,-1,-1,-1,-1,-1,-1,-1,-1,-1,-1,-1,-1,-1,-1,-1,-1,-1,-1,-1,-1,-1,-1,-1,-1,-1,-1,-1,-1,-1,-1,-1,-1,-1,-1,-1,-1,-1,-1,-1,-1,-1,-1,-1,-1,-1,-1,-1,-1,-1,-1],"split_conditions":[1.465586E2,8.497287E1,9.975E1,6.9700005E1,7.2467175E0,1.4642859E-1,1.8791982E2,4.499839E1,3.5E0,7.747771E1,5E-1,6.5E0,5E-1,5E-1,7.5E0,8.5E0,6.335E1,7.2149994E1,1.2249318E2,9.735E1,2.1654087E-1,1.08350006E2,1.1229494E2,1.7945053E2,1.8173532E2,8.5E0,8.45E1,7.1819687E0,1.2916666E-1,2.158039E-1,5E-1,8.361516E0,6.105E1,2.7083334E-1,5.930114E-1,9.582911E1,7.2613916E0,7.4057274E0,2.8611112E0,6.6725E0,1.147E2,1.065E2,4.3814114E-1,6.723476E1,1.1545E2,2.867126E-2,1.1405E2,5E-1,9.4350006E1,5E-1,4.2798527E-2,1.8333334E-1,1.9091946E2,-9.7155425E-4,-9.972206E-3,1.7145975E2,1.6158003E-2,7.365131E0,1.0792285E-2,7.310769E0,1.0495E2,2.8317676E2,1.087E2,-2.7344546E-3,8.613294E-3,5.544054E-3,1.42844245E-2,-2.8448417E-3,1.36980545E-2,4.1350215E-3,9.370268E-3,-7.793126E-3,-1.4480813E-2,-7.197611E-3,2.141335E-3,3.184045E-4,7.903405E-3,-6.3808793E-3,4.2812536E-3,-2.4261486E-3,7.6445844E-3,1.08343875E-2,1.5321521E-2,-7.0366203E-3,1.7519072E-3,1.314251E-2,2.0111771E-3,1.466616E-2,9.138093E-3,1.2925723E-2,1.5297262E-2,6.894595E-3,1.3115995E-2,-2.5066766E-3,1.0111404E-2,-8.313258E-3,-1.3508577E-2,-1.5780658E-2,-8.84581E-3,2.4663121E-3,-1.217296E-2,-1.2611454E-2,-2.1588441E-3,1.555892E-2,7.543434E-3,6.1905817E-3,-3.879699E-3,-2.314176E-3,-1.087033E-2,5.939944E-3,1.14637865E-2,-1.0938515E-2,-2.4619023E-3,-1.7803818E-2,-7.483609E-3,9.962721E-3,-2.7443762E-3,4.3681934E-3,-7.4559157E-3,-1.6483928E-3,-1.2158634E-2],"split_indices":[0,1,1,0,9,5,0,0,3,0,2,3,2,2,3,3,1,1,0,1,4,1,0,0,0,3,1,9,5,4,2,0,1,5,4,0,9,9,4,9,1,1,4,0,1,5,1,2,1,2,5,5,0,0,0,0,5,9,0,9,1,0,1,0,0,0,0,0,0,0,0,0,0,0,0,0,0,0,0,0,0,0,0,0,0,0,0,0,0,0,0,0,0,0,0,0,0,0,0,0,0,0,0,0,0,0,0,0,0,0,0,0,0,0,0,0,0,0,0,0,0],"split_type":[0,0,0,0,0,0,0,0,0,0,0,0,0,0,0,0,0,0,0,0,0,0,0,0,0,0,0,0,0,0,0,0,0,0,0,0,0,0,0,0,0,0,0,0,0,0,0,0,0,0,0,0,0,0,0,0,0,0,0,0,0,0,0,0,0,0,0,0,0,0,0,0,0,0,0,0,0,0,0,0,0,0,0,0,0,0,0,0,0,0,0,0,0,0,0,0,0,0,0,0,0,0,0,0,0,0,0,0,0,0,0,0,0,0,0,0,0,0,0,0,0],"sum_hessian":[2.4668574E4,1.6607797E4,8.0607773E3,8.838174E3,7.769623E3,5.387174E3,2.6736033E3,3.273858E3,5.564316E3,3.1171055E3,4.6525176E3,5.1343267E3,2.5284726E2,1.2838531E3,1.3897501E3,1.4308497E3,1.843008E3,1.8232373E3,3.7410789E3,1.4787825E3,1.638323E3,3.452588E3,1.1999296E3,3.3566897E3,1.777637E3,1.614241E2,9.1423164E1,8.785543E2,4.0529883E2,9.0745483E2,4.8229526E2,1.08117E3,3.4967975E2,5.168919E2,1.3261161E3,8.7300775E2,9.5022955E2,2.737732E3,1.003347E3,7.163128E2,7.624696E2,1.0901104E3,5.482127E2,2.3451304E3,1.1074575E3,6.0892346E2,5.9100604E2,1.42874E3,1.9279498E3,7.7270624E2,1.0049307E3,1.0681969E2,5.460442E1,4.448648E1,4.693668E1,1.1822203E2,7.603323E2,3.5563565E2,4.9663197E1,7.488998E2,1.5855504E2,3.6682098E2,1.1547429E2,5.8170303E1,1.02299976E3,4.8899723E1,3.0078003E2,4.8355682E2,3.3335106E1,9.1920184E2,4.0691425E2,4.06902E2,4.6610577E2,6.2083673E2,3.2939282E2,2.2634045E3,4.7432736E2,8.764076E2,1.26939384E2,6.0333797E1,6.55979E2,5.4556335E2,2.1690625E2,8.0772784E2,2.823825E2,6.670617E1,4.8150656E2,4.8330017E2,1.8618302E3,4.677235E2,6.39734E2,2.6279758E2,3.4612592E2,5.0119962E2,8.980645E1,8.8058417E2,5.481558E2,1.6835819E3,2.4436792E2,5.054193E2,2.6728693E2,7.891064E2,2.158243E2,5.9516754E1,4.7302933E1,2.6669165E1,2.7935253E1,9.0386314E1,2.7835716E1,5.289364E2,2.3139587E2,2.1186041E2,1.4377522E2,1.9550607E2,5.5339374E2,3.2937767E1,1.2561726E2,2.5164189E2,1.15179085E2,3.752903E1,7.794526E1],"tree_param":{"num_deleted":"0","num_feature":"10","num_nodes":"121","size_leaf_vector":"0"}},{"base_weights":[-6.7219697E-3,3.5672265E-1,-7.5271803E-1,8.053885E-1,1.4921768E-1,-9.3322766E-1,-1.8670587E-1,6.2534976E-1,9.6482736E-1,-2.0638894E-1,6.577664E-1,-6.085997E-1,-1.2137395E0,2.0434725E-1,-8.260448E-1,8.2130986E-1,3.1945056E-1,-2.6925555E-1,9.95904E-1,-5.6466466E-1,1.0482386E-1,9.0007555E-1,1.4989173E-1,-3.1979638E-1,-1.1607875E0,-1.6599135E0,-1.0833644E0,-4.7479597E-1,3.948806E-1,-1.2439656E0,-3.483816E-2,-2.0013162E-1,8.584427E-1,5.372711E-1,8.695675E-2,4.5615545E-1,-8.206481E-1,1.0329119E0,3.7283367E-1,-2.4328311E-1,-9.017671E-1,3.3605662E-1,-3.9475012E-1,-4.762356E-1,9.202056E-1,-4.238209E-2,8.3275753E-1,-1.0976245E0,-4.3597575E-2,-1.2706972E0,-4.269561E-1,-1.039553E0,-1.6930437E0,-8.255417E-1,-1.3174583E0,-7.103805E-1,9.1017056E-1,6.0709797E-2,7.237559E-1,-7.425258E-1,-1.3563699E0,-9.8084104E-1,1.21785074E-1,6.810953E-1,-1.0955615E0,7.610922E-1,1.1557019E0,1.0279095E0,3.1296098E-1,-3.7709007E-1,1.849436E-1,9.0757966E-1,1.2325927E0,1.1955005E0,-2.7518133E-2,3.0137546E-2,-4.7626117E-1,-5.0497276E-1,-1.2023499E0,5.752027E-1,6.931496E-2,-5.7046103E-1,2.6345694E-1,1.0644133E0,7.274819E-1,2.640294E-1,-3.2678473E-1,9.2467576E-1,-1.6734739E-1,-1.3782477E0,-6.9789314E-1,2.0952316E-1,-2.5407782E-1,-1.3384366E0,-6.5200573E-1,7.945355E-1,-8.8818336E-1,-1.7266371E0,-1.4372771E0,-6.377238E-1,-1.3506174E0,-1.0612569E0,-1.4343159E0,-1.0503314E0,9.903664E-2,-8.239733E-1,3.280782E-1,8.158162E-1,-5.518975E-1,-1.3422471E0,-1.8928726E-1,-1.1782513E0,-1.7897601E0,4.1975144E-1,-1.0277075E-1],"categories":[],"categories_nodes":[],"categories_segments":[],"categories_sizes":[],"default_left":[1,1,1,1,1,1,1,1,1,1,1,1,1,1,1,1,1,1,1,1,1,1,1,1,1,1,1,1,1,1,1,1,1,1,1,0,0,1,1,1,1,1,1,0,1,1,1,1,1,1,1,0,1,1,1,1,0,1,1,1,1,0,1,0,0,0,0,0,0,0,0,0,0,0,0,0,0,0,0,0,0,0,0,0,0,0,0,0,0,0,0,0,0,0,0,0,0,0,0,0,0,0,0,0,0,0,0,0,0,0,0,0,0,0,0],"id":10,"left_children":[1,3,5,7,9,11,13,15,17,19,21,23,25,27,29,31,33,35,37,39,41,43,45,47,49,51,53,55,57,59,61,63,65,67,69,-1,-1,71,73,75,77,79,81,-1,83,85,87,89,91,93,95,-1,97,99,101,103,-1,105,107,109,111,-1,113,-1,-1,-1,-1,-1,-1,-1,-1,-1,-1,-1,-1,-1,-1,-1,-1,-1,-1,-1,-1,-1,-1,-1,-1,-1,-1,-1,-1,-1,-1,-1,-1,-1,-1,-1,-1,-1,-1,-1,-1,-1,-1,-1,-1,-1,-1,-1,-1,-1,-1,-1,-1],"loss_changes":[6.614914E3,1.5267017E3,8.159087E2,1.4734473E2,2.0293083E3,5.4991943E2,4.842939E2,1.4550012E2,1.0603589E2,7.3652E2,5.676349E2,4.473507E2,1.8515625E2,1.5571951E2,2.4248386E2,5.6898254E1,4.812213E1,2.8040508E1,6.0656006E1,3.3184473E2,4.0845193E2,8.7421875E1,1.9650409E2,3.9672955E2,7.631897E1,1.1291382E1,1.495293E2,8.684644E1,1.02875015E2,2.473999E1,3.8444912E1,4.3088943E1,3.9437744E1,5.3203674E1,2.1188444E1,0E0,0E0,6.0739014E1,5.0976486E1,1.0049481E2,1.7699316E2,1.5388806E2,1.2969891E2,0E0,8.375098E1,1.0181629E2,3.075476E1,5.2030823E1,7.29017E1,3.3008545E1,7.3437836E1,0E0,9.486084E-1,1.1659564E2,3.614209E1,6.278866E1,0E0,1.10966E2,5.6302322E1,2.9523136E1,2.5767334E1,0E0,1.4949142E1,0E0,0E0,0E0,0E0,0E0,0E0,0E0,0E0,0E0,0E0,0E0,0E0,0E0,0E0,0E0,0E0,0E0,0E0,0E0,0E0,0E0,0E0,0E0,0E0,0E0,0E0,0E0,0E0,0E0,0E0,0E0,0E0,0E0,0E0,0E0,0E0,0E0,0E0,0E0,0E0,0E0,0E0,0E0,0E0,0E0,0E0,0E0,0E0,0E0,0E0,0E0,0E0],"parents":[2147483647,0,0,1,1,2,2,3,3,4,4,5,5,6,6,7,7,8,8,9,9,10,10,11,11,12,12,13,13,14,14,15,15,16,16,17,17,18,18,19,19,20,20,21,21,22,22,23,23,24,24,25,25,26,26,27,27,28,28,29,29,30,30,31,31,32,32,33,33,34,34,37,37,38,38,39,39,40,40,41,41,42,42,44,44,45,45,46,46,47,47,48,48,49,49,50,50,52,52,53,53,54,54,55,55,57,57,58,58,59,59,60,60,62,62],"right_children":[2,4,6,8,10,12,14,16,18,20,22,24,26,28,30,32,34,36,38,40,42,44,46,48,50,52,54,56,58,60,62,64,66,68,70,-1,-1,72,74,76,78,80,82,-1,84,86,88,90,92,94,96,-1,98,100,102,104,-1,106,108,110,112,-1,114,-1,-1,-1,-1,-1,-1,-1,-1,-1,-1,-1,-1,-1,-1,-1,-1,-1,-1,-1,-1,-1,-1,-1,-1,-1,-1,-1,-1,-1,-1,-1,-1,-1,-1,-1,-1,-1,-1,-1,-1,-1,-1,-1,-1,-1,-1,-1,-1,-1,-1,-1,-1],"split_conditions":[1.465581E2,6.914594E1,4.9671568E-2,7.302313E0,9.8960236E1,1.8807779E2,5E-1,5.401482E1,3.75E1,7.187523E0,5E-1,5E-1,5E-1,5E-1,1.225E-1,1.028601E1,8.897421E1,5.06938E1,7.505E0,1.0264978E2,1.1757475E2,7.2967324E0,1.4642859E-1,7.2193146E0,7.495E0,5.5E1,2.4355971E2,2.2666666E-1,8.452381E-2,1.5535922E2,1.549436E2,7.1071677E0,4.85663E-2,7.1001644E0,6.959985E0,4.561554E-3,-8.20648E-3,9.291942E1,8.150018E1,7.046337E0,8.4904236E1,8.00197E1,6.904762E-2,-4.7623557E-3,1.1912492E2,1.1783734E2,7.4335003E0,5E-1,1.6188237E2,3.123942E-2,1.5453357E2,-1.0395531E-2,2.3121309E-2,5E-1,7.3802643E0,7.3829165E0,9.101706E-3,7.334365E0,7.525E0,7.3708334E0,7.4002943E0,-9.80841E-3,7.435E0,6.810953E-3,-1.0955615E-2,7.6109217E-3,1.1557018E-2,1.0279095E-2,3.1296099E-3,-3.7709007E-3,1.849436E-3,9.075796E-3,1.2325927E-2,1.1955005E-2,-2.7518132E-4,3.0137546E-4,-4.7626114E-3,-5.0497274E-3,-1.2023498E-2,5.752027E-3,6.931496E-4,-5.70461E-3,2.6345693E-3,1.0644133E-2,7.274819E-3,2.6402941E-3,-3.2678472E-3,9.246757E-3,-1.6734739E-3,-1.3782477E-2,-6.9789314E-3,2.0952316E-3,-2.5407781E-3,-1.33843655E-2,-6.520057E-3,7.945355E-3,-8.881833E-3,-1.726637E-2,-1.4372771E-2,-6.377238E-3,-1.3506174E-2,-1.0612569E-2,-1.4343159E-2,-1.05033135E-2,9.903664E-4,-8.239733E-3,3.2807821E-3,8.158162E-3,-5.518975E-3,-1.3422471E-2,-1.8928725E-3,-1.1782512E-2,-1.78976E-2,4.197514E-3,-1.0277075E-3],"split_indices":[0,0,5,6,8,0,2,0,8,9,2,2,7,7,5,0,8,0,6,0,0,6,5,9,6,8,0,5,5,0,0,9,5,6,9,0,0,8,8,9,8,8,5,0,0,0,9,7,0,5,0,0,5,2,6,9,0,9,6,9,9,0,6,0,0,0,0,0,0,0,0,0,0,0,0,0,0,0,0,0,0,0,0,0,0,0,0,0,0,0,0,0,0,0,0,0,0,0,0,0,0,0,0,0,0,0,0,0,0,0,0,0,0,0,0],"split_type":[0,0,0,0,0,0,0,0,0,0,0,0,0,0,0,0,0,0,0,0,0,0,0,0,0,0,0,0,0,0,0,0,0,0,0,0,0,0,0,0,0,0,0,0,0,0,0,0,0,0,0,0,0,0,0,0,0,0,0,0,0,0,0,0,0,0,0,0,0,0,0,0,0,0,0,0,0,0,0,0,0,0,0,0,0,0,0,0,0,0,0,0,0,0,0,0,0,0,0,0,0,0,0,0,0,0,0,0,0,0,0,0,0,0,0],"sum_hessian":[2.439416E4,1.6402979E4,7.991182E3,5.1852393E3,1.1217739E4,6.057634E3,1.9335482E3,2.4399424E3,2.745297E3,6.6016143E3,4.616125E3,2.8108745E3,3.2467595E3,1.1999755E3,7.335728E2,1.4848849E3,9.5505743E2,6.683534E1,2.6784617E3,3.0688003E3,3.5328137E3,3.1238005E3,1.4923245E3,1.8476278E3,9.632468E2,7.295173E2,2.5172422E3,2.6194672E2,9.380287E2,4.7912943E2,2.5444339E2,5.147821E1,1.4334066E3,4.9118533E2,4.6387207E2,2.8661707E1,3.817364E1,2.526754E3,1.5170784E2,1.5729623E3,1.4958379E3,2.4158877E3,1.116926E3,4.4253956E1,3.0795466E3,1.1650919E3,3.272326E2,4.826067E2,1.3650211E3,8.363412E2,1.26905624E2,4.0058807E1,6.8945844E2,1.2019531E3,1.3152891E3,2.2473796E2,3.720877E1,4.667531E2,4.7127554E2,9.04767E1,3.886527E2,3.538409E1,2.1905931E2,2.5900686E1,2.5577524E1,1.0848208E3,3.4858588E2,1.5186047E2,3.3932486E2,7.9416435E1,3.8445566E2,1.5587222E3,9.680318E2,4.9012974E1,1.0269486E2,7.2348126E2,8.494811E2,6.4704095E2,8.4879694E2,1.2721306E3,1.1437572E3,8.8222125E2,2.3470473E2,1.756423E3,1.3231237E3,5.602198E2,6.0487213E2,3.0015854E2,2.707405E1,2.8080252E2,2.0180417E2,6.188758E2,7.461453E2,7.516526E2,8.4688576E1,3.4249554E1,9.265607E1,6.004082E2,8.905024E1,8.88296E2,3.1365704E2,4.1781226E2,8.974768E2,1.5830037E2,6.643759E1,1.07252266E2,3.5950085E2,4.4035092E2,3.0924623E1,4.204109E1,4.8435616E1,2.800544E2,1.0859831E2,9.434671E1,1.2471259E2],"tree_param":{"num_deleted":"0","num_feature":"10","num_nodes":"115","size_leaf_vector":"0"}},{"base_weights":[-2.0699392E-3,-3.1282517E-1,2.125025E-1,-4.5439658E-1,5.2197057E-1,4.0240413E-1,-2.4472888E-1,-6.4369464E-1,-2.917078E-3,7.185549E-1,-1.9509472E-1,2.1479173E-1,9.050945E-1,-5.2642405E-1,6.7573495E-2,-7.906639E-1,-5.139992E-1,-7.652918E-1,1.5103456E-1,3.973215E-1,8.380522E-1,-1.0481367E0,7.1611456E-3,-5.131838E-2,4.5160177E-1,5.976369E-1,1.1075488E0,1.383099E0,-5.521841E-1,-2.8777218E-1,1.9525942E-1,-8.58144E-1,-1.7714432E-1,-3.9631486E-1,-8.415959E-1,-9.23477E-1,8.944694E-1,3.455871E-1,-2.2371851E-1,5.930479E-1,-5.2523166E-1,7.5572133E-1,1.1912185E0,3.5543722E-1,-6.878578E-1,-1.6927701E-1,3.4516928E-1,3.851326E-1,9.0153724E-1,1.31231E0,5.373177E-1,1.1966515E0,8.360816E-1,-8.6507934E-1,-3.5878307E-1,-8.169112E-1,3.7858494E-2,1.2822416E-1,7.181048E-1,-1.0022093E0,-6.577341E-1,-1.8121501E0,2.4747465E-2,2.9544923E-1,-4.9378544E-1,-5.301966E-1,-1.0532862E0,-1.0663755E0,7.66477E-1,4.7191326E-2,7.0165867E-1,-1.18361175E-1,-9.730408E-1,1.4178415E-1,8.291326E-1,-1.2838492E0,3.2593572E-1,3.754173E-1,8.8882667E-1,9.539161E-1,1.4004678E0,-2.4260591E-1,9.5442814E-1,-1.3880727E0,1.3306314E-1,1.0134008E-1,-3.20552E-1,-9.2336667E-1,4.3582273E-1,-1.0650123E-2,4.5031428E-1,4.613443E-1,9.762097E-1,1.5862563E0,8.535046E-1,4.2578977E-1,7.966313E-1,1.0464886E0,1.4751438E0,9.9607223E-1,2.0033394E-1,-9.8623544E-1,-1.3780783E-1,-7.347526E-1,-2.3595521E-1,-1.5498711E-1,-1.3224502E0,1.1746175E0,-8.872374E-2,4.986928E-1,5.2045193E-2,-2.6500353E-1,1.2025343E0],"categories":[],"categories_nodes":[],"categories_segments":[],"categories_sizes":[],"default_left":[1,1,1,1,1,1,1,1,1,1,1,1,1,1,1,1,1,1,1,1,1,0,1,1,1,1,1,0,1,1,1,1,1,1,1,1,0,1,1,1,1,1,1,1,1,1,1,1,1,1,1,1,1,1,1,1,1,1,1,0,0,0,0,0,0,0,0,0,0,0,0,0,0,0,0,0,0,0,0,0,0,0,0,0,0,0,0,0,0,0,0,0,0,0,0,0,0,0,0,0,0,0,0,0,0,0,0,0,0,0,0,0,0],"id":11,"left_children":[1,3,5,7,9,11,13,15,17,19,21,23,25,27,29,31,33,35,37,39,41,-1,43,45,47,49,51,-1,53,55,57,59,61,63,65,67,-1,69,71,73,75,77,79,81,83,85,87,89,91,93,95,97,99,101,103,105,107,109,111,-1,-1,-1,-1,-1,-1,-1,-1,-1,-1,-1,-1,-1,-1,-1,-1,-1,-1,-1,-1,-1,-1,-1,-1,-1,-1,-1,-1,-1,-1,-1,-1,-1,-1,-1,-1,-1,-1,-1,-1,-1,-1,-1,-1,-1,-1,-1,-1,-1,-1,-1,-1,-1,-1],"loss_changes":[1.6435411E3,1.1902266E3,1.2661361E3,7.3554956E2,2.0625012E2,9.7088367E2,3.7665027E2,1.1448486E2,2.9918942E2,4.3026123E1,5.4761086E1,4.7313443E2,1.7254907E2,1.1151019E2,9.214302E1,1.16900635E2,1.2344763E2,1.1371735E2,1.5463766E2,5.731607E1,2.2108032E1,0E0,6.2121166E1,1.6531711E2,1.1775476E2,4.6282776E1,3.844629E1,0E0,1.3349231E2,9.2770065E1,5.191934E1,7.216931E1,9.4466415E1,1.6067126E2,5.461786E1,9.602255E1,0E0,1.4797166E2,5.6567497E1,2.7205948E1,3.6857513E1,3.34664E1,4.704483E0,6.2136925E1,4.9912815E1,1.117223E2,9.3570335E1,8.955029E1,1.5492401E1,7.708481E0,2.8836243E1,4.9539917E1,4.219693E1,7.396405E1,6.291362E1,6.7651505E1,4.8504036E1,3.720676E1,8.1283005E1,0E0,0E0,0E0,0E0,0E0,0E0,0E0,0E0,0E0,0E0,0E0,0E0,0E0,0E0,0E0,0E0,0E0,0E0,0E0,0E0,0E0,0E0,0E0,0E0,0E0,0E0,0E0,0E0,0E0,0E0,0E0,0E0,0E0,0E0,0E0,0E0,0E0,0E0,0E0,0E0,0E0,0E0,0E0,0E0,0E0,0E0,0E0,0E0,0E0,0E0,0E0,0E0,0E0,0E0],"parents":[2147483647,0,0,1,1,2,2,3,3,4,4,5,5,6,6,7,7,8,8,9,9,10,10,11,11,12,12,13,13,14,14,15,15,16,16,17,17,18,18,19,19,20,20,22,22,23,23,24,24,25,25,26,26,28,28,29,29,30,30,31,31,32,32,33,33,34,34,35,35,37,37,38,38,39,39,40,40,41,41,42,42,43,43,44,44,45,45,46,46,47,47,48,48,49,49,50,50,51,51,52,52,53,53,54,54,55,55,56,56,57,57,58,58],"right_children":[2,4,6,8,10,12,14,16,18,20,22,24,26,28,30,32,34,36,38,40,42,-1,44,46,48,50,52,-1,54,56,58,60,62,64,66,68,-1,70,72,74,76,78,80,82,84,86,88,90,92,94,96,98,100,102,104,106,108,110,112,-1,-1,-1,-1,-1,-1,-1,-1,-1,-1,-1,-1,-1,-1,-1,-1,-1,-1,-1,-1,-1,-1,-1,-1,-1,-1,-1,-1,-1,-1,-1,-1,-1,-1,-1,-1,-1,-1,-1,-1,-1,-1,-1,-1,-1,-1,-1,-1,-1,-1,-1,-1,-1,-1],"split_conditions":[4.5E0,1.0675E2,5E-1,2.4955176E-1,5E-1,2.674243E-1,4.2261904E-1,2.5E0,6.4850006E1,7.120288E0,8.009618E1,8.745E1,8.095E1,4.875E1,7.36E1,9.88459E1,5E-1,7.4125004E0,5E-1,7.070359E0,2.1529683E-1,-1.0481367E-2,9.242852E1,9.5E0,1.2275E2,5.43E1,2.5227273E0,1.383099E-2,8.005E1,2.4642859E0,1.25E1,5E-1,5E-1,7.354667E1,7.2530746E0,7.083333E0,8.944694E-3,5E-1,9.645E1,6.996299E0,1.305E2,2.5E0,7.3492856E0,2.614817E-1,7.3086863E0,7.285025E0,4.75E1,7.1890154E0,5E-1,7.5E0,7.6649994E1,7.374773E0,7.374417E0,1.05E1,5E-1,6.385E1,7.110734E0,5.5E1,7.3006773E0,-1.0022093E-2,-6.577341E-3,-1.8121501E-2,2.4747464E-4,2.954492E-3,-4.937854E-3,-5.301966E-3,-1.0532862E-2,-1.0663754E-2,7.66477E-3,4.7191326E-4,7.0165866E-3,-1.1836117E-3,-9.730408E-3,1.4178414E-3,8.2913255E-3,-1.2838492E-2,3.259357E-3,3.754173E-3,8.888266E-3,9.539161E-3,1.40046775E-2,-2.426059E-3,9.544281E-3,-1.3880727E-2,1.3306313E-3,1.0134007E-3,-3.2055199E-3,-9.233667E-3,4.3582274E-3,-1.06501226E-4,4.5031426E-3,4.613443E-3,9.762097E-3,1.5862562E-2,8.535046E-3,4.257898E-3,7.966313E-3,1.0464886E-2,1.4751437E-2,9.960722E-3,2.0033394E-3,-9.862354E-3,-1.3780782E-3,-7.3475256E-3,-2.359552E-3,-1.549871E-3,-1.3224501E-2,1.1746175E-2,-8.872374E-4,4.986928E-3,5.204519E-4,-2.6500353E-3,1.2025343E-2],"split_indices":[3,1,2,4,2,4,4,3,1,9,8,1,1,1,1,1,2,9,2,9,4,0,8,3,1,1,4,0,1,4,3,7,3,8,9,4,0,7,1,9,1,3,9,4,9,9,8,9,7,3,1,9,9,3,7,1,9,8,9,0,0,0,0,0,0,0,0,0,0,0,0,0,0,0,0,0,0,0,0,0,0,0,0,0,0,0,0,0,0,0,0,0,0,0,0,0,0,0,0,0,0,0,0,0,0,0,0,0,0,0,0,0,0],"split_type":[0,0,0,0,0,0,0,0,0,0,0,0,0,0,0,0,0,0,0,0,0,0,0,0,0,0,0,0,0,0,0,0,0,0,0,0,0,0,0,0,0,0,0,0,0,0,0,0,0,0,0,0,0,0,0,0,0,0,0,0,0,0,0,0,0,0,0,0,0,0,0,0,0,0,0,0,0,0,0,0,0,0,0,0,0,0,0,0,0,0,0,0,0,0,0,0,0,0,0,0,0,0,0,0,0,0,0,0,0,0,0,0,0],"sum_hessian":[2.4644773E4,1.0066749E4,1.4578024E4,8.608083E3,1.4586655E3,1.0300838E4,4.277186E3,6.064015E3,2.5440679E3,1.1452489E3,3.1341666E2,7.5033867E3,2.7974517E3,2.248922E3,2.0282639E3,2.837671E3,3.2263442E3,4.2686365E2,2.1172043E3,3.131831E2,8.320658E2,5.9245396E1,2.5417126E2,3.532878E3,3.9705085E3,1.1138323E3,1.6836194E3,2.8676092E1,2.220246E3,5.348317E2,1.4934323E3,2.5553606E3,2.8231042E2,2.376983E3,8.493613E2,3.9054846E2,3.631519E1,1.3944576E3,7.2274664E2,2.5916803E2,5.4015076E1,6.7950134E2,1.5256447E2,1.7019464E2,8.397663E1,2.7242559E3,8.086221E2,3.4626436E3,5.0786505E2,8.375239E1,1.0300798E3,1.2626117E3,4.2100778E2,8.4533575E2,1.3749102E3,2.0335384E2,3.3147787E2,1.3260492E3,1.6738303E2,1.4820135E3,1.073347E3,2.9931318E1,2.5237912E2,2.926746E2,2.0843083E3,3.466221E2,5.0273923E2,3.6082788E2,2.9720581E1,7.6020844E2,6.3424915E2,6.356437E2,8.710297E1,9.042343E1,1.687446E2,2.8405561E1,2.5609514E1,1.7843076E2,5.010706E2,7.629295E1,7.627151E1,8.527712E1,8.491752E1,4.5023888E1,3.8952744E1,9.760474E2,1.7482085E3,5.2719143E1,7.5590295E2,4.8893744E2,2.973706E3,7.599568E1,4.3186935E2,4.9586876E1,3.4165512E1,7.2414044E2,3.0593942E2,8.258741E2,4.3673755E2,3.3517834E2,8.582943E1,7.236919E2,1.2164389E2,3.3592673E2,1.0389835E3,8.9248276E1,1.1410555E2,3.228515E1,2.9919275E2,2.2385274E2,1.1021965E3,5.5204315E1,1.1217871E2],"tree_param":{"num_deleted":"0","num_feature":"10","num_nodes":"113","size_leaf_vector":"0"}},{"base_weights":[3.087721E-3,-4.0444538E-1,1.6365264E-1,-5.8181894E-1,2.442569E-1,3.38066E-1,-2.4709779E-1,-7.8467876E-1,-1.160903E-1,3.936563E-1,-2.6563022E-1,1.5521991E-1,8.292447E-1,-4.96885E-1,8.966267E-2,-1.0306357E0,-6.8003416E-1,-8.818494E-1,5.9902474E-2,2.7884694E-2,6.534189E-1,-5.9697086E-1,2.1035017E-1,-1.096435E-1,4.0282232E-1,5.622292E-1,1.021278E0,-6.1218315E-1,-7.46259E-2,-2.0522037E-1,3.1522685E-1,1.9271263E-1,-1.0776361E0,-9.756547E-1,-5.7510024E-1,-1.0739422E0,7.104229E-1,-2.1514355E-1,3.6138272E-1,-2.6849785E-1,8.2380575E-1,1.14704646E-1,9.2514414E-1,-3.155181E-1,-1.8410708E0,-1.0257928E0,5.2772844E-1,-3.7816826E-1,6.050295E-2,2.555471E-1,7.467725E-1,6.2766904E-1,-1.4669184E-1,5.2596056E-1,1.1249001E0,1.386714E0,-6.460444E-1,-8.202941E-1,4.7381394E-2,-6.220993E-1,5.3519614E-2,3.6501747E-1,-1.4141496E0,-1.2360622E0,-7.793246E-1,-1.8782996E-1,-1.0817155E0,-4.7057295E-1,-8.5434055E-1,-5.837681E-1,-1.3752416E0,-5.0963264E-2,-7.991638E-1,-1.12470705E-2,5.387554E-1,2.187307E-1,-6.809325E-1,1.0832809E0,6.075642E-2,1.4416255E0,-8.24779E-2,6.669635E-1,1.0822854E0,3.705359E-1,-8.73847E-1,1.0588875E0,-4.0476587E-1,2.0308588E-2,-7.122482E-1,-5.046993E-1,1.1321189E-1,-5.2836746E-1,3.2814014E-1,9.534039E-1,6.3086945E-1,1.2323248E0,5.771781E-1,5.534295E-1,-5.5002165E-1,1.5172648E0,4.0345252E-1,1.2287834E0,7.059141E-1,-7.3176765E-1,-9.760008E-2,-1.648009E0,-3.7198722E-1,2.8959432E-1,-3.3996493E-1,1.6206007E-1,-7.564742E-1,-3.057983E-1,3.5872182E-1,4.2080876E-1,-9.948674E-1],"categories":[],"categories_nodes":[],"categories_segments":[],"categories_sizes":[],"default_left":[1,1,1,1,1,1,1,1,1,1,1,1,1,1,1,1,1,1,1,1,1,1,1,1,1,1,1,1,1,1,1,0,1,1,1,1,0,1,1,1,1,1,1,1,0,0,1,1,1,1,1,1,1,1,1,0,1,1,1,1,1,1,0,0,0,0,0,0,0,0,0,0,0,0,0,0,0,0,0,0,0,0,0,0,0,0,0,0,0,0,0,0,0,0,0,0,0,0,0,0,0,0,0,0,0,0,0,0,0,0,0,0,0,0,0],"id":12,"left_children":[1,3,5,7,9,11,13,15,17,19,21,23,25,27,29,31,33,35,37,39,41,43,45,47,49,51,53,55,57,59,61,-1,63,65,67,69,-1,71,73,75,77,79,81,83,-1,-1,85,87,89,91,93,95,97,99,101,-1,103,105,107,109,111,113,-1,-1,-1,-1,-1,-1,-1,-1,-1,-1,-1,-1,-1,-1,-1,-1,-1,-1,-1,-1,-1,-1,-1,-1,-1,-1,-1,-1,-1,-1,-1,-1,-1,-1,-1,-1,-1,-1,-1,-1,-1,-1,-1,-1,-1,-1,-1,-1,-1,-1,-1,-1,-1],"loss_changes":[1.6101616E3,8.005508E2,1.2648867E3,5.155553E2,1.1400325E2,1.1124519E3,4.4286597E2,9.617236E1,2.2407742E2,1.0958618E2,5.3776054E1,5.9262146E2,1.7084546E2,1.4678827E2,1.4923384E2,6.571509E1,8.149231E1,9.631404E1,1.1215879E2,1.14367615E2,9.831418E1,6.852023E1,5.5406784E1,1.9959703E2,2.3587793E2,6.575336E1,9.8656006E1,1.6165942E2,5.9560905E1,1.0507855E2,1.0982879E2,0E0,4.926367E1,5.746057E1,5.660901E1,3.907721E1,0E0,6.73366E1,4.2886414E1,7.1207855E1,2.5508842E1,6.0562183E1,1.640741E1,6.4154945E1,0E0,0E0,5.656659E1,2.2583646E2,7.954339E1,1.8643787E2,3.1958313E1,3.764914E1,3.4305546E1,3.9756195E1,6.811243E1,0E0,1.0932202E2,3.2422882E1,5.2677193E1,3.9704773E1,6.601796E1,9.426552E1,0E0,0E0,0E0,0E0,0E0,0E0,0E0,0E0,0E0,0E0,0E0,0E0,0E0,0E0,0E0,0E0,0E0,0E0,0E0,0E0,0E0,0E0,0E0,0E0,0E0,0E0,0E0,0E0,0E0,0E0,0E0,0E0,0E0,0E0,0E0,0E0,0E0,0E0,0E0,0E0,0E0,0E0,0E0,0E0,0E0,0E0,0E0,0E0,0E0,0E0,0E0,0E0,0E0],"parents":[2147483647,0,0,1,1,2,2,3,3,4,4,5,5,6,6,7,7,8,8,9,9,10,10,11,11,12,12,13,13,14,14,15,15,16,16,17,17,18,18,19,19,20,20,21,21,22,22,23,23,24,24,25,25,26,26,27,27,28,28,29,29,30,30,32,32,33,33,34,34,35,35,37,37,38,38,39,39,40,40,41,41,42,42,43,43,46,46,47,47,48,48,49,49,50,50,51,51,52,52,53,53,54,54,56,56,57,57,58,58,59,59,60,60,61,61],"right_children":[2,4,6,8,10,12,14,16,18,20,22,24,26,28,30,32,34,36,38,40,42,44,46,48,50,52,54,56,58,60,62,-1,64,66,68,70,-1,72,74,76,78,80,82,84,-1,-1,86,88,90,92,94,96,98,100,102,-1,104,106,108,110,112,114,-1,-1,-1,-1,-1,-1,-1,-1,-1,-1,-1,-1,-1,-1,-1,-1,-1,-1,-1,-1,-1,-1,-1,-1,-1,-1,-1,-1,-1,-1,-1,-1,-1,-1,-1,-1,-1,-1,-1,-1,-1,-1,-1,-1,-1,-1,-1,-1,-1,-1,-1,-1,-1],"split_conditions":[3.5E0,9.88459E1,5E-1,1.979307E-1,5E-1,1.815534E-1,5.2272725E-1,7.1350006E1,6.595E1,1.06850006E2,1.17E2,8.745E1,8.16E1,1.0305E2,8.145E1,4.5E1,7.1201015E0,5.291667E0,5E-1,2.2738305E-1,7.1821284E0,1.093E2,7.1287556E0,5.5E0,1.11850006E2,7.505E0,7.29461E0,4.82E1,5.5E1,2.3030303E0,1.1291666E1,1.9271263E-3,9.36065E1,6.25E0,5E-1,8.256422E1,7.1042287E-3,5E-1,8.127301E1,1.0145E2,1.0485E2,1.1025E2,7.322812E0,8.412004E1,-1.8410707E-2,-1.0257928E-2,9.812108E1,7.395E0,7.169768E0,7.209878E0,5.5E0,5.515E1,8.033093E1,6.5E1,2.5227273E0,1.386714E-2,1.05E1,1.105E2,7.435E0,5.5E1,8.3936966E1,7.525E0,-1.4141496E-2,-1.2360621E-2,-7.793246E-3,-1.8782995E-3,-1.0817154E-2,-4.7057294E-3,-8.543406E-3,-5.8376812E-3,-1.3752416E-2,-5.0963263E-4,-7.991638E-3,-1.12470705E-4,5.387554E-3,2.187307E-3,-6.809325E-3,1.0832809E-2,6.075642E-4,1.4416254E-2,-8.24779E-4,6.669635E-3,1.0822854E-2,3.705359E-3,-8.73847E-3,1.0588875E-2,-4.0476588E-3,2.0308587E-4,-7.1224817E-3,-5.0469926E-3,1.1321189E-3,-5.2836747E-3,3.2814012E-3,9.534039E-3,6.3086944E-3,1.2323248E-2,5.771781E-3,5.5342945E-3,-5.5002165E-3,1.5172648E-2,4.0345252E-3,1.2287834E-2,7.0591406E-3,-7.317676E-3,-9.760008E-4,-1.6480088E-2,-3.719872E-3,2.8959431E-3,-3.3996492E-3,1.6206006E-3,-7.5647417E-3,-3.0579828E-3,3.5872182E-3,4.2080875E-3,-9.948674E-3],"split_indices":[3,1,2,4,2,4,4,1,1,1,1,1,1,1,1,8,6,4,7,4,6,1,6,3,1,6,6,1,8,4,4,0,8,6,2,8,0,2,8,1,1,1,6,8,0,0,8,6,6,6,3,1,8,8,4,0,3,1,6,8,8,6,0,0,0,0,0,0,0,0,0,0,0,0,0,0,0,0,0,0,0,0,0,0,0,0,0,0,0,0,0,0,0,0,0,0,0,0,0,0,0,0,0,0,0,0,0,0,0,0,0,0,0,0,0],"split_type":[0,0,0,0,0,0,0,0,0,0,0,0,0,0,0,0,0,0,0,0,0,0,0,0,0,0,0,0,0,0,0,0,0,0,0,0,0,0,0,0,0,0,0,0,0,0,0,0,0,0,0,0,0,0,0,0,0,0,0,0,0,0,0,0,0,0,0,0,0,0,0,0,0,0,0,0,0,0,0,0,0,0,0,0,0,0,0,0,0,0,0,0,0,0,0,0,0,0,0,0,0,0,0,0,0,0,0,0,0,0,0,0,0,0,0],"sum_hessian":[2.4605299E4,6.952994E3,1.7652305E4,5.460665E3,1.4923293E3,1.2391746E4,5.260559E3,3.8025032E3,1.6581617E3,1.1550271E3,3.3730215E2,9.032206E3,3.3595396E3,3.0205698E3,2.2399895E3,1.1298367E3,2.6726665E3,3.0917453E2,1.3489872E3,4.809718E2,6.7405536E2,1.991373E2,1.3816486E2,4.363614E3,4.6685923E3,1.4087285E3,1.9508109E3,2.3714277E3,6.491421E2,9.7011163E2,1.2698778E3,4.131484E1,1.0885217E3,6.959036E2,1.976763E3,2.7655075E2,3.2623764E1,7.0495056E2,6.440367E2,3.5082437E2,1.3014743E2,2.2720694E2,4.468484E2,1.641937E2,3.4943607E1,2.7285048E1,1.10879814E2,1.6927059E3,2.670908E3,3.2715378E3,1.3970544E3,1.2903534E3,1.18375114E2,3.39753E2,1.611058E3,3.830763E1,2.33312E3,9.053228E1,5.586098E2,3.7130643E2,5.9880524E2,1.235715E3,3.416287E1,7.069967E2,3.8152505E2,8.351061E1,6.1239307E2,1.4423224E3,5.344405E2,1.0746054E2,1.6909023E2,5.520684E2,1.5288214E2,2.0742398E2,4.366127E2,1.6070757E2,1.901168E2,9.626035E1,3.3887085E1,2.8432835E1,1.9877411E2,1.7300919E2,2.738392E2,7.357523E1,9.0618454E1,7.078534E1,4.009447E1,7.720491E2,9.2065686E2,2.260887E2,2.444819E3,2.7601294E2,2.995525E3,4.9689792E2,9.0015656E2,9.612873E1,1.1942246E3,4.2701538E1,7.567358E1,3.5131893E1,3.046211E2,1.2878861E3,3.231719E2,2.0166775E3,3.164426E2,3.0083101E1,6.044918E1,3.4456183E2,2.1404799E2,5.3838757E1,3.1746765E2,2.7441724E2,3.2438797E2,1.1882935E3,4.7421528E1],"tree_param":{"num_deleted":"0","num_feature":"10","num_nodes":"115","size_leaf_vector":"0"}},{"base_weights":[8.357878E-3,3.6726454E-1,-7.093181E-1,5.825084E-2,7.271957E-1,-1.0100149E0,-3.0068734E-1,6.0653913E-1,-2.5533116E-1,1.3626462E-1,9.8055E-1,-1.156291E0,-2.7294122E-2,2.0501396E-2,-7.332492E-1,1.8977992E-1,7.745269E-1,-7.554939E-1,-8.019672E-3,7.913599E-1,-4.5988432E-1,1.4221945E0,8.5329366E-1,-8.6040163E-1,-1.3688637E0,-3.405095E-1,4.9545598E-1,-5.788061E-1,2.8455326E-1,-8.9728075E-1,2.8492093E-2,9.6075034E-1,-1.1701795E-1,9.864317E-1,5.364241E-1,-1.005437E0,-4.7505295E-1,-4.1787365E-1,2.8376886E-1,5.0274366E-1,1.0812279E0,-7.0017123E-1,3.790852E-1,9.440096E-1,1.4571979E0,7.2114426E-1,1.2549582E0,-1.0346882E0,-5.3444237E-1,-1.6953715E0,-1.2549498E0,-6.245564E-1,5.6143916E-1,7.004321E-1,-6.4862263E-1,-7.9209673E-1,2.6343944E-2,7.06647E-2,7.096742E-1,-1.5525573E0,-7.5377756E-1,-4.6730247E-1,5.987541E-1,9.985067E-2,1.133002E0,-3.744486E-2,-1.4621898E0,8.6125255E-1,1.2433664E0,2.697126E-1,9.1237104E-1,-4.5308247E-1,-1.2169932E0,-6.920344E-1,1.5526865E-1,-5.6578046E-1,4.4866487E-1,6.8423015E-1,-3.8171809E-3,-4.0704995E-1,6.3833916E-1,8.745198E-1,1.3882273E0,-9.6461636E-1,-8.291767E-2,1.0985314E0,1.5796456E-1,2.3649389E-2,1.4161805E0,6.816784E-1,1.4816089E0,3.1155097E-1,8.495338E-1,1.5522328E-1,1.3110708E0,-1.1505849E0,-5.485007E-1,-7.6004344E-1,1.6922629E-1,-1.7445431E0,-5.075125E-1,-1.2772664E0,2.643615E-1,-4.4358543E-1,-1.5214046E0,-2.6609394E-1,1.298066E0,9.9647266E-1,-1.0637309E-1,-5.901261E-1,-1.2748976E0,-3.0617493E-1,1.1138597E0,1.6179918E-1,-8.542656E-1,9.06394E-1,-2.965389E-1,-1.7881635E0,-1.4137164E-1,-8.356023E-1,3.1706113E-1,-1.3564358E0,1.2836085E-2,1.1657057E0,-8.984641E-1],"categories":[],"categories_nodes":[],"categories_segments":[],"categories_sizes":[],"default_left":[1,1,1,1,1,1,1,1,1,1,1,1,1,1,1,1,1,1,1,1,1,1,1,1,1,1,1,1,1,1,1,1,1,1,1,1,1,1,1,1,1,1,1,1,1,1,1,1,1,1,1,1,1,1,0,1,1,1,1,1,1,1,1,0,0,0,0,0,0,0,0,0,0,0,0,0,0,0,0,0,0,0,0,0,0,0,0,0,0,0,0,0,0,0,0,0,0,0,0,0,0,0,0,0,0,0,0,0,0,0,0,0,0,0,0,0,0,0,0,0,0,0,0,0,0],"id":13,"left_children":[1,3,5,7,9,11,13,15,17,19,21,23,25,27,29,31,33,35,37,39,41,43,45,47,49,51,53,55,57,59,61,63,65,67,69,71,73,75,77,79,81,83,85,87,89,91,93,95,97,99,101,103,105,107,-1,109,111,113,115,117,119,121,123,-1,-1,-1,-1,-1,-1,-1,-1,-1,-1,-1,-1,-1,-1,-1,-1,-1,-1,-1,-1,-1,-1,-1,-1,-1,-1,-1,-1,-1,-1,-1,-1,-1,-1,-1,-1,-1,-1,-1,-1,-1,-1,-1,-1,-1,-1,-1,-1,-1,-1,-1,-1,-1,-1,-1,-1,-1,-1,-1,-1,-1,-1],"loss_changes":[6.3333276E3,1.8227573E3,1.00619727E3,1.5171456E3,1.1328816E3,6.7809424E2,4.834488E2,2.2417273E2,6.9395636E2,8.8883386E2,2.950581E2,2.5577783E2,1.0064759E2,3.1608563E2,1.8561133E2,2.1930655E2,1.1399365E2,1.2882068E2,4.4962106E2,8.927301E1,2.4068495E2,1.6764893E1,2.1642236E2,9.6404175E1,8.443652E1,9.919366E1,5.4641468E1,7.915871E1,1.2576816E2,1.120647E2,7.502284E1,3.8464554E1,7.025095E1,3.6387085E1,1.07565216E2,1.1296594E2,1.2052214E2,2.00866E2,2.5310762E2,6.794635E1,3.1480652E1,1.5076935E2,4.1527332E1,3.6606903E1,1.8407715E1,1.6229993E2,6.1842163E1,6.1485107E1,9.632248E1,3.354065E1,6.115625E1,4.5896286E1,5.741918E1,4.7348038E1,0E0,4.220697E1,5.8732716E1,7.792775E1,9.241348E1,7.10979E1,8.86134E1,6.0977707E1,1.0664892E2,0E0,0E0,0E0,0E0,0E0,0E0,0E0,0E0,0E0,0E0,0E0,0E0,0E0,0E0,0E0,0E0,0E0,0E0,0E0,0E0,0E0,0E0,0E0,0E0,0E0,0E0,0E0,0E0,0E0,0E0,0E0,0E0,0E0,0E0,0E0,0E0,0E0,0E0,0E0,0E0,0E0,0E0,0E0,0E0,0E0,0E0,0E0,0E0,0E0,0E0,0E0,0E0,0E0,0E0,0E0,0E0,0E0,0E0,0E0,0E0,0E0,0E0],"parents":[2147483647,0,0,1,1,2,2,3,3,4,4,5,5,6,6,7,7,8,8,9,9,10,10,11,11,12,12,13,13,14,14,15,15,16,16,17,17,18,18,19,19,20,20,21,21,22,22,23,23,24,24,25,25,26,26,27,27,28,28,29,29,30,30,31,31,32,32,33,33,34,34,35,35,36,36,37,37,38,38,39,39,40,40,41,41,42,42,43,43,44,44,45,45,46,46,47,47,48,48,49,49,50,50,51,51,52,52,53,53,55,55,56,56,57,57,58,58,59,59,60,60,61,61,62,62],"right_children":[2,4,6,8,10,12,14,16,18,20,22,24,26,28,30,32,34,36,38,40,42,44,46,48,50,52,54,56,58,60,62,64,66,68,70,72,74,76,78,80,82,84,86,88,90,92,94,96,98,100,102,104,106,108,-1,110,112,114,116,118,120,122,124,-1,-1,-1,-1,-1,-1,-1,-1,-1,-1,-1,-1,-1,-1,-1,-1,-1,-1,-1,-1,-1,-1,-1,-1,-1,-1,-1,-1,-1,-1,-1,-1,-1,-1,-1,-1,-1,-1,-1,-1,-1,-1,-1,-1,-1,-1,-1,-1,-1,-1,-1,-1,-1,-1,-1,-1,-1,-1,-1,-1,-1,-1],"split_conditions":[1.4520154E2,8.535913E1,9.4350006E1,6.853787E1,7.2999067E0,8.166666E-2,2.0106436E2,6.31E1,7.187523E0,7.910379E1,7.015538E1,1.7815741E2,1.4642859E-1,7.3779917E0,3.2576752E-1,3.4998642E1,4.960285E1,5E-1,7.205E1,9.7649994E1,1.10649994E2,6.9483333E0,1.1065E2,7.4497128E0,5E-1,8.915E1,7.505E0,1.1775E2,4.2729743E-2,5E-1,7.3526115E0,7.170553E0,7.505E0,6.1926186E-1,7.3429008E0,8.287959E1,7.083334E-1,